%YAML:1.0
my_nn: !!opencv-ml-ann-mlp
   layer_sizes: !!opencv-matrix
      rows: 1
      cols: 4
      dt: i
      data: [ 14, 100, 100, 32 ]
   activation_function: SIGMOID_SYM
   f_param1: 6.6666666666666663e-001
   f_param2: 1.7159000000000000e+000
   min_val: -9.4999999999999996e-001
   max_val: 9.4999999999999996e-001
   min_val1: -9.7999999999999998e-001
   max_val1: 9.7999999999999998e-001
   training_params:
      train_method: BACKPROP
      dw_scale: 1.0000000000000000e-003
      moment_scale: 0.
      term_criteria: { epsilon:1.1920928955078125e-007, iterations:1000 }
   input_scale: [ 1.9297165376585157e-001, -6.9516061645056693e-001,
       1.2115262226044845e+001, -8.0839935445494095e+000,
       8.9914611522202872e+000, -8.2741614058833068e+000,
       4.5152724622134555e+000, -5.4759778494078137e+000,
       4.9609752456176794e+000, -3.1058328673230764e+000,
       1.5220320595532577e-001, -5.8717769775378126e-001,
       5.3452692180884007e+000, -2.4258816716508376e+000,
       1.7423436012824145e+000, -6.4260956295274618e-001,
       5.1711333563038631e-001, -2.2613875070276110e-001,
       1.4374932015901257e+001, -1.6628962739245587e-001,
       1.7299937160723363e+001, -1.5253155162516216e-001,
       2.4843775716589938e+001, -9.0572975107343023e-002,
       5.6237005235846231e+000, -1.4032296569630251e-001,
       5.7292218442989451e+002, -1.5821932395831444e-002 ]
   output_scale: [ 5.2631578947368418e-001, 4.9999999999999994e-001,
       5.2631578947368418e-001, 4.9999999999999994e-001,
       5.2631578947368418e-001, 4.9999999999999994e-001,
       5.2631578947368418e-001, 4.9999999999999994e-001,
       5.2631578947368418e-001, 4.9999999999999994e-001,
       5.2631578947368418e-001, 4.9999999999999994e-001,
       5.2631578947368418e-001, 4.9999999999999994e-001,
       5.2631578947368418e-001, 4.9999999999999994e-001,
       5.2631578947368418e-001, 4.9999999999999994e-001,
       5.2631578947368418e-001, 4.9999999999999994e-001,
       5.2631578947368418e-001, 4.9999999999999994e-001,
       5.2631578947368418e-001, 4.9999999999999994e-001,
       5.2631578947368418e-001, 4.9999999999999994e-001,
       5.2631578947368418e-001, 4.9999999999999994e-001,
       5.2631578947368418e-001, 4.9999999999999994e-001,
       5.2631578947368418e-001, 4.9999999999999994e-001,
       5.2631578947368418e-001, 4.9999999999999994e-001,
       5.2631578947368418e-001, 4.9999999999999994e-001,
       5.2631578947368418e-001, 4.9999999999999994e-001,
       5.2631578947368418e-001, 4.9999999999999994e-001,
       5.2631578947368418e-001, 4.9999999999999994e-001,
       5.2631578947368418e-001, 4.9999999999999994e-001,
       5.2631578947368418e-001, 4.9999999999999994e-001,
       5.2631578947368418e-001, 4.9999999999999994e-001,
       5.2631578947368418e-001, 4.9999999999999994e-001,
       5.2631578947368418e-001, 4.9999999999999994e-001,
       5.2631578947368418e-001, 4.9999999999999994e-001,
       5.2631578947368418e-001, 4.9999999999999994e-001,
       5.2631578947368418e-001, 4.9999999999999994e-001,
       5.2631578947368418e-001, 4.9999999999999994e-001,
       5.2631578947368418e-001, 4.9999999999999994e-001,
       5.2631578947368418e-001, 4.9999999999999994e-001 ]
   inv_output_scale: [ 1.8999999999999999e+000, -9.4999999999999996e-001,
       1.8999999999999999e+000, -9.4999999999999996e-001,
       1.8999999999999999e+000, -9.4999999999999996e-001,
       1.8999999999999999e+000, -9.4999999999999996e-001,
       1.8999999999999999e+000, -9.4999999999999996e-001,
       1.8999999999999999e+000, -9.4999999999999996e-001,
       1.8999999999999999e+000, -9.4999999999999996e-001,
       1.8999999999999999e+000, -9.4999999999999996e-001,
       1.8999999999999999e+000, -9.4999999999999996e-001,
       1.8999999999999999e+000, -9.4999999999999996e-001,
       1.8999999999999999e+000, -9.4999999999999996e-001,
       1.8999999999999999e+000, -9.4999999999999996e-001,
       1.8999999999999999e+000, -9.4999999999999996e-001,
       1.8999999999999999e+000, -9.4999999999999996e-001,
       1.8999999999999999e+000, -9.4999999999999996e-001,
       1.8999999999999999e+000, -9.4999999999999996e-001,
       1.8999999999999999e+000, -9.4999999999999996e-001,
       1.8999999999999999e+000, -9.4999999999999996e-001,
       1.8999999999999999e+000, -9.4999999999999996e-001,
       1.8999999999999999e+000, -9.4999999999999996e-001,
       1.8999999999999999e+000, -9.4999999999999996e-001,
       1.8999999999999999e+000, -9.4999999999999996e-001,
       1.8999999999999999e+000, -9.4999999999999996e-001,
       1.8999999999999999e+000, -9.4999999999999996e-001,
       1.8999999999999999e+000, -9.4999999999999996e-001,
       1.8999999999999999e+000, -9.4999999999999996e-001,
       1.8999999999999999e+000, -9.4999999999999996e-001,
       1.8999999999999999e+000, -9.4999999999999996e-001,
       1.8999999999999999e+000, -9.4999999999999996e-001,
       1.8999999999999999e+000, -9.4999999999999996e-001,
       1.8999999999999999e+000, -9.4999999999999996e-001,
       1.8999999999999999e+000, -9.4999999999999996e-001 ]
   weights:
      - [ 1.3853850287638039e+000, -6.7810045529565965e-001,
          -2.1689838799395685e-003, -6.8281546653466296e-001,
          -4.0723014912654276e-001, -2.9140229844752713e-001,
          7.0731609616316149e-001, -6.9968410735808229e-001,
          -1.9876476875445601e-001, -3.6135966101805111e-001,
          7.9112947633976513e-002, -7.4224917353744102e-001,
          2.2251168653349468e-001, 2.1486213237664079e-001,
          -4.9786200981951689e-001, -6.6900404315669959e-002,
          -5.5100154971527748e-001, -4.8860005399958578e-001,
          -3.2626702735697233e-001, -3.6782636359707038e-001,
          2.8994624708176137e-001, -3.5397347906440252e-001,
          5.6025025780427440e-001, -2.0351389861509911e-001,
          2.0240968717828239e-002, 6.5709348308252979e-001,
          4.2715951099563876e-001, -5.4879172151900146e-001,
          -7.2323835274352589e-003, -2.3367224170009362e-001,
          -3.3392830763399384e-001, 9.0129907213336868e-001,
          -1.0634965011116950e+000, 3.1257120730820409e-001,
          1.4164775061867450e+000, -5.4024796349363402e-001,
          8.2036099121184258e-001, 7.5917812140072769e-003,
          -2.6063856085636411e-001, -2.4077202043628816e+000,
          -1.6142596118125191e-001, 1.9004751545307057e-002,
          -2.5555746028898280e-001, 6.0271267630234537e-001,
          2.3308071252248044e-001, -1.5724380421446928e+000,
          -4.2925329782835231e-001, -1.3436050803151040e-001,
          -1.3893752395470457e-001, -7.8391892564654564e-002,
          1.0803013603475475e+000, 2.0079775156680119e-001,
          -2.1962530469944067e-001, 3.7134185961815869e-001,
          3.9126508714597538e-002, -6.1920169086328491e-001,
          3.6406821367976405e-001, 2.4447357076157036e-001,
          2.4209363861541336e-001, -6.5619313679916280e-001,
          3.0269252141124042e-001, 2.7415271028930871e-001,
          -3.0284961285532475e-001, -3.9993661915227036e-001,
          -6.0309458828551454e-001, 6.5798460909991613e-002,
          -7.3352287525259008e-001, -7.0202816352019060e-001,
          -3.4443723876334702e-002, 4.0590933974236448e-001,
          -1.2309880513764972e+000, -4.7226995157236473e-001,
          4.2733354203571450e-001, -8.0100493484169929e-004,
          2.2028561357167201e-001, 2.4221839092130740e-001,
          2.8948194883202427e-001, 3.8767289108849351e-001,
          6.6919251819458669e-001, -2.9547458868790977e-001,
          -2.6035801941754777e-001, 2.1008454237779403e-001,
          3.4683377019916445e-001, -2.9751507111584546e-001,
          -5.9312207572840492e-001, 4.9563913752678557e-001,
          -5.6998693974451309e-001, -1.9223404126462919e-002,
          -1.7178634845063515e-001, 5.0567953409926947e-001,
          2.4175857033306278e-001, 7.1822006420719106e-002,
          9.4504604400075909e-001, -5.6468807897824091e-001,
          -3.2089166811628600e-001, 1.5498384266619143e+000,
          5.1800363119566824e-002, 2.1639626316799127e-001,
          -8.7691861208988930e-001, 3.2445366844810175e-001,
          -5.7511458389165848e-001, -8.5165204254783522e-001,
          4.8574531637599999e-001, 2.5052880062935201e-001,
          5.6363507593760942e-001, 5.3812841315637572e-002,
          5.5091670223962913e-002, 1.6401384017438760e-002,
          -2.6417114678344129e+000, -9.3020470532613464e-001,
          -2.4124530141007933e-001, -3.4169074349781103e-001,
          3.4808671083038883e-001, 4.5820845256097842e-001,
          3.7782782547066807e-001, 2.5969101164796993e-001,
          1.7850845366126006e-001, -5.0707403704935472e-001,
          -3.8071096961171735e-001, -6.2747712468711719e-002,
          -7.6094307944334180e-002, 3.9405484710081828e-001,
          -6.4756227101876040e-001, 2.3330739280170952e-002,
          -5.2284470439396873e-005, 5.1220861981442545e-001,
          -3.0574361465037403e-001, 1.6407621650402701e-001,
          -8.3033560781166271e-001, -7.1239692463936211e-001,
          7.0001414077285398e-002, -9.5484858568745523e-001,
          6.2808468827942565e-001, 4.1751515080614565e-001,
          9.8820267300945974e-001, 3.3774297541690168e-001,
          -5.1116892892966048e-001, 4.8986002969843007e-001,
          7.1241829724223542e-003, -1.7722249470967005e-001,
          -7.2674738574362407e-002, 3.6071084922528979e-001,
          4.6681626562604545e-001, -2.7205539832859832e-001,
          -3.0717475945031447e-001, -2.1530133537808842e+000,
          -4.1062244804333481e-001, -3.1822318329204324e-001,
          -5.5249894543778366e-001, 1.3006288667623922e-001,
          3.0555309105439921e-001, -2.9884026931736524e-001,
          2.8091345496858255e-001, -4.9334107144044084e-002,
          -1.9414123101578435e-002, 7.1599576318949448e-002,
          -1.2125776730810787e-001, 1.3408621264220200e-001,
          -1.7670580431798369e-001, -1.5822892501461185e+000,
          -4.4008890697959963e-001, -9.3492129884905251e-001,
          -1.6169516981799101e-001, -1.8247606027476335e-001,
          8.2018020980510115e-002, -4.0655666790394301e-001,
          9.7654393179362842e-001, 7.5255452317810267e-001,
          1.8329610087948442e-001, 2.3893954439539646e-002,
          -4.6898032341628770e-001, 4.0733467825037212e-001,
          -1.0464981244713920e+000, -1.4480401588002270e-001,
          -3.6734093491450237e-001, -3.0041982230484410e-001,
          -2.1980794221538849e-001, -2.6662088190463679e-001,
          5.9917450505374148e-001, 7.6465551190427195e-001,
          -2.1477902355459078e-001, -3.3920788828233556e-001,
          -2.0412393233679915e-001, 5.8835487941096620e-001,
          -3.6206670981765710e-001, 5.0897289030105021e-002,
          6.4369243324599340e-002, -2.5027109445351403e-001,
          -2.1150152653333254e-001, -6.4118953752615337e-002,
          2.2712988562074449e-001, -5.5484180658483118e-001,
          4.9125844713261629e-001, 8.1099349996132997e-002,
          -1.0063023013842944e+000, 9.4743607315989564e-001,
          -1.6083861923734472e-001, 1.5777067103321247e+000,
          -2.7868050237689568e+000, 1.2939253411943501e-002,
          -1.3318777518198586e+000, -9.0081981835619962e-001,
          -2.3667148706097196e-001, 7.7136011736441401e-001,
          1.4257345869369298e-001, -5.1774557882831063e-001,
          -1.6836938425637284e+000, 4.9864870810972503e-002,
          -5.6264563034081583e-001, 7.0478153229488838e-001,
          -3.8459026374001043e-001, 1.8524976244150706e+000,
          -1.6881743774653449e-001, 2.6051580236761945e-001,
          1.1569704322961526e-001, -5.4380195428975181e-002,
          -6.1928236166946604e-001, 3.0010008475741290e-001,
          -4.6233521723804860e-001, 1.3193508352748992e-001,
          2.0840115956007393e-001, 4.2457125471245255e-001,
          -1.2203310848662190e+000, -7.4741979854881513e-001,
          4.1045026582389116e-001, -8.5193991259242832e-002,
          -6.2518187149020099e-001, 7.5076899041921483e-002,
          -6.2597207505718155e-001, -9.1156977942860873e-001,
          4.2470548155754817e-001, -4.4902715993971670e-001,
          -2.2274145143761523e+000, 4.9683361991569380e-001,
          8.2051049775406049e-001, -6.3507145059151060e-002,
          -3.4327941617548757e-001, 2.6767432260473983e-001,
          -7.7533257910746819e-002, 6.3490885712115352e-001,
          -2.0448020522033977e-001, 4.7576293330546465e-001,
          -2.3155917228242759e-001, -5.4978714678506713e-001,
          -1.5673009030279423e+000, 1.0322413092611543e-001,
          2.2953086877083675e-001, 4.0303051739529683e-001,
          -9.9772254147347209e-002, -2.4179107205055539e-001,
          -8.5045276713671525e-001, -5.4474519727486836e-001,
          -9.1418571200182611e-002, 4.3796506861885331e-001,
          4.9777642629712654e-003, -1.2106615099688700e-001,
          4.6662169955013000e-001, -5.8070584445857865e-001,
          -1.2057875560385074e+000, 3.1026686735970793e-001,
          1.7057368460118444e-001, -4.3325160618537556e-001,
          6.3118228657745912e-002, -6.4420076728193970e-002,
          -4.3376914319985266e-001, -2.3678449216953601e-001,
          1.6007314620644808e+000, 1.0220540910153082e+000,
          -6.8097758224902671e-001, -1.1188732024198283e-001,
          -1.1187871628939634e+000, 4.8557273811826007e-001,
          2.2500713718489704e+000, -2.5853856222106181e-001,
          -1.0916254725001331e-001, -5.5526602688053306e-001,
          1.0818155846002495e-002, -5.1371798793857962e-002,
          1.7258908848766694e-001, 1.7494172638678959e-001,
          4.9701744659038849e-001, -2.8035526622241319e-001,
          8.5045827643699959e-002, -3.9902394424122423e-001,
          5.9011758150293681e-001, 2.3611235908803538e-001,
          3.7427187627941111e-001, 4.6529809862436478e-001,
          4.3882781538275134e-001, -4.4607788246766372e-001,
          -1.7429753459928025e-002, -7.5765981877303268e-001,
          2.4205999769708315e+000, 1.8731364771112993e-001,
          -5.2728367358661932e-001, 5.1630656934043264e+000,
          6.8811223171092628e-001, -2.0661827146228678e-001,
          -1.4442981692780872e+000, -9.7460797701285934e-002,
          3.5869984211437006e-001, 2.6297087959200156e+000,
          3.3242107845943653e-001, -2.8805876283342458e-001,
          -3.1109441814316247e-001, 3.8734243991809539e-002,
          -1.7059033788457464e-001, 2.8073284719140873e-001,
          -3.9664904812839680e-001, -3.4223884278916294e-001,
          6.7931580295426702e-002, 6.0737062000193109e-001,
          -3.3297101998784212e-001, -2.4138481850047758e-001,
          -8.7833391986338516e-001, -9.3135322455756300e-002,
          1.5525895302278556e-001, -8.4613010215612433e-002,
          5.5418076281833661e-001, -2.7955707825645559e-001,
          2.2743650818196384e-001, 4.2539255160342082e-001,
          -6.0769765790235475e-001, 2.3633254677715598e-001,
          3.5402286589904769e-001, -2.0926293278729743e-001,
          4.9224946348754357e-002, -1.0615911442417895e-001,
          -4.1808664835082782e-001, 8.9709233566299465e-003,
          -7.3261190004008725e-001, 7.4788062704122360e-001,
          3.9018544078501249e-001, -5.6243019579785836e-002,
          -5.7090389348434800e-001, -3.1319943136721579e-001,
          -1.4598967083964773e+000, -1.8239137437946182e-001,
          -1.0288604132365313e-001, 4.7891526994090794e-001,
          4.8471497876125225e-001, -3.0290388245116190e-001,
          -3.8521895014780128e-001, 1.1371596928177932e-002,
          -8.3441454843391683e-001, -1.6050913409468712e-001,
          9.1183921955770286e-001, -2.6430240717611869e-001,
          4.1849554768127869e-003, 9.3962712261672643e-001,
          9.1630989457627252e-002, -1.7396012085287069e-001,
          7.5996743518480472e-002, -4.4545020692683640e-001,
          3.2196602582762102e-001, -1.5514642526206196e-001,
          9.2028013702004174e-001, 4.1779066519959113e-001,
          -1.2498609220888524e-001, 4.2758768453048282e-002,
          2.6908960320893105e-001, -3.1772855313909909e-001,
          -5.4761302964051739e-001, -2.7604027086503516e-002,
          5.8682012261766292e-001, 5.7851961263826301e-001,
          -7.0657645137073832e-001, -4.8996133757965693e-001,
          7.3639531110411560e-001, -3.4126782455775928e-001,
          -4.8727907271825943e-001, 2.9761323877627721e-001,
          -1.4969989796007284e+000, 2.3592320231154867e-001,
          -2.6485820365007027e-003, 1.7194406905070972e-001,
          3.7372443294284985e-001, 4.0579525028074043e-001,
          -2.0179498668492837e-001, -2.4166305037850913e-001,
          2.3949559910231289e-004, -6.2077756950399320e-002,
          4.7919024279806793e-001, 4.2440053046183548e-002,
          -5.4047042409567647e-001, -1.0819145524699673e-001,
          2.7844895418857635e-001, 2.8867104643735059e-001,
          8.1804862071018658e-001, 5.3620955740358023e-001,
          -5.3445352147671843e-001, -1.0316006624622829e+000,
          -2.2148329031741616e+000, 1.5853027927028840e-001,
          5.7635614953425696e-001, -2.6109012761008865e-001,
          -1.5470645539021988e-001, -5.7371824289525408e-001,
          1.7395204734948375e-001, -4.8509154879907584e-001,
          -1.4069426162755450e+000, 2.3421994222524631e+000,
          -5.8091935404721640e-001, -4.0575742536078895e-002,
          1.1501041684883107e-001, 5.6585526599605396e-001,
          -7.0153575072105745e-001, -3.1974770286310333e-001,
          -1.4528826957069219e+000, -8.3632177223884019e-001,
          -6.7644641739706335e-001, 1.9218309479692230e+000,
          6.0633852062537785e-001, 6.2095480580116513e-001,
          8.7547083009974558e-001, 2.8729144774623511e-001,
          -6.5335378434533053e-001, 3.1671416922236995e-001,
          -9.3444434899232198e-001, -5.5935497869823922e-002,
          -6.5012645708912520e-001, -2.9294142047720440e-001,
          -4.0689428992574544e-001, -4.2772796393212004e-001,
          -6.1725134510699435e-002, 8.1405711054087809e-002,
          -4.2754924809176670e-001, 1.0244509629882051e-001,
          -4.6640609655632753e-001, -7.2221997077038058e-001,
          -9.9397937593108154e-001, -1.1285236326618473e+000,
          2.0221043578004072e+000, -6.3246963386612609e-001,
          -1.0043043351721128e+000, -1.1191648759521776e-001,
          -8.5732786306237332e-002, 9.8575338870074747e-001,
          -1.5233255726596415e+000, 8.7342158537998404e-001,
          -9.4855869495351697e-001, -2.9145086848252016e-001,
          3.6952086016017321e-002, 1.1161695494474930e-001,
          -6.1663117926980160e-001, 1.5229213494226863e+000,
          9.6181046412025784e-001, 6.9556631628863996e-001,
          1.8352776248006217e-002, -4.2405042764444090e-001,
          -8.8368893831495487e-001, 5.3794767102024621e-001,
          -8.7664059732585550e-003, -9.7071225221623103e-001,
          5.5348009960236155e-001, 8.5465546822414629e-001,
          9.6127855680822849e-001, 6.0468817694085031e-001,
          6.8552532191744776e-003, 7.2939444174776458e-001,
          -6.6723245771973139e-001, -1.2902211408408031e+000,
          -1.7482722712806115e-001, -5.9456932115213557e-001,
          3.8016407743399588e-001, -4.1920204817809065e-001,
          8.0303879654130506e-001, 9.8956508192170400e-001,
          1.2317880104968502e-001, -2.8590065716008900e-001,
          4.5704696462719507e-001, 7.5064823669587688e-001,
          3.3546617094219261e-001, 3.2009835599548392e-001,
          -6.2757996328325058e-002, -6.2930745417796874e-001,
          5.6127445288792477e-001, -8.2450378786839806e-001,
          -2.0191444450611629e-001, -8.4267132173171833e-001,
          -4.3100081039731031e-001, -1.1478740408042307e+000,
          -8.4838784236830234e-001, 3.0642501880021986e-003,
          1.7206366415155852e-001, -7.1274911811016362e-001,
          3.9559189034022207e-001, -7.5203128635024097e-001,
          1.1302093759881473e+000, -4.0903242096939135e-001,
          3.9885013709969708e-001, -2.5219105564476725e+000,
          -2.5630627399582062e+000, -7.7116050352671786e-002,
          1.1003822318444405e+000, -8.2152883619314643e-001,
          3.1006279270292308e-001, -1.9707686667286693e-002,
          2.2480009714411436e-001, 6.3740246888773655e-001,
          1.3526815661663707e+000, -8.4340708592703734e-002,
          3.2050844407962542e-001, -7.0166465989844287e-002,
          -4.8550634098999884e-001, -9.9266804865368180e-002,
          1.0964991621397289e+000, -3.7911345541004121e-001,
          5.1010765453022011e-001, -3.3299409394889479e-001,
          1.0796491859787278e+000, -1.1031418260413508e+000,
          -1.9482243057662215e-002, -3.5287313526202768e-001,
          -1.9164284577788135e+000, -4.0531304443866195e-001,
          1.4598130266004100e-001, -8.8347364669297168e-001,
          5.5321315920929870e-001, 3.4281449575255273e-002,
          2.2219003322227476e-001, -8.0530230445930928e-001,
          6.7882819115778092e-001, -1.8477910659640492e-001,
          -2.6032032586743542e-001, 1.1948124680020540e+000,
          -7.7173545070364680e-001, -3.2745940171267024e-001,
          8.1596658306728076e-001, -5.7570467885266985e-001,
          6.6438121297463659e-001, -4.0162849890644281e-001,
          -5.2555392531890655e-001, 2.1906980856065586e-001,
          9.7990869190507437e-002, -3.0502121176405366e-002,
          1.6760205568418235e-001, -6.3338190042011988e-001,
          -9.5990757052117182e-002, -1.6514518461713017e+000,
          6.9148736559809287e-001, 1.2702165455417030e-001,
          -2.3134338241214848e-002, -2.4726810823332918e-001,
          4.4583127086112601e-001, -1.2681928900022545e+000,
          2.8481676419167906e-001, 4.5464006599466650e-001,
          6.2035192303808406e-001, -3.6283688831661287e-001,
          -4.1761126462022152e-001, 3.6265639069074422e-002,
          -1.0483643109785067e-001, 2.1448717212404148e-001,
          -1.7392631054196606e-001, 2.9558189256644125e-002,
          -4.7524804392095776e-001, -5.0759735005948858e-001,
          3.5168653353097790e-001, -9.1551556728891292e-001,
          9.2902894362744112e-002, 6.7515362693513215e-001,
          2.2671320220515179e-001, 3.8034808009934173e-001,
          2.5719319735264318e-001, 6.2794302170667682e-001,
          -1.1535712131412885e-001, 2.0966083422780160e-001,
          -1.3277460813530395e+000, -5.5943724885117653e-002,
          -2.1115600527970764e+000, 2.7679548547932159e-001,
          -5.1297450471250672e-001, 3.4796508146812349e-001,
          7.4384982106968855e-001, -3.0757805663315024e-001,
          -2.7828719989014378e-001, 2.2464468028217510e-002,
          1.8361506585896603e+000, 2.1694926247810584e-001,
          -1.7449294990372186e-001, 6.0533449735053257e-001,
          3.9570788168436904e-001, 1.7412501784966741e-001,
          1.3458287205778358e-001, 3.6757447499787094e-001,
          2.4500917130779043e-001, 6.0730328137572520e-001,
          2.7792608344354724e-001, 4.3571303370614889e-001,
          2.5305447415219823e-001, 2.9166044499201782e-001,
          1.2228792195324960e+000, -1.1499120025471440e-001,
          2.9489911987969653e-001, 1.7591642853234204e+000,
          2.1366063992747381e-001, 6.6262130388614870e-001,
          -6.4612253248959373e-001, 2.4298215791909650e-001,
          -1.6382965286486180e+000, -6.1082139856683071e-001,
          -1.5939392469710334e-001, 5.3186553537508707e-001,
          6.4281744428336740e-001, 5.9791685237501191e-001,
          -9.5377891145352856e-001, -5.5865354589008387e-001,
          -2.2119620777399196e+000, -4.3230004251834603e-001,
          -8.8939019775176209e-002, 3.8644765320320745e-001,
          4.8213550277856637e-001, 1.1261996547211132e-002,
          9.8952367537173025e-001, -2.5487299772386396e-001,
          -3.8836372881455716e-001, 5.5525712750503997e-001,
          -1.0993878559051757e+000, 8.2367054900875214e-001,
          -6.6095881292563974e-001, -1.3153777363803146e-001,
          -7.2873983149243149e-001, -8.0769714599205089e-001,
          2.3309192256370104e-001, 5.3262556066091726e-001,
          -3.6726900390608447e-001, 8.5040654037136953e-001,
          -3.4611777423310258e-001, 2.2215383659139376e-001,
          -2.4564610599178921e-001, -1.3225095961615438e+000,
          1.3766753043730331e+000, -6.2555971803529553e-001,
          7.2353660154870902e-001, 8.2535208782814129e-001,
          7.1256980682985493e-001, 2.2173192629598720e-001,
          -1.0791685369549391e+000, 1.0057966866108816e+000,
          1.0399922424809936e-001, -3.6700280158604437e-001,
          -2.4670678155266839e-002, -7.5225813841590716e-001,
          -2.8910301761378837e-001, 1.7863867967731857e+000,
          3.1816467072401916e-001, 2.8167937289690509e-001,
          -7.4714808546022027e-001, -5.6097981817985798e-001,
          5.0409286175941903e-001, 4.9695572098115126e-001,
          -6.9562646026297559e-001, -6.0802061541996588e-001,
          3.2921627304721635e-001, 1.7296636749692723e-001,
          -3.2020984588609680e-001, -3.5220901078783584e-001,
          -8.2938466755913820e-001, 3.5065225612982354e-001,
          -8.3304181823696943e-001, -1.1046614391249504e-001,
          2.6416606676112975e-001, -6.8015556038769720e-001,
          6.4108461731959154e-001, -7.7049611967034359e-001,
          4.4962018772715745e-001, 1.0114735707566898e+000,
          -3.8739318026423414e-001, -3.2248012840591672e-001,
          5.3750097477888510e-002, -1.6283869652537936e-001,
          1.8766012018719869e+000, 3.2173823491360570e-001,
          -9.2235508961421364e-001, -5.9662715351061180e-001,
          4.4463584146786633e-001, -3.1149906672561534e-001,
          7.3813890735404918e-003, -5.0310899569348255e-001,
          -8.9350770995363782e-001, 1.1365229775498954e-001,
          -5.7510661352683479e-001, 6.0891095812240259e-001,
          4.7338182265197021e-001, -6.3748979304722408e-001,
          5.5775760132483532e-001, 1.8319694919064927e-001,
          -1.4023645410986049e-001, -1.6502403901974982e-001,
          3.5706308543219573e-001, -1.9779946252372174e+000,
          -1.1198273243968696e-001, 3.3905303023512678e-001,
          4.2851757841888943e-001, -1.7586680625390147e-001,
          -2.6311188774469219e-001, 4.6370467623864470e-001,
          2.4115078137255949e-001, 5.3162475983152623e-002,
          1.2749829433415889e+000, -5.7535770128397290e-001,
          6.5966944391272886e-001, 3.6797905312796420e-001,
          -2.2703135313816813e-001, 4.3782466941232334e-001,
          -3.0154090980663021e-002, 1.3398378410181316e-001,
          -4.2199941111322503e-001, -3.4372895389243313e-001,
          7.0628712642339622e-002, 3.1471579141400491e-001,
          -4.3175878587579551e-004, -2.6569388584322923e-001,
          3.4693943616925245e-002, -7.8941920574375701e-001,
          7.8158172429001149e-001, -1.1509624296756811e-002,
          5.0641870954873575e-002, 1.2336907887243050e-001,
          6.1626315028408907e-001, -6.5433780291174526e-001,
          -1.1167490243531060e+000, 3.0743935919152289e-002,
          2.4238961366359793e-001, 1.2472892771865399e-001,
          1.5995284051597416e+000, -5.6034943768931011e-001,
          6.5640488412093863e-003, 1.8906661466816119e+000,
          3.7210819337716761e-001, 4.8728102348243363e-001,
          -2.1636065336891316e-002, 1.5906695121347825e-001,
          1.6200750846056027e-002, 5.5234026424446458e-001,
          -1.3496644873208419e-001, 3.4033898112111205e-001,
          9.8678438356807130e-001, -1.9419417499895191e+000,
          9.0090330604787563e-002, 4.1064929402445000e-001,
          -1.1470115448228840e-001, 5.6519077144186769e-001,
          8.6065885799459896e-001, -1.4100378786045806e+000,
          -2.2799775754372567e-001, -5.3037737055779521e-001,
          -3.4759671458056773e-001, 1.0078424878479570e+000,
          1.2891154217515427e-001, 4.2353974822792961e-001,
          -6.9269368914525853e-001, 7.4294634869808551e-001,
          -7.3048746897886685e-001, 3.7736695202257686e-001,
          1.5914851690755399e-001, -3.9124509405477503e-001,
          2.0917708388629438e-001, 5.2036289256485763e-002,
          6.3143367596850852e-001, 1.8076888858467025e-001,
          -7.0276441232078091e-001, 2.3910562945951247e-001,
          -1.9701748412236039e-001, -3.5776004674230498e-002,
          -1.6732772033563142e-001, -4.4351483883155973e-001,
          -6.0280901439298221e-002, -4.6651910099767172e-002,
          -6.8808586544032613e-001, 1.0868061612474074e+000,
          5.4564568753708265e-001, -8.3598300226587463e-001,
          -4.2486156197926034e-001, 6.9546716049933111e-001,
          -1.2390346041473953e-001, 5.4972754577061045e-001,
          4.0623066231668092e-001, -2.3679567580732411e-001,
          5.4709965417501727e-001, 3.3097433246306357e-001,
          -2.0809609365514800e-001, 7.8015521919892072e-001,
          3.3270727970271180e-001, -3.8525415905555965e-001,
          -8.5602987722168544e-001, 2.1555660888825323e-002,
          -1.1706478358094317e+000, 1.5816422711230765e-002,
          -1.3258151490044037e-001, 1.6142816576616531e-001,
          5.4931852525993530e-001, 1.0281984294558608e-001,
          -1.2151426898997716e-001, 1.1360294123495966e+000,
          2.6805132915929486e-001, 5.7914096133606063e-001,
          -9.1453124602592439e-001, -7.8689438192301142e-001,
          8.7729015029392143e-001, -1.1237715833006119e-001,
          4.7263993660827519e-001, -2.9076044968569892e-001,
          -4.5513797216505048e-001, -2.8261455107424865e-001,
          -2.6864166883463564e-001, 1.2603678833478643e-001,
          8.0104704242007468e-002, -1.5294754790639406e-001,
          1.2385438721762218e-001, -3.3444524440886342e-001,
          2.7168608744528649e-001, -6.8353980300721946e-004,
          9.9878550378785777e-002, -2.3086698033907271e-001,
          8.3999590359386833e-001, -2.8058908178580455e-001,
          2.4010841512002454e-001, -2.2401426114246908e-001,
          -1.6443633572950656e-001, -3.1145877687892592e-001,
          2.6387687436313773e-001, 5.6343704281606288e-002,
          2.4324854044973275e-002, 2.9535131346295829e-001,
          6.5030895196199057e-001, -1.3730243795629263e-001,
          -3.9107856760202384e-002, 9.2881604572756493e-001,
          1.3779803086049877e-001, -9.0016958261600527e-002,
          1.7028637364208451e-002, 3.3637506070919998e-001,
          3.7755205959255272e-001, -2.7457543472614304e-001,
          2.1822120302333248e-001, -1.2070012762358613e-001,
          5.1290151619289392e-001, -7.2738067347570912e-001,
          2.3450909101014342e-001, -1.7434364374494901e-001,
          -2.2065300174969063e-001, -6.2187666740526587e-002,
          -9.8874106883396165e-002, -4.4374528082402326e-001,
          -1.3996626161257908e-001, -1.9283641254289408e-001,
          7.5779400222634491e-002, 2.8834728757583922e-001,
          1.6457060116272032e-001, -4.3057188947902086e-002,
          -4.4164727820609921e-002, 3.2132006755618397e-001,
          5.7870994886838325e-003, -4.5745805216827634e-001,
          -2.7404678799310972e-001, -5.4873216483565149e-002,
          1.8371068078496322e-001, -4.7002212853338061e-002,
          6.0733014511279237e-001, -9.7986549199502920e-002,
          4.4584840771082643e-002, -2.8455560727274849e-002,
          -3.2404059356393339e-001, 4.0947963960441247e-001,
          1.7948297654327924e-001, 2.3361792529481112e-001,
          -6.2573419657883511e-001, -1.2672538391250088e-001,
          5.7221217208430861e-002, 1.1912285648309413e-001,
          -7.2840774118137469e-002, -4.2772461326743685e-002,
          1.8843318505110368e-001, 2.7131393283804833e-001,
          -9.1640289446419193e-002, -5.0823747858995995e-002,
          1.1582529629261357e-001, 4.5025369741450605e-001,
          2.1019175690879183e-001, -1.1771986176322589e-001,
          2.5047308503898302e-001, 5.9411432423634758e-001,
          -1.6399587420590447e-001, 1.9090809187014474e-001,
          -1.0936518280867337e-002, -3.6720190886737815e-002,
          -4.7663548331985778e-001, 3.4869902002198461e-001,
          -9.0134682871246319e-002, -8.1634744455078984e-002,
          -1.7983314756885840e-001, -4.8169853742655167e-001,
          -4.4254525179559148e-002, 6.9581516088771800e-001,
          1.3607095004986694e-001, 5.9395869402737300e-001,
          -3.3850814320079498e-001, -3.5651950272785138e-001,
          -2.9269805771515039e-001, -7.3269655380818477e-001,
          3.1630464763014760e-001, 1.5467137487308805e-001,
          -1.6969801734258014e-001, -1.0517940179883151e-001,
          -5.2935340402209152e-001, 4.7762187375883045e-002,
          -2.6817092810558957e-001, 4.5161675018108678e-003,
          -6.5049382388496765e-002, -9.5315835541356131e-001,
          1.0802425024785874e-001, -1.3825645568159645e-001,
          -3.3247811496812313e-001, 1.3692568748898182e-001,
          5.1753463866761973e-001, -5.0616173418443777e-001,
          3.3986691158396026e-001, -3.6662688061455916e-002,
          3.3131665051751705e-002, 1.1576860367257548e-001,
          -3.5948758465804487e-001, 4.7969778145755891e-002,
          -9.0842299146070657e-002, 1.0364786664121557e-001,
          1.2182033933372854e-001, -1.3886168886581182e-001,
          -9.1471859103980799e-002, 6.9771519793209080e-001,
          4.6511392267842966e-001, -3.0111633058155281e-002,
          5.3003066205468782e-002, 6.2965378483777312e-001,
          4.3068214861803053e-002, -8.6778367372827903e-002,
          7.7495200542218728e-002, -1.0557231382064734e-002,
          5.5069205757192907e-001, 2.8713787949940922e-001,
          1.3550878159757471e-001, -7.4296243669963874e-002,
          -3.0286281571324715e-002, -2.1310656907710619e-002,
          -1.3402683866203569e-001, 1.1144320012573905e-001,
          1.8088521632853491e-001, 4.1755944205819087e-002,
          1.1612639962511179e-001, 3.7847377926819570e-001,
          -3.6744802358656209e-001, 2.3791228999120023e-001,
          1.1375961298801426e-001, 2.8914897390709260e-001,
          1.0193033586400153e-001, -7.6987608877514102e-002,
          -3.3928772627379211e-001, -3.6852238554372174e-001,
          1.2168675214531478e-001, 9.2007793645508693e-002,
          -2.4407373704776167e-001, 1.5164133602210927e-001,
          -1.0076461203761664e-001, 2.0264620570066606e-002,
          -3.4996224675430905e-002, -2.0484075686302855e-001,
          -1.2078619739640165e-001, 1.0466975673336000e-001,
          3.1576850187293976e-002, 2.8239654311090174e-002,
          3.2078985681963540e-001, 1.8334193611000979e-001,
          -2.7836978001283574e-001, -2.2560064493082405e-001,
          4.2481674262131991e-001, 4.2865973929036366e-001,
          -2.8768231562827755e-003, -1.8474765725706485e-002,
          1.9946829453192855e-001, 2.6460282633104917e-002,
          2.8285859115369261e-001, -1.7793518450681176e-001,
          1.4869638767131749e-001, 3.1820733371207405e-001,
          2.8440333414012531e-002, 3.0744381382393121e-001,
          -6.3929587802011731e-002, -1.5020826689859776e-002,
          -2.1511906416186516e-001, 5.0440631014691296e-002,
          1.3037075486545105e-002, -2.2436738833181100e-001,
          1.9340181543462870e-001, 2.5167181764172531e-002,
          -2.1144900130269745e-001, 1.1049638297688996e-001,
          -1.4201665122671828e-001, 2.7950193413798041e-001,
          -2.4936569250208940e-001, -2.3838657096065705e-001,
          -3.0667069182787854e-001, -2.9941604166657287e-001,
          -1.5883354047540255e-001, -2.3088317045568660e-001,
          -4.9674267391635907e-001, -9.1438024609300533e-002,
          8.7326742530374306e-003, -2.4398444952637449e-001,
          2.0155720837255744e-001, -1.4169132581763932e-001,
          1.3742844599612533e-001, -1.0181648547488980e+000,
          1.3274530079883290e-001, -2.0372818032262677e-001,
          -3.1617762436820362e-001, -9.6510737653422371e-002,
          -2.1115911154213649e-001, -4.9004473759517286e-001,
          2.2098253214366612e-001, -2.3370040625163163e-001,
          -6.5511215164837475e-002, -1.9718579324862082e-001,
          4.2262242259789112e-001, 1.8491402541738006e-001,
          9.9619664518826229e-002, 3.2271873219913166e-001,
          -2.8374183701968614e-001, -2.9955635630286981e-001,
          2.7052860910572940e-001, -1.3780939427452846e-001,
          -3.5448803589291832e-002, -2.2226601481430720e-002,
          1.4872579057544830e-001, 4.1185948388096033e-001,
          2.1944666417137465e-001, -2.8884047581561179e-001,
          2.8018356738485212e-001, 2.4589708855891904e-002,
          5.0630963133880573e-003, 4.1677252114176486e-002,
          -2.5329585356639601e-002, -1.2053350746014772e-001,
          -3.7045727467791965e-002, -5.1178359958330047e-002,
          -2.4423870050420146e-001, -7.3933627388599022e-004,
          -1.5630744112633772e-002, -9.3921430171599929e-002,
          2.9165817803719912e-001, -1.5151008456835235e-001,
          6.4903321312300200e-002, 2.2042021353439187e-001,
          -1.9014226305075524e-001, -6.6521773373376655e-002,
          1.4744632276430308e-001, -4.8164542374418229e-001,
          -3.9782374804301600e-003, -2.5765326130279469e-002,
          3.3264023688206829e-001, -9.9505667196555875e-002,
          1.5397720949243229e-002, 2.4490296441593418e-001,
          1.0744161946515317e-001, 5.8047025585114945e-002,
          -5.1884294746256679e-002, 1.9413544655086989e-001,
          -3.4647612580953702e-001, 1.5169901966601859e-001,
          -6.0462968903687145e-002, -8.9146152196392339e-002,
          2.0534461203055274e-001, 6.5339846777484570e-002,
          9.2661428426716069e-002, 6.5834299120844916e-002,
          5.5258918874221763e-001, 1.7051868602332779e-001,
          6.8085726200596067e-002, -1.9671518143591407e-001,
          5.2231008179551834e-002, -2.7252867789902831e-002,
          -5.8017847969353044e-005, -1.6577526683978902e-001,
          1.1183714740580522e-001, -1.9882725167285540e-002,
          -2.3516327773411327e-001, 5.1143375998919149e-001,
          1.0362488699923338e-002, -9.1242820274005404e-002,
          -1.9449464639359726e-004, 9.4444360619110101e-002,
          2.2932263687784232e-001, -2.0825665881738564e-001,
          1.7194593613749240e-002, -2.9065260887752159e-001,
          -2.5664553528015466e-001, 2.2713584449109039e-001,
          7.2821473106980672e-002, 3.1155120785887130e-001,
          3.7526919493720057e-002, 9.9534636292687287e-002,
          -5.3689905026169971e-001, -5.9906946112273603e-002,
          3.0868168813423202e-001, 8.1302906989785886e-002,
          -2.1785145521378521e-001, 2.8951820188640703e-002,
          -5.2858660569627500e-002, 1.6423346533901824e-002,
          -1.2141010480836252e-001, -1.0140766729408168e-001,
          8.6204110311805623e-002, -9.3876218693865018e-002,
          -1.0788956661460859e-001, -1.6938042745198481e-001,
          9.3594685198082728e-002, -2.4772571040648902e-001,
          1.0185692822995135e-001, -1.0688176517150241e-001,
          9.9427369911485944e-002, 1.1949754088371511e-001,
          1.7421194298823109e-001, -1.7708587544503920e-001,
          -1.1141569055221829e-002, -1.5569066836641646e-001,
          2.6127817727060423e-002, 4.7188209751508406e-002,
          2.5187695017184653e-001, -1.8345409658994859e-002,
          -6.3991284304415932e-002, 1.8115048089515190e-001,
          1.1701978373729309e-001, 8.5798548147041659e-002,
          1.3732359114430547e-003, -3.3109365371103219e-002,
          3.5519432213571957e-003, -7.1680237086532789e-002,
          5.9516287063680756e-002, -1.1408337465606060e-001,
          1.5071498720476648e-001, -6.7827259894818762e-002,
          9.4315685191270607e-002, 9.1073258074552535e-002,
          9.7291002896573841e-003, 1.6698904857153896e-001,
          9.6245961859998952e-003, 3.6135198088876247e-002,
          9.8228317685659858e-002, -1.8328974517894181e-001,
          3.7045308943349280e-002, 6.0218290136613326e-002,
          8.2696387593417325e-002, 1.4921757177316078e-001,
          -1.2623644774515363e-001, 1.1376006135825845e-002,
          -2.1756363146580479e-001, -3.1917489573215337e-002,
          1.0071289286051205e-001, -5.9653815112137559e-004,
          1.6719660196429537e-001, -1.6564068111742193e-002,
          1.8910253752755310e-001, 1.3270206662108283e-001,
          -1.6554860293217205e-001, -1.3251194071507413e-001,
          -1.3176442544336231e-001, 2.0358793918055462e-001,
          -2.9684383449540330e-002, -4.5314180423007767e-004,
          -6.8731194550242750e-002, -1.0985991499698942e-001,
          -1.5872101811534950e-001, 1.4432377880991837e-001,
          1.3877997667990040e-004, -1.6326894045990753e-001,
          -5.0297668211080074e-002, 1.5056253195920727e-001,
          -1.6024004744933051e-001, -9.7302808297535723e-002,
          -7.1991465454254180e-002, 9.3559189601196177e-002,
          1.1765161813208033e-001, 5.3365729374727458e-002,
          4.8601735836342440e-002, 1.4756188167255194e-001,
          2.1814284932245905e-002, 3.9590259472390477e-002,
          -2.0092381284588384e-001, 1.5071635710308107e-001,
          -9.8407742502588436e-002, -1.5268996241844888e-002,
          1.1808636669262523e-001, -1.8356190489685412e-001,
          2.8548068640083166e-002, -1.8718871849944982e-001,
          -1.1655667196284898e-001, 2.1159813803413102e-001,
          3.7876320277961437e-002, -3.6422491597450468e-003,
          -1.2741418466563176e-001, 3.7564215613031977e-002,
          -2.3782988621700172e-002, -1.5391210267917577e-001,
          1.2362015160534590e-001, -7.4846598508899728e-002,
          -3.2696004602867501e-001, 1.5904857330074423e-001,
          -5.1987740800961024e-002, -1.3444146748570697e-002,
          3.8985088125975356e-002, -8.1139212242746048e-002,
          -1.2445958554565086e-001, -3.7418444843113563e-001,
          -1.0907423753637549e-001, -4.3093107055599697e-002,
          1.5011494039040310e-001, -1.7185416492603930e-001,
          1.7480147776981445e-001, -6.1945004906996178e-002,
          1.5856867718418860e-001, 1.6248972530851130e-001,
          1.2918344934917373e-002, -1.6274846938928378e-001,
          1.9027757378007770e-001, 5.1408829951184350e-002,
          -5.2489067466258595e-002, 1.5524942522967375e-001,
          2.0559137900021277e-001, -1.7436165765364531e-001,
          1.6029669748529307e-001, 1.8713559177873168e-001,
          -9.4287300977413877e-002, 1.3953922234356822e-001,
          8.9934279840049133e-002, 2.4445806610600346e-001,
          1.6419777660562321e-001, -1.9443252317967556e-002,
          -1.2211569446127619e-001, -2.2195122097987774e-001,
          6.9493232164572288e-002, -4.9499621648164314e-002,
          -3.6713907051130944e-002, 7.4307314984269429e-002,
          -1.4319028471603706e-001, 8.7169746330115316e-002,
          6.6599935816911385e-002, -1.5746897440693769e-001,
          -1.3926465279585235e-001, -2.1489742647172219e-001,
          -1.6723304859788160e-001, 1.9743176434471155e-001,
          1.4943012879333323e-001, 8.5219835140805236e-002,
          -2.4245067949399918e-001, 1.1303039310388005e-001,
          -1.7261386864395456e-001, -2.2519196337019159e-001,
          -6.6823869675646477e-002, -1.3987804612062221e-001,
          1.1946520018737240e-001, 1.5561253535356971e-002,
          2.3571589019434641e-001, 3.1943842651738268e-002,
          -2.5089557214089658e-001, -1.7141488206983299e-001,
          -1.5157823548993632e-001, 7.8555951783679204e-002,
          -1.5509010332914663e-001, -1.6823609936165970e-001,
          -6.8471925529352592e-002, -1.5144350204718685e-001,
          2.4000897072493883e-002, 3.7507098364368874e-001,
          1.4973362179263663e-002, -2.2431621570201943e-001,
          6.2787910297119456e-002, 8.9948441348744815e-002,
          -2.0250456943118211e-001, -1.6133559731086466e-001,
          9.3246718287515629e-002, 1.7260454444480777e-001,
          7.1461744583884435e-002, 1.5647876767742992e-002,
          4.2101813968743448e-002, 1.3673534042986837e-001,
          7.0438146304497323e-002, 2.7189443771801386e-001,
          -2.4005392592418232e-001, 1.7650029232316927e-001,
          5.3169268131154364e-002, 2.2962692318627892e-001,
          1.7206186123048703e-001, -1.1329632426099123e-001,
          -1.9375355864047064e-001, -1.4593496078145468e-001,
          -7.1516905466898267e-003, 1.5663583887978880e-001,
          1.8431011193491845e-001, 1.2603209439340135e-001,
          -1.2957454433221338e-001, -6.9447536357314946e-002,
          -6.0034353330627777e-001, -9.2422987341318805e-002,
          4.9041367137080422e-003, -4.1418189813302878e-002,
          5.7257555921744259e-002, -5.1627548291959813e-002,
          -4.4279818724766273e-002, 3.7560868227977759e-002,
          1.2817448575468429e-001, 1.2965667188267180e-002,
          3.1055424590410146e-002, -5.2053978261247608e-002,
          1.4379353003709963e-001, -9.1905596554476485e-002,
          -1.4764944235420624e-001, -6.8831795239797808e-002,
          -1.1854847618414201e-001, -1.4043893623852463e-001,
          1.5586335053620895e-001, -7.3311631002978175e-002,
          4.1519659213887519e-002, -2.7819607723088360e-002,
          -2.4936678625284960e-002, -1.5405171649199932e-002,
          3.6750038062196053e-002, 1.6086874991479413e-001,
          1.2319022740512178e-001, -1.8728839353318888e-001,
          -6.1625409606673058e-002, 8.4932572052770466e-002,
          -2.0423827587373189e-001, 5.1423772486713336e-002,
          -4.0383691546467627e-002, 1.3654807449943093e-001,
          -1.9428567780274505e-002, 7.1790497291881186e-003,
          -1.3140180799284759e-001, -6.9100118373233840e-003,
          1.5513301375284144e-001, -1.7123107623682444e-002,
          1.6818563218196214e-001, 4.1605770831053976e-002,
          1.1417425019428162e-001, 6.0060337714206054e-002,
          2.8082670816244534e-002, 5.1137690644794731e-002,
          1.0180422631218539e-002, 2.0385140604728617e-002,
          -4.8701297610377101e-002, 7.2568790974867597e-002,
          1.4459104478221104e-002, 1.0433926339088592e-001,
          -1.7401664985736903e-001, 4.9933438520420113e-002,
          1.8882412670317794e-001, -1.4744480655870934e-001,
          -8.1096152286564444e-002, -6.3933448535464252e-004,
          8.8700407980847856e-002, -7.5270652890249312e-002,
          5.9690110380668522e-002, 4.4549020757082308e-002,
          1.0338578864466365e-001, 4.7649259730456764e-002,
          1.4622945426626592e-002, 8.0306403959255437e-002,
          3.1853625446325619e-002, -4.5392613479934195e-002,
          3.0727148176451530e-002, 8.6314221885233858e-003,
          -1.1782445309353595e-001, -5.8716259438798234e-003,
          1.2565074891698377e-001, -1.1108650084362824e-001,
          1.3143190385999007e-001, -5.2784346300546174e-002,
          -8.2568495016425464e-002, -1.2120590173827913e-002,
          -5.4708572567212836e-002, -5.3411343789673070e-002,
          2.4105676410945939e-001, 1.4667420232953754e-001,
          1.5954879249703527e-001, 5.0344035218743602e-002,
          -1.2134049993174166e-001, 6.7542801183955822e-002,
          -5.2765979967332712e-002, 5.0785997468739866e-002,
          -1.1809923837312117e-001, -8.5749277761914655e-002,
          7.7248410758221503e-002, -9.6603396031237534e-002,
          8.4715327189347378e-002, -1.2144800399338677e-001,
          -3.4052338831826325e-002, 1.4558666336197379e-001,
          8.5757705326433939e-002, 3.1793895739059158e-001,
          -6.3500145688099557e-002, 1.7655494093022950e-001,
          -3.2570446421609014e+000, 7.9554935777469693e-001,
          -1.4802746006711462e+000, -3.9073632055181801e-001,
          1.0815720261381823e+000, -6.4219437137363033e-001,
          1.5075508146727772e+000, -8.7336734894740342e-001,
          6.7512785429888722e-001, 1.0050880197392456e+000,
          4.9440538136299100e-001, 2.1621141263445991e+000,
          -1.7267553336944036e-001, 7.4130695470402863e-001,
          -2.5587018540462009e-001, 1.3758565849591367e+000,
          -9.9010873661997179e-001, 1.1269181504519510e+000,
          -7.5017144278252690e-001, 5.9412583932873006e-002,
          -5.7504096971739016e-001, 8.0003753472641859e-001,
          -5.9378348928023006e-001, 3.6101914435461013e-001,
          -9.3807795796042204e-001, -4.2016478372470839e-001,
          -5.1816787804631714e-001, 4.1280887615330886e-001,
          2.2829754705176664e-001, -6.3554027063651164e-001,
          8.1848398620248757e-004, 3.8311001221882940e-001,
          -1.0402397342781646e+000, -5.7909063706831565e-001,
          -9.7291734055402390e-001, 3.4936523779696954e-001,
          5.4383956675365580e-002, 1.9161466649211090e-001,
          -7.9953797441799845e-001, 1.0965018470214218e+000,
          -1.9575586064893002e-001, -4.0409740116233994e-002,
          2.1109540142399730e-002, -1.3089085902300238e-001,
          4.5463695178759295e-001, 1.1244893405796361e+000,
          1.7138384492164663e-001, 2.4437451488233206e-001,
          2.9000792289270849e-001, -4.5663022346243448e-001,
          2.9142185769706754e-002, -3.5768957196135492e-001,
          -5.4406467860339570e-003, -5.8848068399403941e-001,
          3.5220957680270221e-001, 8.7820696474491644e-001,
          4.2671529912961192e-001, 1.3595804641656364e-001,
          -4.6243147616277203e-001, -7.1939775803687223e-001,
          -7.1433686705968780e-001, -5.7820386689046210e-001,
          1.8063515177957939e-001, -1.0599882322091457e-001,
          3.8591948639696005e-001, -8.1102497253329531e-001,
          -1.5944771933900294e-002, -4.5695197310449454e-001,
          -3.3658269721347878e-001, -5.4077175864302429e-001,
          -9.1507001599831439e-001, -4.5071821607502333e-001,
          -2.7080236145230735e-001, -2.1536656282485309e-001,
          -1.0426192797345968e+000, -9.7677173514450233e-001,
          5.0993134258620225e-002, -4.4353010236820833e-001,
          1.0676802868125314e-001, -7.7943134042060092e-001,
          2.6718828308265602e-001, 9.8181565696329381e-002,
          -9.4541634886667103e-001, 1.5691241931092340e-001,
          -7.5679818908871721e-001, -1.0192121164433241e+000,
          4.0621426213912376e-001, 7.4078437374895745e-001,
          9.7762814756016409e-003, -1.1421567544768483e+000,
          5.2086956101200461e-002, 1.6286173681981548e+000,
          1.5068918670185429e+000, 1.2391286012840923e+000,
          1.2698835945056727e-001, -3.7377637046119438e-001,
          8.1690228498392331e-002, -7.2481606840313451e-001,
          -1.0277529180396201e+000, -7.5476922625344889e-001 ]
      - [ 2.6553314438929720e-001, 3.2992680042567796e-001,
          -6.3570150905064038e-001, -1.1804737103259541e-001,
          3.2328561446464926e-001, 1.6555057651149663e-001,
          2.9893233361755839e-002, 9.4538222668392007e-003,
          -8.5229041709811340e-002, -3.4861684367647761e-001,
          -1.6270027784306144e-002, 3.6072866657951209e-002,
          -2.8561542386810836e-002, 1.2641818852698081e-001,
          -5.7486972679605591e-002, -2.5442952840158323e-001,
          4.4110831516875594e-002, -2.1822493535874404e-001,
          2.9281003429212006e-002, -4.4862954562298198e-002,
          4.9014803657852761e-002, 1.0281976839280615e-003,
          3.3103040776627263e-001, 2.3359997127760734e-001,
          -8.9460097245461875e-002, 6.3060793597744441e-002,
          -3.8733683739586564e-003, 7.2988441625691153e-002,
          1.9763357305622585e-002, -1.9123779112738945e-001,
          1.0327233247474936e-001, -3.3155438594576114e-001,
          -8.0172315976656444e-002, 2.8815856009035262e-001,
          4.9330085757349196e-001, 2.1109201944564104e-001,
          1.0041466181541657e-001, 1.9501579561665047e-001,
          6.1807590481280525e-002, 1.9579442379790293e-001,
          1.6875521850225617e-001, -2.0386673798299434e-001,
          -4.3396665743215636e-002, 1.2772076426564366e-001,
          8.8959120462036773e-002, 3.6350211438207347e-001,
          4.3121195962140126e-002, 2.7143777664423008e-001,
          -3.8594806981544777e-001, -5.4824419139578452e-002,
          -9.5630747941239172e-003, -1.1615228156582182e-001,
          1.0474792287219650e-001, -2.4838371774984894e-001,
          -4.1863102536765512e-001, 2.8262248657655892e-002,
          8.1888735920991385e-002, -7.6121719760568349e-002,
          1.5864468454284186e-001, 8.3921016310537333e-002,
          3.5191226171593662e-002, 4.7004549717676952e-002,
          4.6581787797149013e-002, 2.1537761321069340e-001,
          2.8876042064592289e-001, 6.7109697238798838e-002,
          -1.3527370766956887e-001, -1.1513898874118522e-001,
          -5.1152377237411298e-002, 1.6036194308077603e-001,
          9.3557594660582680e-002, -9.8831277875699924e-002,
          1.3768454928919718e-002, 3.2103617788993527e-001,
          6.1130354610442000e-002, 1.4525879906129663e-001,
          6.7449963058372087e-002, 1.2938886510939215e-001,
          -4.0607682110689103e-002, -1.9470836793754723e-001,
          -9.1828124349093682e-002, -5.1213002004880059e-001,
          3.2845264400587865e-001, 1.0253066543814220e-001,
          -2.5179845531475370e-002, 5.6870361561991205e-002,
          5.9122163230997705e-002, -3.3625584206964786e-002,
          -1.3892867532325393e-001, 1.6302267108485397e-001,
          2.5504381102490048e-001, -4.0175752524008507e-001,
          6.7692047092214616e-002, 3.4250548958801119e-001,
          -1.6084017312570892e-001, -3.1336533381948119e-002,
          5.3122417503095980e-002, 1.5973779490963683e-001,
          -3.0108752624442975e-001, -1.4820760842244207e-001,
          4.1236854311644316e-001, 6.5453246823347452e-002,
          -6.3984299723565258e-002, 4.2888681275262763e-001,
          2.9018243286389317e-001, -3.1741604818999408e-001,
          3.0579275698539188e-001, -1.8088060261230673e-001,
          3.2958606677328979e-002, 1.6975297441565687e-001,
          2.5437553393332518e-001, 3.5846226040436535e-001,
          -3.6661589940776401e-001, 1.4614152422884991e-001,
          -2.1458701829706978e-001, -3.0929803052998217e-001,
          5.5139767449870913e-001, -6.1358276723747475e-002,
          2.9799332002589918e-001, -1.4509344971167495e-001,
          -2.4580531786106335e-001, -3.5148092741702625e-001,
          2.7862532367286841e-001, -3.8046129464908839e-002,
          -2.1399337277117800e-001, 3.0099790137123766e-001,
          -2.7920238141291692e-001, 1.0940879384321077e-001,
          -4.8166961801162250e-001, 9.0097317680764111e-001,
          5.2879554544837559e-002, 7.9230256873310631e-002,
          -1.9058728705961112e-001, 6.7039308522162500e-001,
          -2.5104594893524707e-001, 9.3269237166419314e-002,
          3.8647209778024230e-002, -2.1501376959464522e-001,
          -2.9619256450490272e-001, -1.5166354186529202e-001,
          2.0051227742248215e-001, -1.2368535538169637e-001,
          -8.6600251811333337e-002, -4.4218285242793676e-001,
          4.8227275787029755e-001, -1.8905695387879634e-001,
          1.2868114172257472e-002, -1.5631446590339224e-001,
          1.7708947616497048e-001, 1.1301962605916858e-001,
          1.5728829490285473e-001, 2.2108498867269452e-001,
          -7.2113341935285957e-002, 1.7976534307627642e-001,
          1.5517400223158254e-001, -2.2323732529662535e-001,
          1.0613616253584883e-001, -4.2158231672972328e-002,
          -3.8680870231421866e-001, -7.4290488843714386e-001,
          -4.6651688916329835e-002, -2.3432696615839421e-001,
          3.7562010679581266e-002, -3.9222453467177154e-001,
          -4.9078608552179320e-001, -4.6658431452566679e-001,
          2.1889754653710794e-001, 4.4081456570048272e-001,
          -8.5112298344902332e-002, 6.4330217749972829e-002,
          3.5239159606175802e-001, 1.7292724928083494e-001,
          3.7673495604260859e-001, 1.6118546498690803e-001,
          -1.8013716420141032e-001, 8.6991746667581457e-002,
          -7.3131643626406950e-002, -2.0589636389814714e-001,
          4.4588357662918010e-001, 4.9887604110680367e-001,
          -2.1774128161406101e-001, 2.6326383337786952e-001,
          1.8180480481582831e-001, -1.9627960865331878e-001,
          -1.3705736335235694e-001, -2.9630731075378025e-001,
          -7.7532667745671566e-002, 4.8486542702431379e-001,
          -2.0363852305266827e-001, -2.1598296477617629e-002,
          1.3350281519409773e-001, 2.0904359100593914e-001,
          3.8972052464570306e-001, -2.3781043010341596e-001,
          -3.3400718495691699e-002, 4.0299835069183976e-001,
          1.0013069273585350e-001, -2.0810720680923794e-001,
          3.6689813627419154e-001, 2.6856990226439070e-001,
          4.8788833412723970e-001, 2.0873442796672362e-002,
          -8.0190251413593927e-002, -7.1355465509095869e-002,
          -1.4733138069933449e-001, 4.4668604839478820e-002,
          -5.8178425227533907e-002, 2.2549722853775744e-001,
          -7.3224834895153123e-003, -1.0609710191935594e-001,
          -7.9588151208113356e-002, 8.5332151180963212e-002,
          5.0059472601314069e-002, 4.7076538032005538e-002,
          6.2404235319532708e-002, -8.8072253626105532e-002,
          -8.9229243426609903e-003, 6.8044897076208477e-002,
          -1.1155814692751119e-001, -2.5039732160468415e-002,
          -2.8989604684473626e-002, 1.7016913203729146e-002,
          -5.4099080056744478e-002, -1.6049454973207902e-001,
          -3.9714484909273658e-002, 4.9152139679364652e-002,
          -1.0174390180912268e-001, 1.4106235120042653e-002,
          4.1558693292111988e-002, -1.5637409798032575e-002,
          -1.2514737204340334e-001, -9.4406611534142315e-002,
          -1.3175070152993337e-001, 2.1837887917273713e-001,
          -5.6348067428537076e-002, 1.8729714497107061e-001,
          2.0408380829068667e-001, 7.9995849684986173e-002,
          -7.0897791848112082e-002, -5.6519628605663660e-002,
          -5.5243974574692406e-002, -1.5708167951828422e-001,
          1.1904847308158774e-002, 4.6069826483707443e-002,
          -5.1208139283846058e-002, -8.4294321417401327e-002,
          -1.3002158206944206e-002, 1.2759604591712656e-001,
          3.1967232150673264e-002, -3.9993874328896617e-002,
          1.4041450619800402e-001, 5.0155878642980075e-003,
          1.3707922029131303e-001, 1.0265876229493717e-001,
          -2.4498658959528610e-001, 8.7330640141517757e-002,
          7.1206340999990167e-002, 1.0759830956702435e-001,
          -3.0165448782244451e-002, -1.7035563471449102e-002,
          -1.4853899695512093e-001, 3.2796495808776374e-002,
          -1.1388262458514148e-001, 8.8677110568945755e-002,
          3.8886209917802159e-002, 3.1003819464932281e-001,
          -5.7114839738321453e-002, -1.9261040560042053e-001,
          -1.0152859883955990e-002, 7.3999310486346503e-002,
          5.4537281217275919e-002, 7.3497404385828146e-003,
          9.4380109163898385e-002, 5.6518552599067122e-002,
          2.5238431139106718e-002, 2.7989783831284742e-001,
          3.2530896724073548e-002, 4.5890452883601947e-002,
          3.4508497396872798e-002, -8.2643005609690678e-002,
          -6.2243251212775991e-002, 3.5249905914983976e-002,
          -1.4190418250357507e-002, -2.3012537132957981e-002,
          -2.4908915454740002e-001, 6.6147307273559303e-002,
          -5.2589924988305795e-002, 4.7671939570416363e-003,
          -1.5160862552422605e-001, -1.8641820851602339e-003,
          -9.3695519704659599e-002, -2.3647721971359725e-001,
          2.0869219756036522e-001, 2.5583381709047781e-002,
          -9.4026963535081914e-002, -8.0091989532812005e-002,
          4.4303063955869901e-002, -4.0298055341816000e-003,
          -3.4391163114607153e-002, -8.5698556450973740e-002,
          6.5093745213115700e-002, 1.3489965264882151e-001,
          -1.1839589327998962e-001, 1.6144373565555115e-001,
          5.0457790105154866e-002, -1.6607100509181995e-002,
          -1.0468153294541598e-001, 8.1095287970786453e-002,
          -8.0041140012877890e-002, -3.3696311645628696e-002,
          1.1591753312808391e-001, -6.6138666782330865e-002,
          1.4706875727065180e-001, -1.0704454057166087e-001,
          -7.6645728276345026e-002, 3.2083865502265309e-002,
          -4.4809386128236921e-002, 2.0988081702002656e-001,
          -5.0982949140128304e-002, 1.3252602024363316e-001,
          -3.8863008186245259e-003, 2.3521165475217465e-001,
          -8.5151938354930110e-002, 1.0298189534135040e-001,
          -8.8457504164227013e-002, -1.1319373948294173e-001,
          -5.5764895816866104e-002, -8.7132707306486326e-002,
          4.2502653046081543e-002, 1.4373097425034104e-001,
          8.5184532066861444e-003, -1.5220260048805338e-002,
          -1.0026322195440081e-001, 1.5717631788496095e-001,
          2.6311744840120117e-002, 2.5770671978997739e-001,
          -4.0795332433597259e-002, 2.0689280974342399e-002,
          -1.0213080411305044e-001, -8.0634621582008251e-002,
          -1.1207920157779262e-001, -2.5099220237443168e-002,
          -1.5032294084088613e-002, 1.0712340246169146e-001,
          -1.0256919045011467e-001, -1.8600018150577644e-001,
          -1.1817478802652498e-002, 4.2895428527719826e-002,
          7.4505985767484226e-002, 1.8073433185648607e-001,
          2.2557297842255825e-001, -6.8187673153958031e-002,
          -3.6287780623432235e-002, -1.3201518678545063e-001,
          -1.5812957180432646e-001, 4.5524436404668391e-002,
          -1.7688804701311212e-001, 3.2884651718798347e-001,
          1.4634431778020898e-001, 1.7682583554548534e-001,
          -6.6942326863870971e-002, 1.5083912284048437e-001,
          6.9945654088499024e-002, 7.3167511184605684e-003,
          -6.7286359283128122e-002, 2.6154697045480879e-001,
          6.5840323255543204e-002, -1.2596285523283415e-001,
          -4.4177677254154592e-002, 5.9837370492601839e-003,
          3.3352672073633212e-003, 6.1680679531383995e-002,
          -2.2458419654678077e-001, -3.4999671890566963e-002,
          1.5309065939511557e-001, 2.4127943725417142e-001,
          -8.5003297147617354e-002, -1.4829563819009992e-001,
          5.0272404469357483e-002, -1.8716627602146138e-001,
          -4.2332953203855807e-002, 2.4373606734317743e-001,
          1.6493685971784931e-002, 2.9750953832377140e-002,
          -1.1965824304898084e-003, 1.1861072737114015e-001,
          -1.4558061774201109e-001, -1.1554934765525771e-001,
          -6.4079116049135174e-002, 1.2407230778006589e-003,
          -2.3436676946477584e-002, 3.1511796591858210e-003,
          1.1653041272721291e-001, -2.9956857136713779e-002,
          4.9642393849438089e-002, -1.5164465355707481e-002,
          5.7834122104501617e-002, 7.5621287476752383e-002,
          7.6717866411695285e-002, 2.3868695357994044e-001,
          -4.8215537004529553e-002, 8.7236049582576740e-003,
          -5.6438142798105342e-002, -3.4399809913011878e-002,
          -1.3707769529369693e-001, -4.4013412668461656e-002,
          -3.5464376840790611e-003, -5.0215263124143733e-002,
          8.9418624479831052e-002, 6.6097290359850319e-002,
          -1.0588386094051225e-002, 8.4390968488862531e-002,
          2.3324101071180803e-001, -8.0891389763061150e-003,
          6.5087728303710776e-002, 1.1602845287625738e-002,
          -7.6090596317811052e-002, 7.2211185709685474e-002,
          -2.0528737233188396e-001, -1.0263368913301591e-002,
          -4.2525276671809664e-002, 5.1787922977292490e-003,
          -4.1685096756346809e-002, -3.7281170903888057e-002,
          -4.4496361570795978e-002, 1.0635407583088939e-002,
          6.1963339389333370e-002, 1.1639843650019426e-003,
          -7.0369571483071908e-002, 8.7966548460381738e-002,
          8.2703729383620916e-002, 5.5933483645246029e-002,
          1.2406569376095376e-001, 5.4729223023174497e-002,
          -9.3279682321948748e-002, 9.4954831278343255e-002,
          -5.0234505008700657e-002, 3.9946005400883659e-002,
          -9.8814224343140897e-002, 5.7810030765564249e-002,
          -1.8784649687237052e-002, 9.1743199847427057e-002,
          1.2792729702464162e-001, 7.2875889900035018e-002,
          -8.2830431721815534e-002, -4.0719690356881791e-002,
          2.4573090369521055e-002, -1.5679691024016101e-001,
          -3.6022084458424586e-002, 3.6879051032473409e-002,
          1.4933033837436310e-001, -1.5054868757041795e-002,
          7.0443206025509908e-002, 1.1848111587774533e-001,
          9.1546317377685042e-003, -1.8376264865665591e-002,
          -8.3923782907627115e-002, 1.5494794970965681e-001,
          4.7650513112592392e-002, -2.2802441164917225e-002,
          -7.2569574407687881e-002, -8.0268237637333706e-003,
          -2.1476376706021590e-002, -7.4950796536479000e-002,
          -1.4343667095093365e-001, -7.1013301080734059e-002,
          3.5681523163952428e-002, 1.8909326710037876e-002,
          2.4410536392940597e-002, 5.7939274642529827e-002,
          -2.3154223508387181e-002, 3.1101738845601957e-002,
          -7.4764411959969537e-002, -1.6699308420021566e-001,
          -2.0050488874171080e-001, 1.2697500938443340e-001,
          -4.6017927603045544e-002, 3.7272062716416844e-002,
          4.1886477320685962e-002, 1.3315154534558196e-001,
          8.4490405789362571e-004, -1.4523453090990310e-001,
          -3.2544416440484752e-002, 4.0209982647692634e-002,
          1.5927980243305613e-002, 7.5424069067372979e-002,
          -8.7566989167810388e-002, 1.0668854614086759e-002,
          4.3395741462217217e-002, -5.3147414274406862e-002,
          -1.4563200662046638e-001, 1.0379549316676798e-001,
          7.7502016601786530e-002, -8.5915264990619786e-002,
          7.2567781108406379e-002, 2.6621945717280927e-002,
          -3.8304419837873367e-002, 1.4585417883458982e-003,
          1.1541142586562413e-001, -2.8624068663150884e-002,
          -1.3895206433172558e-001, -9.7018502329876008e-002,
          -1.7125616189002976e-002, -1.4232730039188683e-002,
          5.4968001432480783e-002, -8.8202052376900944e-002,
          -1.1166189034709190e-002, -8.6085191376717787e-002,
          -2.1307850069645159e-001, 5.6815585953715962e-002,
          1.4662063317875310e-001, -9.0183270470399562e-002,
          5.9121852337924309e-002, -1.6477426318992336e-001,
          -1.0774543420402112e-001, -2.1199176140997780e-001,
          5.8147528743196002e-002, -9.0771355336819931e-002,
          9.2944800428671356e-002, 3.9688886962244749e-002,
          -2.8255982764537452e-001, -8.3761882763712228e-002,
          -4.6555647858327200e-002, -1.8974187951311813e-001,
          -2.3543148626098723e-001, -5.4056898510522186e-002,
          -3.1777170091093453e-002, -6.8908494321245378e-002,
          4.0678989272415339e-002, 1.1394454835711358e-001,
          1.0085094037296301e-001, -7.2092644718387361e-002,
          3.3996653213921015e-002, 9.4250054641764877e-002,
          6.5046647351962888e-002, 4.2658384894344918e-002,
          -1.4702911476489680e-003, 2.1693087702693164e-002,
          2.8201314079295783e-002, 3.0932115837123291e-003,
          -3.0960372365814327e-002, 1.3547065727218574e-001,
          -5.5008193943174293e-002, 1.9920846507025133e-001,
          8.8025088124373974e-003, -1.9093314036309511e-001,
          1.9615749093669723e-002, -3.1793306054362216e-002,
          -1.1162916318570397e-001, 1.7558404848265163e-002,
          2.3565193815445501e-001, -1.9541759211557024e-002,
          -4.9800891707329688e-002, -4.5739934687699935e-002,
          6.6453430393116769e-002, -1.2084166778956737e-001,
          -1.6050711096824669e-001, 1.3223258834049575e-001,
          1.1183657392328772e-001, -6.0841552387274345e-002,
          5.0737001136454893e-002, 1.3717030953644990e-001,
          -1.0093779071973095e-001, -3.3262490538470149e-002,
          -7.9982921178795699e-002, -7.6384178942594888e-002,
          1.5537615354470119e-001, -5.3071715227746570e-002,
          -2.6620810472806006e-001, -1.7612601491561436e-002,
          3.0901083067727902e-002, -1.4151379090641986e-001,
          -2.1025245032266590e-001, -1.2980473898090652e-002,
          1.3368642470605523e-002, 1.1726655370477727e-001,
          -2.1738451288502297e-001, -7.8598031888864217e-002,
          1.8052413552221119e-001, -2.1156701347494350e-001,
          -4.8783066913826993e-002, 1.0980786448191887e-001,
          -2.0900959216244247e-001, -1.5538725651381058e-001,
          1.6394051523299174e-003, -4.7744913571692270e-002,
          3.3227243564678051e-002, 3.4355570458979641e-002,
          -3.0428738617557276e-002, 2.9463084590692006e-002,
          -4.1383675537307554e-002, -7.3745851970570014e-002,
          6.2158275295200106e-002, -7.0121501102139733e-003,
          -2.1287119953722428e-001, -9.4268631575900125e-002,
          -1.0838099607387189e-001, 1.5828120837836288e-001,
          1.1926416359945682e-001, 9.4637517834020371e-002,
          1.1131394689644039e-001, -6.6379408142722141e-001,
          3.8186389181741121e-001, 2.7956087454051589e-002,
          -3.4197131304946371e-001, -6.2310061684217571e-002,
          4.3253619816077594e-002, -1.5578608109905995e-001,
          -1.8728520803115451e-002, -5.5314820346065371e-002,
          -1.0390922176296993e-001, 1.8148746495866042e-001,
          -4.3689888928760606e-002, 2.6185139765086633e-002,
          2.3859707027562610e-001, 1.7483691660572770e-001,
          -5.2705701100970399e-002, -4.5348149656927056e-001,
          -1.2549948023316332e-002, -3.7552959053695885e-002,
          -5.9323267193324525e-001, -1.6522319148384113e-001,
          1.5761296227834950e-002, -1.2241846424221109e-001,
          4.7423664455513675e-001, 3.0815409377841446e-001,
          -3.6356143745200555e-002, -1.5881528020351230e-002,
          -3.3234657042184646e-003, -1.8686211744498810e-001,
          1.4026267619833527e-001, 9.5734958056257272e-002,
          6.0927755844041136e-002, 5.0626989167469416e-001,
          -3.1878322441100204e-001, -1.3510843811990125e-001,
          1.8325610211498783e-001, 1.4539639692520473e-001,
          -2.9931800167772648e-002, -1.8850770149614091e-001,
          3.0125320322363994e-003, 1.1608612727733425e-001,
          5.3809239909641614e-002, -2.7167741635258778e-002,
          5.5970875105226836e-001, -4.0314088314600838e-001,
          -1.5481293663454143e-001, -5.5590044787446480e-001,
          -2.2275321431624362e-001, -1.2133825479561418e-001,
          8.8593712374781218e-003, 1.1576680888820373e-001,
          2.8435009581521614e-001, -8.2427585770569176e-002,
          4.2467649092279808e-001, -1.6263534199020432e-001,
          2.4798522556346478e-001, 1.6943896842474601e-001,
          -2.2513922937311571e-002, -1.8423942998433296e-001,
          -5.4413577109443546e-003, -1.3258939617147397e-002,
          -1.3588443589580684e-001, 2.7170488917364566e-001,
          1.9916151559322712e-001, -5.8751984634078713e-001,
          5.3493041274405506e-004, 1.4165914051851392e-001,
          3.4454905710503525e-002, -1.3450915979898304e-001,
          -2.9636613532272993e-001, 1.3058405974185747e-001,
          7.4155647510694769e-002, -1.6419671495520433e-001,
          -3.7807293119092483e-001, -7.4288984836209687e-002,
          1.1939412664348983e-001, 5.7074090898718099e-001,
          -2.6708617680282054e-001, 5.0411024948578131e-001,
          -1.7852157193901433e-001, -1.8491563202791156e-001,
          -5.7791157242790166e-003, -2.0153862119431182e-001,
          3.7301453966111377e-002, -9.1853655221479424e-002,
          -4.2798674518360807e-002, 1.3989939514406025e-001,
          -1.3794235379402955e-003, 9.9670675957729840e-002,
          -1.1545282387331740e-001, 3.2329994669473788e-001,
          3.2019204042631655e-001, 8.2700641376833639e-002,
          3.7350569233099332e-002, 8.8966601185549221e-002,
          -6.7290112217112397e-002, -8.5325251996496876e-002,
          7.7851768232932703e-002, -2.6319955605959117e-001,
          1.9667199022578050e-001, 2.4976125423395012e-003,
          5.9662636648459583e-002, -5.4800332808360247e-002,
          -9.7802570255953736e-002, 2.6561057279994662e-002,
          3.0055828664078174e-002, 1.7266178406365712e-001,
          5.1942405368130787e-002, 1.0600966350750288e-002,
          -4.7123421115148535e-002, -6.4131843855588762e-003,
          6.9307803551476380e-002, -3.8457735508565453e-002,
          -3.0791525814407573e-002, -8.3171781088676525e-002,
          -2.9383827603183279e-002, 2.0705453606379359e-001,
          -9.4871221128138110e-003, -9.3586629251684109e-002,
          -2.7496689223708484e-002, 7.5335498826020003e-002,
          -1.7484219272872858e-001, -3.5106742919089121e-002,
          -1.5781397399733707e-001, -1.0813138567199769e-001,
          -1.2080361819628486e-001, -4.7577268779570060e-002,
          -8.5800574121269957e-002, -3.2746282966641477e-002,
          -1.4382476442464370e-001, 1.0416510429730203e-002,
          -3.8247385142055799e-002, 9.0892996957663133e-002,
          -1.2203381048850317e-001, 1.0191031086970584e-001,
          7.3221100305862251e-003, 4.1165630498775620e-002,
          -2.4371222382726962e-001, -1.3282806991996093e-001,
          -2.2771963993596996e-002, -1.4439921383008761e-001,
          -6.2657874935419730e-002, -5.1880645198919446e-002,
          -2.3422971001344450e-001, -1.1088036087162229e-001,
          -6.9160554113961825e-002, 3.7055022463789659e-002,
          2.0285242722085808e-001, 3.7315516610897291e-002,
          2.2086332130390912e-001, -2.2013463575334093e-002,
          9.5160394474484197e-002, 3.0513549956668787e-002,
          -6.6839753002547797e-002, 1.9207085651026518e-001,
          -3.8017131432562176e-003, 1.6297067106874852e-001,
          6.9447519732985163e-003, -1.0822136804807855e-002,
          -3.4625863745787293e-002, -8.3869029611683105e-002,
          -1.4815262136435407e-002, 1.1801142616739349e-002,
          2.1011673196144859e-002, 2.0113264566973668e-001,
          2.4406145212577082e-002, -2.0251687224422135e-001,
          -1.7524003616879679e-002, -3.3381268651133451e-002,
          1.7517411356280349e-001, 2.1875896689473521e-003,
          -4.0774914549742879e-002, -6.6224503605370105e-002,
          1.5141845577503127e-001, 1.6677727368494166e-001,
          -1.2850591988657224e-002, -4.5306913462508383e-002,
          8.6668470778936621e-002, -8.5877496058113872e-002,
          -4.2812823205578224e-003, 1.8763437468909994e-001,
          -8.3122393869476133e-002, -8.0962307981504301e-004,
          -1.2567975784319529e-001, 1.4750758799308722e-001,
          1.8779414620527284e-002, 1.9045113656579080e-001,
          -1.5435028453533023e-001, 5.8536339265640586e-002,
          -1.4010425712550145e-001, 4.6120463786339660e-002,
          1.6879046941307302e-001, 9.4699323594942861e-002,
          6.7911888784446678e-002, -3.2295219233206281e-002,
          -5.3648414675550427e-002, -1.7679884582243097e-001,
          -1.3873295540800989e-001, -2.3645791564971312e-002,
          8.8204987001549195e-001, -5.1041587823326767e-002,
          -3.3739895884794419e-001, 2.5019935222505285e-001,
          7.6238459505485556e-001, -5.0409414089230442e-001,
          -5.0460986330571012e-001, 2.0911353682987976e-001,
          -5.1443446178043091e-002, -1.5672645777340108e-001,
          7.5054033140592807e-002, -1.4944243446727765e-001,
          -2.1579119041339234e-001, 5.2796665698083244e-002,
          5.2882484385982487e-001, -3.8022223747467263e-002,
          -2.8899658237276626e-001, -3.0517041507527615e-001,
          6.6868978288284656e-002, -3.4161413983284766e-001,
          4.4677894123644042e-002, -9.2154833498599847e-003,
          -2.7364308870491727e-001, 1.7290558397536379e-001,
          2.3712526304868498e-001, -5.1162264569764158e-002,
          -4.9329476930018140e-001, 3.7096039170333578e-001,
          -2.1321954849491673e-001, -7.6322737553471298e-002,
          -1.1421951159275455e-001, 3.2132330400482639e-001,
          4.6430408746660490e-001, -2.5054471730753164e-001,
          1.8836682957733061e-001, -1.8484572887713310e-001,
          2.8892892801955672e-002, 1.8406013578008286e-002,
          -1.3399856698017507e-001, -3.0697944028624896e-001,
          1.3534256011409748e-001, -5.1849650924018553e-001,
          -2.5760383501310047e-001, 1.0353232140490166e-001,
          -4.4394908389872134e-001, 1.8621163855841755e-001,
          1.1853933748705103e-001, 1.9981379526265382e-002,
          -1.5744115199385086e-001, -8.2346023072251459e-002,
          3.8050191811052037e-001, 3.4303827106986295e-001,
          5.8221865967399178e-001, 4.6665217740515180e-001,
          -3.8141170560457009e-002, -2.6094332369001394e-001,
          -4.5810484828901613e-002, 2.0522253929260220e-001,
          -2.0258126987859884e-001, 6.8393199588066123e-001,
          3.1176659894390130e-001, -3.2134262538139513e-001,
          2.5056505978443815e-002, 8.2040496417626507e-002,
          1.1247634547643913e-001, -2.7345772841952704e-001,
          5.1112252325628764e-002, -4.8859236958821396e-003,
          3.3020890798554159e-001, -5.7796358059538755e-001,
          4.7037015068804887e-002, 3.2342323023807895e-001,
          -7.9643059321605307e-003, 6.4339179826153878e-002,
          2.4665679447788982e-001, -3.6254238726750272e-002,
          -1.1687086557027770e-001, 2.0757073146085775e-001,
          -2.0628090636952784e-001, 2.0960219172797542e-002,
          -1.2526226696914550e-001, -4.4180318795677520e-001,
          4.4899736935960632e-001, -5.1069273431772511e-001,
          -3.0924283707175010e-001, -3.1425337355100580e-001,
          -4.6794113987892033e-001, -3.0569164947908661e-001,
          -1.4235165419418241e-001, -9.2028202191658637e-002,
          3.8850221693360459e-001, 7.9065963974044015e-002,
          -1.2683235154469716e-001, 6.3207539313567762e-001,
          -6.2415083665890114e-001, -4.0801835634632438e-002,
          9.0970749065283990e-002, -2.3897570352690145e-001,
          -2.7312805270747732e-002, -7.4518078708816451e-002,
          8.7820113415844794e-002, 8.5868283615597368e-002,
          -1.1899966128232078e-001, 6.2175172164555044e-002,
          -3.7769714808430471e-002, 1.5424634159965955e-002,
          -5.9605847637929074e-002, 6.7336543835547380e-002,
          2.0447653208963684e-001, -5.0977776193568657e-002,
          -9.1393851716207647e-002, 2.5843679865930603e-002,
          4.5710059783414378e-003, 1.5450751292665316e-001,
          9.0973493629117150e-002, 2.3360190442272952e-001,
          -4.8693067287448030e-002, 2.3847228858087344e-001,
          -1.0808525495553775e-001, 4.0882562598284114e-002,
          2.0762808624820223e-001, 1.2651471606676534e-001,
          -7.6695460580328209e-002, 1.4102861922627077e-001,
          1.0750455789392031e-001, -8.2722349314124449e-002,
          -9.2243690451313236e-003, -1.2367321476907317e-001,
          -2.0156113510683660e-001, -9.5253591287035432e-003,
          -5.4010797114753678e-002, 1.6960572955503958e-001,
          4.9698049951218175e-002, -6.8219389026718646e-002,
          1.2972209886144110e-002, -7.1426065911613587e-002,
          -1.7089359943012886e-001, -3.3593099473933928e-002,
          -1.9909041242590447e-001, 7.5729394909540240e-002,
          3.9555567222978462e-002, -1.8517234785017556e-001,
          -4.4737794823305886e-002, -1.3356300257991635e-001,
          -1.8530125444429690e-001, 2.9670547672747616e-001,
          -6.4917154679744763e-003, -1.1980062254935357e-001,
          2.2297498882961878e-001, -9.1436574354611486e-002,
          -2.1220292986147160e-001, -4.0679926305499763e-002,
          9.1725441411155295e-002, 1.2725149222130608e-001,
          1.8554975328639778e-001, 1.3005906839472775e-001,
          9.5098564418929207e-002, 7.2142353861094535e-002,
          -4.0626138966700309e-002, 1.7575575242358826e-001,
          2.1832642684684551e-002, 5.6387219497102528e-002,
          1.3800573095355811e-001, -4.2403539033376611e-002,
          -7.1311876544579558e-002, -1.1891440685232425e-001,
          -2.6178362735880317e-001, -6.7048304466656595e-003,
          1.6810185033185621e-001, -8.4677167183169422e-002,
          1.0259212302212269e-001, 6.4567150255904621e-002,
          1.7533226200789895e-001, -2.9324402907143499e-002,
          -9.4035060982377641e-002, -1.2923855501545353e-001,
          1.6220691161263504e-001, -1.2905309753385841e-001,
          5.9313006069019500e-002, 1.1163914691957089e-001,
          1.4279033774176231e-001, -1.3606398724158575e-001,
          1.0022219896883158e-001, 2.5798618723788075e-001,
          -1.2772611984333739e-002, 1.0358074315655314e-002,
          2.8377916182975318e-002, 1.0778656883040824e-001,
          -1.1175008846099643e-001, -1.4651464785636212e-002,
          -1.1613927202421956e-001, 2.3940273442262957e-002,
          -2.7339967320843740e-002, 1.0532436078372583e-001,
          3.7567846789359810e-001, 3.1539955558976068e-002,
          1.5009146534644249e-001, -2.2463867134988666e-001,
          -2.3267544583964941e-001, 6.1065485332037536e-003,
          3.1743823238906838e-001, -8.1413779558475133e-002,
          1.2065718092755585e-001, 4.0771402393153480e-002,
          4.5993005448932622e-003, 1.0535640492946589e-001,
          -5.4032074179732853e-002, -8.3882949014734670e-002,
          1.0695844929365390e-001, 8.5418486518817088e-002,
          7.1122197213052296e-002, 1.4444606085980236e-001,
          -2.3852114201720544e-002, 3.3391290824373351e-002,
          -1.7214727837498847e-002, 1.2244686106244380e-001,
          -1.2689051166031311e-003, -1.5184972863780588e-001,
          -6.1992489411922799e-002, 8.0812227322551070e-002,
          -1.1060966513707814e-001, -5.0897925669401607e-002,
          7.7932473161682510e-003, 4.4376147433192965e-002,
          4.4215691729888357e-001, 2.5852290302789799e-001,
          4.8880457212139494e-003, 5.8392108750835087e-002,
          1.3639268984518380e-001, -4.2421538622445985e-002,
          1.2763728977478095e-001, -6.6995842743782355e-002,
          -3.5005463507821105e-002, 1.2573881953555172e-001,
          -2.8972008924577630e-002, 1.0396149535278056e-001,
          -4.5929636784190746e-003, 1.2095405194442989e-001,
          -9.6178423586180409e-002, -3.6438476812470554e-002,
          7.0121245336607130e-002, 7.9690009767169626e-002,
          8.4761401409148396e-002, -1.2839725622647977e-001,
          1.6971778558476919e-001, -6.4204833948619186e-002,
          1.7297286108731179e-002, -9.2368986139165110e-002,
          2.6218820011298900e-002, -3.4849068543078496e-002,
          -4.5342428548557454e-002, 4.6361881213364585e-003,
          1.1003521262303610e-001, 1.4509048552947146e-001,
          1.1492455853454599e-001, -1.3229975392698612e-001,
          1.3240919981813429e-001, 9.4891943582260538e-002,
          -1.0280123330084467e-001, 6.8807270748041674e-002,
          1.2394346404389682e-001, 1.7992124407126862e-002,
          6.9108287266680848e-002, 2.1011978205806537e-003,
          1.0151699347002245e-001, -1.4889258004177100e-001,
          -2.3081785198453855e-002, -2.1002630582429387e-002,
          2.2682528964982573e-001, -9.0453814389703180e-002,
          -3.5475900326960325e-001, -1.9728731085239132e-001,
          2.1135918175702378e-001, -1.4724104463148063e-001,
          -7.9917338852946218e-002, -1.6395537791454073e-001,
          2.3780678278842934e-001, 2.8032308486112834e-001,
          -1.1182578668996157e-001, 5.4291635562966636e-002,
          -2.4804130095093516e-001, -1.2247822461906524e-002,
          1.5516183011653542e-001, -1.0286193962630488e-001,
          5.0569067825491545e-002, -2.3587705841138670e-001,
          -4.5750249534520504e-002, 4.7327539714149623e-002,
          -9.0533368558782454e-002, -4.1049012022181579e-002,
          -1.4919770010517264e-001, 6.3708730219851323e-002,
          1.6146828599362947e-001, 5.5947841830541745e-002,
          -3.6421952091026145e-002, 9.2239102410982571e-002,
          3.0741084982051958e-001, 1.2433628608382169e-003,
          -2.7114440052948478e-003, 1.8181936314517227e-002,
          -6.5717076597267732e-001, 1.0231189025667166e-001,
          -1.4555080828711270e-001, -4.6232443974797660e-001,
          2.4362353971431838e-001, -6.4561165419952271e-002,
          -2.8848379113949923e-001, -2.8762071000404971e-001,
          -2.3308830562904026e-001, -1.9278314206606526e-001,
          3.7765858315153772e-001, 2.6246005970945985e-001,
          -4.1081150737683265e-002, -2.4733412936354424e-001,
          -3.6177347322662368e-001, -3.3831290795910474e-001,
          -1.7316843706055730e-002, -3.6280750915025450e-001,
          -4.3609956828470403e-001, 3.6128199236057701e-001,
          -1.5381726274031865e-001, -3.5977420482859063e-001,
          8.0282980363921841e-003, 1.3369110702057171e-001,
          5.4602538222787811e-001, -7.2006307654920026e-002,
          -2.2773641144550275e-001, 3.5503208326391610e-002,
          -2.8150346706182910e-001, -8.8406853166406313e-002,
          -2.4364936969666018e-001, -5.2254966609599318e-001,
          2.3797504341170669e-001, -2.5141138769052485e-001,
          -2.8961777661059845e-001, 3.8683072579139860e-002,
          -1.9431055283394655e-001, -3.4517706561552369e-001,
          -3.3042674649121878e-001, -8.4656045215705342e-002,
          -2.4787225713506933e-001, 1.0887286639109539e-001,
          5.5397311047204523e-002, 2.8721137298446386e-001,
          1.9003104609823468e-001, -8.6326108856430106e-002,
          4.3119826168149605e-001, -1.0211619040525551e-001,
          -7.4780555196251777e-002, -1.2176870631670940e-001,
          8.9318808977083358e-002, 2.1633216410819980e-001,
          -5.4574595885855948e-001, 2.7620022971870023e-001,
          8.5388964763727360e-001, -1.0071231315979569e-002,
          -1.1556428115042632e-001, 1.4293939350769364e-001,
          4.1077758896114830e-001, 2.0035333860088617e-002,
          1.2988275530388840e-001, 3.0134630516139926e-001,
          1.7191361360073784e-001, 6.1241403511339532e-001,
          7.6016860129609454e-002, -4.9504327302248810e-002,
          -2.6992542408823722e-001, 1.5442907252598165e-001,
          2.9573187903533799e-001, -4.4028444501464890e-003,
          1.8381748329563224e-001, 1.1647335571904517e-001,
          -4.1811910467547087e-001, 3.2123696827381237e-001,
          8.7588739899298107e-002, -3.4282673047014767e-002,
          6.0462651607905249e-001, 1.6859370602930632e-001,
          1.0465185508096664e-001, -4.8576937962187622e-001,
          1.1219440372625041e-001, 2.8536659034443695e-001,
          -7.8261793206250679e-002, -6.1808837370888958e-001,
          3.1105663220404461e-001, 2.5608434960608262e-001,
          4.6992831447942174e-001, 6.1048331966775238e-001,
          -1.0566211820096864e-001, 1.3549895893519337e-001,
          -2.5728628026221917e-001, 1.8587699537445995e-001,
          2.4821930171588660e-001, -3.3751780765565571e-002,
          -4.0336229796179240e-001, -2.0590790633169109e-001,
          1.2819013002257584e-002, 6.7178982581766508e-002,
          -6.9831104329718591e-002, 1.4503485488483969e-001,
          -1.4969539668967877e-001, 2.7312914240203621e-003,
          -5.9995908831367628e-002, -4.6858445269574764e-002,
          5.2294175083033752e-002, -2.7055257971250212e-003,
          -1.0256225694479556e-002, -1.0857592251288900e-001,
          -1.1431176154989159e-001, 1.0741187511045710e-002,
          2.7587892985594276e-002, -6.2310733446719779e-002,
          1.3663367774390584e-002, -3.1063553496176663e-002,
          -5.6676640152586256e-002, -7.6091133724588020e-002,
          -7.1549201723720798e-002, -6.8538057610433509e-002,
          1.2711955631330494e-002, 1.5132759694160334e-002,
          1.2401452846840822e-002, -1.5859507148476115e-002,
          1.8176131758255074e-001, -1.1556013149530973e-001,
          -1.4776655333352837e-001, 5.3513411701158250e-003,
          3.4252833964815890e-002, 9.7291501908102720e-002,
          7.2115852851332540e-002, 6.6370912293070919e-002,
          4.6950726531617519e-002, -1.0171265326059440e-002,
          2.0192430235695155e-002, -8.1664683153269149e-002,
          6.0061858218103517e-002, 4.1520155834102006e-003,
          9.7469852302660143e-002, 2.7678745946508827e-002,
          1.5536889857916220e-001, 2.0938149750690180e-002,
          -2.6629873383287653e-002, -2.2849960389509957e-003,
          -1.4611202450242845e-002, 8.6922489462002400e-002,
          1.4787347554615168e-001, -3.8250806947153437e-002,
          1.5296771469718183e-002, 3.4548477824478847e-002,
          -1.1586848224743057e-001, -4.6508715845229857e-002,
          4.0245873477832199e-002, -6.9948150017566484e-003,
          -2.4309984792703583e-002, 1.2860901719310799e-002,
          -9.1696123209750999e-002, -2.4944174898899923e-002,
          -3.9268152670289977e-002, -8.8403307690799141e-002,
          4.7470466112237063e-002, -9.1894776976164869e-002,
          4.1781301398667444e-003, 5.5056043267910131e-002,
          -2.0296906697565838e-002, 1.0668802361245257e-001,
          -3.2444616149301511e-002, -3.5586259910205524e-002,
          1.0294647221120458e-002, 3.7601058266007674e-002,
          -1.1647113972115114e-001, 9.2944939023949624e-002,
          1.5160276196193422e-003, -3.4439809100827383e-002,
          -3.5846406207935014e-002, 1.3083637875800783e-001,
          1.1205350580374862e-002, 3.3994111390773518e-002,
          -1.4775240217351804e-001, -7.9475142602446810e-003,
          7.2914596323426006e-002, -5.5531285463476403e-002,
          -3.7154324509267797e-002, -8.5241371111271350e-002,
          -7.5971338802228144e-002, -6.9123178877148167e-002,
          6.7158779269008012e-002, -1.5486786506945903e-002,
          -3.6981017680267854e-002, -8.3558172217640461e-002,
          1.1522284648383860e-001, -4.7301948800926086e-002,
          1.4841263752999462e-001, -7.9372662946360459e-002,
          -2.2330195521212109e-002, -7.8752966237928809e-002,
          -1.2080571015532192e-001, -9.4420558583367425e-002,
          -7.0735959521369129e-002, 6.2441137406638876e-002,
          5.5161860677570299e-002, 1.1692029018405284e-002,
          -3.2383934331448938e-001, -6.4887322286535098e-003,
          -1.3081669275931732e-001, -5.0274618026289221e-002,
          4.5175017059158197e-002, -1.0631593278903052e-001,
          -7.0734943788819211e-003, -4.0922612890527454e-002,
          -6.5189345669722981e-002, -7.4106256699345230e-002,
          -2.7845936860667834e-002, -1.2041986614726140e-001,
          -4.3317995122493208e-002, 1.1554849084243883e-002,
          3.9008549440472905e-002, -5.1121976820671419e-002,
          2.7175512728935019e-002, -5.5901675870414357e-002,
          -1.4194514793055013e-001, 2.2471846310079271e-002,
          8.5758333107728374e-002, 1.9473676593120198e-002,
          1.4496468085133316e-001, 1.3872357295348327e-002,
          -2.4419262558422698e-002, -4.2230116808096463e-002,
          4.5947362921879821e-002, -1.8559697011641053e-002,
          -1.0993009182549152e-001, -2.5858898444490436e-002,
          -1.2952496877336361e-002, -2.0325947256391971e-002,
          7.2942869920810796e-002, -3.5117673239737851e-003,
          7.8750173063796960e-002, -1.2280558136642088e-001,
          2.6066205996668833e-002, -9.9249356347365703e-002,
          1.3513925739665053e-001, 1.5732635670038958e-001,
          -6.3682254855623940e-003, 3.4288656678909103e-002,
          3.3226255921533603e-002, 1.3629497714113908e-001,
          -6.4749240668198222e-003, 5.5340829814374951e-002,
          1.0659896694094440e-001, 4.3676961780896778e-002,
          -1.9971181740598731e-001, -1.1977575358478388e-003,
          -9.3252732007154143e-002, -2.1615119628816643e-002,
          1.2499719932072190e-002, -5.6746397968797775e-002,
          3.4568547563837856e-002, 7.3241357382204914e-002,
          -3.7041652000186054e-002, -1.1837104852585936e-001,
          1.5238820031924444e-001, -9.5238552219555281e-002,
          -1.9589464806154155e-002, -6.5718932495418686e-002,
          6.1381338898538014e-003, 3.0853236120558705e-002,
          -2.8061851899875055e-002, -3.6896091655498967e-002,
          -1.3965552106634654e-001, 9.3699581191695080e-002,
          -1.9957975090193453e-002, 6.9047169494247954e-002,
          7.9578236714049955e-002, 9.5696533775055076e-002,
          -1.2068829885670967e-002, 1.0903651837770774e-001,
          -1.7285381557754542e-001, -7.5754992307986435e-002,
          -1.8972720274936714e-002, -5.5511472448296365e-002,
          3.6561510912422122e-002, 8.2976411811252135e-002,
          7.6067500982051506e-002, -1.2597856630275284e-001,
          -6.7603976896470810e-002, 1.4008107896046837e-001,
          9.4891761538598809e-002, 7.0061367296100768e-002,
          5.4856632246002700e-002, 4.6173334632971463e-002,
          5.7648582430471405e-002, -3.0186027431955469e-002,
          1.2537474396651085e-001, 6.9215720337097497e-002,
          -7.5022340241775273e-002, -3.0141050112839674e-002,
          3.2712045761824154e-002, -6.7313371208890665e-002,
          -9.9818592439161774e-002, -4.1973096688777668e-002,
          -2.6098138643698959e-002, -6.2228568169016327e-002,
          1.3823730296779543e-001, 1.3724245782034455e-001,
          -7.5647360319633524e-004, 3.5595927797836429e-003,
          -2.3419581167502435e-001, -2.1849082471942549e-001,
          1.8646857791920679e-001, -1.3629599466300304e-001,
          4.9462849912427602e-002, -4.9430468541558789e-002,
          -2.5439614481285643e-002, -1.5779414425661845e-001,
          2.9109066551053588e-002, 1.0262510797714888e-001,
          6.0776631494929297e-002, 3.1371757309918672e-003,
          1.3759253003421299e-002, 1.0775916636232769e-001,
          -5.0300208788469442e-002, 1.3632004561460504e-002,
          2.3387525478584281e-001, -1.8006761834814083e-001,
          -2.1666828577750888e-001, -3.4727276077036673e-001,
          -3.6328936533121592e-001, -1.9068410507949093e-001,
          3.7436261156459177e-002, 7.8350652639000720e-002,
          -3.6676691231957975e-001, 1.0693931837395697e-001,
          -7.3894459581629922e-003, 2.4944796627324600e-001,
          3.1999764458498747e-001, -3.2927979811552860e-001,
          -5.4928168995462712e-002, -1.7550038553601396e-001,
          -2.0154235228352319e-001, -4.7003529271050992e-001,
          -2.3576781560417473e-001, 3.2357977080179506e-001,
          -5.3186151689215831e-002, -2.3719839489107766e-001,
          3.8651589395684020e-002, 1.6779829365325261e-001,
          -3.7160022246994623e-001, 4.3152930976530418e-001,
          2.1177202697971545e-001, -2.8379253528524610e-002,
          -1.0283003883175030e-002, -3.1201934897018407e-001,
          -7.6963119477898440e-002, 2.1269885810133890e-001,
          -4.3254872117723046e-002, 3.6642678575335663e-001,
          -1.1645859033922916e-001, 8.3231201955115769e-002,
          -1.0025324522207293e-001, -2.5710659839906908e-001,
          -1.2217268643549639e-002, -1.3521439947257546e-001,
          5.3400687879195018e-002, 1.3813980598019363e-001,
          -7.2403831307890118e-002, 2.2738985769906576e-002,
          -5.6392656420223353e-001, -5.8112619168804357e-002,
          1.1257850966996223e-001, 2.6138847900417653e-002,
          -3.5680747751124381e-001, 1.8776428520297206e-001,
          5.1229203153165292e-001, -8.4384673170913305e-002,
          1.2702033536130322e-001, 4.5093705921424587e-001,
          5.1614186825164061e-002, 2.7192349077155625e-001,
          -3.9872030677951986e-001, -3.1165816246754741e-001,
          4.3251020488203873e-001, -1.9115369691576570e-001,
          2.5984444401429985e-001, 8.4158619850181790e-002,
          -4.7955643597721925e-001, 8.2694254749951457e-002,
          1.0972024498364817e-001, 1.8957058987003835e-002,
          2.7286345733134831e-001, -1.4930387384868596e-001,
          -1.2398333261260132e-001, -1.0174596760577680e-001,
          -2.7303920017432337e-001, 1.6278782907929731e-001,
          -1.5561781972762717e-001, -4.7900799366187179e-002,
          1.8370953499379086e-001, -1.8391054558853603e-001,
          -2.9936247422631718e-001, 4.7461693181403863e-002,
          5.7548567749677343e-002, 5.2485884068527956e-003,
          -3.1210451036813569e-001, 1.8954944001248158e-003,
          3.8377219728719823e-003, -1.1873754691942554e-002,
          4.2713811213935575e-002, 3.2889401578547438e-002,
          3.9333076640245011e-002, -2.6699364259378411e-002,
          1.2083181439435289e-001, 9.7894997775930942e-002,
          -5.6718813127168650e-002, -1.2224279549952474e-001,
          9.7355401836571404e-002, 5.9883238135125624e-002,
          -7.2790621080216444e-002, 5.4746721664100696e-002,
          2.6584529302833931e-002, -5.6174126418235722e-002,
          -1.5690501372939222e-001, -9.2076651482815325e-002,
          1.5026487191541807e-001, 2.0299219035058002e-002,
          6.9682433916173819e-002, 1.9963391560331031e-001,
          7.7118710560198237e-003, 3.8952062229388691e-002,
          7.2362205974372457e-002, 1.3382356926691184e-002,
          -8.4252420637034864e-002, 9.0360739701850490e-003,
          1.2949927652230528e-001, -1.1025553623945801e-001,
          1.7775058890015830e-001, -7.9555751066190769e-002,
          3.6916014104257329e-002, -5.5988702755177248e-002,
          -5.7317532419641160e-002, 2.7913496698039390e-002,
          1.3865586952683443e-002, 7.8073380804158724e-002,
          1.7992643265658640e-002, 4.6022179607731695e-002,
          1.0789555287049117e-001, 4.2868459969662855e-002,
          -1.3546898975689071e-003, 7.7817524262708743e-002,
          -2.4410763619164777e-002, 2.0862518923718235e-003,
          -1.3008185347044754e-001, 3.8267361072283221e-002,
          -9.7738753355300190e-002, -1.2632896654895212e-001,
          6.3213300527249161e-002, -2.4406695313196603e-002,
          7.5452194133430956e-003, 6.1763940139785131e-002,
          9.7676670344348918e-002, -2.3496638553576552e-001,
          5.8536716363609576e-002, -8.9630010706134064e-002,
          1.5375285879905821e-002, -2.0188045663124260e-001,
          -3.0265969643919918e-002, -8.0923389445148139e-002,
          2.5628216304057705e-002, -1.2788861277642992e-002,
          -3.3726586272489430e-002, 1.3330250978663083e-001,
          3.8734303038141488e-002, 7.6178866000936971e-002,
          1.8987536661914755e-002, 1.4920405273445939e-001,
          -4.3292776465478191e-003, -2.1551082439145891e-001,
          -1.3075994301401897e-001, -2.4542623846301920e-001,
          -7.9228290333581461e-002, 4.2153507912681160e-002,
          -8.3948066389026132e-002, 2.8141383095409195e-001,
          1.7283323712876691e-002, -2.8027189403337327e-001,
          1.1199471865798272e-001, 5.4755117451525864e-002,
          1.9438459795811297e-001, 6.0421345391435226e-002,
          -5.2289580339966786e-002, 1.5882915222102464e-001,
          7.5169319385724340e-002, -8.7770159964635414e-002,
          7.6681114008813767e-003, 2.5171440042165572e-001,
          -1.8533585534503985e-001, -1.1387603837438776e-001,
          -1.4738788081438225e-002, 1.0597027913346027e-003,
          -6.6276705395484303e-002, -9.7101972807641990e-002,
          -8.5794996204206997e-002, -1.4456793372549837e-001,
          6.3933815474345623e-001, 5.3037521622177737e-002,
          -2.0247613662238736e-001, 1.4295258844835487e-001,
          -9.0557165207663201e-002, 9.1924441705086554e-002,
          7.5830339965458862e-002, 9.6921887948596824e-002,
          -4.7817353437409615e-002, 6.3986198663302694e-004,
