%YAML:1.0
my_nn: !!opencv-ml-ann-mlp
   layer_sizes: !!opencv-matrix
      rows: 1
      cols: 4
      dt: i
      data: [ 14, 100, 100, 32 ]
   activation_function: SIGMOID_SYM
   f_param1: 6.6666666666666663e-001
   f_param2: 1.7159000000000000e+000
   min_val: -9.4999999999999996e-001
   max_val: 9.4999999999999996e-001
   min_val1: -9.7999999999999998e-001
   max_val1: 9.7999999999999998e-001
   training_params:
      train_method: BACKPROP
      dw_scale: 1.0000000000000000e-003
      moment_scale: 0.
      term_criteria: { epsilon:1.1920928955078125e-007, iterations:1000 }
   input_scale: [ 1.9297166736009885e-001, -6.9516081721035039e-001,
       1.2115262490040257e+001, -8.0839937017686392e+000,
       8.9914594669172363e+000, -8.2741601616350344e+000,
       4.5152767080424194e+000, -5.4759853190429677e+000,
       4.9609809691880304e+000, -3.1058336458252058e+000,
       1.5220320738854379e-001, -5.8717772882919683e-001,
       5.3453021586209797e+000, -2.4258909013014032e+000,
       1.7423436034952344e+000, -6.4260956743118980e-001,
       5.1711333567915840e-001, -2.2613875114438414e-001,
       1.4374932014149687e+001, -1.6628962663799718e-001,
       1.7299937160604408e+001, -1.5253155157902604e-001,
       2.4843775716589938e+001, -9.0572975107342135e-002,
       5.6237005235836408e+000, -1.4032296569503291e-001,
       5.7292218442989451e+002, -1.5821932395837689e-002 ]
   output_scale: [ 5.2631578947368418e-001, 4.9999999999999994e-001,
       5.2631578947368418e-001, 4.9999999999999994e-001,
       5.2631578947368418e-001, 4.9999999999999994e-001,
       5.2631578947368418e-001, 4.9999999999999994e-001,
       5.2631578947368418e-001, 4.9999999999999994e-001,
       5.2631578947368418e-001, 4.9999999999999994e-001,
       5.2631578947368418e-001, 4.9999999999999994e-001,
       5.2631578947368418e-001, 4.9999999999999994e-001,
       5.2631578947368418e-001, 4.9999999999999994e-001,
       5.2631578947368418e-001, 4.9999999999999994e-001,
       5.2631578947368418e-001, 4.9999999999999994e-001,
       5.2631578947368418e-001, 4.9999999999999994e-001,
       5.2631578947368418e-001, 4.9999999999999994e-001,
       5.2631578947368418e-001, 4.9999999999999994e-001,
       5.2631578947368418e-001, 4.9999999999999994e-001,
       5.2631578947368418e-001, 4.9999999999999994e-001,
       5.2631578947368418e-001, 4.9999999999999994e-001,
       5.2631578947368418e-001, 4.9999999999999994e-001,
       5.2631578947368418e-001, 4.9999999999999994e-001,
       5.2631578947368418e-001, 4.9999999999999994e-001,
       5.2631578947368418e-001, 4.9999999999999994e-001,
       5.2631578947368418e-001, 4.9999999999999994e-001,
       5.2631578947368418e-001, 4.9999999999999994e-001,
       5.2631578947368418e-001, 4.9999999999999994e-001,
       5.2631578947368418e-001, 4.9999999999999994e-001,
       5.2631578947368418e-001, 4.9999999999999994e-001,
       5.2631578947368418e-001, 4.9999999999999994e-001,
       5.2631578947368418e-001, 4.9999999999999994e-001,
       5.2631578947368418e-001, 4.9999999999999994e-001,
       5.2631578947368418e-001, 4.9999999999999994e-001,
       5.2631578947368418e-001, 4.9999999999999994e-001,
       5.2631578947368418e-001, 4.9999999999999994e-001 ]
   inv_output_scale: [ 1.8999999999999999e+000, -9.4999999999999996e-001,
       1.8999999999999999e+000, -9.4999999999999996e-001,
       1.8999999999999999e+000, -9.4999999999999996e-001,
       1.8999999999999999e+000, -9.4999999999999996e-001,
       1.8999999999999999e+000, -9.4999999999999996e-001,
       1.8999999999999999e+000, -9.4999999999999996e-001,
       1.8999999999999999e+000, -9.4999999999999996e-001,
       1.8999999999999999e+000, -9.4999999999999996e-001,
       1.8999999999999999e+000, -9.4999999999999996e-001,
       1.8999999999999999e+000, -9.4999999999999996e-001,
       1.8999999999999999e+000, -9.4999999999999996e-001,
       1.8999999999999999e+000, -9.4999999999999996e-001,
       1.8999999999999999e+000, -9.4999999999999996e-001,
       1.8999999999999999e+000, -9.4999999999999996e-001,
       1.8999999999999999e+000, -9.4999999999999996e-001,
       1.8999999999999999e+000, -9.4999999999999996e-001,
       1.8999999999999999e+000, -9.4999999999999996e-001,
       1.8999999999999999e+000, -9.4999999999999996e-001,
       1.8999999999999999e+000, -9.4999999999999996e-001,
       1.8999999999999999e+000, -9.4999999999999996e-001,
       1.8999999999999999e+000, -9.4999999999999996e-001,
       1.8999999999999999e+000, -9.4999999999999996e-001,
       1.8999999999999999e+000, -9.4999999999999996e-001,
       1.8999999999999999e+000, -9.4999999999999996e-001,
       1.8999999999999999e+000, -9.4999999999999996e-001,
       1.8999999999999999e+000, -9.4999999999999996e-001,
       1.8999999999999999e+000, -9.4999999999999996e-001,
       1.8999999999999999e+000, -9.4999999999999996e-001,
       1.8999999999999999e+000, -9.4999999999999996e-001,
       1.8999999999999999e+000, -9.4999999999999996e-001,
       1.8999999999999999e+000, -9.4999999999999996e-001,
       1.8999999999999999e+000, -9.4999999999999996e-001 ]
   weights:
      - [ -1.7600974397808160e+000, 8.7958482354790868e-001,
          3.9658114571533071e-001, -5.7842939467433174e-001,
          -7.5351573738200850e-001, -6.1867354106067241e-001,
          -1.7743301337004388e-001, -6.6643862835645173e-001,
          1.5653413183195755e+000, 2.1100179937934305e-001,
          -1.3110837538056974e+000, -4.5661464096954474e-001,
          1.1801799150804793e-001, -2.7366468861545884e-001,
          -2.1366492849781349e-001, -2.2815994451888325e-001,
          5.7612757516203672e-001, 7.9327241899628720e-001,
          -4.7808842161685455e-001, -1.4960521234715052e-001,
          -1.1068721100544757e-001, 8.9595238564297708e-001,
          -5.9325176678480163e-001, 3.1213039179644581e-001,
          8.1475065977018216e-002, 2.4307653746840077e-001,
          -1.4615658849366217e-001, 1.7405187580848908e-001,
          -3.5864031455868023e-001, -2.8133269712316994e-001,
          4.5184078290267431e-002, 3.5524474204099171e-001,
          -5.1159143641908578e-001, -7.5509219852072473e-001,
          -1.0422078035400388e+000, -3.3788288003445388e-001,
          2.5900571553637713e-001, 4.8297001364066561e-001,
          7.8777520186604300e-001, -3.7662745125859970e-001,
          -2.1489746946276547e-001, -6.0916755074037798e-001,
          -2.0599165810294728e-001, 6.9797863572166907e-001,
          1.7458346830699210e+000, 4.8880490730908714e-002,
          -1.6738635626353918e-001, -2.7778118685667019e-001,
          -1.3549949249932531e+000, -7.0116862698225660e-002,
          -3.7287805746912578e-001, -3.5214158135326978e-001,
          1.4954285845446669e-001, 3.6505179561174089e-001,
          -2.6200274508047861e-001, 2.2452428986933959e-001,
          1.1316961430235956e-001, 1.9267581457203181e-001,
          2.3166356553995356e-002, -5.4644163420445302e-001,
          5.2086464986390635e-002, 6.1370601455051688e-001,
          -1.2413619367934985e-001, -3.7139898713319053e-001,
          1.3638275783394360e+000, -4.0938757711925428e-001,
          -4.4869527429312112e-001, 9.3378358167334752e-001,
          -5.3834805634958838e-001, -1.0097665080560894e+000,
          -8.1129432916440969e-001, 6.2980345261346526e-001,
          3.3347204190216728e-001, 4.6801622879717238e-002,
          1.1446281400653577e+000, -2.6342735381375432e-001,
          2.5353191612360337e-001, -1.6985129274521707e-001,
          -6.5263934200846530e-001, 8.3326716273925783e-001,
          4.0119037997484741e-001, -3.1607798318097874e-001,
          6.1663448745899951e-001, 8.1695678447669051e-001,
          -1.9708790194063686e-001, 6.6601414470046125e-002,
          5.8703922309471113e-001, 4.1870774351330470e-001,
          4.0878567929728299e-001, 2.0433279076431909e-001,
          6.9679863458100885e-002, 3.7010820874928341e-001,
          -1.5710140571621281e-001, -6.9476595778536787e-001,
          -2.0955433612908250e-001, -1.3963509485147285e+000,
          6.4022026097993801e-001, 5.7613324506698545e-002,
          3.6698249953854278e-001, 1.8959037409119187e-001,
          8.4188530442359699e-001, 1.4398961264798256e+000,
          -1.0549181547168163e+000, 5.2009451393441353e-001,
          -1.1611100353710573e+000, -1.5696018211089131e+000,
          3.9301488620739494e-001, -2.9733782040456064e-001,
          2.2886048601094897e+000, -2.4946816325357707e-001,
          -4.1499055659231227e-001, 7.4776466909572503e-001,
          -4.8969030652406004e-001, 1.6480850356100091e-001,
          4.4347173656747707e-001, 6.2327314354319974e-001,
          2.0742339712261186e-002, -5.8363845372136444e-002,
          -1.4236915962303826e-001, 5.2568014906874694e-001,
          -4.1563956102937150e-001, -2.3415974191556246e-001,
          1.3918934365594557e+000, 1.1223023553109153e-001,
          -1.6223894547838962e+000, 4.0727008129337011e-001,
          -8.7585644715865962e-001, 7.4318102349955650e-001,
          -4.5839310987981385e-001, -7.3632059902175792e-002,
          4.5722983377364107e-001, 2.2824664936865718e-001,
          -2.2727068436385717e-001, -3.2305302984625167e-001,
          2.4262650600985247e-001, -6.4474316703988538e-002,
          3.6739224629207357e-001, 3.3417469426625146e-001,
          -3.9454474756662150e-001, -1.1057115747252032e-002,
          -9.8258627256495364e-003, 1.0326816692491100e-001,
          -1.1451202157884666e-001, -4.0960792037823401e-001,
          2.3560344940724502e+000, -5.3670085444627635e-001,
          -1.1874782918807272e-001, 1.5382292495120947e-001,
          4.3109450639463104e-001, -2.3743572668261842e-001,
          -1.2749511581273293e-001, 2.6241257817910096e-001,
          -2.6394958823829140e-001, -4.1944587989387866e-001,
          -3.6608132968215018e-001, 3.7136200555292376e-001,
          3.0857891169126400e-001, -2.9433508061172198e-001,
          -2.0339394979441827e-001, 2.1162751842522701e-001,
          2.5695026734930387e-001, 6.8271858441120520e-002,
          5.1188714580784833e-002, 6.3784353657036574e-001,
          7.8283793866996376e-001, 8.6236247114316433e-001,
          -2.2905580015757487e-001, -8.0714133776536046e-001,
          -7.8530562410597804e-001, 2.1231107751734060e-001,
          2.8702300647874929e-001, -4.5672282005724812e-001,
          1.1516237202289710e+000, 2.7797224181018770e-001,
          -1.0160923273000153e+000, 2.5770323710684628e-001,
          9.5765387177737735e-003, -5.5662440611578146e-001,
          -1.1337444022909725e-001, -4.8695466783931378e-002,
          5.0656267767937635e-001, 5.2479189557220929e-001,
          2.6676661375567984e-001, 1.9107866064436210e+000,
          -2.0767155306092629e-002, -4.4451513550032912e-001,
          -2.2825732742362081e-001, -4.2782522090939945e-001,
          2.0441936826576279e-001, 2.1438469932247066e-002,
          2.2409808942243048e+000, 4.2887178799937714e-001,
          -4.8091375191669772e-001, -1.0446295675298936e+000,
          -3.2936423023599964e-001, -8.7450681110767003e-001,
          -1.9043083865577889e-001, 3.9938666320771204e-001,
          4.8088764472740875e-001, 4.7140012662150771e-001,
          1.2511668399371090e+000, -1.5366873456447155e-001,
          -2.6337806373429458e+000, 7.8523665762679740e-001,
          -7.0466935548705268e-003, 4.3442460002338079e-001,
          -7.1176638690931632e-002, 3.9294978593373120e-001,
          1.7337981602558141e+000, -4.4947341757174059e-001,
          1.5683865322681680e+000, 3.8851925356277872e-001,
          -1.6034506158298945e-001, 1.5227099674930064e-001,
          -4.8677655454691970e-001, 2.2002294380793533e-003,
          2.5910144771098620e-001, -6.3705112975532108e-001,
          -4.5192941092219191e-002, 3.2350160279761264e-001,
          4.4243081687317880e-002, -4.4165939811975335e-001,
          2.3929960789392288e-001, 5.1877752207449064e-002,
          9.6228997322305754e-001, 5.2131321666780572e-001,
          1.1256782546279488e-001, -3.1541780369501010e-001,
          -1.8378820519954184e-001, -5.8825684119513821e-001,
          3.3953018262117647e-003, 3.8982296068126010e-001,
          1.6100301818959059e-001, 5.7058631617741951e-001,
          3.3128127678448871e-001, 8.1828210551409453e-001,
          -3.1012163070232157e-001, -1.8973415947007356e-004,
          -4.2343816286958044e-003, -3.2637887671327520e-001,
          -1.1007973704512639e-001, 1.1721879558458560e-001,
          -1.6547086128281871e-001, -1.0025030774594723e+000,
          2.3574720644083816e-001, 5.2061337176480504e-001,
          1.7825607660501508e-001, -2.8120778586676864e-001,
          2.4232142226445397e-001, 4.1845749559705880e-001,
          -8.5150547294281759e-002, 3.1667084950610985e-001,
          -3.8400407304380790e-001, -3.2631716569538949e-001,
          -3.5808394991761411e-001, 2.4428775481619458e-001,
          1.0539932267881138e+000, 4.6737589249060457e-001,
          1.5764876498802000e-001, -3.1017449164428329e-001,
          -3.2233365851024205e+000, -5.8275594321707469e-001,
          -1.5262502419521021e-001, 6.3169891109437060e-001,
          9.5588397730272756e-001, 6.1667163085365928e-001,
          9.9094554619037850e-002, -9.8017764714146072e-001,
          4.6923162539149749e-001, -1.1381445466091842e+000,
          8.8206735260200941e-001, 3.3896325499576280e-001,
          2.6508786169995369e+000, 3.7918333568210444e-001,
          1.6164563379552084e+000, -4.2083377445737730e-001,
          9.6133043710376578e-002, -2.7833381242509819e-001,
          4.5380725272092931e-001, 2.3694086119054560e+000,
          1.1623446277252474e+000, 1.2981117782193161e-001,
          9.0838151917188269e-003, 3.1084248662208575e-001,
          9.8211576395725653e-001, -2.4541483422185104e-001,
          -4.8932220907368995e-001, -1.3375320009355536e+000,
          -1.7634028252494753e+000, -4.9778191613587919e-001,
          4.1596422919731879e-001, 1.7561538842041891e+000,
          -2.5588031381307130e-001, -1.4530915735234042e+000,
          6.8921675335660249e-001, -4.6058843823430538e+000,
          4.8694452756140710e-001, -9.3721838161070881e-002,
          -2.7002355411476192e-001, 4.4629693239815854e-001,
          -1.2994429500264528e+000, -7.1988871048691450e-001,
          4.1409797272100807e-001, -2.1993254663979325e-001,
          4.1920895443211523e-002, 3.8129881984780756e-001,
          5.1128733585962616e-001, 5.0812013008767309e-001,
          -8.8606614103998971e-001, 1.5328145702421703e-001,
          -1.0436147178058330e-001, -8.0763290703630397e-001,
          4.2617819051106076e-001, -3.4119148260635684e-001,
          5.5046561029680929e-001, -1.1000268011153804e+000,
          -1.1853864140028267e-001, -1.9169548362756882e-002,
          1.3864351550502138e-001, 2.4333908474169244e-001,
          2.8391088940086268e-001, -1.1634451954000055e-001,
          2.9543640333450533e-001, -1.8912215544253985e-001,
          -1.4080197494037086e-001, -5.3120698630325744e-002,
          -8.6815201573003931e-003, 1.3546656873909985e-001,
          3.4005387942719817e-002, 1.0417356114295853e-001,
          -4.0123691815633500e-001, -2.3727952320184464e-001,
          -7.9757879194160466e-003, -1.6839485832404486e+000,
          -2.4815831896602095e-001, -5.9379562201519812e-002,
          2.5132351044703605e-001, -7.1982496345163338e-001,
          2.9433476773341327e-001, -1.6794828943759746e-001,
          6.8740041498355732e-003, 9.2912983862254228e-001,
          6.1167881714061090e-001, -8.1598770158941483e-003,
          6.8021154623104360e-002, -4.1749462185809633e-001,
          -6.5542731413783095e-001, -3.3807985199921037e-001,
          -6.5963291881591823e-001, 1.2264159776358402e-001,
          5.4529636517632663e-001, 4.6574552302742211e-001,
          2.4584273344391014e-001, 2.9514350904167697e-001,
          3.6964398754817612e-001, -8.0773051672384008e-002,
          -1.5243150436631570e-001, -1.7061048261565359e-001,
          -5.1759752845033202e-001, -3.2189752629654467e-001,
          2.1318929747240372e+000, 3.9641210048319925e-001,
          4.4766745759237431e-001, 4.0326869471855942e-001,
          -1.5526464516979432e-001, 3.1481670717874355e-001,
          2.9041352046325197e-001, 3.8951930389720674e-001,
          -6.4436249176766811e-002, -1.2955407426072266e-001,
          9.8376424722415312e-002, -9.1347553692837341e-002,
          -2.2415105359646925e-001, -8.4677543073842787e-001,
          -1.5879558520366492e+000, -2.0766091714164303e-001,
          -6.0894559485936994e-001, 1.3605041443029239e-001,
          3.2150270804546194e-001, -1.7052485728944666e-001,
          2.3631909894402189e-001, -1.6752122242357065e-001,
          -2.4958042714994694e-001, -7.9676241362730982e-001,
          -2.7445204379067254e-002, -9.6498972502013641e-003,
          1.8091412770845189e-001, 1.5202320138716599e-001,
          -3.0603920458573532e+000, 2.7761773431342224e-001,
          -5.3581589624539538e-001, 1.0312588931026763e+000,
          5.0108535147749461e-002, -6.5443276044543364e-001,
          -5.3181300349738203e-001, 1.9716292672598112e+000,
          -2.1359793659149609e-001, -1.7036719066798267e-001,
          -4.3347657674687651e-001, -3.0201787825705895e-001,
          1.1120311227563835e+000, -2.8222045083776250e+000,
          -7.8530163040728873e-001, 4.8041212241262943e-001,
          6.9946066337071033e-001, -4.5379954465689054e-001,
          2.2676675561672516e-001, 4.6639507429409677e-001,
          -3.1578577786971804e+000, 7.4424707262204937e-001,
          7.3327783175828909e-001, 5.3234136531334786e-001,
          -7.0631021299092911e-001, -3.9769376590050601e-002,
          -5.7562255361877390e-001, 8.9400764009750988e-001,
          -5.1926955348957737e-001, 3.3659084785408661e-002,
          6.0329961227278439e-001, -5.8562797470510974e-001,
          7.4085018857601326e-001, 1.7874071702812674e-001,
          2.4472251967624734e+000, -4.6664548328502548e-001,
          -9.3534962664800358e-001, 2.0963873485540030e-001,
          7.0944161648683512e-001, 2.5903707140011661e-001,
          -1.0776157928620518e+000, -3.5008305357136832e-001,
          -4.2903300179595449e-001, -6.8542066910516852e-001,
          2.1150628056732268e-001, 9.8983025209319384e-002,
          4.5139943002272481e-001, 2.6020826629626087e-001,
          5.2695016279496709e-001, 2.9601819693715292e-001,
          4.5562098468998280e-001, -6.4725094382161841e-002,
          -5.8246518005678305e-001, 1.1619809344100061e-002,
          6.8903322665631628e-001, -3.8106813705786996e-001,
          -8.7576758511695163e-001, -1.2329478345873418e-001,
          8.8926041924302612e-001, -7.2009650273530068e-001,
          9.9963602026251053e-001, 2.2657386121984924e-001,
          -2.4987565638962420e-001, -4.6124753486085229e-001,
          8.2357437701848432e-002, 5.8603307216840705e-001,
          -6.8391957815362492e-001, -2.5483466525349618e-001,
          7.4233451088646785e-001, 1.0335016524858749e+000,
          6.6084641434938007e-001, -3.7428213990200115e-001,
          -5.6602288856593512e-002, -2.8055028312551668e-002,
          1.0816859340983755e+000, 3.8583942360998569e-001,
          -8.1867358787165301e-001, 7.4589634461415444e-001,
          5.2320826107247553e-001, 1.6988708295791865e-002,
          2.8662015970921145e-001, 1.2821648837829187e+000,
          7.3248114232246619e-001, 2.5908846982178929e-001,
          -2.8868774644501471e-001, 3.8059872743516715e-001,
          -1.1291942644049191e+000, 9.0804136856395223e-001,
          -8.9787213418692211e-002, -3.7471052325117837e-001,
          5.5614642149129385e-003, -2.7417594835903865e+000,
          3.9251751642599725e-001, 6.3478015903395257e-001,
          3.0032752390645545e-001, -2.5713800238420986e-001,
          1.1534114551043058e+000, -8.9568837286353853e-001,
          3.1853068330933973e-002, -3.2279483573093692e-001,
          -1.6297057502328063e+000, -2.2164589973971854e-001,
          3.3457062020921807e-001, 1.1588145193657835e+000,
          -1.0893898671074840e+000, -5.5065573955939384e-001,
          -6.1781847197777362e-001, 1.7736192487186440e+000,
          -1.4228516434077257e-001, 5.9052564020756937e-001,
          -4.5325485253125947e-001, -3.1976489733344182e-001,
          -6.4111908886116808e-001, 1.1499756278233624e+000,
          5.6625557619019336e-002, -3.0218236771618168e-001,
          -1.9012121977454179e+000, -1.4371552398571612e+000,
          -7.3403656203503931e-001, 5.2922142812500683e-001,
          6.0287865324462953e-001, 5.0570544091927488e-002,
          -1.2703381430417717e+000, -8.5498459235423863e-001,
          2.0673940105945746e-001, -4.7691475948292827e-001,
          -8.9055947530597063e-002, -3.7823799202404484e-001,
          -1.1247307952537029e-001, -5.4795951698936385e-001,
          -2.7528481120271030e-002, -1.7880100695715684e-001,
          -1.1341713912515237e-001, 1.1196389786453827e-002,
          2.0065095613916059e-001, 1.0462915999514557e+000,
          -4.7735325580913847e-002, 1.3932254587873658e-001,
          -2.0814865960266912e-001, -2.3387920747170260e-001,
          3.5998515403910775e-001, -1.6947105685318686e-001,
          9.1341247383141214e-002, 6.6367030137959915e-002,
          2.9629605263444053e-001, -3.2233056343831218e-001,
          1.7465581900417776e-001, -8.6291222902240994e-001,
          -2.4403650357700864e-002, -7.8549169740129474e-002,
          2.3998741636640047e-001, -8.1889478408776223e-002,
          6.1721464881036570e-001, -1.3130656496350852e+000,
          2.9399791038155948e-001, -2.9723596794712992e-001,
          1.3411415655742969e+000, 1.9304254106093369e-001,
          -1.4133824416412261e-001, 3.6238382416575599e-001,
          -1.8825135044029560e+000, 2.8637026846670494e-001,
          2.2937371148449179e-001, 3.0075135125834296e-001,
          8.0851594407585617e-002, -4.2912424763739099e-001,
          3.8567060997185759e-001, -5.3817293723575230e-002,
          -5.0032733186694012e-001, -3.0269371369409170e-001,
          2.1440617344049165e-001, 2.6772392548275897e-001,
          3.1018402370846782e-001, 2.2800408231514299e-001,
          -3.7999144908437243e-001, 1.9162217056461903e-001,
          1.0761984062183152e+000, -9.9900645760772677e-002,
          8.3756495379058726e-001, 8.2548022889772005e-002,
          -4.3834386189779423e-001, -3.4936279917334750e-001,
          -4.3758878266297047e-001, 1.7700857085457525e-001,
          -2.9365044452793204e-001, 9.5349570828567945e-002,
          1.2474094072491140e+000, -3.9426754820918369e-001,
          4.5080532938059964e-001, 7.8077657664657421e-002,
          -6.5461946931309767e-001, -2.0673027945290426e-001,
          1.9926733455101502e+000, -5.4676482644990876e-001,
          -4.2945404631156253e-001, 1.1140528630829485e+000,
          3.0603281406480287e-001, -1.3199426385074136e-002,
          -3.1437009546636793e-002, -2.2759295046344741e-001,
          -8.1881939987040520e-002, -1.6646450540244642e-001,
          -8.5972592999036390e-001, -3.4122364775250452e-001,
          5.0170179498924972e-001, 2.0259005519880005e-001,
          4.7582697132418544e-001, -7.7679131055415329e-001,
          8.7730763992988214e-001, -5.7990516966113480e-003,
          6.3482051644542137e-001, 4.5727476932023331e-001,
          1.6081761418297320e+000, -1.7131537259674039e+000,
          -1.7252098266285461e+000, 3.0658464978781469e-001,
          7.6670423116794917e-001, -4.9477555699139308e-001,
          -5.5735192331044014e-002, -4.4057716806661157e-001,
          -1.2787097339358828e+000, 3.5402628529906849e-001,
          5.8788292302538125e-001, 5.4413060934886304e-001,
          -3.3767368901583661e-001, 6.1821800138248117e-001,
          -5.4049113115760616e-001, 9.9979361956011470e-001,
          -5.2551855036948225e-001, 5.2111345599683889e-001,
          6.3289946037578371e-001, -3.5435140319652575e-001,
          4.3555821165397557e-001, -2.7487402210475204e-001,
          1.4638682582804374e+000, -6.3762629623791545e-001,
          -8.0047400386592438e-001, 6.3547335937472704e-001,
          4.5768610407449650e-001, -1.9082233990329345e-001,
          -1.3256159875595319e-001, 4.9941476923748784e-002,
          1.2111983827766477e+000, -2.2459741196746288e-001,
          8.2482086394905085e-001, 5.7886967735146355e-001,
          6.6255462696089185e-001, -4.2988691856555761e-001,
          5.7505815822462836e-001, 4.7776092637427531e-001,
          -6.9206726880093106e-001, 4.6346958302372421e-001,
          -8.8709829639712356e-001, -8.0432607675213064e-001,
          -1.9280307619570453e-001, -1.0108351687153443e+000,
          -7.3843096854369228e-001, 8.3164859826868898e-001,
          2.5514163873387269e-001, -8.3692404189300640e-001,
          1.3822312222367799e+000, -4.8080724755943272e-001,
          1.6354273211151682e-001, -7.8755048691656127e-001,
          -6.8759293790434972e-001, 6.6294190507950412e-001,
          1.6976031740997996e-001, 4.4597102382853582e-001,
          1.0635128805036880e+000, 1.1958120446815600e-001,
          4.5704157798646028e-001, 6.1223776972446897e-001,
          -1.3871025263534027e+000, 5.7531114488970719e-002,
          5.8905852015172555e-001, -1.2633965174411899e-001,
          -3.0475970577083200e-001, -2.6701048939024963e-001,
          4.2096229815032621e-001, -8.2440477073978391e-001,
          1.6321370454382561e-001, 1.1575183931278241e+000,
          2.3534633629053572e-001, -5.0360377657205890e-001,
          3.8737621898081182e-001, 4.0458122640024158e-001,
          4.0223995512200489e-002, 2.1391188165462360e-001,
          3.1697855324827084e-001, -1.0826730580335969e-001,
          -5.3992176872225850e-001, -2.3022351001249040e+000,
          3.8253050791112109e-001, 3.5347786069247789e-001,
          9.4148214486207249e-001, 3.8370052558274870e-001,
          5.0061703055677986e-001, -6.2751256630739904e-001,
          -6.7180777968294880e-001, -6.8980637286282387e-001,
          5.6446756420359467e-001, 4.1865183890857932e-001,
          1.6994297484006649e+000, 4.9437670999963906e-001,
          -3.2623500100785241e-001, -4.2338990138110322e-002,
          -7.9392688132845612e-002, -8.7216550903296020e-001,
          7.4396324115514201e-001, 6.6779717468855471e-001,
          -2.2533254195037045e-001, 8.9330650002989354e-001,
          1.5530304028048084e-001, 1.0669548596573553e+000,
          -1.6239686968093778e-001, -5.6920440490853386e-001,
          -3.2789541492138602e-001, -6.6078216746564208e-002,
          7.6401994804015799e-002, -5.5378795373889422e-001,
          4.3029771925674593e-001, -1.7995919046394079e-001,
          -4.7513347512795362e-001, 6.9904521563741706e-001,
          7.6554637921901336e-001, 4.1842741434688674e-001,
          -8.2143817572333147e-002, 2.5030980445670253e-001,
          8.7844858959730021e-001, 8.3684113278239325e-001,
          2.9232573019910318e-001, 7.7022957195874278e-002,
          -5.6448822316896374e-001, -2.7537876732673522e-001,
          3.1091246645355040e-002, 3.2185035703091031e-001,
          1.1603119876611758e+000, -3.6809523308970105e-001,
          -1.0087950936366992e-001, 6.3913232252976138e-001,
          3.8375985329165273e-002, -5.7444393257431547e-001,
          1.0858559738736815e+000, -2.7194439058012959e-001,
          5.6168478502644958e-001, -4.2543931949624425e-001,
          -6.4243460201373082e-001, 2.1415135991784356e-001,
          2.9974597171882827e-001, 3.1718606701353541e-001,
          -1.0763921710867341e-001, -1.6692021365849100e-001,
          -4.1483027478538947e-001, 6.7483289465418317e-001,
          1.8455038601253282e-001, 4.8397742352209572e-001,
          8.8059777242488091e-001, 2.0654884182826749e-001,
          6.9853883015317364e-002, 5.3608654050838689e-001,
          -9.6214396971363647e-001, -9.3089112682274189e-001,
          2.1193638151476513e-001, 2.1029809605747027e-001,
          6.6678775799886503e-001, 3.2179663205660707e-003,
          5.3521790475154873e-001, -7.7363625774751044e-001,
          1.3707285359745544e-001, 8.7124148155460004e-002,
          -5.0222141245232610e-002, -3.0150280940627777e-001,
          5.7836692067290633e-002, 6.3563245927474521e-001,
          -7.2492593788480431e-001, 7.2260168027658311e-001,
          4.5350542069316696e-001, 2.7345445789290318e-001,
          -2.0701790255723473e+000, -2.4513675448878708e-001,
          2.3679004596103564e-001, -6.3040268729320625e-001,
          1.1282757361510361e-001, -4.1389746249155318e-001,
          -9.8328708344793236e-001, -1.2121143108478545e+000,
          1.1791877120928236e+000, 2.6200258924057973e-001,
          -8.2079471596343645e-001, -5.1560405570427659e-001,
          -1.8213664431747004e-001, 2.8166173086052954e-001,
          6.0718596179990525e-001, 3.3558332064796198e-001,
          -2.0780865560083983e-001, 3.4815723877187982e-001,
          -1.3076014724911831e+000, 5.4063062470444256e-001,
          -1.0969325025734196e+000, 3.1382585600172830e-001,
          1.8795745108509926e-002, 4.3623999592001322e-001,
          4.3992921218012937e-001, -7.9164188832309346e-001,
          5.3619137352664303e-001, -8.2395876004489954e-001,
          3.3376191062376293e-001, -1.0455010234206388e+000,
          -9.3785220365148261e-002, -3.2744542350077177e-002,
          -3.8494867486885931e-001, 3.3820375514440104e-001,
          -4.9228214648319663e-001, 3.1467497975017494e-001,
          -2.1029110936047465e-001, -4.6928885669603043e-001,
          1.4327131451778823e-002, -4.8480762617658979e-001,
          -1.8120015967756675e-001, -3.1361173995534855e-002,
          -1.4092332890895129e-001, 2.4360279092830070e-001,
          -2.5326506130438536e-001, -1.7278783894836297e-001,
          1.5426527129241302e-001, -3.5042507690006147e-001,
          1.3508084008551466e-001, -2.3238328745761230e-002,
          5.0407801616885672e-001, 4.1379419946866675e-001,
          -2.5092332493682540e-001, 2.9838609933306753e-001,
          -5.1542535793653706e-002, 1.4523230017465100e-001,
          3.2495714085673627e-001, 6.6160099482868412e-002,
          7.8083056090873981e-001, 9.0637556757204845e-003,
          -2.1075858700120473e-001, 1.1667839306984716e-001,
          2.8199287526396444e-001, 1.4940773692294132e-001,
          -7.9831528110029734e-002, 2.8431513455561910e-002,
          -2.8671197406156163e-001, -3.1524354430026741e-001,
          -9.0243344808036197e-002, -1.0780906000776509e-002,
          -1.3860814824490592e-001, -9.0417431263102699e-002,
          2.5218465763896925e-001, -2.0749587348877632e-001,
          3.7665049179248494e-001, -3.9741683245690224e-001,
          -3.4754236000030171e-002, 2.7874338083026390e-001,
          3.6102374374800644e-001, -1.6432343979809425e-001,
          -1.9314802263863376e-001, 3.6543726211509542e-001,
          -3.5351897416781110e-002, -4.5686116942182622e-002,
          1.7312677713792604e-001, 6.9460328354405659e-002,
          1.7889841209963236e-001, -3.0802909795234346e-001,
          2.6604796188177393e-001, -4.7044981056892482e-001,
          -2.2137147736713844e-001, -2.6089176565669642e-001,
          -3.0051673097244158e-001, 8.8189907100009471e-002,
          3.3879824888363352e-001, 2.7156255150076630e-001,
          -3.1096361338114681e-001, -1.6146637274187653e-001,
          6.4416760803603187e-002, -4.1362168915436023e-002,
          -8.8018215438063863e-001, -2.2768471830228948e-001,
          -6.0877798235113445e-001, -1.4795926015871957e-001,
          5.6166771033130551e-002, 3.0971382812312792e-001,
          -5.1017588575912365e-001, -5.0491982757186893e-001,
          9.3432210695601967e-002, 2.2049835551109398e-002,
          -1.8424673430994964e-002, -2.7457720311283168e-001,
          -2.7771083308785710e-001, 5.3415627845412851e-002,
          7.1045825447354904e-001, -1.5729691649746397e-001,
          -3.4092658755000849e-001, 1.7931441156093150e-001,
          -7.8594129879987806e-001, -1.3594977449952675e-002,
          -2.7066166269210307e-001, -1.3115282970433201e-001,
          1.6658712822075417e-001, -2.7352385892231762e-001,
          -4.3250975848353551e-002, -2.5427997370677907e-001,
          3.2022495480962609e-001, -3.3534516309188694e-001,
          5.3976539729454119e-002, -7.2190225418557152e-001,
          4.9389565425671300e-001, -6.3010903064817603e-002,
          4.5506077925909894e-001, 3.4356850080579072e-002,
          -2.8770298829258550e-001, 6.5951063532329768e-001,
          -3.0311356460908223e-001, 1.2045601060706798e-001,
          2.6261695556027409e-001, -4.5115053008127198e-001,
          -4.3984202907605258e-001, 5.8130822748772487e-002,
          -1.4437732334638828e-001, 1.9929230812303073e-001,
          -7.6601105425514915e-001, 1.4587404966224351e-002,
          1.6295088570691016e-001, -1.6740242882878528e-001,
          2.5191438017805923e-001, 1.8486877511828523e-001,
          -5.6984037609604313e-002, -4.2877309060413614e-002,
          1.6735172071156865e-001, 6.2708813621236897e-002,
          -4.2098818921502953e-002, 2.1132640481488524e-001,
          5.5919460630837980e-001, 5.1038696310520570e-001,
          5.7752393371016786e-001, -2.0088146391177522e-001,
          -5.4318129888592748e-001, -1.1834166302042071e-001,
          1.8238431845325771e-002, -2.0314106402636212e-001,
          1.9855419596379226e-001, 1.2474536324262710e-001,
          -3.1728194342181847e-002, 1.3856140161530633e-001,
          4.2087431101867057e-001, -3.3104336727451766e-001,
          7.4362192218418333e-002, -1.9439208104744191e-001,
          2.7777845185279024e-002, 1.0001806745872391e-001,
          7.9617676763304265e-002, -1.5758599422799294e-001,
          2.0966326930739643e-001, 1.0346542030335958e-001,
          -3.6330070751506993e-001, 9.7406492094852817e-002,
          1.4300069377265479e-001, 4.1460342302949549e-001,
          -1.7407998647561297e-002, -1.7746921805941412e-001,
          2.9373594203073000e-001, 2.6548324038509313e-001,
          4.1376960287962522e-001, -3.1605521783827600e-001,
          1.9870636343461504e-001, -3.8591587115023357e-001,
          -4.5497537879593980e-001, -2.1945334583351506e-001,
          -1.8405306994972462e-002, 9.2174813273159462e-002,
          -8.6759070044877484e-002, 6.1657432653721235e-002,
          -1.9165555736637210e-001, 1.3186907874125373e-001,
          -1.5664788603844298e-001, 4.9336662848424778e-002,
          -4.4242582582874901e-001, -1.2685575036252059e-001,
          -6.4858967458828066e-003, -4.5463207039572207e-001,
          1.9103153413687438e-001, 8.3829113471211081e-002,
          -3.7688234534781090e-001, -4.5591165894585650e-001,
          -5.6980462711773198e-002, 1.7683334147659691e-001,
          1.3713536646997579e-001, -4.1273963999525476e-001,
          2.1913578880428941e-001, -1.4586716416665049e-001,
          3.5336741793651677e-001, 1.1528117334013338e-001,
          -4.8104493753086297e-001, 2.0137012182027561e-001,
          -6.4148385088602711e-001, 2.6575385447176597e-001,
          -2.3987154147555173e-001, 1.1713823817491929e-001,
          4.2948057703634346e-001, -1.6461747909798813e-001,
          -5.3893378196767101e-002, -2.9603369216518433e-001,
          -8.9849049458577371e-002, -6.0611162740403365e-003,
          7.6698586000117632e-003, -5.7797018716072102e-001,
          -1.2062337936027576e-001, -2.1392432113108528e-001,
          1.6145961394896768e-001, 1.9553215279040861e-001,
          -4.7032074811434682e-001, 2.8699752178585203e-001,
          -1.2189799062657307e-001, 2.0642576247123637e-002,
          -6.8403241729187256e-002, -3.1036086658568773e-001,
          -4.1104547022295984e-001, -5.6998558987620226e-002,
          -1.7250624173303897e-001, 1.8944254158037033e-001,
          -6.8971116732864091e-001, -5.3189837232111004e-001,
          2.3615270642635125e-001, 5.2348873505974692e-003,
          -5.3363830928359959e-002, 1.2485591571046679e-001,
          1.3174164985861028e-001, 7.6534080074349670e-002,
          -6.1417362977199880e-002, 1.7366302088233119e-002,
          1.5289051012434618e-001, 4.2286800589679746e-001,
          3.0553942576650017e-001, 1.9586611532383974e-001,
          3.6421269036493231e-001, -1.1202688719851230e-002,
          -3.9869880548736591e-001, -6.6183123818137887e-002,
          -1.7491010379300026e-001, -1.5778521305545490e-001,
          -4.4613095356117329e-002, -1.9057610107848341e-001,
          -1.8516776149718986e-001, -1.4282063964209279e-001,
          2.1874506167793525e-001, -2.7120284596856914e-001,
          -1.2054322911488999e-001, -3.5605896597425767e-002,
          3.6271937254171766e-001, 8.8173506664757276e-002,
          2.7883248158671825e-001, -2.7458753325655261e-001,
          2.3053547444900677e-001, 2.5204055401415487e-001,
          1.9685122856372048e-001, -1.2872241560193579e-001,
          -6.4462905253163796e-002, 1.9003915123893325e-001,
          8.9970849183223622e-002, -6.1044974587065239e-002,
          9.4002839852673381e-002, 5.7289965584294812e-002,
          9.8224909573401409e-003, -9.0832574034543107e-003,
          -3.9732680085086979e-002, -4.0440679419988169e-002,
          -3.5716397822979584e-001, 1.7265310731887772e-003,
          4.6730414055226245e-002, -2.3299830888162140e-001,
          -3.2726724509361933e-002, 7.7156811568661249e-002,
          1.3852946134542074e-001, -9.8180531772869603e-002,
          -2.0104517037771399e-002, 4.3313755086024856e-002,
          1.5710776592457801e-001, 2.8266323793093895e-001,
          -1.9793099379252335e-001, -2.9939249857158201e-001,
          -1.2968893399529088e-001, 2.4126728419276480e-001,
          4.3832108536258621e-003, 1.2662347332279253e-001,
          -1.3779609029019502e-001, 1.5859011934154355e-001,
          3.9003923092481441e-001, -1.2779623217948485e-001,
          -4.6850668247057699e-002, -2.5760845473114852e-001,
          3.7069953069819542e-002, -1.6221796998036822e-001,
          -1.4717686564251992e-001, 1.2196931348060253e-001,
          -1.6670249739598189e-001, -9.5826838027565350e-002,
          -1.2834596315507898e-002, 6.0355423408010398e-003,
          4.0888703907718560e-001, 7.9219639664602839e-002,
          -2.3918401927740979e-001, 8.4905754028054045e-002,
          -2.9345359612855743e-002, -1.9504975602616173e-001,
          -4.5856579648809265e-002, -3.6629710144670291e-001,
          2.6449267094010476e-001, -9.4656962972143516e-002,
          3.5949459875948325e-001, -7.9837561487072606e-002,
          -1.7914893213551883e-001, 1.5360744110947211e-001,
          -5.6405350160081663e-002, -4.2787029976550151e-002,
          -1.4738737379159690e-002, -9.1529435496933403e-002,
          3.2058977798326463e-002, -1.6039733797314099e-001,
          6.8185860605035536e-002, 1.0709768848248559e-001,
          -2.4557634909436682e-001, -5.0122913784099776e-002,
          3.5280627182612358e-002, -4.0299624684558714e-002,
          -5.6761376269010108e-002, 1.6115169928242922e-002,
          2.3742056034070191e-001, 1.9249428218076753e-001,
          -1.7459749677406247e-001, 2.1556726679952187e-001,
          9.1485894141053112e-003, 1.6681766823844174e-001,
          -1.5383254863106391e-001, 4.5964766554607003e-002,
          7.6230238150243795e-002, 5.4838081096379117e-002,
          -1.8444175355184197e-001, -3.1360254471465801e-002,
          1.1244065391285346e-001, -1.1718658534333362e-001,
          2.6786740883371180e-001, 4.7506280803214118e-002,
          5.9481737719553250e-002, -1.7330443250667269e-002,
          -3.0001329253820930e-001, 1.7925903528162347e-002,
          2.8374557723986778e-002, -2.4757245141540714e-002,
          1.0106787513046289e-001, 5.9833888371071658e-003,
          -8.6681255095523130e-002, 6.3234596825481840e-002,
          -4.4647924992253715e-002, 1.1469568431416235e-001,
          1.8713269033888036e-001, -1.6947487047925153e-001,
          -1.9726482469658402e-001, 1.0562560358009036e-001,
          -3.2744606271152617e-002, -2.4136930830301831e-001,
          1.2131038108834555e-001, 1.4664422200516974e-001,
          1.1198866616670054e-001, -7.4054849807248121e-002,
          1.8325351009725824e-001, -2.3016096876548899e-002,
          9.1703554328689638e-002, -5.0819121287906915e-002,
          2.1488402636998204e-002, -1.8554848706336996e-001,
          3.4613313362144925e-002, 1.1748655696860340e-001,
          -4.1031292246628904e-003, -1.3055598865756271e-001,
          6.0290929143927328e-002, -5.4595229387950583e-002,
          -1.8379454295428418e-002, 7.2482571467668830e-002,
          -1.1354609145629725e-001, -1.2267493587777124e-001,
          -1.7909227104190287e-001, 7.7786706857738724e-002,
          -2.0469669871226182e-001, 1.2438879695300109e-002,
          1.2800664684282007e-001, 1.1433529421155017e-001,
          1.4443544733406226e-002, 8.9807037997297612e-002,
          6.5248752716796407e-002, 4.7719456360245327e-002,
          2.9547418717418322e-002, 1.8636172526297065e-001,
          6.0416082789031433e-002, 2.8322879816852265e-002,
          -9.5917478045767168e-002, -1.0712379411313074e-001,
          -2.2897705261969131e-001, -2.3073481777327329e-001,
          5.0811245035964930e-002, -8.2070934221469341e-003,
          1.5255181788254163e-001, -8.8426644795820755e-003,
          1.3224998490610879e-001, 1.6450853975322879e-002,
          1.7499101403528497e-001, -5.0789049337630510e-002,
          1.1137499946270811e-001, -7.0187356515841945e-002,
          1.2880336175771614e-001, 9.1970442688836571e-002,
          -8.4049388159079697e-002, 1.5359797518642149e-001,
          3.2895661905308946e-002, -2.4908234584354677e-001,
          1.6831710057414737e-001, -1.8152390360086101e-001,
          -1.1781321803176101e-002, -2.8266262503384215e-001,
          -1.0335756197860034e-001, 1.0747360835766880e-001,
          -1.9287247042507780e-001, -2.6650071574638795e-001,
          5.7850342587780809e-002, -1.4719798572896682e-002,
          -1.9743446324740008e-001, -3.2031964229761713e-002,
          3.4364317015879475e-001, 2.3234284777761402e-001,
          -1.1556473177676224e-001, 1.9682782906121765e-001,
          3.7489033211408583e-002, 1.6160744852370684e-001,
          -4.5076038587504669e-002, -2.8037726648074274e-002,
          2.2069155452166528e-001, 9.6533692922391307e-002,
          -7.9539474757142750e-002, -4.4564943222889356e-002,
          1.1674345283026592e-001, -4.3036272974546957e-002,
          3.4041352856746881e-001, 2.3444423065437234e-002,
          -6.1842046417892621e-002, -1.0296421872512226e-001,
          -1.7956980152297036e-001, 8.6994234696354089e-002,
          -3.5545930189761474e-002, 7.6269457471257782e-002,
          1.6403737412933200e-001, 1.2832583877483017e-001,
          1.4437403376652713e-001, 1.2512184340085050e-001,
          9.7336635818122672e-002, 1.0549832419798398e-001,
          4.3910602930055539e-002, -1.4338610285100478e-001,
          5.6943440612543549e-002, 7.1518954310088201e-002,
          1.3680008684538755e-001, -3.5785141167319162e-001,
          2.4244556701560419e-001, -4.0965148988102371e-002,
          -2.0902407598560293e-002, -1.4443757432971957e-001,
          -2.9445856733149783e-002, -2.7848159647129234e-001,
          2.1368019411100881e-002, 4.4179232099943191e-002,
          -1.5040954756760394e-001, -1.9131222927137814e-001,
          2.5648179715569548e-002, -3.3337908980107729e-004,
          -1.7369946213888085e-001, 1.4335756727504934e-001,
          -1.3449868027304540e-001, -2.0263360980260278e-001,
          -2.4895407902283936e-001, 7.5747321402991591e-002,
          -2.8285592391275516e-001, -2.2596506801837921e-001,
          -1.1976610001062268e-001, -1.2117155960922231e-001,
          -2.1498967441414443e-001, -1.8811810661995906e-001,
          -8.8824956621153056e-002, 1.1684190515576720e-001,
          1.9014096895783278e-001, -3.1337419432828480e-002,
          -1.2805401946627565e-001, -9.0678618068777417e-002,
          1.6203737020651324e-001, 1.1220002568887065e-001,
          -7.4457339370722644e-002, -6.8644675114068285e-002,
          -2.5957254312931216e-001, -3.6051705526929219e-002,
          -2.2043277920048562e-001, 3.2061037102477152e-002,
          -5.1660083925068635e-002, 2.2299367005289802e-001,
          1.6960759956569430e-002, 3.5873423047970136e-002,
          2.2366479648678836e-001, -3.6125393652080501e-001,
          -7.5695203357806454e-002, -1.0602780239269874e-001,
          9.1528111650781133e-002, -5.0317224443733266e-002,
          2.3054990268270756e-001, 1.3683912279868612e-001,
          -2.3170556671572840e-003, 7.4623364678498519e-002,
          -1.2111879281099899e-001, 1.1963274313395991e-001,
          -1.2925773436705500e-002, 1.6064241890370407e-001,
          -1.9012694428661939e-001, 7.7082856585352771e-002,
          4.8082109467090808e-002, 3.6016361793245681e-002,
          -1.6562961609891371e-002, 3.6308484377930966e-002,
          -1.8718240348814558e-001, -1.7803820823130853e-001,
          -7.6832404326758044e-002, 6.5338728239106136e-002,
          -4.9348576721790396e-002, 1.3420169536704443e-001,
          9.4936457976237690e-002, 1.1884738125152740e-003,
          -1.5580197481261546e-001, -1.2678136721095832e-002,
          1.4095724138091223e-001, -1.2788446897508204e-001,
          2.3883358427722998e-001, 1.5076434433320302e-001,
          -1.0689798809788413e-001, -9.2934129028511017e-002,
          5.9451365324452943e-002, -1.1036277641277324e-001,
          1.2717472466706159e-001, 1.2079111591214203e-002,
          2.4526442307496420e-002, 6.6272415373648919e-002,
          -6.8988345401464146e-002, -3.2804205114175020e-002,
          1.7110847140806351e-002, 8.2608169114103153e-002,
          6.9827737583195160e-002, 8.5513761412578715e-002,
          -9.2404409195468051e-002, -2.1022265152133165e-002,
          -1.4663340655786855e-001, 1.0113818821809585e-001,
          3.1438688815695788e-002, -8.1504486966111095e-002,
          -1.0783930187470096e-002, -1.1255567293107739e-002,
          -9.6591997688718068e-003, -6.6900708410742055e-002,
          -7.7674497555065447e-002, -1.5804190435339610e-001,
          9.4837059953952349e-002, -7.9218447892454760e-002,
          -1.7637788698116572e-001, -1.6680992326264357e-001,
          5.2719997311575395e-002, -6.9545921484766737e-002,
          -1.0061543424273037e-001, 5.9836703255469775e-002,
          -1.2620519757838490e-002, -8.4606613008664178e-002,
          2.6983783036606025e-002, 1.7101829577143284e-002,
          3.3806428674208265e-002, 5.2657653164464795e-002,
          -1.1126324501460505e-001, -1.3184954555489695e-001,
          -1.9575069286379004e-001, -1.8201546832021846e-002,
          7.8949130600879922e-002, 6.7371165719665088e-002,
          1.3447552233178067e-001, 1.1794368222253040e-001,
          2.2014155769456503e-002, -1.3683134486753945e-001,
          -2.4480557463393948e-001, -3.3273650877728317e-001,
          -7.3517354692914691e-002, -4.8027517600729035e-002,
          -5.3118586561887319e-003, 2.2564215867003939e-002,
          5.2345391536842173e-002, 6.1815060020764555e-002,
          8.0456748964065905e-003, -8.8257586060725882e-002,
          1.3558485523334815e-001, -1.0970525486393354e-001,
          -7.8676835271207946e-002, 8.1438355081093941e-002,
          -2.2938606165084256e-002, 3.2486498428913116e-002,
          -1.3276817906650110e-001, 7.9774070263206459e-002,
          -4.4495461874684866e-002, 3.5001320485547785e-002,
          2.9289230712657162e-002, 5.7756953705147768e-003,
          5.4709902161097133e-002, -1.1118418399635965e-001,
          2.4420183502829702e+000, -6.3926950631236890e-001,
          1.7667662753554763e+000, 5.4733616880657499e-001,
          -1.1213213732766945e+000, 1.1516937154255460e+000,
          1.1105133362133828e+000, -3.9044006147954780e-001,
          1.0173693084340105e+000, 5.6452359971698993e-002,
          1.9642067368129930e+000, 3.5015562864435940e-001,
          -3.8544517332268546e-001, 1.2751134203573959e+000,
          7.1673147833338602e-001, -1.9378228224936020e-001,
          -1.4580865984799312e+000, 1.9617110630944065e-001,
          5.3281895231014698e-001, -7.0545494176379619e-001,
          9.3286786168649838e-001, -6.5935695576754394e-001,
          -2.0067797388721504e+000, -5.6726547517516568e-001,
          -7.4983962305383245e-001, 6.7826582988731704e-002,
          9.5627642990675510e-001, -1.5429407975552240e-001,
          -2.9609884939373332e-001, -5.9870731634012597e-001,
          -6.6256427642817184e-001, -5.2813489216068432e-001,
          -3.2407012388602427e-002, 3.5051236043792450e-001,
          8.0050435123814975e-002, -1.3065420935082461e-001,
          1.9360622437376585e-001, 7.3484278310440532e-001,
          -3.8281359988061192e-001, 1.1427140092191621e-001,
          -1.4470401471743530e-001, -5.4772497722174140e-001,
          6.0347289306838881e-003, -4.6414827085474014e-001,
          -9.6549417096464085e-001, 2.0216500489061537e-001,
          7.3088265058183444e-001, -6.6794649736319067e-001,
          -7.3024008754358016e-001, 2.5038876960679590e-001,
          -3.8290446132944950e-001, -8.2726429896119572e-002,
          -1.5906398577794836e-001, 3.2330495352282729e-001,
          -5.6262213637702396e-001, 1.2925341348955827e-001,
          4.8595906224248997e-001, 3.2204647141885201e-001,
          2.1751030308588845e-001, -7.0698346567550710e-002,
          -1.5043115931426301e-001, -1.3243460058547721e-001,
          1.9231429688871410e-001, 1.1122339299745067e-001,
          6.6342676713158510e-001, 2.5488665693561385e-001,
          7.5007777512754881e-001, 3.5761757646661979e-001,
          6.8081492569660584e-001, 1.3625003659725987e+000,
          1.8774542842332903e-002, 4.8700123928433720e-001,
          4.5373626783134374e-001, 3.1289061988920219e-001,
          2.5625262271459215e-001, -3.1682083979870762e-001,
          -3.0353467518011462e-001, -1.0448999166055950e+000,
          1.4371352958877592e-001, 1.8173880341002735e+000,
          -5.8385008340950151e-001, 4.5484227456731952e-001,
          -1.3230153508106035e-001, 7.0139857921745974e-001,
          1.2578571188518377e+000, -8.8608712161459033e-002,
          -7.1759817474093024e-001, 9.2824224490985174e-001,
          4.2696495828805629e-002, 3.3685679104696842e-001,
          -2.9645407817770794e-002, -3.9855760696626665e-003,
          -4.6870317374485598e-001, 7.9249533179088094e-001,
          4.9622239451776784e-001, 1.7951073299762468e+000,
          -3.1458384384583704e-001, -1.1762447893526523e-001,
          -1.7467219813251809e+000, 9.4118530219152896e-001 ]
      - [ 4.7020147081153335e-001, 4.0007984374812011e-002,
          2.9078422946208160e-002, -5.6909353200679622e-002,
          2.3786950083661690e-002, -1.0081224196502671e-001,
          1.0499171821289474e-002, 1.2081554351003000e-001,
          -1.7622738992748607e-001, -6.8813024734688685e-002,
          2.2794683656161387e-003, 6.5536979084174661e-003,
          -8.4404940320417635e-002, -1.7327077998437374e-001,
          -9.6432971346723136e-003, -3.3641739199694920e-001,
          -9.3398186648967166e-002, -1.5074033859176555e-001,
          -1.2531694311205668e-002, -5.0567058747673539e-003,
          -3.6259366973506657e-001, 9.1941937741901500e-002,
          4.5861629071399340e-001, -2.3091023603753696e-001,
          -1.8561443668350747e-001, -2.6575986783952146e-002,
          -1.4120297168073334e-001, 5.2677608912424269e-002,
          -5.5875335375290353e-002, -1.1920939889435601e-001,
          4.0044352692434546e-002, -3.0632897021394004e-002,
          4.1429122013403999e-002, -8.7347387751329168e-003,
          4.5613520743979244e-002, -3.1422163097617878e-001,
          2.5077191078068217e-001, 2.3932457221834880e-001,
          2.3429653858244315e-001, -3.2387558633786083e-002,
          -1.0988742844481646e-001, 2.5223547352243109e-001,
          7.0558271861669616e-002, -8.3689402874018215e-002,
          -1.0379247555779289e-001, 3.9359750493886986e-002,
          1.8110491664392846e-002, 7.5548562078055131e-002,
          7.7589984626413699e-002, -4.9987202212102226e-002,
          9.6809584368414622e-003, 1.0437064782061189e-001,
          -1.2186384398495508e-001, -8.8986826643546277e-002,
          4.8594045451370244e-001, -4.9067179229366520e-001,
          -3.1589930657603366e-001, 2.4992927112668167e-001,
          -5.6476364306561937e-002, 8.0042020782309015e-002,
          -3.2501337788241819e-001, -1.3817684581132667e-001,
          -1.2667760513451334e-001, 4.2781515499585665e-001,
          3.1336609050601996e-002, -2.1483916881316606e-001,
          2.5935660498131935e-001, -2.4410026484957575e-001,
          -1.7093385009985423e-001, 4.1987847398652786e-002,
          5.7423024867316111e-002, -1.3840683168510251e-001,
          2.3502598312808468e-001, 3.5286873631520277e-002,
          -1.9655015019319491e-001, 1.1472068791975178e-001,
          -3.2510396012348675e-001, 7.1394392161525252e-002,
          -1.9232800064062877e-001, -1.3946939610652054e-001,
          1.5394998252013048e-003, -1.5448427713622453e-001,
          1.1269172565671259e-001, -4.0087539083626937e-002,
          -2.2852158428209873e-001, 1.6851371846572741e-001,
          1.0035048501220230e-001, -1.6147510811174054e-001,
          8.5835825008955938e-002, 3.9718074958307586e-001,
          1.2963922244407078e-001, 6.3028025478860425e-002,
          -2.4911230307104019e-002, -2.7804762343560957e-001,
          -2.2404806537227651e-001, 4.5429391831917097e-002,
          1.4911357527908858e-001, -3.1841634569904027e-002,
          -1.2864683379019587e-001, -8.9475688386908558e-003,
          -4.7047686185220267e-001, 1.7195269881600311e-001,
          -2.8748936227088229e-001, 4.0546840098002268e-001,
          -2.1291651845097639e-001, -7.7341773383880529e-003,
          5.2540168598315362e-001, -8.7819017311699110e-002,
          -2.9018665293056350e-001, -5.7865553612158657e-002,
          -4.3048603893261045e-001, -5.6339480579571137e-003,
          -1.1393440801871300e-001, -1.5045927293981068e-001,
          2.2941715319703060e-001, -7.2662666806344944e-001,
          -2.3941793931814914e-001, 2.7140537691122468e-001,
          -2.5129309982350811e-001, -6.0800703877888995e-002,
          -1.0361658696989325e-001, -1.1377196034471411e-001,
          -3.7452012826894643e-001, 3.2376199265228972e-002,
          7.0698145542061264e-001, -6.8679067473508160e-001,
          4.8471964157664826e-001, -7.9469576157500499e-002,
          -1.4140652245227511e-001, -8.0959937146713201e-001,
          1.2551475025539141e-001, -6.2736699385216965e-001,
          1.2360386738119526e-001, -5.7060076064979058e-002,
          -4.0552272030582942e-001, -2.0574767434966004e-001,
          2.9685504121316048e-001, -1.5021842484812570e-001,
          2.2825664546047095e-001, -1.2053876768767205e-001,
          1.1022038577919781e-001, 1.6523377976616335e-001,
          1.3064199516568344e-002, 7.1514392390880727e-002,
          -2.0444466878266640e-001, -1.8162038905918473e-001,
          -2.7164910679310100e-001, -2.7548059791740226e-001,
          -4.9390087223009534e-002, 9.2450378711859807e-002,
          4.8211827502134585e-001, -5.0005304585038671e-002,
          2.5922590078917318e-001, -1.2399150396502923e-001,
          -2.6564602317710634e-001, -1.4713107824631064e-001,
          4.4072367933732252e-002, -9.2188765674477063e-002,
          -3.2274070457481957e-001, -3.2726408364621667e-001,
          3.0354815431682673e-002, 3.6349978776520930e-001,
          -8.0659171271090790e-002, -5.6070076295884497e-001,
          3.1730743353136659e-001, 4.6480734029645882e-001,
          1.2375353117608423e-001, 4.8302891134396525e-001,
          -5.2876547562554846e-002, 5.7016990938011980e-001,
          -3.5867906515506603e-001, 2.2968125890408164e-001,
          -1.2040579589201930e-001, -2.0148992949361416e-001,
          -4.1813447962855445e-002, 2.0671480347975482e-001,
          5.3387466900871261e-001, -2.7539733264426103e-001,
          -9.0994371936625362e-001, 1.2283601964076287e-002,
          -2.8159523225238881e-001, -1.3792601343061198e-001,
          6.7292814157322967e-001, 3.2345612877550339e-001,
          -8.7281692741434727e-002, 9.8413851654561117e-003,
          -3.2373740169241987e-002, 3.1876067931396346e-001,
          2.6941181542445031e-001, 7.2188708229346268e-002,
          1.4110674484110144e-001, 1.4418963531675771e-001,
          -3.2202052803574976e-001, 4.9280959748658909e-001,
          1.3218014395296934e-001, 2.0964573005379972e-001,
          -3.7678221239189413e-001, -4.6045654842033079e-001,
          4.3858598740880705e-001, -6.3231010253303999e-001,
          -7.3436364696081613e-001, -6.4969869424013460e-001,
          -1.1392205859088866e-001, 1.2359198113948078e-001,
          6.1002647391137210e-001, -4.5292804667441039e-002,
          1.8367679594917516e-001, 1.6001415420853343e-001,
          -3.4662063958602163e-002, 6.4856977583518910e-002,
          2.8474521401481578e-001, 2.7423589268421217e-001,
          -5.4702126973504073e-002, 2.5915031521349545e-002,
          1.2831853337847597e-003, 4.0246402037384105e-001,
          -3.9100356166658246e-001, -4.9248035062492379e-001,
          1.1355130350950325e-003, -3.0730868047754489e-002,
          7.4464377614656485e-001, -1.5506334563836413e-002,
          8.4774228456585346e-002, -1.1746635950993101e-001,
          -1.6177826405976539e-001, -1.2927983576589783e-001,
          1.8409348094326419e-001, -1.0305304906215960e-001,
          -4.6501380488559063e-001, 4.3182645784376672e-001,
          1.3069338352605100e-001, 1.8750985304961568e-001,
          -7.7555392321397493e-002, -5.1142475689809454e-003,
          -2.3117741301816416e-001, -1.0046632421113126e-001,
          -1.5081949897454872e-001, -1.1093794305224154e-002,
          7.7812835602038471e-002, 1.2324803300663088e-001,
          -1.5645705464417153e-001, 5.1291173163370196e-001,
          1.4584856956289685e-001, -4.5575195085461456e-002,
          -4.6036516684488354e-001, -1.2394798072487319e-001,
          -1.6987160559303044e-001, 5.6427665171376422e-002,
          -2.6765146033577006e-002, -5.7072284597972256e-001,
          3.9034617082717304e-001, 3.2940116251226767e-002,
          -1.9306853186046716e-001, 1.9408480084535751e-001,
          1.8885066739233441e-001, 1.9813199954978386e-001,
          1.8033994989538543e-001, 1.4396649939088146e-001,
          3.4123023455628526e-001, -1.3470281379709773e-001,
          1.7491401646398061e-001, -8.6906227749995513e-001,
          2.4702568119123888e-001, 1.5131834571156347e-001,
          1.1733770742591930e-001, -3.6391114884833431e-002,
          3.2652562536313179e-001, 3.2700679067997612e-001,
          2.0989550972407398e-001, -4.6999453734130964e-001,
          -2.7028112531183618e-001, 2.9726636532385953e-001,
          4.0822623168715028e-001, 1.2804627165937529e-001,
          -1.9986374992754724e-001, -3.5687975439450592e-001,
          3.8706054576019500e-002, -1.3117977139704889e-002,
          8.9718383709548627e-002, -1.7680500427604426e-001,
          1.2209321855358229e-001, 2.5614182195990426e-001,
          -4.3137584766492773e-003, 5.5235707496137321e-001,
          1.9371902636183649e-001, 3.0491426996331822e-001,
          -3.5835577913636663e-001, -5.2428879262699193e-002,
          -1.6795244316393140e-001, -3.6082106140999354e-002,
          2.3329438505031611e-001, -2.9809742236146641e-001,
          4.4757011515175238e-001, 9.4504626852640078e-002,
          3.8237416961215132e-001, -2.4187700142758864e-001,
          -2.3230760027440833e-001, 5.9116801321393943e-002,
          -3.1848972290524863e-001, -2.6838080713046392e-001,
          1.8171980851618635e-001, 1.4119235278588080e-001,
          7.5163346728861755e-002, -1.1300294281184177e-001,
          -4.6562501590481586e-002, -4.5228866955815274e-002,
          -5.5057662206740479e-002, -7.0943248145419649e-002,
          3.8546956273268339e-002, 2.1461324286590318e-002,
          -1.5197242646108766e-001, 2.3649574124899698e-002,
          7.0455847686342219e-003, -1.2633618198020641e-001,
          4.1590640629919046e-002, -1.5115058736340642e-001,
          -1.3016612158995489e-001, 5.2454598753709385e-002,
          8.3377856285507423e-002, -1.5468853903612495e-001,
          -1.7759311482868395e-001, -3.6863993589509527e-003,
          2.3115088975726991e-002, 2.0791807029157054e-002,
          -4.4220789803168627e-003, 1.3759963405698689e-001,
          4.9432244826989553e-002, -1.5541995126351024e-001,
          6.3977475587269184e-002, -6.4455460557692633e-003,
          -1.3033163829684541e-001, -1.4346407457931221e-001,
          -7.2793568138427314e-002, 4.3162480296607464e-002,
          5.1158092703163509e-002, -4.3580039125073911e-002,
          3.2233605257457054e-002, -1.4171759396585718e-003,
          -1.3363610670655595e-002, 3.1889401883072176e-002,
          3.0808730754515231e-002, -2.1463554692719622e-001,
          3.3348637585929486e-002, -6.0379114802423715e-002,
          -1.6508704113206065e-002, -1.6845889151100729e-001,
          4.3756934347428299e-002, 6.5032276260404143e-002,
          -7.8207082430207103e-002, 8.7435839825317899e-002,
          7.8166552560019573e-002, 2.6904751112033867e-004,
          2.0972468839125773e-002, -3.3859278383091850e-002,
          -4.8798234135489928e-002, -7.0430570223414105e-002,
          -1.7986332267244390e-001, 1.3118369229157525e-001,
          -6.8300305890579324e-002, -2.4276493218776580e-002,
          -7.6244125157197820e-002, 5.2395620318060790e-002,
          -4.3567852147320403e-002, 4.6615484874365745e-002,
          -1.8998327976592212e-002, -1.2418540182199349e-001,
          -1.1268386378700573e-001, -7.1335478619889856e-002,
          -5.1132182325076860e-002, 1.4309857915040519e-001,
          1.2787211624073367e-002, 8.5685571084380602e-002,
          7.4540369062894574e-002, -1.1843832660803859e-001,
          -1.3521449674699567e-002, 4.3715151354147143e-002,
          -3.1880117675681399e-002, -3.4180717184436556e-002,
          -2.7049380071362716e-001, 8.8614094711899610e-003,
          -1.2113564967521430e-002, 6.6370007978476475e-002,
          9.6375926082861996e-002, -5.5064068949834004e-002,
          -7.1489897982806458e-002, 1.2444012915370249e-002,
          -1.3461411759169448e-001, -1.2528008362924176e-001,
          1.7681389138300706e-002, 1.0728608951357994e-001,
          1.4954521027818862e-001, 1.2321005751620136e-001,
          -1.1068534096766723e-001, -1.0699551881434706e-002,
          5.7305273634958402e-002, -1.9849351361115344e-001,
          -5.9844958012836819e-002, 1.5593748179449016e-001,
          2.7216430049928353e-002, -4.9824773527693319e-003,
          -4.3422162978178686e-001, 4.3695179282892271e-001,
          -1.2799871754092335e-001, 2.8279169374187746e-001,
          -1.9060082378584933e-001, -3.9309698092879225e-001,
          -3.0067793544680771e-001, -1.1636776305048339e-001,
          7.8586154918498408e-002, -1.0451719228999021e-001,
          7.9682356507300225e-002, 8.4370475037967518e-002,
          3.1212593561018254e-001, 7.7208036252837967e-002,
          -3.7946525525728814e-001, -8.0641118666926484e-002,
          5.5072743755651986e-002, 1.0489430053455032e-001,
          4.5578148005265599e-002, 7.8314112390971604e-003,
          -3.4282065845994514e-001, -2.2489692660085361e-001,
          -4.1812595894379974e-002, -2.9971848147728125e-001,
          -1.6226131129123131e-001, -2.0313842195307139e-001,
          7.7462599743663665e-002, -1.4842509141321278e-001,
          1.1754363523899715e-001, 3.6834857201488425e-001,
          -1.3976213998003392e-001, -9.5980866541892251e-002,
          -3.6039004976218980e-001, 3.0041445751569373e-002,
          -1.3362983200951173e-001, -2.7144657288118178e-002,
          6.0016791860418944e-002, -5.7819762635437429e-002,
          -5.2048031893824687e-001, -2.3357765842974021e-001,
          9.9561165756471240e-002, 3.1718182116915072e-002,
          1.5961448719878080e-001, 1.5392163801822953e-001,
          -2.0993024773200214e-001, -5.1136639829412678e-001,
          2.1258154894972175e-001, 1.8327592524662895e-001,
          6.7702583403604398e-003, 9.2540961552113318e-002,
          -1.5930980215879804e-002, 6.3544636546902067e-002,
          -4.6409516743751454e-002, 5.1225361703901395e-001,
          -3.4477136248220963e-001, -1.5437475659590966e-001,
          3.4421201241018962e-001, 1.1910829905838261e-001,
          2.9828195525276612e-002, 3.2214750020193283e-001,
          -6.6232723738464894e-002, -8.3709317743360684e-002,
          7.6182118108588756e-002, -1.3016529697420323e-001,
          1.7072033181777405e-001, -1.2732896707479224e-001,
          -3.1063428956402367e-001, 1.8171323797778752e-002,
          -1.0173496136734425e-001, 3.2946712366245812e-001,
          -1.2667905810098376e-001, -2.3007359156097326e-001,
          7.3289764002772255e-003, 4.2726459814773861e-002,
          -3.3108942552751008e-001, -6.0171666797381285e-002,
          -1.1218951164429298e-002, 4.5071925111249730e-002,
          -2.4459402338349703e-001, 3.2407796444836895e-001,
          -2.0051486378092215e-001, 5.4234441552675738e-001,
          -1.2831442207157451e-001, -2.0970090784438445e-002,
          -7.8337662462175384e-003, 6.6134531027822380e-002,
          -1.2409127716702677e-001, -2.2717958264084878e-001,
          -1.3019990240209184e-001, -4.7876165885161626e-001,
          2.2523959967242804e-001, -1.6738369184425894e-002,
          -6.1343924732430599e-001, 9.8633463696779944e-002,
          2.0094848784867149e-002, 6.7938348523573180e-002,
          -1.0902487949250944e-001, 1.7755829435920800e-001,
          -3.2839325631520716e-001, 5.0332182187510052e-002,
          -6.8688353896187015e-001, -1.1425859903556917e-001,
          2.7819141333661446e-001, 4.2297970342291430e-001,
          -7.0877857132540953e-002, -4.9015575411001079e-002,
          -1.6317282909329833e-002, -2.3840611735564243e-001,
          -1.7227835905933203e-001, -1.9853470213236052e-001,
          3.4885133769746968e-001, 9.0960805014560220e-002,
          -2.6702965702572362e-001, 3.6501171806753252e-001,
          -8.0043291018996821e-002, -1.6232922739747793e-001,
          -3.2525228511339682e-002, -2.2328020425074327e-001,
          -6.9477747059372055e-002, 1.9603113373011180e-001,
          -7.1795774927713468e-002, -2.3716055516981110e-001,
          2.7849777426132538e-001, -1.2374640411033014e-001,
          -1.2577404313975285e-001, -2.4364182436014725e-001,
          -8.0471835120193465e-003, 8.2417046230880961e-002,
          -7.2578442901965481e-002, 8.2250439755440857e-002,
          1.5843618546002464e-001, 2.2396192432691711e-001,
          -1.2746419490511171e-001, 1.9485360629632500e-001,
          -9.1688441772879714e-003, -1.8514286534069207e-002,
          1.8637167155098508e-001, 2.9643840847692621e-001,
          -2.5350865726498032e-002, -7.8784569237436066e-003,
          9.4752070501581090e-002, 1.2695207918689891e-001,
          1.3929678848014637e-001, 2.5669768490942441e-001,
          -1.0053140297739825e-001, -5.4436047980912497e-004,
          1.5104051383938613e-001, 4.2354559667267380e-002,
          -5.5685371562133306e-003, -1.5837246579005690e-001,
          2.0036004675995248e-001, 1.7669266407763637e-001,
          -2.1552889009661078e-001, 2.5344399506650983e-001,
          -3.5641831389840790e-002, -4.0554233597709372e-001,
          6.0138148810152145e-004, -3.9104305168063220e-003,
          -7.5714753513903221e-002, -5.2003719713789053e-004,
          -4.0303972787975262e-001, 4.6025574564788729e-001,
          1.5009929915284068e-001, 1.4239400622415030e-001,
          1.2877655891179363e-001, -8.8548957322731117e-002,
          2.1129490092028114e-001, -9.9265627124858244e-002,
          -8.0088181642070821e-002, -7.6981521091081084e-002,
          -8.8299946446022695e-002, -8.2511849872912740e-002,
          9.9617931424339570e-002, -9.5716463527631870e-002,
          -3.8351017611796501e-001, 5.1030720439785134e-002,
          -2.5990897828754012e-001, 4.6877883104682230e-002,
          4.4212197367911127e-002, -3.5444938789047815e-002,
          -5.1486958826276350e-003, -7.2531473314935299e-002,
          -1.7993852083501746e-001, -1.6634068226659518e-001,
          9.4847657644677882e-002, -8.1155324319325914e-002,
          -1.3043705279306228e-001, -1.3276413954376409e-001,
          -9.5177520625260081e-002, 1.1831434782870100e-002,
          1.1423852051832530e-001, -6.7379340142305474e-003,
          -2.6531834991283375e-002, -6.8799118945227319e-002,
          -4.7597689307718655e-001, 3.7758444621733350e-001,
          -4.1335607879255012e-002, -1.8079171437131131e-001,
          -1.9266550390961529e-001, 2.2462948041488118e-001,
          -1.2954004494241270e-001, 1.1482222465102375e-001,
          -7.1072103836563191e-002, 3.5998406548254996e-001,
          -7.6006923927122896e-002, 8.6931446823533362e-002,
          -1.0503169298818639e-001, 1.2932690595863595e-002,
          1.7004353572087908e-002, -7.7870712766750602e-002,
          8.5067710635630303e-002, -1.3750804954637041e-002,
          -2.2780793482586659e-002, -6.2918226384373235e-002,
          -2.7086261957690833e-002, -9.9809507164365777e-002,
          1.1060274786478035e-001, -8.0287359167431765e-002,
          8.0098311918414919e-002, 1.8755048674130653e-001,
          -8.4343448879550781e-002, 6.0152273334368137e-002,
          1.4235632450646918e-001, -1.3282222886465758e-001,
          -3.7905958003465975e-003, -1.6785947166817909e-002,
          -2.4675357759238577e-002, 9.2876685778546630e-002,
          1.2541112591012124e-001, 3.7976587118949641e-002,
          -1.0054399773456232e-001, 3.9620128200115672e-002,
          -1.5212893501186608e-001, -1.5645695670779221e-002,
          -6.2477942364697038e-002, 6.0076172131508822e-002,
          -2.6780179466511261e-002, 2.1442737856751110e-001,
          -8.5479112568465146e-003, 1.1145700848305226e-001,
          8.5920835621333361e-002, 9.5583898207359436e-002,
          1.3160981412959735e-001, -6.2132389557820931e-002,
          8.0259181731438855e-004, 1.7098322075801567e-001,
          1.6307039487761639e-002, 4.9082117615079447e-002,
          -2.0455912843488046e-002, 1.0190622041082435e-001,
          -7.4611995261121514e-002, -3.3073229968560375e-001,
          9.5611163317516082e-002, 4.5194652107282844e-002,
          4.9426170373336159e-002, -1.0852042949550912e-001,
          2.9046387081507641e-002, 1.1289613068610674e-001,
          -1.9431255960994223e-001, 3.6481013483656934e-002,
          -1.6584919722710329e-002, 3.6381109261714678e-001,
          1.0269741109366655e-001, -1.4621484512619017e-002,
          -2.8363381443171725e-002, -1.8850490290561649e-002,
          -6.2260651324581785e-002, -2.9287881686163277e-002,
          -5.2321821944380890e-002, -1.1759846020909737e-001,
          9.1710570223552126e-002, -1.0343859866852396e-002,
          1.7903067675118858e-001, 1.6740417188439477e-001,
          3.8950478063699223e-002, -5.3487740091560494e-002,
          -1.9590143747291860e-001, 1.3213705108276155e-001,
          1.0335043207922170e-001, -8.8545152012542167e-003,
          2.3124656315325109e-001, -5.4565086714802785e-002,
          -1.6658974423095504e-001, -2.9726152424994400e-002,
          8.8021001928254641e-002, 2.5537915883617882e-002,
          -1.1271521188084022e-001, -1.0935112338622004e-001,
          -3.9103577008150509e-002, -2.0760485739922963e-001,
          -9.1174063513130375e-003, -7.4757341765951529e-002,
          -9.6753743957759316e-003, -2.1576302712658983e-002,
          7.3546077942275939e-002, 2.2452674341438766e-001,
          -1.5697472052047454e-002, 7.5017878285629051e-003,
          4.8727126888115500e-002, 1.3800265232069606e-001,
          -3.7019077182677707e-001, -1.8706450758831913e-001,
          7.2931371304885181e-002, -3.4035435802084607e-001,
          1.3898321663098212e-001, 4.8627715403126652e-002,
          2.0348003626517941e-001, -1.4745072031592735e-002,
          -1.5455746870367301e-001, 5.7983695741966962e-002,
          2.1785092024734887e-002, -3.9582594055771844e-002,
          -9.8576567251642350e-002, 1.6280009995437505e-002,
          4.6481407089827551e-002, -1.0445507536660738e-002,
          -1.5757942767531567e-002, -8.3193015035368384e-002,
          -3.6019176684019510e-003, -1.2289804550950996e-001,
          1.2042719665216021e-001, 2.4858591223263105e-002,
          3.3442511790281376e-002, 9.2669074816613378e-002,
          -9.8357980627661004e-002, 5.7972869601989406e-002,
          1.3687821822911983e-001, -1.1718932665473999e-001,
          1.0453876409744343e-001, 5.2632184242400085e-002,
          -5.0393095372873578e-002, -1.8993377475429013e-001,
          -4.8724205012775225e-002, -1.8817954236619090e-002,
          4.0569981493053728e-002, -5.4744721327300155e-002,
          -8.9519511386477804e-002, -6.2027891658569048e-003,
          -3.1392806152135466e-002, 8.1413882524199784e-003,
          -1.5084645587200046e-001, -2.1163179974253352e-001,
          -1.0532185427649848e-001, 2.1635605178114223e-002,
          -7.5316748304338391e-002, 6.3034455473600190e-002,
          3.6752699164075801e-002, -2.6306159551015018e-001,
          -3.9681013600263007e-002, -8.7819330065590603e-002,
          5.3510017538400505e-002, -8.3413441411146066e-003,
          6.0615339845837710e-002, -1.0074279144234669e-001,
          1.9709586932278109e-001, -2.1291410939517111e-001,
          -1.0932090683992883e-001, 4.3152966477446068e-003,
          1.2097190645317274e-002, -1.0530050167677772e-001,
          1.0409680938201873e-001, -7.8215229194488436e-002,
          -9.8358255063517294e-002, -5.7051037705396254e-002,
          -1.2018289132329281e-001, 6.0080516383421156e-002,
          -4.1289865938201789e-002, -6.9984713564256257e-002,
          -1.1461503547091989e-001, 7.2051066592747320e-002,
          -2.0028437679092587e-002, 2.6827062733255726e-002,
          -1.4047172552225403e-002, -3.1504230986940984e-001,
          -4.8950806167578624e-002, 1.1363628858174952e-002,
          6.9035274279890660e-002, -1.1310183083051810e-001,
          -2.4206662934340406e-001, -1.0385563278846539e-001,
          9.8607214070949051e-002, 1.9041518651082692e-001,
          6.4861460078271385e-002, -4.8404917399998387e-002,
          -6.3122334098048100e-002, -6.5742192422405893e-002,
          2.8129378938839475e-002, 3.3481095093500543e-002,
          2.1022918401561383e-003, 4.7009491633230643e-001,
          2.0020239128167434e-002, -6.4397161609685274e-003,
          -6.8477707714971858e-002, 7.6403688660701937e-003,
          2.6901055110895106e-002, -5.4990344731231644e-001,
          1.5973646661602781e-001, 4.7161040892058519e-002,
          4.9098024136828011e-002, -3.1015809747171084e-002,
          5.7276058249465613e-002, 8.0282799594362769e-002,
          2.9202298230581780e-001, -3.1669821931504138e-002,
          5.5264962152927775e-002, -1.6058082479774138e-001,
          -2.8682661896632111e-001, 6.4621836094828786e-002,
          -3.1654865815862365e-003, 5.0360783642382577e-002,
          -8.8462120131624789e-003, -2.2919371637867322e-002,
          -1.0539111160844780e-001, 9.0299770365511101e-001,
          -2.3374244087189761e-001, -1.7658320577884280e-002,
          -1.1390200783458181e-001, 1.3910447285999102e-002,
          1.6174610880629919e-001, -2.6436965068205825e-001,
          -6.8213957706703143e-001, 2.5175326475224563e-001,
          1.7797713297015924e-001, 2.4457972035634776e-001,
          1.0525118595048226e-001, -2.3844589627390672e-001,
          3.6657794099486163e-002, -3.7264176022767992e-001,
          1.9962269418287870e-001, 3.9707376398895972e-001,
          -7.2571500303393599e-002, 3.1846104168758649e-001,
          7.8460101503606805e-001, 1.3534162406086372e-001,
          -1.9516402031840271e-001, 1.5878434197232866e-001,
          6.4644392170533183e-001, -1.3183649070002626e-001,
          1.6261944285634405e-001, 2.5007362583280940e-001,
          9.0560212559839346e-003, 2.8970231848228944e-001,
          2.8575689540171367e-001, -9.6495868711046734e-002,
          -5.1831861641157759e-002, 1.1408892487062795e-002,
          4.1161906896329042e-001, 1.4119430068614391e-001,
          1.7123277246261054e-001, -1.6982708742084607e-001,
          6.6324731695740002e-001, -6.7256947838101822e-001,
          -3.8519324999907895e-001, 1.8897534507525536e-002,
          -5.6106978827535581e-001, 9.8911318026198292e-001,
          -4.4873118148968300e-001, -3.7623643526289713e-001,
          3.0189466491950862e-001, 3.8223861912147827e-001,
          -2.0802658015244299e-001, -1.2052972771413793e-002,
          4.1672919206937126e-001, 2.2794451569878235e-002,
          -4.8047220337669566e-001, 6.7792222990461129e-002,
          -1.0931590382055933e-001, -1.9030575587808560e-001,
          3.5172344932475147e-002, -2.6450472757662896e-001,
          -3.6172403599548764e-001, 3.9966189826813986e-001,
          -3.6505054988610702e-002, 1.7430118614365647e-001,
          2.1408762804308912e-001, 1.4639945036767385e-001,
          2.0053529685893395e-002, -2.4768786962383250e-002,
          1.9654296342262445e-001, 2.1237419315381464e-001,
          -1.5538050558208782e-001, 2.3801968958111885e-001,
          4.0944963754908020e-001, 1.6218854661248969e-001,
          2.4115635202743532e-001, 2.7644358963751697e-001,
          -1.8374580719389585e-001, -5.0448966644848173e-002,
          3.3138226593327752e-001, -1.4313816069219704e-001,
          2.1672224028218517e-001, -2.9771832937057390e-003,
          4.5653051156249269e-001, -1.9223347716546280e-001,
          4.1092369855041899e-001, 1.7696106837272710e-001,
          -7.4187034900790982e-002, 3.4399596805341287e-001,
          8.1895248313789215e-001, 1.3073281398283679e-001,
          2.6022682557261173e-001, -3.6660936002346323e-002,
          -1.2357399174407956e-001, -7.5581247530118356e-002,
          -1.0345692168934170e-001, 6.8163379270729157e-002,
          -8.8700409094769658e-002, 7.1664064622361190e-002,
          6.5241286381265834e-002, 1.0417623408727228e-001,
          1.2002155984341001e-001, -1.0137346832997891e-001,
          1.7581684274861339e-001, -8.2200290475009630e-004,
          -6.3274569627839075e-002, 1.1423696851489128e-002,
          -1.2963376500651479e-002, -3.5548060771977162e-002,
          -1.5668250551292017e-002, -5.7551514566965320e-002,
          2.4545993878226240e-002, 6.5058822953130884e-003,
          -1.1760964750621726e-001, 5.0402789573946345e-002,
          -7.8985142363045699e-002, -2.6477273819800574e-002,
          5.8614479279099985e-003, 2.6615198332798802e-002,
          -2.1704289777325556e-002, 3.0092459617881716e-002,
          1.8960090022252449e-002, -1.9457485333059174e-002,
          3.3341023821115714e-002, -1.7745938583460061e-001,
          -7.4506893312983671e-002, 8.6938194136566518e-002,
          -1.4438570574514345e-001, -4.5582815626579815e-002,
          2.8470918335615821e-002, 7.2800404404325628e-002,
          -1.0841041640036427e-003, -1.8455302003719853e-001,
          4.0193739363089016e-002, 3.7060184479669196e-002,
          -3.1379889461106279e-002, -4.5933274631558265e-003,
          -1.0175536682631231e-001, 3.3786287250372027e-002,
          5.2966257647400851e-002, -3.7272240891758623e-002,
          1.1018020516312742e-002, -5.8180180180617214e-002,
          6.6584540649276311e-002, 1.9311473548470036e-002,
          -4.8055009418856466e-002, 3.1976241557485387e-002,
          9.2504759104158705e-003, -3.9142355539680519e-002,
          -4.8615246714324753e-002, 6.9266993695288687e-002,
          1.8583443514816203e-003, -4.0596499776486987e-002,
          5.3313739488017008e-002, -4.6106185927125357e-002,
          -3.1780849841466612e-002, -5.9744177474695223e-002,
          -2.8409351320715132e-003, 4.6868982052859547e-002,
          7.5185988410412768e-002, 5.9070621803917131e-002,
          8.4031735673125607e-002, 3.6807166712100057e-003,
          5.8412783135315456e-002, 7.4486441171749920e-002,
          2.1637581733705905e-002, -1.5941229530879020e-001,
          2.4323305951785838e-002, 6.8447885093452426e-002,
          -1.1183690322005585e-001, 3.4665191459372087e-002,
          3.7584547050423203e-002, 1.4820095359609811e-001,
          -9.5653641761191607e-002, -5.3039487767816910e-002,
          5.3641709686404283e-002, 3.5714609069743330e-002,
          -4.6597130078091090e-002, 3.8367767706182457e-002,
          1.1865451371800447e-002, -1.2493900282267813e-001,
          -2.2359545468604147e-002, -1.9864124171629768e-001,
          -2.6734581074649322e-002, 1.3662232346971123e-001,
          9.8429444591667095e-002, 9.5064258005036985e-004,
          2.5239381424362176e-002, 4.7217581958219047e-002,
          -1.3732302741839075e-001, -4.5016910085322305e-002,
          5.2669056590588148e-001, -4.8848400758455013e-001,
          1.5916272700808526e-001, 8.3199682051932650e-002,
          -1.9538109505796347e-001, 1.0893890798209129e-002,
          2.1227174083044112e-001, 8.9308917768699883e-002,
          8.2590446406862930e-002, -1.3699615200024232e-001,
          2.3074697106327497e-002, -3.8582193922189917e-001,
          -2.8310778615892090e-001, 8.1940942657170460e-002,
          -1.8881398762058119e-001, -3.3410769110605398e-001,
          6.2163305391249916e-002, -3.9378155389240288e-001,
          -2.5781835964754990e-001, 1.7314460841121532e-001,
          -1.0561816966577727e-002, -2.4865353012184874e-001,
          -3.5534962616023007e-002, -2.1594609117856731e-001,
          -1.1739124695482028e-001, -1.3044809910927321e-001,
          -2.9580545523792889e-001, 2.9168365009448649e-001,
          1.6818251826741060e-001, -1.0019524903494295e-001,
          3.2378776148295674e-001, 4.2023508377415579e-002,
          -2.8318216902013124e-002, 2.5005638236360378e-001,
          2.5750326747082830e-001, 1.4103054550307773e-001,
          -3.8295496724725431e-002, 4.0396683749356271e-001,
          2.0804706617903587e-001, -5.7460618132956047e-002,
          -8.6606893692710615e-002, -1.0026296828471191e-002,
          2.5536895512575097e-001, 9.2570843943320977e-002,
          -1.8970648226047181e-002, -2.1734804892575350e-002,
          -2.9635827123258779e-001, 2.9912705062243333e-001,
          1.6942545027744613e-001, -7.8761720919330244e-002,
          -2.1052134650828162e-002, -4.1280829201709401e-001,
          -8.3043461428115875e-002, -1.6648230870540576e-001,
          3.7483466721348019e-001, -1.0212081391352937e-001,
          -9.1041716830630767e-002, 3.5179889072456248e-002,
          7.3377958067118651e-002, 7.2694721364944287e-002,
          -2.8485663730017524e-001, 3.2565618320142647e-001,
          -6.1850788742840723e-001, 3.7872005524202962e-001,
          -1.9858580217093847e-002, -1.5113874439561303e-001,
          3.0874493721947116e-001, -2.7407718886145366e-001,
          -1.8111379552643961e-001, 1.1737506257955097e-002,
          1.2052721811490233e-001, -2.3605374865699433e-001,
          -5.3738178946190998e-002, 3.7532014476421383e-001,
          9.3607844752351149e-002, 1.8427014949933870e-001,
          -2.0665744584767765e-001, 3.0345512011924025e-001,
          -2.4685809287961197e-001, -9.5976849740064159e-003,
          -1.4709098194038700e-001, -3.8907602735343144e-001,
          -2.6112498285090435e-001, -1.1945859270597806e-001,
          -6.5574489234474870e-002, -2.9714264187851086e-002,
          -2.2468329902562111e-003, 4.9296740853405997e-002,
          4.0893037688227535e-001, 3.5629766853925066e-001,
          -4.3259213922826723e-002, -1.6904767342704470e-002,
          1.9763421265214375e-002, -5.8796226238413241e-002,
          -7.9137041588187587e-002, -1.0712630743796631e-002,
          5.8159148532639898e-002, -1.1430340414462624e-001,
          -3.0438194033813798e-001, 3.7830935304088584e-002,
          8.3628229762824607e-002, 5.1647710072082915e-002,
          -1.1535515736444293e-001, 1.7638590134377685e-001,
          -1.5066607675474553e-001, -2.0775147559604948e-001,
          -1.0239098104704042e-001, 1.0298326705558789e-003,
          -1.2382795801400089e-001, 9.4535365611980018e-002,
          6.7577884916152159e-002, -5.3529689700035431e-002,
          1.3051313009870402e-001, 2.5313597065733884e-001,
          -1.3813388742782562e-001, -5.6674928201769226e-002,
          4.6584220290132865e-002, 4.2247966865881989e-002,
          1.1259251291595462e-001, -2.3811213786979424e-002,
          -1.2102304072339753e-001, 8.5452664741257289e-002,
          2.7686193539995763e-001, -1.0433286789806553e-001,
          -5.5072041292300603e-002, 9.0788817045043112e-003,
          1.4021741515229047e-001, 1.7357805123313346e-002,
          -2.9144990753442526e-003, -8.4676562616079559e-002,
          2.9083651513590443e-002, -1.5269842041656848e-001,
          -1.2685278489407958e-001, 4.4645731405129216e-002,
          -1.0436814101204238e-001, -1.9753454711329332e-002,
          9.0543050517068749e-002, 1.3341522438589623e-001,
          -5.4599783194625960e-002, -1.2076843335856420e-001,
          5.4487420757840669e-003, 1.2366326495335815e-001,
          2.9436592787879983e-003, 5.8192170326069867e-002,
          -2.0784111553806020e-001, 1.7669450040161000e-001,
          7.2967924649913099e-002, 4.0980415742684538e-002,
          1.5667852021302742e-001, 1.2908612520694629e-001,
          -2.0772726125123978e-001, 4.8356174035009074e-002,
          -5.2614916439566596e-002, 1.2631607638566300e-001,
          -2.5555219469184043e-002, -2.2705324643781691e-001,
          -2.1458116569260555e-001, 1.7161004330626559e-001,
          -1.2497968059569581e-001, 1.5285679478021685e-001,
          -3.8717383252705012e-001, 2.4233483071484604e-001,
          2.0187767995236627e-001, 1.9526668272815348e-001,
          7.5574891856822743e-002, -1.2679008404370892e-001,
          3.5597951964227506e-002, -1.5925784757976399e-001,
          1.4182830963885534e-001, 1.1120663872323529e-001,
          1.5201762249781570e-001, -1.2926219134728664e-001,
          1.4975861469705951e-001, -7.1238348708958468e-002,
          -1.3838876461503749e-001, 1.6690405306785405e-001,
          -3.4408191815496586e-001, 7.2463802963357554e-002,
          2.9832811972037642e-002, -1.0832530227745295e-001,
          -3.4816865191983737e-002, 1.1705130491597497e-001,
          1.4506980405908365e-001, -8.0435516363990073e-002,
          -1.1636134627766581e-001, 1.9694826135870086e-001,
          -5.4415652916991387e-002, -7.6067522383066036e-002,
          1.8223253327635752e-001, -9.6076265231296684e-002,
          3.3367741044329846e-001, -8.1244698006677880e-004,
          -7.1854719968240902e-002, -2.1901310539816501e-001,
          -2.0652722544649296e-001, 2.8227324582075042e-001,
          -2.7657543557469962e-002, -6.8266479767854091e-002,
          2.3709165560554829e-001, 1.6410547018111765e-001,
          -1.7145767902651265e-001, 3.0877479279716631e-002,
          2.2991944060168665e-002, 1.1441248955681721e-001,
          5.6032778722815590e-002, -9.0260276944432907e-002,
          3.6491070314087245e-003, -3.7444810298294225e-002,
          -2.5760670242870997e-002, -1.3529157216548249e-001,
          1.9797758748857527e-002, 1.0478277272507804e-001,
          -1.2459015183204313e-001, 4.6490063358232726e-002,
          -2.9083148280829195e-003, 6.9915460988935765e-002,
          -1.9217038152281002e-003, -7.9570619451034608e-002,
          -7.9256434057060760e-002, 1.6251239569640755e-001,
          1.7445884869882136e-001, -1.2972179061270542e-001,
          2.7873865854118746e-002, -9.6290201228516337e-002,
          1.0426214818943472e-002, 1.4625544683595780e-002,
          6.6929863243210541e-003, 2.3406674725654264e-001,
          -3.7304159795524788e-002, -2.3658033461863334e-002,
          1.4121027836617650e-001, 4.6098822651641010e-002,
          6.7718098613414643e-002, 2.0051787663989148e-001,
          -2.7087932952726747e-002, -8.2847297439953713e-002,
          1.0281145203122394e-001, 1.2339704577760217e-001,
          8.6640714940906333e-002, -1.3284261226843693e-002,
          2.9107987649254444e-002, 1.3079695323266946e-001,
          1.2175206783979785e-002, 1.1521343589303730e-001,
          3.5885124072996370e-002, 7.9930976190141889e-002,
          -6.7952167453055696e-003, -1.3615983057138253e-001,
          1.3073592745925999e-001, 4.8809290969351694e-002,
          6.0220104827081969e-002, 1.5542438380998774e-001,
          5.3931603157025283e-002, 3.4792536400813203e-003,
          2.3395324152480908e-002, -4.7495154900289084e-002,
          2.2195501770336738e-002, -3.0047386762487860e-002,
          1.0187003787940620e-001, -6.0999271403428562e-002,
          1.8043992815119658e-002, -3.4370606666704065e-002,
          4.8109067779400036e-002, -1.3086700794989464e-001,
          4.9603573937716722e-002, 9.8238247303144947e-003,
          1.3824132537531403e-001, 7.0920322070761141e-002,
          5.9489057999420641e-002, -2.1647988214678279e-002,
          5.8678572381003647e-004, -3.4110475954230023e-002,
          -9.0462594299142501e-004, 9.7518980818868083e-003,
          -6.8447072980569276e-002, 1.6122919760712513e-002,
          7.1958310099125580e-002, -5.8325575178531444e-002,
          5.4060568498788798e-002, -8.3739972135480317e-002,
          5.0947328048791235e-002, -1.6307856009866892e-001,
          5.9807727994219288e-002, 5.2751926688994963e-002,
          1.1588414585990452e-001, -9.1806847989940363e-002,
          7.7778384334514714e-002, -5.8888627836469989e-002,
          -4.3987746295954949e-002, 7.9720941936723931e-003,
          -6.5255723030680890e-002, 4.4349285175251843e-002,
          -3.2607715297231478e-002, -9.1495553938388513e-002,
          -9.7887200207035785e-003, 2.6191164924943877e-001,
          -5.5698226082293648e-002, -1.5748660983407964e-001,
          -5.8274855965339802e-002, -6.2373552773710615e-002,
          4.0860767828007349e-001, 1.7341382798959948e-001,
          -1.3129555492112249e-001, 2.8185902739621477e-001,
          -1.7845486993039444e-001, -5.5716463586535349e-002,
          -2.5542934805527334e-001, -1.6947336691543292e-002,
          -4.8592462001458669e-002, -1.1076522390923661e-001,
          9.1343842909933817e-002, -1.9586567211024929e-002,
          1.2764970094258057e-001, -7.8158078019133249e-003,
          -3.2167786834942820e-002, -1.1255712799541630e-001,
          8.4968954267006847e-002, -8.3374748664344661e-002,
          1.2531566429132796e-001, 1.5480811260301264e-001,
          8.9473344678861727e-002, -1.3201696144662955e-001,
          1.8917478206912908e-001, -6.7312278710004031e-002,
          8.8108425840104851e-003, 6.7825776040414107e-002,
          -4.8333025316716245e-003, 6.1062561569244153e-002,
          -1.0984226265317637e-001, 2.1551067831691195e-002,
          -2.8750121645486685e-002, 3.1715389649971087e-002,
          -1.2156936884855486e-001, 7.0142193678851592e-002,
          5.8058309920445236e-002, 1.1619842232768812e-001,
          9.3186875556797569e-002, 1.8090126912692361e-001,
          2.1325324740917247e-002, 7.8005063723629003e-002,
          -4.5778825924353318e-002, 1.7866739197562240e-001,
          1.3915061675496944e-002, -1.1288155637194799e-001,
          -2.4911105476805327e-002, 7.5533856794759255e-002,
          8.1221229047833493e-002, 1.9746401649083137e-001,
          -1.3846157859749211e-002, 1.3259497923350144e-001,
          -6.9023789693580195e-002, 1.0869795105034087e-002,
          4.6222305945545696e-002, 1.0808312514905193e-001,
          -1.1953501376121367e-001, -4.5423884483373277e-002,
          -5.6310013685397814e-002, 1.6221520971718301e-001,
          -1.4080743291290840e-001, 5.5856062811883489e-002,
          -5.0199707482009347e-003, 1.3931923998699070e-001,
          8.5518005633866828e-002, -9.2587793637644144e-003,
          2.3881560578782077e-003, -8.9860478726314016e-002,
          8.9423931530379017e-002, 6.6837708218000780e-002,
          4.1945138269636785e-002, -1.2977560364286884e-002,
          8.7982914486988955e-003, -1.0421019649177109e-001,
          2.8454480550670350e-002, 5.7287640676217923e-002,
          5.9008216949307399e-002, -9.4365618275817128e-003,
          -1.3334251419832319e-001, 8.3929395262431455e-002,
          4.5094786218654212e-006, 1.8835091232349804e-001,
          -3.1905250071553620e-002, -1.6240205444106226e-001,
          4.0370377528173358e-002, -1.5270246439901169e-001,
          5.9243396198577054e-002, 7.2276729829509570e-002,
          -6.1316596241103277e-002, -1.3728337590152925e-001,
          5.9760851425533189e-002, -2.3232472089492276e-001,
          9.6601754031430231e-002, 1.2776823387711231e-001,
          -9.9510696023307366e-002, 4.0588886185102854e-002,
          -5.7119499548180075e-002, 3.7919374938406986e-001,
          -3.7002535367782155e-002, 8.1126835443325163e-002,
          5.5312583867280281e-002, 8.4199118604159948e-002,
          -9.4311636637929352e-002, 2.2942968011561873e-001,
          1.5611051647866733e-001, 2.3796690053979364e-001,
          1.3926977492005566e-001, 3.3105510957480308e-002,
          -1.1537995327053614e-002, -1.5032144225831233e-002,
          1.4008261147956688e-001, -1.8340340995004611e-001,
          2.2574494737216382e-002, 6.1272168296238605e-002,
          -2.3559333007004724e-001, -2.7377158969444476e-001,
          1.3771981407674788e-001, -2.6791843685586673e-002,
          -1.3763995346274521e-001, 1.4957751063824226e-001,
          6.3926703840106555e-002, 1.2174502546883910e-001,
          -2.1677911751107290e-001, -1.8601139241421712e-002,
          4.1191407494448849e-002, -5.7647974063373304e-002,
          2.3448666078616464e-002, 2.7129068000994468e-002,
          -1.6637612220357723e-001, 5.1858961106177430e-002,
          -4.4746570378798554e-003, 1.2483369838137910e-001,
          -2.2238378505643108e-001, 2.7402502691440928e-002,
          1.1895905587484455e-001, 3.5714466066129311e-002,
          -1.1500713397657539e-001, -2.7491775858533161e-002,
          6.0267070390415067e-002, 2.0020475127564716e-001,
          9.0256630644808655e-002, -5.5070455610380813e-002,
          4.7245902370587962e-002, 8.3550943896734259e-002,
          8.1548801714551922e-002, -4.0127974372719775e-002,
          7.8127634754167133e-002, -2.5698425411353823e-002,
          -1.0278328160459661e-001, -3.7982735131920770e-002,
          -1.6455801519496260e-001, 2.6156782748882633e-002,
          -1.6063303376258654e-002, -2.8543335720887292e-001,
          -6.6448574713257047e-002, -4.4324427771025618e-002,
          -4.3053041148589447e-002, -6.6083317294343719e-002,
          3.0102014627884140e-002, 6.8237739943985604e-002,
          -1.6264069272276599e-001, -1.1619536769262671e-001,
          -7.8787582930835889e-002, 3.4216835094067324e-002,
          -6.2683962422854816e-002, -1.4054526778195317e-001,
          -3.1016231428783226e-002, 1.0032461874904912e-001,
          -7.7126628620394586e-002, 5.9521414466419925e-002,
          -4.6857057822122454e-002, -4.7456871088419714e-002,
          -4.4877680056703062e-002, 1.4360291172783002e-001,
          -8.4185776223071024e-002, 8.0203930352022820e-002,
          -1.0760984961996832e-001, 1.4161563561282542e-001,
          6.5629002139226775e-002, -1.2096812509893513e-001,
          -8.7808446837992896e-002, 4.6033444211888937e-002,
          1.5558582580322630e-001, -2.3816962957594345e-001,
          1.4766526249403361e-001, 4.5696384900957218e-002,
          1.6727901786473601e-001, -2.5229998586758139e-002,
          8.4578948358192158e-002, -7.4551475168413026e-002,
          -6.8225325677222365e-002, 2.7036827420861876e-002,
          -1.1050465512616965e-001, -2.9504529606496452e-002,
          4.7805857612934571e-002, -5.2904158024628667e-002,
          2.9214090836593520e-001, 1.7086992060393455e-001,
          7.0056993663524636e-002, 6.1894450058269927e-002,
          -1.5076876303558084e-001, 6.1518264835084879e-002,
          4.4551707485402953e-003, -1.5373973438563457e-001,
          -1.0699040733678128e-001, -1.5618638951601807e-002,
          -1.3443908287339290e-001, -2.0296433230764625e-002,
          -1.8251861693803423e-001, -6.5295050774854063e-002,
          -4.1769084336832275e-002, 4.8616297811020857e-002,
          1.8045128505840547e-004, -1.5012888126001347e-001,
          1.1224147798341673e-001, 8.7449777607366455e-002,
          -6.0664934443179726e-002, -6.2510842177550166e-002,
          -5.4891763724467885e-002, 1.7815093330353354e-001,
          9.0756775136268661e-002, -8.0219265749662302e-002,
          -5.4990330978367696e-002, 8.8632196511447506e-002,
          -7.7873320803240068e-002, 1.4720851503044072e-001,
          -1.2989197519600512e-001, 9.4601204582129266e-003,
          1.3135813061888993e-001, -1.6326742482915019e-001,
          -3.4559515849230593e-003, 2.4820689620916048e-002,
          -5.9847438287540231e-002, -5.2619089644900502e-002,
          1.2545839664968306e-001, 6.9618466460876993e-002,
          -1.7152944501928277e-001, 3.8149962520936359e-002,
          -3.8873970523799435e-002, 7.9770770210958408e-002,
          -9.5168494330142989e-002, -2.2911821809204755e-001,
          7.5360617953158836e-003, 9.6191230970843103e-002,
          -5.0630125134650067e-002, -7.5296829309577998e-002,
          3.0175275672916575e-002, 1.4199641171375296e-001,
          5.3721416657460878e-002, 2.9513424400529807e-002,
          1.1847658944548785e-002, 2.1199577348270041e-001,
          -1.5330683414059690e-001, 5.6595551348241506e-002,
          -2.4821160869313061e-001, 8.6470471074877764e-002,
          -1.1975903663290020e-001, -4.0064697214350950e-002,
          2.2339095066894420e-002, 1.3263353091705915e-001,
          -1.5062127582876170e-001, 4.1560262869827357e-002,
          -3.0890125893008502e-001, -6.4463311970260548e-002,
          -1.6012402660996499e-002, 4.9130266237018431e-002,
          -5.6180695254786439e-003, -1.3682260666981294e-001,
          3.0825073704335047e-002, 2.4968022613678635e-002,
          9.4556755871089526e-002, 5.6614576240296755e-002,
          3.3190277662591000e-001, -1.4053031773620994e-001,
          1.3005846935611093e-001, -1.1877815189014732e-001,
          -1.7325146019329429e-001, 1.3251085600480622e-001,
          -1.3082045853779689e-001, -7.1835986709019917e-002,
          3.1444791163462674e-002, 1.1762087613235454e-001,
          -1.0243743565276671e-001, 1.2985449391057025e-001,
          2.3345608663564790e-001, 1.8346268145025671e-002,
          -8.6074430726762796e-002, 1.2313751113499258e-001,
          -4.7281275293289370e-002, 1.5356688260177531e-001,
          2.2310378274351203e-001, -5.2416459352287313e-004,
          2.8284373983640260e-001, -1.0958135526788740e-001,
          -1.0783024057986784e-001, 4.0938779215375691e-002,
          -9.5257893355876339e-002, 1.9898106285075443e-001,
          -8.8666641596053336e-002, 4.4121329479473261e-002,
          1.3734530366185752e-001, -2.6017068008959608e-002,
          -4.3038791555244693e-001, -1.4086199859990681e-001,
          -1.0231437240505344e-001, 1.1301933897927645e-001,
          3.8723710721850831e-002, -9.3030106531238874e-002,
          7.7440986501258510e-002, -2.5077470618950277e-002,
          2.5643971173012984e-002, 1.6193458956951640e-002,
