%YAML:1.0
my_nb: !!opencv-ml-bayesian
   var_count: 14
   var_all: 14
   cls_labels: !!opencv-matrix
      rows: 1
      cols: 32
      dt: i
      data: [ 1, 2, 3, 4, 5, 6, 7, 8, 9, 10, 11, 12, 13, 14, 15, 16, 17,
          18, 19, 20, 21, 22, 23, 24, 25, 26, 27, 28, 29, 30, 31, 32 ]
   count:
      - !!opencv-matrix
         rows: 1
         cols: 14
         dt: i
         data: [ 63, 63, 63, 63, 63, 63, 63, 63, 63, 63, 63, 63, 63, 63 ]
      - !!opencv-matrix
         rows: 1
         cols: 14
         dt: i
         data: [ 53, 53, 53, 53, 53, 53, 53, 53, 53, 53, 53, 53, 53, 53 ]
      - !!opencv-matrix
         rows: 1
         cols: 14
         dt: i
         data: [ 52, 52, 52, 52, 52, 52, 52, 52, 52, 52, 52, 52, 52, 52 ]
      - !!opencv-matrix
         rows: 1
         cols: 14
         dt: i
         data: [ 64, 64, 64, 64, 64, 64, 64, 64, 64, 64, 64, 64, 64, 64 ]
      - !!opencv-matrix
         rows: 1
         cols: 14
         dt: i
         data: [ 50, 50, 50, 50, 50, 50, 50, 50, 50, 50, 50, 50, 50, 50 ]
      - !!opencv-matrix
         rows: 1
         cols: 14
         dt: i
         data: [ 55, 55, 55, 55, 55, 55, 55, 55, 55, 55, 55, 55, 55, 55 ]
      - !!opencv-matrix
         rows: 1
         cols: 14
         dt: i
         data: [ 55, 55, 55, 55, 55, 55, 55, 55, 55, 55, 55, 55, 55, 55 ]
      - !!opencv-matrix
         rows: 1
         cols: 14
         dt: i
         data: [ 65, 65, 65, 65, 65, 65, 65, 65, 65, 65, 65, 65, 65, 65 ]
      - !!opencv-matrix
         rows: 1
         cols: 14
         dt: i
         data: [ 55, 55, 55, 55, 55, 55, 55, 55, 55, 55, 55, 55, 55, 55 ]
      - !!opencv-matrix
         rows: 1
         cols: 14
         dt: i
         data: [ 60, 60, 60, 60, 60, 60, 60, 60, 60, 60, 60, 60, 60, 60 ]
      - !!opencv-matrix
         rows: 1
         cols: 14
         dt: i
         data: [ 56, 56, 56, 56, 56, 56, 56, 56, 56, 56, 56, 56, 56, 56 ]
      - !!opencv-matrix
         rows: 1
         cols: 14
         dt: i
         data: [ 52, 52, 52, 52, 52, 52, 52, 52, 52, 52, 52, 52, 52, 52 ]
      - !!opencv-matrix
         rows: 1
         cols: 14
         dt: i
         data: [ 73, 73, 73, 73, 73, 73, 73, 73, 73, 73, 73, 73, 73, 73 ]
      - !!opencv-matrix
         rows: 1
         cols: 14
         dt: i
         data: [ 56, 56, 56, 56, 56, 56, 56, 56, 56, 56, 56, 56, 56, 56 ]
      - !!opencv-matrix
         rows: 1
         cols: 14
         dt: i
         data: [ 59, 59, 59, 59, 59, 59, 59, 59, 59, 59, 59, 59, 59, 59 ]
      - !!opencv-matrix
         rows: 1
         cols: 14
         dt: i
         data: [ 54, 54, 54, 54, 54, 54, 54, 54, 54, 54, 54, 54, 54, 54 ]
      - !!opencv-matrix
         rows: 1
         cols: 14
         dt: i
         data: [ 65, 65, 65, 65, 65, 65, 65, 65, 65, 65, 65, 65, 65, 65 ]
      - !!opencv-matrix
         rows: 1
         cols: 14
         dt: i
         data: [ 66, 66, 66, 66, 66, 66, 66, 66, 66, 66, 66, 66, 66, 66 ]
      - !!opencv-matrix
         rows: 1
         cols: 14
         dt: i
         data: [ 59, 59, 59, 59, 59, 59, 59, 59, 59, 59, 59, 59, 59, 59 ]
      - !!opencv-matrix
         rows: 1
         cols: 14
         dt: i
         data: [ 63, 63, 63, 63, 63, 63, 63, 63, 63, 63, 63, 63, 63, 63 ]
      - !!opencv-matrix
         rows: 1
         cols: 14
         dt: i
         data: [ 62, 62, 62, 62, 62, 62, 62, 62, 62, 62, 62, 62, 62, 62 ]
      - !!opencv-matrix
         rows: 1
         cols: 14
         dt: i
         data: [ 72, 72, 72, 72, 72, 72, 72, 72, 72, 72, 72, 72, 72, 72 ]
      - !!opencv-matrix
         rows: 1
         cols: 14
         dt: i
         data: [ 61, 61, 61, 61, 61, 61, 61, 61, 61, 61, 61, 61, 61, 61 ]
      - !!opencv-matrix
         rows: 1
         cols: 14
         dt: i
         data: [ 60, 60, 60, 60, 60, 60, 60, 60, 60, 60, 60, 60, 60, 60 ]
      - !!opencv-matrix
         rows: 1
         cols: 14
         dt: i
         data: [ 57, 57, 57, 57, 57, 57, 57, 57, 57, 57, 57, 57, 57, 57 ]
      - !!opencv-matrix
         rows: 1
         cols: 14
         dt: i
         data: [ 52, 52, 52, 52, 52, 52, 52, 52, 52, 52, 52, 52, 52, 52 ]
      - !!opencv-matrix
         rows: 1
         cols: 14
         dt: i
         data: [ 62, 62, 62, 62, 62, 62, 62, 62, 62, 62, 62, 62, 62, 62 ]
      - !!opencv-matrix
         rows: 1
         cols: 14
         dt: i
         data: [ 55, 55, 55, 55, 55, 55, 55, 55, 55, 55, 55, 55, 55, 55 ]
      - !!opencv-matrix
         rows: 1
         cols: 14
         dt: i
         data: [ 77, 77, 77, 77, 77, 77, 77, 77, 77, 77, 77, 77, 77, 77 ]
      - !!opencv-matrix
         rows: 1
         cols: 14
         dt: i
         data: [ 65, 65, 65, 65, 65, 65, 65, 65, 65, 65, 65, 65, 65, 65 ]
      - !!opencv-matrix
         rows: 1
         cols: 14
         dt: i
         data: [ 56, 56, 56, 56, 56, 56, 56, 56, 56, 56, 56, 56, 56, 56 ]
      - !!opencv-matrix
         rows: 1
         cols: 14
         dt: i
         data: [ 53, 53, 53, 53, 53, 53, 53, 53, 53, 53, 53, 53, 53, 53 ]
   sum:
      - !!opencv-matrix
         rows: 1
         cols: 14
         dt: d
         data: [ 1.6870256042480469e+002, 4.2068933963775635e+001,
             6.0940464913845062e+001, 7.1183019995689392e+001,
             4.0592102050781250e+001, 1.5935746026039124e+002,
             3.1804732114076614e+001, 1.4644731089472771e+001,
             1.7813899032771587e+000, 6.2818111932756437e-003,
             2.1123563768696840e-003, 2.6060125016421319e-007,
             3.4557355343167728e-004, 3.7721880760476596e-009 ]
      - !!opencv-matrix
         rows: 1
         cols: 14
         dt: d
         data: [ 5.6214839816093445e+001, 2.9039572149515152e+001,
             3.5400741040706635e+001, 7.1585940241813660e+001,
             3.0984082937240601e+001, 5.7832589983940125e+001,
             1.7180846944451332e+001, 1.0506141960620880e+001,
             3.5152485148501000e-002, 9.1981804820193247e-002,
             6.5764501841840683e-003, 3.5474432027449154e-006,
             -8.3742810696563197e-005, 3.4282977806263104e-007 ]
      - !!opencv-matrix
         rows: 1
         cols: 14
         dt: d
         data: [ 6.0368820309638977e+001, 2.8147199183702469e+001,
             3.6749920964241028e+001, 8.0335399746894836e+001,
             3.3469290018081665e+001, 6.0700210452079773e+001,
             1.4171082943677902e+001, 9.3768760412931442e+000,
             6.6387595441483427e-002, 1.2631065168534406e-002,
             3.0946624141847678e-004, 8.5989019079104175e-009,
             -7.2248978326416857e-006, -4.7180386122469900e-010 ]
      - !!opencv-matrix
         rows: 1
         cols: 14
         dt: d
         data: [ 6.8669489741325378e+001, 4.4449685990810394e+001,
             6.0467975795269012e+001, 7.7764640331268311e+001,
             5.3447108030319214e+001, 6.8925319910049438e+001,
             3.7008456975221634e+001, 1.0712813004851341e+001,
             1.3409653107146369e-002, 4.4653867982560769e-002,
             7.2034602176529461e-005, -2.0409772886883441e-011,
             2.2479679279846509e-007, -4.5641065151433638e-010 ]
      - !!opencv-matrix
         rows: 1
         cols: 14
         dt: d
         data: [ 6.6438390493392944e+001, 3.6792335033416748e+001,
             4.9053298950195313e+001, 5.7619039773941040e+001,
             4.3127624034881592e+001, 7.7257489800453186e+001,
             3.2539356112480164e+001, 8.7421759963035583e+000,
             2.4647465534508228e-001, 2.7328702301474550e-003,
             3.0970353413550811e-004, 1.6197178328960154e-008,
             2.3411399318051807e-005, -8.7543255907487704e-010 ]
      - !!opencv-matrix
         rows: 1
         cols: 14
         dt: d
         data: [ 1.6692085933685303e+002, 3.6681052982807159e+001,
             5.3621897995471954e+001, 6.0272060275077820e+001,
             3.2542788833379745e+001, 1.5821408069133759e+002,
             2.7136882096529007e+001, 1.4080665051937103e+001,
             2.2051010075956583e+000, 1.9852409177474328e-002,
             7.9774083779966531e-003, 3.2093997473054640e-006,
             1.4851512914688669e-003, -5.9252530340125203e-008 ]
      - !!opencv-matrix
         rows: 1
         cols: 14
         dt: d
         data: [ 1.1146713995933533e+002, 3.8215703964233398e+001,
             5.4335781872272491e+001, 5.9770939707756042e+001,
             4.2615798830986023e+001, 1.1060870933532715e+002,
             3.6121614933013916e+001, 1.1130044996738434e+001,
             8.4094706922769547e-001, 2.0813978386513554e-003,
             3.5781236204712741e-004, 1.5011384287034390e-008,
             3.5294433206378706e-005, 2.4801934536437597e-009 ]
      - !!opencv-matrix
         rows: 1
         cols: 14
         dt: d
         data: [ 2.3004004907608032e+002, 4.3856860160827637e+001,
             6.2070450961589813e+001, 8.4801769971847534e+001,
             3.4830472946166992e+001, 2.2671155047416687e+002,
             2.0928619951009750e+001, 1.9720315083861351e+001,
             4.4879886135458946e+000, 2.4815065255182844e-002,
             1.2596430856566698e-002, 1.0185387021199861e-005,
             3.6952439585927754e-003, -1.5940737777621436e-007 ]
      - !!opencv-matrix
         rows: 1
         cols: 14
         dt: d
         data: [ 1.0652849018573761e+002, 3.4525896906852722e+001,
             5.1202309966087341e+001, 8.8892320036888123e+001,
             3.7908969104290009e+001, 1.1131270956993103e+002,
             1.5126304939389229e+001, 1.1005186989903450e+001,
             7.6136515988036990e-001, 1.1450226064425806e-002,
             3.8714684217211470e-003, 9.3830533602656026e-007,
             4.9098826371363202e-004, 1.1790458719520126e-008 ]
      - !!opencv-matrix
         rows: 1
         cols: 14
         dt: d
         data: [ 1.4963638913631439e+002, 4.1121910035610199e+001,
             5.9130597889423370e+001, 6.8310139894485474e+001,
             4.1698050200939178e+001, 1.4199784028530121e+002,
             3.3042758852243423e+001, 1.3438753992319107e+001,
             1.4748789956793189e+000, 4.2677507850044094e-003,
             1.1868524007923043e-003, 8.8849432262704366e-008,
             1.6527034197721946e-004, -2.3411873545251877e-009 ]
      - !!opencv-matrix
         rows: 1
         cols: 14
         dt: d
         data: [ 1.2975138914585114e+002, 3.8244164943695068e+001,
             5.4040755033493042e+001, 7.0698550105094910e+001,
             3.9837222754955292e+001, 1.2369554924964905e+002,
             2.6687765926122665e+001, 1.1873454019427299e+001,
             1.0768550047650933e+000, 4.0690748300562518e-003,
             6.2977580765988250e-004, 2.6754171188428608e-008,
             4.3000479557075977e-005, -3.8817394278405909e-009 ]
      - !!opencv-matrix
         rows: 1
         cols: 14
         dt: d
         data: [ 1.9785386085510254e+002, 3.7446656167507172e+001,
             5.1272008061408997e+001, 6.0366910338401794e+001,
             2.7549649149179459e+001, 1.9284903979301453e+002,
             2.0850365027785301e+001, 1.6605104893445969e+001,
             4.0312952995300293e+000, 2.4633281325918688e-002,
             5.0957669084681356e-003, 1.6101982307152253e-006,
             3.1023332369883860e-004, 1.6083678206138527e-006 ]
      - !!opencv-matrix
         rows: 1
         cols: 14
         dt: d
         data: [ 1.5704402935504913e+002, 5.9033168852329254e+001,
             7.2577421247959137e+001, 7.8482919931411743e+001,
             5.8988102018833160e+001, 1.5688880050182343e+002,
             5.1052599847316742e+001, 1.5172676011919975e+001,
             1.2934345919638872e+000, 4.4370336379415676e-003,
             8.0194040889125517e-004, 5.8978229243914464e-008,
             9.7774447421095090e-005, 4.7531191473898981e-010 ]
      - !!opencv-matrix
         rows: 1
         cols: 14
         dt: d
         data: [ 1.4635183048248291e+002, 3.4175445914268494e+001,
             5.2241910040378571e+001, 6.4860179424285889e+001,
             3.3389068007469177e+001, 1.4390621972084045e+002,
             2.5005077898502350e+001, 1.3988276928663254e+001,
             1.9340833965688944e+000, 5.9866445270017721e-002,
             3.0229616793803871e-002, 2.7458984800610153e-005,
             5.6721473865763983e-003, 7.5876813762643103e-008 ]
      - !!opencv-matrix
         rows: 1
         cols: 14
         dt: d
         data: [ 1.2318471038341522e+002, 3.7720787942409515e+001,
             5.4921314179897308e+001, 8.0497269988059998e+001,
             4.0139045894145966e+001, 1.2777571034431458e+002,
             2.1647563993930817e+001, 1.2255085960030556e+001,
             9.5828675804659724e-001, 3.7572936023934744e-002,
             1.0449632998643210e-002, 4.7444328543644332e-006,
             1.3620714260014211e-003, -2.9085544935632951e-008 ]
      - !!opencv-matrix
         rows: 1
         cols: 14
         dt: d
         data: [ 1.8804338932037354e+002, 3.5731850087642670e+001,
             5.2512923061847687e+001, 6.1650490283966064e+001,
             2.8542952090501785e+001, 1.8117075967788696e+002,
             2.2001538962125778e+001, 1.5665289014577866e+001,
             3.1652806848287582e+000, 3.7977435425091244e-002,
             2.1505966764379991e-002, 2.1245524798435209e-005,
             5.4133529440036909e-003, -1.3721538174523053e-008 ]
      - !!opencv-matrix
         rows: 1
         cols: 14
         dt: d
         data: [ 1.2096862995624542e+002, 4.1932462871074677e+001,
             6.2501525044441223e+001, 7.8307360291481018e+001,
             4.6893320858478546e+001, 1.2547258996963501e+002,
             3.3175768077373505e+001, 1.2573615938425064e+001,
             7.4045197921805084e-001, 6.7634630245265726e-003,
             1.5334022836555050e-003, 1.1244179614054603e-007,
             1.6009283241519290e-004, -4.1300886012294647e-009 ]
      - !!opencv-matrix
         rows: 1
         cols: 14
         dt: d
         data: [ 3.6628669881820679e+002, 4.6467725038528442e+001,
             6.5036657035350800e+001, 7.2446180224418640e+001,
             2.4743404090404510e+001, 3.5843690013885498e+002,
             2.0570517897605896e+001, 3.0031883060932159e+001,
             1.2051818020641804e+001, 8.6020403006841661e-002,
             5.1185419540161092e-002, 7.9819306811258761e-005,
             2.0028833735807439e-002, -2.5801372406236700e-006 ]
      - !!opencv-matrix
         rows: 1
         cols: 14
         dt: d
         data: [ 4.2800351858139038e+002, 4.0384646952152252e+001,
             5.5996386110782623e+001, 6.4662790775299072e+001,
             1.7328616991639137e+001, 4.4092394161224365e+002,
             1.4493822067975998e+001, 3.3582783907651901e+001,
             1.8795737080276012e+001, 2.8967957937129540e-001,
             2.3737365871420479e-001, 1.5422441481065530e-003,
             1.2612645418357715e-001, 4.5871092899107957e-007 ]
      - !!opencv-matrix
         rows: 1
         cols: 14
         dt: d
         data: [ 1.3688090026378632e+002, 4.1036207079887390e+001,
             6.1408483922481537e+001, 6.9452080249786377e+001,
             4.3080132961273193e+001, 1.4206281948089600e+002,
             3.5566654175519943e+001, 1.3755695939064026e+001,
             1.2807190115563571e+000, 8.6431684350827709e-002,
             3.0542364278517198e-002, 3.4114460599532492e-005,
             4.7287116663028428e-003, -7.1549798301429046e-007 ]
      - !!opencv-matrix
         rows: 1
         cols: 14
         dt: d
         data: [ 1.9469967961311340e+002, 3.9496314883232117e+001,
             5.9938832998275757e+001, 6.7107999920845032e+001,
             3.4071733295917511e+001, 1.8588917875289917e+002,
             2.9120398014783859e+001, 1.6814266949892044e+001,
             2.9129534140229225e+000, 5.4600469011347741e-002,
             2.6544948879745789e-002, 2.3125602140128265e-005,
             5.5904899551251219e-003, -3.5585447776334544e-007 ]
      - !!opencv-matrix
         rows: 1
         cols: 14
         dt: d
         data: [ 7.4548289895057678e+001, 5.5073037981987000e+001,
             6.9711552143096924e+001, 8.0127140402793884e+001,
             6.5869696915149689e+001, 7.7836049795150757e+001,
             5.3326845169067383e+001, 1.1757011964917183e+001,
             1.4625944697421289e-002, 1.4828663886873983e-002,
             9.1734416732824897e-005, -1.3147542693518614e-009,
             -6.7755016887609439e-007, -1.9469492702042359e-010 ]
      - !!opencv-matrix
         rows: 1
         cols: 14
         dt: d
         data: [ 7.8918649792671204e+001, 4.6506933152675629e+001,
             6.0652979969978333e+001, 6.6050099730491638e+001,
             5.6137754201889038e+001, 8.9307010054588318e+001,
             4.7893580079078674e+001, 1.0479095056653023e+001,
             2.4634924129350111e-001, 1.7351754053720470e-003,
             8.0331241603559533e-005, 8.7581452360033916e-010,
             3.2112225430980246e-006, 1.8537478596494699e-010 ]
      - !!opencv-matrix
         rows: 1
         cols: 14
         dt: d
         data: [ 4.9435417032241821e+002, 4.5092890858650208e+001,
             5.7614341318607330e+001, 6.7042020201683044e+001,
             1.6515368908643723e+001, 5.0666431093215942e+002,
             1.3343532949686050e+001, 4.1284781157970428e+001,
             2.7316981941461563e+001, 2.1700523268373217e-001,
             6.1021367240755353e-002, 2.2809144226293432e-004,
             1.7565540487339604e-002, 7.5175337985899926e-005 ]
      - !!opencv-matrix
         rows: 1
         cols: 14
         dt: d
         data: [ 1.4206488955020905e+002, 3.9926431834697723e+001,
             5.6592008113861084e+001, 6.3520969986915588e+001,
             3.9805115938186646e+001, 1.3842272043228149e+002,
             3.2161668896675110e+001, 1.3006111040711403e+001,
             1.5043576024472713e+000, 1.4303374429800897e-002,
             4.8901505238063692e-003, 9.9837961460395863e-007,
             7.8418701247073841e-004, 7.6971944684733114e-009 ]
      - !!opencv-matrix
         rows: 1
         cols: 14
         dt: d
         data: [ 9.4707149982452393e+001, 3.4702173054218292e+001,
             5.0813529133796692e+001, 5.7406859993934631e+001,
             3.9476487040519714e+001, 9.8037580132484436e+001,
             3.2460722982883453e+001, 9.9782200008630753e+000,
             5.5568314809352160e-001, 1.3506923563909368e-002,
             3.0554252798538073e-003, 5.5413676752942564e-007,
             3.3093332766043204e-004, 3.7707954355010488e-009 ]
      - !!opencv-matrix
         rows: 1
         cols: 14
         dt: d
         data: [ 1.0180439937114716e+002, 4.2890507876873016e+001,
             5.6962769985198975e+001, 7.1293190121650696e+001,
             4.7199114024639130e+001, 1.1113918077945709e+002,
             3.5894095033407211e+001, 1.2234488964080811e+001,
             6.8751954007893801e-001, 3.7501335321849183e-002,
             2.1027855215720592e-003, -5.0796108784718544e-007,
             -2.1687329015099288e-004, 4.1552955086580608e-008 ]
      - !!opencv-matrix
         rows: 1
         cols: 14
         dt: d
         data: [ 7.5094279646873474e+001, 3.5200015962123871e+001,
             4.6328830003738403e+001, 6.8342270374298096e+001,
             4.0618426144123077e+001, 8.6168610572814941e+001,
             2.6439533978700638e+001, 9.8492170274257660e+000,
             3.1481291027739644e-001, 6.6344435595055984e-003,
             3.6548518177426104e-004, 9.9610478531050658e-009,
             1.8312813339527167e-005, -8.6688308751343523e-011 ]
      - !!opencv-matrix
         rows: 1
         cols: 14
         dt: d
         data: [ 2.0793724918365479e+003, 5.0628542870283127e+001,
             6.0086981892585754e+001, 8.6270869970321655e+001,
             5.8140290938317776e+000, 2.5379821996688843e+003,
             4.6347186043858528e+000, 2.3727560019493103e+002,
             7.3845791578292847e+002, 2.0469816024065949e+001,
             1.6128660246758955e+001, 6.9496604849468184e+000,
             4.7353848875616677e+001, 5.2627237087187861e-002 ]
      - !!opencv-matrix
         rows: 1
         cols: 14
         dt: d
         data: [ 2.3173960947990417e+002, 4.0011218726634979e+001,
             5.8501812100410461e+001, 7.5561599850654602e+001,
             2.9763025939464569e+001, 2.4136664962768555e+002,
             2.2060361072421074e+001, 2.0567492008209229e+001,
             4.6421784814447165e+000, 3.2645179708197247e-001,
             1.4828641484928085e-001, 7.0574556786873188e-004,
             3.5586582804171485e-002, -3.6389201468145504e-005 ]
      - !!opencv-matrix
         rows: 1
         cols: 14
         dt: d
         data: [ 6.1808299779891968e+001, 2.1450580090284348e+001,
             2.7989254951477051e+001, 1.2150136029720306e+002,
             2.5643333047628403e+001, 6.0800990104675293e+001,
             5.4998345747590065e+000, 1.1787811055779457e+001,
             3.7016092203884909e-002, 1.8500070382287959e-002,
             1.3459134700497088e-002, 3.3547421831592317e-006,
             -1.1297800696752347e-005, -5.6662701173899183e-007 ]
      - !!opencv-matrix
         rows: 1
         cols: 14
         dt: d
         data: [ 6.1305769562721252e+001, 3.4408185243606567e+001,
             4.4192165017127991e+001, 6.6565129637718201e+001,
             4.1259888112545013e+001, 5.7212510108947754e+001,
             2.6517756074666977e+001, 9.4423230439424515e+000,
             1.8417712154587207e-002, 2.7147688066179398e-002,
             5.2360536296447435e-004, 2.5593543225000109e-008,
             4.1800527222912720e-006, 5.8141590320019861e-010 ]
   productsum:
      - !!opencv-matrix
         rows: 14
         cols: 14
         dt: d
         data: [ 4.5323701639527371e+002, 1.1270017854057392e+002,
             1.6316753262281722e+002, 1.9053546487607639e+002,
             1.0848612195212156e+002, 4.2807200070553785e+002,
             8.5071919054421031e+001, 3.9292202018185357e+001,
             4.8059509884161411e+000, 1.6821818308868156e-002,
             5.7417064509743014e-003, 7.2400491442104982e-007,
             9.4503326479605191e-004, 7.8864859419346587e-009,
             1.1270017854057392e+002, 2.8113676787179884e+001,
             4.0695228224866945e+001, 4.7533118341241334e+001,
             2.7112809463016305e+001, 1.0645976842812051e+002,
             2.1243686599750315e+001, 9.7817176796953582e+000,
             1.1908761845684155e+000, 4.1502842035793224e-003,
             1.3965290571274381e-003, 1.7177049658932657e-007,
             2.2858961421216514e-004, 2.4088018049609197e-009,
             1.6316753262281722e+002, 4.0695228224866945e+001,
             5.8950286825743660e+001, 6.8857414991019510e+001,
             3.9270578446637288e+001, 1.5412691209053145e+002,
             3.0768096880403228e+001, 1.4165057772815974e+001,
             1.7227362619500346e+000, 6.0753109693080813e-003,
             2.0412108176656083e-003, 2.5127232844755090e-007,
             3.3386334250305494e-004, 3.6715103927043642e-009,
             1.9053546487607639e+002, 4.7533118341241334e+001,
             6.8857414991019510e+001, 8.0454202721642403e+001,
             4.5878953138030937e+001, 1.7998324933034235e+002,
             3.5925412052183390e+001, 1.6543206519017716e+001,
             2.0110540689042362e+000, 7.0920903913459128e-003,
             2.3764405393839252e-003, 2.9160969368460681e-007,
             3.8831484162855315e-004, 4.3619134635744683e-009,
             1.0848612195212156e+002, 2.7112809463016305e+001,
             3.9270578446637288e+001, 4.5878953138030937e+001,
             2.6196024941400729e+001, 1.0247950004815146e+002,
             2.0512495505769440e+001, 9.4247326368815116e+000,
             1.1426737295255200e+000, 4.0155307967659256e-003,
             1.3365634399025660e-003, 1.6162694167815829e-007,
             2.1783618456226969e-004, 2.6888165724293468e-009,
             4.2807200070553785e+002, 1.0645976842812051e+002,
             1.5412691209053145e+002, 1.7998324933034235e+002,
             1.0247950004815146e+002, 4.0438272253890108e+002,
             8.0359453498364203e+001, 3.7117387085813483e+001,
             4.5405227061062696e+000, 1.5923203044805361e-002,
             5.4392951910884240e-003, 6.8855838087088282e-007,
             8.9545985083288476e-004, 7.4216831793797589e-009,
             8.5071919054421031e+001, 2.1243686599750315e+001,
             3.0768096880403228e+001, 3.5925412052183390e+001,
             2.0512495505769440e+001, 8.0359453498364203e+001,
             1.6080707770646772e+001, 7.3877636745745008e+000,
             8.9683276902965714e-001, 3.1496103017343751e-003,
             1.0555153032980340e-003, 1.2896768802136577e-007,
             1.7242697765224680e-004, 2.0191109688524971e-009,
             3.9292202018185357e+001, 9.7817176796953582e+000,
             1.4165057772815974e+001, 1.6543206519017716e+001,
             9.4247326368815116e+000, 3.7117387085813483e+001,
             7.3877636745745008e+000, 3.4086765519035200e+000,
             4.1615496721662948e-001, 1.4662841974886470e-003,
             4.9772845163173853e-004, 6.2372832273232789e-008,
             8.1745180156547203e-005, 7.6269799755726208e-010,
             4.8059509884161411e+000, 1.1908761845684155e+000,
             1.7227362619500346e+000, 2.0110540689042362e+000,
             1.1426737295255200e+000, 4.5405227061062696e+000,
             8.9683276902965714e-001, 4.1615496721662948e-001,
             5.1332779223954378e-002, 1.7979251415588574e-004,
             6.2634727013882076e-005, 8.1683272781007614e-009,
             1.0396605036226124e-005, 5.1610585438817969e-011,
             1.6821818308868156e-002, 4.1502842035793224e-003,
             6.0753109693080813e-003, 7.0920903913459128e-003,
             4.0155307967659256e-003, 1.5923203044805361e-002,
             3.1496103017343751e-003, 1.4662841974886470e-003,
             1.7979251415588574e-004, 1.1603744940029320e-006,
             4.2126608746152571e-007, 7.1378731938035960e-011,
             7.1002191370225205e-008, 7.1046443027468380e-013,
             5.7417064509743014e-003, 1.3965290571274381e-003,
             2.0412108176656083e-003, 2.3764405393839252e-003,
             1.3365634399025660e-003, 5.4392951910884240e-003,
             1.0555153032980340e-003, 4.9772845163173853e-004,
             6.2634727013882076e-005, 4.2126608746152571e-007,
             1.6632641918392581e-007, 3.0912922881405604e-011,
             2.8872819197419092e-008, -1.2201396048023559e-013,
             7.2400491442104982e-007, 1.7177049658932657e-007,
             2.5127232844755090e-007, 2.9160969368460681e-007,
             1.6162694167815829e-007, 6.8855838087088282e-007,
             1.2896768802136577e-007, 6.2372832273232789e-008,
             8.1683272781007614e-009, 7.1378731938035960e-011,
             3.0912922881405604e-011, 6.9298397281290900e-015,
             5.5403852839301059e-012, -9.7471984793853965e-017,
             9.4503326479605191e-004, 2.2858961421216514e-004,
             3.3386334250305494e-004, 3.8831484162855315e-004,
             2.1783618456226969e-004, 8.9545985083288476e-004,
             1.7242697765224680e-004, 8.1745180156547203e-005,
             1.0396605036226124e-005, 7.1002191370225205e-008,
             2.8872819197419092e-008, 5.5403852839301059e-012,
             5.0689026301573633e-009, -4.9899835565522195e-014,
             7.8864859419346587e-009, 2.4088018049609197e-009,
             3.6715103927043642e-009, 4.3619134635744683e-009,
             2.6888165724293468e-009, 7.4216831793797589e-009,
             2.0191109688524971e-009, 7.6269799755726208e-010,
             5.1610585438817969e-011, 7.1046443027468380e-013,
             -1.2201396048023559e-013, -9.7471984793853965e-017,
             -4.9899835565522195e-014, 2.6270999615289619e-017 ]
      - !!opencv-matrix
         rows: 14
         cols: 14
         dt: d
         data: [ 5.9740398267737859e+001, 3.0795630456543019e+001,
             3.7575178744979333e+001, 7.5897551038598678e+001,
             3.2893569443384727e+001, 6.1397518170484176e+001,
             1.8255167774289227e+001, 1.1136899799733936e+001,
             3.7874131861112617e-002, 9.6776924984499774e-002,
             6.9503808998721897e-003, 3.7445260076789760e-006,
             -8.8572663528416990e-005, 3.4080329687382918e-007,
             3.0795630456543019e+001, 1.5985253836755433e+001,
             1.9492078618952210e+001, 3.9161156995285197e+001,
             1.7080394163082847e+001, 3.1696602138006178e+001,
             9.5063018248239892e+000, 5.7368062344460675e+000,
             1.8856165081539998e-002, 4.9408512977270821e-002,
             3.5003259729849911e-003, 1.8558729853104037e-006,
             -4.4818753203642235e-005, 1.8957959947233504e-007,
             3.7575178744979333e+001, 1.9492078618952210e+001,
             2.3815327839297534e+001, 4.7701219460520818e+001,
             2.0886846775823521e+001, 3.8675127241426971e+001,
             1.1646116644110045e+001, 6.9795926708801010e+000,
             2.3225107666571633e-002, 5.9150657408170791e-002,
             4.2116838937903541e-003, 2.2145442411019341e-006,
             -5.4298128041465899e-005, 2.2140157661988291e-007,
             7.5897551038598678e+001, 3.9161156995285197e+001,
             4.7701219460520818e+001, 9.6850896043786989e+001,
             4.1720530410631241e+001, 7.8082133904184602e+001,
             2.3051632698223226e+001, 1.4216521117746993e+001,
             4.7485888633899548e-002, 1.2592131065738432e-001,
             9.0092849219499966e-003, 4.9017875382110422e-006,
             -1.1296886217306400e-004, 4.6887192691382879e-007,
             3.2893569443384727e+001, 1.7080394163082847e+001,
             2.0886846775823521e+001, 4.1720530410631241e+001,
             1.8335064535408648e+001, 3.3857487829352408e+001,
             1.0240454844681665e+001, 6.0980613081021122e+000,
             2.0300514519265508e-002, 5.0930930602692825e-002,
             3.6500857419664336e-003, 1.9068959703525208e-006,
             -4.7329328109015537e-005, 1.8911458051224156e-007,
             6.1397518170484176e+001, 3.1696602138006178e+001,
             3.8675127241426971e+001, 7.8082133904184602e+001,
             3.3857487829352408e+001, 6.3192638082843629e+001,
             1.8789349293408836e+001, 1.1453880860640490e+001,
             3.9070614938325671e-002, 9.9400144718536115e-002,
             7.0933379514828924e-003, 3.7885835114383464e-006,
             -9.1697786581927142e-005, 3.6595568632889839e-007,
             1.8255167774289227e+001, 9.5063018248239892e+000,
             1.1646116644110045e+001, 2.3051632698223226e+001,
             1.0240454844681665e+001, 1.8789349293408836e+001,
             5.7634732038555230e+000, 3.3667097853135433e+000,
             1.1214645821758143e-002, 2.7322491277252395e-002,
             1.9583119648856413e-003, 1.0031373232607218e-006,
             -2.6116254031715265e-005, 1.0161950833928387e-007,
             1.1136899799733936e+001, 5.7368062344460675e+000,
             6.9795926708801010e+000, 1.4216521117746993e+001,
             6.0980613081021122e+000, 1.1453880860640490e+001,
             3.3667097853135433e+000, 2.0922238736354872e+000,
             7.0187318587634573e-003, 1.8881307025090582e-002,
             1.3479267921316814e-003, 7.4362677353414871e-007,
             -1.6880581643078730e-005, 7.0568637992077289e-008,
             3.7874131861112617e-002, 1.8856165081539998e-002,
             2.3225107666571633e-002, 4.7485888633899548e-002,
             2.0300514519265508e-002, 3.9070614938325671e-002,
             1.1214645821758143e-002, 7.0187318587634573e-003,
             4.4990776428481297e-005, 5.0303665935244193e-005,
             3.6653576878127764e-006, 1.2853921925671375e-009,
             -1.0253550079032412e-007, -1.9394911349359979e-011,
             9.6776924984499774e-002, 4.9408512977270821e-002,
             5.9150657408170791e-002, 1.2592131065738432e-001,
             5.0930930602692825e-002, 9.9400144718536115e-002,
             2.7322491277252395e-002, 1.8881307025090582e-002,
             5.0303665935244193e-005, 2.2433312838928307e-004,
             1.4684830339325801e-005, 9.8743557860645351e-009,
             -1.0472854597048398e-007, 1.0768487314261094e-009,
             6.9503808998721897e-003, 3.5003259729849911e-003,
             4.2116838937903541e-003, 9.0092849219499966e-003,
             3.6500857419664336e-003, 7.0933379514828924e-003,
             1.9583119648856413e-003, 1.3479267921316814e-003,
             3.6653576878127764e-006, 1.4684830339325801e-005,
             1.2028906417536164e-006, 8.3801959216002997e-010,
             -7.7030622042113100e-009, 4.2818958001220246e-011,
             3.7445260076789760e-006, 1.8558729853104037e-006,
             2.2145442411019341e-006, 4.9017875382110422e-006,
             1.9068959703525208e-006, 3.7885835114383464e-006,
             1.0031373232607218e-006, 7.4362677353414871e-007,
             1.2853921925671375e-009, 9.8743557860645351e-009,
             8.3801959216002997e-010, 7.2043078917056773e-013,
             8.5610270696918296e-013, 2.3552858244922941e-014,
             -8.8572663528416990e-005, -4.4818753203642235e-005,
             -5.4298128041465899e-005, -1.1296886217306400e-004,
             -4.7329328109015537e-005, -9.1697786581927142e-005,
             -2.6116254031715265e-005, -1.6880581643078730e-005,
             -1.0253550079032412e-007, -1.0472854597048398e-007,
             -7.7030622042113100e-009, 8.5610270696918296e-013,
             4.6844941926714349e-010, -3.7623893317681870e-013,
             3.4080329687382918e-007, 1.8957959947233504e-007,
             2.2140157661988291e-007, 4.6887192691382879e-007,
             1.8911458051224156e-007, 3.6595568632889839e-007,
             1.0161950833928387e-007, 7.0568637992077289e-008,
             -1.9394911349359979e-011, 1.0768487314261094e-009,
             4.2818958001220246e-011, 2.3552858244922941e-014,
             -3.7623893317681870e-013, 7.3089619505193321e-014 ]
      - !!opencv-matrix
         rows: 14
         cols: 14
         dt: d
         data: [ 7.0486483154634286e+001, 3.2667389663272139e+001,
             4.2669856910546933e+001, 9.3325024283465496e+001,
             3.8852256453119359e+001, 7.0714826437043726e+001,
             1.6426738353965657e+001, 1.0891013303892555e+001,
             7.9473682056498088e-002, 1.4638531119393543e-002,
             3.5197242769915548e-004, 9.5024219965158145e-009,
             -8.2515549745722515e-006, -5.5849951985616323e-010,
             3.2667389663272139e+001, 1.5263931562100598e+001,
             1.9922385778504601e+001, 4.3436728510083874e+001,
             1.8145273962001983e+001, 3.2852069660660284e+001,
             7.7002371516721313e+000, 5.0735333241081797e+000,
             3.5827379187186162e-002, 6.8160607302422266e-003,
             1.6618257234363702e-004, 4.6137636509663115e-009,
             -3.8473561001555985e-006, -2.3580878530880979e-010,
             4.2669856910546933e+001, 1.9922385778504601e+001,
             2.6011891013265206e+001, 5.6725878276027736e+001,
             2.3689598370682919e+001, 4.2912112402611768e+001,
             1.0048170400455083e+001, 6.6248238760536280e+000,
             4.6977377881139572e-002, 8.9476491624650087e-003,
             2.1608017075006535e-004, 5.9974100532643499e-009,
             -5.0073992323859898e-006, -3.3690036483892857e-010,
             9.3325024283465496e+001, 4.3436728510083874e+001,
             5.6725878276027736e+001, 1.2449674194185432e+002,
             5.1672718298638259e+001, 9.3829815398802651e+001,
             2.1745255279273152e+001, 1.4489707194916370e+001,
             1.0322752962862475e-001, 1.9448074770522607e-002,
             4.7936662799860272e-004, 1.3269462943397536e-008,
             -1.1288584208568621e-005, -7.3814661758958558e-010,
             3.8852256453119359e+001, 1.8145273962001983e+001,
             2.3689598370682919e+001, 5.1672718298638259e+001,
             2.1577774100332569e+001, 3.9065479304416698e+001,
             9.1485806133720189e+000, 6.0328232799458528e+000,
             4.2630285152010131e-002, 8.1243711845891790e-003,
             1.9773094204462803e-004, 5.5066473216723771e-009,
             -4.5790515422148487e-006, -2.9205486386946765e-010,
             7.0714826437043726e+001, 3.2852069660660284e+001,
             4.2912112402611768e+001, 9.3829815398802651e+001,
             3.9065479304416698e+001, 7.1143678050442801e+001,
             1.6525075434314875e+001, 1.0951420779889739e+001,
             8.0209825656170602e-002, 1.4716976084978064e-002,
             3.4951479304183510e-004, 9.3775913125910704e-009,
             -8.2700477459301789e-006, -5.6569077183909408e-010,
             1.6426738353965657e+001, 7.7002371516721313e+000,
             1.0048170400455083e+001, 2.1745255279273152e+001,
             9.1485806133720189e+000, 1.6525075434314875e+001,
             3.9257944757264962e+000, 2.5532240777225383e+000,
             1.7860879267295050e-002, 3.4593026915280896e-003,
             8.3012044669323508e-005, 2.3264916516934960e-009,
             -1.8915541250138326e-006, -1.1707063690402791e-010,
             1.0891013303892555e+001, 5.0735333241081797e+000,
             6.6248238760536280e+000, 1.4489707194916370e+001,
             6.0328232799458528e+000, 1.0951420779889739e+001,
             2.5532240777225383e+000, 1.6912363918411131e+000,
             1.2038220937931488e-002, 2.2805019417997275e-003,
             5.5716443765313484e-005, 1.5407655787340762e-009,
             -1.3051341746612620e-006, -8.3876834833486488e-011,
             7.9473682056498088e-002, 3.5827379187186162e-002,
             4.6977377881139572e-002, 1.0322752962862475e-001,
             4.2630285152010131e-002, 8.0209825656170602e-002,
             1.7860879267295050e-002, 1.2038220937931488e-002,
             1.1337907746549136e-004, 1.5870253949788043e-005,
             2.9734969029245553e-007, 5.3165406457461751e-012,
             -7.8959060099247478e-009, -3.7519591598135023e-013,
             1.4638531119393543e-002, 6.8160607302422266e-003,
             8.9476491624650087e-003, 1.9448074770522607e-002,
             8.1243711845891790e-003, 1.4716976084978064e-002,
             3.4593026915280896e-003, 2.2805019417997275e-003,
             1.5870253949788043e-005, 3.8668997876092331e-006,
             6.5536464089389598e-008, 1.9170565807874164e-012,
             -1.4424408099775629e-009, -2.8804080266076519e-013,
             3.5197242769915548e-004, 1.6618257234363702e-004,
             2.1608017075006535e-004, 4.7936662799860272e-004,
             1.9773094204462803e-004, 3.4951479304183510e-004,
             8.3012044669323508e-005, 5.5716443765313484e-005,
             2.9734969029245553e-007, 6.5536464089389598e-008,
             2.9079617184574097e-009, 9.6449760050141565e-014,
             -6.3965252321531320e-011, 6.3263324285546585e-016,
             9.5024219965158145e-009, 4.6137636509663115e-009,
             5.9974100532643499e-009, 1.3269462943397536e-008,
             5.5066473216723771e-009, 9.3775913125910704e-009,
             2.3264916516934960e-009, 1.5407655787340762e-009,
             5.3165406457461751e-012, 1.9170565807874164e-012,
             9.6449760050141565e-014, 4.0190351608912822e-018,
             -1.9078785155724385e-015, -3.3933629423857868e-019,
             -8.2515549745722515e-006, -3.8473561001555985e-006,
             -5.0073992323859898e-006, -1.1288584208568621e-005,
             -4.5790515422148487e-006, -8.2700477459301789e-006,
             -1.8915541250138326e-006, -1.3051341746612620e-006,
             -7.8959060099247478e-009, -1.4424408099775629e-009,
             -6.3965252321531320e-011, -1.9078785155724385e-015,
             1.6847976189106151e-012, -7.7955211319567992e-018,
             -5.5849951985616323e-010, -2.3580878530880979e-010,
             -3.3690036483892857e-010, -7.3814661758958558e-010,
             -2.9205486386946765e-010, -5.6569077183909408e-010,
             -1.1707063690402791e-010, -8.3876834833486488e-011,
             -3.7519591598135023e-013, -2.8804080266076519e-013,
             6.3263324285546585e-016, -3.3933629423857868e-019,
             -7.7955211319567992e-018, 1.9312461514027179e-018 ]
      - !!opencv-matrix
         rows: 14
         cols: 14
         dt: d
         data: [ 7.3987114373557645e+001, 4.7666889182953227e+001,
             6.4894569960848159e+001, 8.3384099042708172e+001,
             5.7332885067283506e+001, 7.4179277179836092e+001,
             3.9739252044707513e+001, 1.1496563508854855e+001,
             1.5086751661788557e-002, 4.7953842907117038e-002,
             8.0786824374632206e-005, 2.8391071310516831e-010,
             3.8533379509282345e-007, -6.2358391545035176e-010,
             4.7666889182953227e+001, 3.0931717846327519e+001,
             4.2030883311222873e+001, 5.3947394135406732e+001,
             3.7187626323610331e+001, 4.7874454933978079e+001,
             2.5805419603670380e+001, 7.4372361013839958e+000,
             9.3339242365913667e-003, 3.0721752848322913e-002,
             4.9968772174717606e-005, -1.3502609630243223e-011,
             1.5669636707895398e-007, -3.0763384528555709e-010,
             6.4894569960848159e+001, 4.2030883311222873e+001,
             5.7161591420649088e+001, 7.3411276059324209e+001,
             5.0543827506448665e+001, 6.5152346404209183e+001,
             3.5054259881955936e+001, 1.0119321603493553e+001,
             1.2700511532178348e-002, 4.1995138014137949e-002,
             6.7968440743531390e-005, 3.7999813594093020e-011,
             2.3625138400896924e-007, -4.3439318063820286e-010,
             8.3384099042708172e+001, 5.3947394135406732e+001,
             7.3411276059324209e+001, 9.5230225153348044e+001,
             6.4864221542947746e+001, 8.3762078034533431e+001,
             4.4341801058303560e+001, 1.3021296920137903e+001,
             1.6535202174908677e-002, 5.4553977494772643e-002,
             9.0504825961470212e-005, -4.6958659185903311e-011,
             2.9236728595257692e-007, -5.3101094610782581e-010,
             5.7332885067283506e+001, 3.7187626323610331e+001,
             5.0543827506448665e+001, 6.4864221542947746e+001,
             4.4719456488857006e+001, 5.7584811055810164e+001,
             3.1038020083341433e+001, 8.9423315299391568e+000,
             1.1210446489726036e-002, 3.6925300876874838e-002,
             5.9918624488850230e-005, 1.6750708978914516e-011,
             2.0215793118544528e-007, -3.6857194961788981e-010,
             7.4179277179836092e+001, 4.7874454933978079e+001,
             6.5152346404209183e+001, 8.3762078034533431e+001,
             5.7584811055810164e+001, 7.4487644987293891e+001,
             3.9879937973762210e+001, 1.1537204287106043e+001,
             1.5227247457839677e-002, 4.7906304417842209e-002,
             8.1706744192017709e-005, 2.6798045310802546e-010,
             3.8877355589474667e-007, -5.9600020509192706e-010,
             3.9739252044707513e+001, 2.5805419603670380e+001,
             3.5054259881955936e+001, 4.4341801058303560e+001,
             3.1038020083341433e+001, 3.9879937973762210e+001,
             2.1997036647121547e+001, 6.1879314519294395e+000,
             7.6120043916233331e-003, 2.5288751398219095e-002,
             3.9250913039384880e-005, 4.1648314862380562e-011,
             1.3175994289902834e-007, -2.6550022651751788e-010,
             1.1496563508854855e+001, 7.4372361013839958e+000,
             1.0119321603493553e+001, 1.3021296920137903e+001,
             8.9423315299391568e+000, 1.1537204287106043e+001,
             6.1879314519294395e+000, 1.7934519904408586e+000,
             2.2528259127320006e-003, 7.4951912434670191e-003,
             1.2128679609189984e-005, -4.8846594535394743e-012,
             3.7380870175080864e-008, -7.7970170261949667e-011,
             1.5086751661788557e-002, 9.3339242365913667e-003,
             1.2700511532178348e-002, 1.6535202174908677e-002,
             1.1210446489726036e-002, 1.5227247457839677e-002,
             7.6120043916233331e-003, 2.2528259127320006e-003,
             6.9887724340038045e-006, 8.9425694172418974e-006,
             3.8625702873567024e-008, 9.6818426019717932e-013,
             5.8394494648361539e-010, -6.5934151512488860e-013,
             4.7953842907117038e-002, 3.0721752848322913e-002,
             4.1995138014137949e-002, 5.4553977494772643e-002,
             3.6925300876874838e-002, 4.7906304417842209e-002,
             2.5288751398219095e-002, 7.4951912434670191e-003,
             8.9425694172418974e-006, 3.3190473517579909e-005,
             4.9375386074747734e-008, -3.0495699719830350e-013,
             2.8758892806365110e-011, -3.1689557863745633e-013,
             8.0786824374632206e-005, 4.9968772174717606e-005,
             6.7968440743531390e-005, 9.0504825961470212e-005,
             5.9918624488850230e-005, 8.1706744192017709e-005,
             3.9250913039384880e-005, 1.2128679609189984e-005,
             3.8625702873567024e-008, 4.9375386074747734e-008,
             2.6308441000874421e-010, 3.7966704407267122e-015,
             2.8664300294019842e-012, -3.8939015944931049e-015,
             2.8391071310516831e-010, -1.3502609630243223e-011,
             3.7999813594093020e-011, -4.6958659185903311e-011,
             1.6750708978914516e-011, 2.6798045310802546e-010,
             4.1648314862380562e-011, -4.8846594535394743e-012,
             9.6818426019717932e-013, -3.0495699719830350e-013,
             3.7966704407267122e-015, 7.4346974355496545e-019,
             3.2868025918251478e-016, -2.2101612062551533e-019,
             3.8533379509282345e-007, 1.5669636707895398e-007,
             2.3625138400896924e-007, 2.9236728595257692e-007,
             2.0215793118544528e-007, 3.8877355589474667e-007,
             1.3175994289902834e-007, 3.7380870175080864e-008,
             5.8394494648361539e-010, 2.8758892806365110e-011,
             2.8664300294019842e-012, 3.2868025918251478e-016,
             1.5445999701462546e-013, -1.1275934407213268e-016,
             -6.2358391545035176e-010, -3.0763384528555709e-010,
             -4.3439318063820286e-010, -5.3101094610782581e-010,
             -3.6857194961788981e-010, -5.9600020509192706e-010,
             -2.6550022651751788e-010, -7.7970170261949667e-011,
             -6.5934151512488860e-013, -3.1689557863745633e-013,
             -3.8939015944931049e-015, -2.2101612062551533e-019,
             -1.1275934407213268e-016, 1.8627852745589098e-019 ]
      - !!opencv-matrix
         rows: 14
         cols: 14
         dt: d
         data: [ 9.2645354994349788e+001, 4.8560855568242218e+001,
             6.5162705395243236e+001, 7.6592632148675548e+001,
             5.6880592460437349e+001, 1.0451053566641181e+002,
             4.2889278321082713e+001, 1.1699555421832315e+001,
             3.5556235782930418e-001, 4.1525584888791635e-003,
             4.8793011769629859e-004, 2.6959198521910700e-008,
             3.7640179003046562e-005, -1.6757804615326000e-009,
             4.8560855568242218e+001, 2.7131900102288071e+001,
             3.6100023231268594e+001, 4.2395110321080253e+001,
             3.1793554309790039e+001, 5.6635882562849005e+001,
             2.3990942273286493e+001, 6.4240051684697459e+000,
             1.7842291750391351e-001, 1.9613061900715465e-003,
             2.1933770011208970e-004, 1.1351467793465902e-008,
             1.6487740193642259e-005, -6.2313546759210688e-010,
             6.5162705395243236e+001, 3.6100023231268594e+001,
             4.8125647578364109e+001, 5.6527414598885365e+001,
             4.2317363716362344e+001, 7.5777688354249449e+001,
             3.1928734597978355e+001, 8.5759642033712744e+000,
             2.4158134359731998e-001, 2.6795639590418718e-003,
             3.0338269774673413e-004, 1.5860872565386083e-008,
             2.2929609950703278e-005, -8.5839431170708307e-010,
             7.6592632148675548e+001, 4.2395110321080253e+001,
             5.6527414598885365e+001, 6.6441075059756912e+001,
             4.9696205561039172e+001, 8.9025506538527253e+001,
             3.7450042017669865e+001, 1.0074155369602636e+001,
             2.8396289384179318e-001, 3.1524437453985268e-003,
             3.5786034978245608e-004, 1.8738249193841930e-008,
             2.7065298512822621e-005, -1.0048920137012932e-009,
             5.6880592460437349e+001, 3.1793554309790039e+001,
             4.2317363716362344e+001, 4.9696205561039172e+001,
             3.7274781644427549e+001, 6.6370509601454870e+001,
             2.8126271555579638e+001, 7.5289875483900008e+000,
             2.0874377003131619e-001, 2.2973752923841693e-003,
             2.5676535152511023e-004, 1.3217450464235647e-008,
             1.9296924766867154e-005, -6.9874593338835922e-010,
             1.0451053566641181e+002, 5.6635882562849005e+001,
             7.5777688354249449e+001, 8.9025506538527253e+001,
             6.6370509601454870e+001, 1.2048433222034789e+002,
             5.0084094897417415e+001, 1.3556494334014635e+001,
             3.9725168763832647e-001, 4.4321733627304934e-003,
             5.1424610568423577e-004, 2.7653919537947278e-008,
             3.9276665699620091e-005, -1.5933705032608295e-009,
             4.2889278321082713e+001, 2.3990942273286493e+001,
             3.1928734597978355e+001, 3.7450042017669865e+001,
             2.8126271555579638e+001, 5.0084094897417415e+001,
             2.1272123936523570e+001, 5.6808527642664659e+000,
             1.5761684232879797e-001, 1.7296688399807110e-003,
             1.9271232232217207e-004, 9.8943681462720490e-009,
             1.4468241320901363e-005, -5.2889992030603290e-010,
             1.1699555421832315e+001, 6.4240051684697459e+000,
             8.5759642033712744e+000, 1.0074155369602636e+001,
             7.5289875483900008e+000, 1.3556494334014635e+001,
             5.6808527642664659e+000, 1.5306687756342385e+000,
             4.3824509068973463e-002, 4.8734572633946365e-004,
             5.5743999238844051e-005, 2.9526873264763950e-009,
             4.2317201145176256e-006, -1.6449443974834901e-010,
             3.5556235782930418e-001, 1.7842291750391351e-001,
             2.4158134359731998e-001, 2.8396289384179318e-001,
             2.0874377003131619e-001, 3.9725168763832647e-001,
             1.5761684232879797e-001, 4.3824509068973463e-002,
             1.4634456558128650e-003, 1.6294365958069211e-005,
             2.0180261952596235e-006, 1.1669868287976296e-010,
             1.5833238838327076e-007, -7.8667739787610714e-012,
             4.1525584888791635e-003, 1.9613061900715465e-003,
             2.6795639590418718e-003, 3.1524437453985268e-003,
             2.2973752923841693e-003, 4.4321733627304934e-003,
             1.7296688399807110e-003, 4.8734572633946365e-004,
             1.6294365958069211e-005, 3.8689647435172675e-007,
             4.6180732856417797e-008, 3.4443018904310911e-012,
             3.7250770323639613e-009, -3.4880941514109139e-013,
             4.8793011769629859e-004, 2.1933770011208970e-004,
             3.0338269774673413e-004, 3.5786034978245608e-004,
             2.5676535152511023e-004, 5.1424610568423577e-004,
             1.9271232232217207e-004, 5.5743999238844051e-005,
             2.0180261952596235e-006, 4.6180732856417797e-008,
             5.9415974589378150e-009, 4.4321031895901110e-013,
             4.8880884967161947e-010, -4.0798563644329868e-014,
             2.6959198521910700e-008, 1.1351467793465902e-008,
             1.5860872565386083e-008, 1.8738249193841930e-008,
             1.3217450464235647e-008, 2.7653919537947278e-008,
             9.8943681462720490e-009, 2.9526873264763950e-009,
             1.1669868287976296e-010, 3.4443018904310911e-012,
             4.4321031895901110e-013, 3.7989861587486561e-017,
             3.7199841194864893e-014, -4.7023948595338208e-018,
             3.7640179003046562e-005, 1.6487740193642259e-005,
             2.2929609950703278e-005, 2.7065298512822621e-005,
             1.9296924766867154e-005, 3.9276665699620091e-005,
             1.4468241320901363e-005, 4.2317201145176256e-006,
             1.5833238838327076e-007, 3.7250770323639613e-009,
             4.8880884967161947e-010, 3.7199841194864893e-014,
             4.0632619740002619e-011, -3.6004740552685353e-015,
             -1.6757804615326000e-009, -6.2313546759210688e-010,
             -8.5839431170708307e-010, -1.0048920137012932e-009,
             -6.9874593338835922e-010, -1.5933705032608295e-009,
             -5.2889992030603290e-010, -1.6449443974834901e-010,
             -7.8667739787610714e-012, -3.4880941514109139e-013,
             -4.0798563644329868e-014, -4.7023948595338208e-018,
             -3.6004740552685353e-015, 1.2654966134174504e-018 ]
      - !!opencv-matrix
         rows: 14
         cols: 14
         dt: d
         data: [ 5.1574473980012601e+002, 1.1120353457254235e+002,
             1.6260269218775605e+002, 1.8290816825037842e+002,
             9.7322604864370447e+001, 4.8899633002295548e+002,
             8.1163205820466004e+001, 4.3316616130204110e+001,
             6.9886607753138250e+000, 6.5182994833475449e-002,
             2.6236283023624369e-002, 1.1039011621165077e-005,
             4.9226238489528708e-003, -3.2993323545160321e-007,
             1.1120353457254235e+002, 2.4479730494673444e+001,
             3.5767114902351068e+001, 4.0194786383312795e+001,
             2.1732791808823748e+001, 1.0541846511576017e+002,
             1.8124629196945982e+001, 9.3848693942514263e+000,
             1.4678600836993898e+000, 1.3211976378736520e-002,
             5.2929537610771045e-003, 2.1304998890485004e-006,
             9.8404049888682274e-004, -3.8216512627856218e-008,
             1.6260269218775605e+002, 3.5767114902351068e+001,
             5.2285452786194426e+001, 5.8762349185226363e+001,
             3.1753203177564583e+001, 1.5411216957972249e+002,
             2.6478266520880162e+001, 1.3719715130236088e+001,
             2.1458514643506632e+000, 1.9225221384788528e-002,
             7.7311935829656600e-003, 3.0951394905111701e-006,
             1.4398778023635038e-003, -6.6076379442307172e-008,
             1.8290816825037842e+002, 4.0194786383312795e+001,
             5.8762349185226363e+001, 6.6082386592367172e+001,
             3.5662920918265939e+001, 1.7335743990237572e+002,
             2.9710150763345553e+001, 1.5428629155548451e+001,
             2.4155386562305363e+000, 2.1712659457493465e-002,
             8.7304350912470047e-003, 3.5085341679259594e-006,
             1.6256037591802015e-003, -6.5658427362995207e-008,
             9.7322604864370447e+001, 2.1732791808823748e+001,
             3.1753203177564583e+001, 3.5662920918265939e+001,
             1.9492120596140555e+001, 9.2222696269305501e+001,
             1.6254161570319511e+001, 8.2405242083790213e+000,
             1.2589303817154387e+000, 1.0929452394469494e-002,
             4.3833838930166071e-003, 1.6882502994396887e-006,
             8.1096016576493542e-004, -2.1951535160811128e-008,
             4.8899633002295548e+002, 1.0541846511576017e+002,
             1.5411216957972249e+002, 1.7335743990237572e+002,
             9.2222696269305501e+001, 4.6384022016981487e+002,
             7.6918289875490785e+001, 4.1078537899216236e+001,
             6.6352713343353740e+000, 6.2722930058302623e-002,
             2.5157890842898604e-002, 1.0703455094745799e-005,
             4.7131772372836613e-003, -2.8517023870738588e-007,
             8.1163205820466004e+001, 1.8124629196945982e+001,
             2.6478266520880162e+001, 2.9710150763345553e+001,
             1.6254161570319511e+001, 7.6918289875490785e+001,
             1.3579117784846030e+001, 6.8729082695647925e+000,
             1.0504934947470033e+000, 9.1439335433617965e-003,
             3.6628514953284596e-003, 1.4134733765841555e-006,
             6.7745050122226965e-004, -1.7701673094238332e-008,
             4.3316616130204110e+001, 9.3848693942514263e+000,
             1.3719715130236088e+001, 1.5428629155548451e+001,
             8.2405242083790213e+000, 4.1078537899216236e+001,
             6.8729082695647925e+000, 3.6431359289059042e+000,
             5.8409847108144120e-001, 5.4330161244043485e-003,
             2.1821626007864988e-003, 9.1403227007848609e-007,
             4.0857783507191188e-004, -2.4405869923591294e-008,
             6.9886607753138250e+000, 1.4678600836993898e+000,
             2.1458514643506632e+000, 2.4155386562305363e+000,
             1.2589303817154387e+000, 6.6352713343353740e+000,
             1.0504934947470033e+000, 5.8409847108144120e-001,
             9.8435795353196395e-002, 9.7263406569427120e-004,
             3.9074718656818228e-004, 1.7607987886522910e-007,
             7.4071845307643235e-005, -7.9628258712081679e-009,
             6.5182994833475449e-002, 1.3211976378736520e-002,
             1.9225221384788528e-002, 2.1712659457493465e-002,
             1.0929452394469494e-002, 6.2722930058302623e-002,
             9.1439335433617965e-003, 5.4330161244043485e-003,
             9.7263406569427120e-004, 1.5243286625434819e-005,
             5.4448390808442067e-006, 3.0700713553447005e-009,
             9.5953793690054622e-007, 8.5588150652822149e-011,
             2.6236283023624369e-002, 5.2929537610771045e-003,
             7.7311935829656600e-003, 8.7304350912470047e-003,
             4.3833838930166071e-003, 2.5157890842898604e-002,
             3.6628514953284596e-003, 2.1821626007864988e-003,
             3.9074718656818228e-004, 5.4448390808442067e-006,
             2.1411617751885045e-006, 1.1576099915046488e-009,
             4.0401830575679967e-007, -1.1574199328540984e-011,
             1.1039011621165077e-005, 2.1304998890485004e-006,
             3.0951394905111701e-006, 3.5085341679259594e-006,
             1.6882502994396887e-006, 1.0703455094745799e-005,
             1.4134733765841555e-006, 9.1403227007848609e-007,
             1.7607987886522910e-007, 3.0700713553447005e-009,
             1.1576099915046488e-009, 7.3462620227023243e-013,
             2.1675559440256134e-010, 1.7763121761235480e-015,
             4.9226238489528708e-003, 9.8404049888682274e-004,
             1.4398778023635038e-003, 1.6256037591802015e-003,
             8.1096016576493542e-004, 4.7131772372836613e-003,
             6.7745050122226965e-004, 4.0857783507191188e-004,
             7.4071845307643235e-005, 9.5953793690054622e-007,
             4.0401830575679967e-007, 2.1675559440256134e-010,
             7.9988001076928239e-008, -1.0123026050723163e-011,
             -3.2993323545160321e-007, -3.8216512627856218e-008,
             -6.6076379442307172e-008, -6.5658427362995207e-008,
             -2.1951535160811128e-008, -2.8517023870738588e-007,
             -1.7701673094238332e-008, -2.4405869923591294e-008,
             -7.9628258712081679e-009, 8.5588150652822149e-011,
             -1.1574199328540984e-011, 1.7763121761235480e-015,
             -1.0123026050723163e-011, 1.0379575098557471e-013 ]
      - !!opencv-matrix
         rows: 14
         cols: 14
         dt: d
         data: [ 2.3021195103377727e+002, 7.7340388275734881e+001,
             1.1011344059874746e+002, 1.2114773873331828e+002,
             8.5862381968824394e+001, 2.2647119269869634e+002,
             7.2767946955693503e+001, 2.2693993544586249e+001,
             1.7583628614997109e+000, 4.3113423434940155e-003,
             7.5900128244378454e-004, 3.2912960754115351e-008,
             7.5509895344383850e-005, 5.5083099161812550e-009,
             7.7340388275734881e+001, 2.6570697927864103e+001,
             3.7755706555052541e+001, 4.1533139391797008e+001,
             2.9637473719865856e+001, 7.6778282774465751e+001,
             2.5117609533734644e+001, 7.7286670763959524e+000,
             5.8255603861745742e-001, 1.4355519694675589e-003,
             2.4584422277116832e-004, 1.0210551205927929e-008,
             2.4195105992561615e-005, 1.6753361177385199e-009,
             1.1011344059874746e+002, 3.7755706555052541e+001,
             5.3680205575902292e+001, 5.9048084285970567e+001,
             4.2104015400189162e+001, 1.0926714445584217e+002,
             3.5688986362853967e+001, 1.0995248571797642e+001,
             8.3066281889751481e-001, 2.0559770563186109e-003,
             3.5350167234902378e-004, 1.4827551741477339e-008,
             3.4874977209134804e-005, 2.4479188967827989e-009,
             1.2114773873331828e+002, 4.1533139391797008e+001,
             5.9048084285970567e+001, 6.4979184687349758e+001,
             4.6312601145935474e+001, 1.2020990051385856e+002,
             3.9227824726550878e+001, 1.2095965053456267e+001,
             9.1413504941540358e-001, 2.2529675944536285e-003,
             3.8710932996795819e-004, 1.6214832968686330e-008,
             3.8188027235091265e-005, 2.6626766084768260e-009,
             8.5862381968824394e+001, 2.9637473719865856e+001,
             4.2104015400189162e+001, 4.6312601145935474e+001,
             3.3106195696006566e+001, 8.5364173811217768e+001,
             2.8059740139996087e+001, 8.6033182729043833e+000,
             6.4358566334933576e-001, 1.5895406338659022e-003,
             2.7074517587370901e-004, 1.1161149539734375e-008,
             2.6620484350135597e-005, 1.8222468120811381e-009,
             2.2647119269869634e+002, 7.6778282774465751e+001,
             1.0926714445584217e+002, 1.2020990051385856e+002,
             8.5364173811217768e+001, 2.2393921575394887e+002,
             7.2352071612341803e+001, 2.2473454955178980e+001,
             1.7268234905098745e+000, 4.2724018224677019e-003,
             7.4677113169855334e-004, 3.2155007665683224e-008,
             7.4175327858409218e-005, 5.3597759227029102e-009,
             7.2767946955693503e+001, 2.5117609533734644e+001,
             3.5688986362853967e+001, 3.9227824726550878e+001,
             2.8059740139996087e+001, 7.2352071612341803e+001,
             2.3814315080626073e+001, 7.2919813809564697e+000,
             5.4531906051635659e-001, 1.3572590862712562e-003,
             2.3144318929750114e-004, 9.5694667107963144e-009,
             2.2752780899106468e-005, 1.5812723400197003e-009,
             2.2693993544586249e+001, 7.7286670763959524e+000,
             1.0995248571797642e+001, 1.2095965053456267e+001,
             8.6033182729043833e+000, 2.2473454955178980e+001,
             7.2919813809564697e+000, 2.2577925490865107e+000,
             1.7233470896575184e-001, 4.2740384378340873e-004,
             7.4284247808008836e-005, 3.1746517959250880e-009,
             7.3652002547251031e-006, 5.2712770348651108e-010,
             1.7583628614997109e+000, 5.8255603861745742e-001,
             8.3066281889751481e-001, 9.1413504941540358e-001,
             6.4358566334933576e-001, 1.7268234905098745e+000,
             5.4531906051635659e-001, 1.7233470896575184e-001,
             1.3711617250059479e-002, 3.4155756475248037e-005,
             6.1941238751737773e-006, 2.8240302289013219e-010,
             6.2630084440642921e-007, 4.7539521012670571e-011,
             4.3113423434940155e-003, 1.4355519694675589e-003,
             2.0559770563186109e-003, 2.2529675944536285e-003,
             1.5895406338659022e-003, 4.2724018224677019e-003,
             1.3572590862712562e-003, 4.2740384378340873e-004,
             3.4155756475248037e-005, 1.7836041992647183e-007,
             3.4679306647611303e-008, 2.1259662098081098e-012,
             3.6607584260482314e-009, 4.4857096573042774e-013,
             7.5900128244378454e-004, 2.4584422277116832e-004,
             3.5350167234902378e-004, 3.8710932996795819e-004,
             2.7074517587370901e-004, 7.4677113169855334e-004,
             2.3144318929750114e-004, 7.4284247808008836e-005,
             6.1941238751737773e-006, 3.4679306647611303e-008,
             7.7437721215193384e-009, 5.2091308873681022e-013,
             9.0209319803017207e-010, 9.5630028141284521e-014,
             3.2912960754115351e-008, 1.0210551205927929e-008,
             1.4827551741477339e-008, 1.6214832968686330e-008,
             1.1161149539734375e-008, 3.2155007665683224e-008,
             9.5694667107963144e-009, 3.1746517959250880e-009,
             2.8240302289013219e-010, 2.1259662098081098e-012,
             5.2091308873681022e-013, 4.2145827198146039e-017,
             6.3709809425889964e-014, 8.5385292358904720e-018,
             7.5509895344383850e-005, 2.4195105992561615e-005,
             3.4874977209134804e-005, 3.8188027235091265e-005,
             2.6620484350135597e-005, 7.4175327858409218e-005,
             2.2752780899106468e-005, 7.3652002547251031e-006,
             6.2630084440642921e-007, 3.6607584260482314e-009,
             9.0209319803017207e-010, 6.3709809425889964e-014,
             1.1194647930995673e-010, 1.0467389447605217e-014,
             5.5083099161812550e-009, 1.6753361177385199e-009,
             2.4479188967827989e-009, 2.6626766084768260e-009,
             1.8222468120811381e-009, 5.3597759227029102e-009,
             1.5812723400197003e-009, 5.2712770348651108e-010,
             4.7539521012670571e-011, 4.4857096573042774e-013,
             9.5630028141284521e-014, 8.5385292358904720e-018,
             1.0467389447605217e-014, 2.6435136059428885e-018 ]
      - !!opencv-matrix
         rows: 14
         cols: 14
         dt: d
         data: [ 8.4398968950919107e+002, 1.5495772853009061e+002,
             2.1937340028007142e+002, 2.9932172623110580e+002,
             1.1977193243488971e+002, 8.3322910346218760e+002,
             7.2318412805219737e+001, 7.2136362004136615e+001,
             1.7377270907551438e+001, 1.0305785630394479e-001,
             5.4139057562569440e-002, 4.6227891611601800e-005,
             1.6350359404246267e-002, -6.4361815694059946e-007,
             1.5495772853009061e+002, 2.9618348003193816e+001,
             4.1892005028107263e+001, 5.7181955628147804e+001,
             2.3545251846112741e+001, 1.5268031494881856e+002,
             1.4165065066452023e+001, 1.3282007504026561e+001,
             3.0130736359415544e+000, 1.6646223334906691e-002,
             8.4413761876608387e-003, 6.8379025344109468e-006,
             2.4755661697925752e-003, -1.0639873783259810e-007,
             2.1937340028007142e+002, 4.1892005028107263e+001,
             5.9284835506317265e+001, 8.0917995558704078e+001,
             3.3303061659096869e+001, 2.1616568654522621e+002,
             2.0037681127286291e+001, 1.8806349846538673e+001,
             4.2699566974057710e+000, 2.3587971917468375e-002,
             1.1972586482584206e-002, 9.6969443386312352e-006,
             3.5122796699363704e-003, -1.5312929255053771e-007,
             2.9932172623110580e+002, 5.7181955628147804e+001,
             8.0917995558704078e+001, 1.1171130968035553e+002,
             4.5491517883739817e+001, 2.9516938417403441e+002,
             2.6896928099776947e+001, 2.5679935906676093e+001,
             5.8230726519838507e+000, 3.1777528866344773e-002,
             1.5892765399934547e-002, 1.2470535980003062e-005,
             4.6136274165195744e-003, -1.5642363220259478e-007,
             1.1977193243488971e+002, 2.3545251846112741e+001,
             3.3303061659096869e+001, 4.5491517883739817e+001,
             1.9086701413426919e+001, 1.1784814157711892e+002,
             1.1445735967791009e+001, 1.0290449810633698e+001,
             2.2297673692263591e+000, 1.1538854730720827e-002,
             5.6731065035296579e-003, 4.3475627127468357e-006,
             1.6182856017908332e-003, -7.4011733323328992e-008,
             8.3322910346218760e+002, 1.5268031494881856e+002,
             2.1616568654522621e+002, 2.9516938417403441e+002,
             1.1784814157711892e+002, 8.2304029586538923e+002,
             7.1086271993589207e+001, 7.1233589186092956e+001,
             1.7216814729582133e+001, 1.0270468335001759e-001,
             5.3972075136597956e-002, 4.6145621329050675e-005,
             1.6311245657847522e-002, -6.4190968151516334e-007,
             7.2318412805219737e+001, 1.4165065066452023e+001,
             2.0037681127286291e+001, 2.6896928099776947e+001,
             1.1445735967791009e+001, 7.1086271993589207e+001,
             7.0522410063427046e+000, 6.2041734057865252e+000,
             1.3532882667841235e+000, 7.1846571078205759e-003,
             3.6227785748451828e-003, 2.9377309127411095e-006,
             1.0528728020144959e-003, -6.4122551411071360e-008,
             7.2136362004136615e+001, 1.3282007504026561e+001,
             1.8806349846538673e+001, 2.5679935906676093e+001,
             1.0290449810633698e+001, 7.1233589186092956e+001,
             6.2041734057865252e+000, 6.1696911979009981e+000,
             1.4808100586634474e+000, 8.7539093877830026e-003,
             4.5909121308156655e-003, 3.9053867536263822e-006,
             1.3845012753809353e-003, -5.6844923177550867e-008,
             1.7377270907551438e+001, 3.0130736359415544e+000,
             4.2699566974057710e+000, 5.8230726519838507e+000,
             2.2297673692263591e+000, 1.7216814729582133e+001,
             1.3532882667841235e+000, 1.4808100586634474e+000,
             3.8632606658560564e-001, 2.5008026492008588e-003,
             1.3708328307904054e-003, 1.2395863399687631e-006,
             4.2833675282455093e-004, -1.6172987925752452e-008,
             1.0305785630394479e-001, 1.6646223334906691e-002,
             2.3587971917468375e-002, 3.1777528866344773e-002,
             1.1538854730720827e-002, 1.0270468335001759e-001,
             7.1846571078205759e-003, 8.7539093877830026e-003,
             2.5008026492008588e-003, 2.3700295926367985e-005,
             1.3304895174954360e-005, 1.3963193546162061e-008,
             4.2103217306634106e-006, -2.4118543129856446e-010,
             5.4139057562569440e-002, 8.4413761876608387e-003,
             1.1972586482584206e-002, 1.5892765399934547e-002,
             5.6731065035296579e-003, 5.3972075136597956e-002,
             3.6227785748451828e-003, 4.5909121308156655e-003,
             1.3708328307904054e-003, 1.3304895174954360e-005,
             8.0959880529190294e-006, 8.9291720903149363e-009,
             2.6726066760405544e-006, -1.2156547381317618e-010,
             4.6227891611601800e-005, 6.8379025344109468e-006,
             9.6969443386312352e-006, 1.2470535980003062e-005,
             4.3475627127468357e-006, 4.6145621329050675e-005,
             2.9377309127411095e-006, 3.9053867536263822e-006,
             1.2395863399687631e-006, 1.3963193546162061e-008,
             8.9291720903149363e-009, 1.0940062186640122e-011,
             3.0331635813529334e-009, -1.3875806679803319e-013,
             1.6350359404246267e-002, 2.4755661697925752e-003,
             3.5122796699363704e-003, 4.6136274165195744e-003,
             1.6182856017908332e-003, 1.6311245657847522e-002,
             1.0528728020144959e-003, 1.3845012753809353e-003,
             4.2833675282455093e-004, 4.2103217306634106e-006,
             2.6726066760405544e-006, 3.0331635813529334e-009,
             9.0442865979144616e-007, -3.4718115800788951e-011,
             -6.4361815694059946e-007, -1.0639873783259810e-007,
             -1.5312929255053771e-007, -1.5642363220259478e-007,
             -7.4011733323328992e-008, -6.4190968151516334e-007,
             -6.4122551411071360e-008, -5.6844923177550867e-008,
             -1.6172987925752452e-008, -2.4118543129856446e-010,
             -1.2156547381317618e-010, -1.3875806679803319e-013,
             -3.4718115800788951e-011, 7.2348502087522382e-014 ]
      - !!opencv-matrix
         rows: 14
         cols: 14
         dt: d
         data: [ 2.1526140490452406e+002, 6.6195233882053600e+001,
             9.9062530573926153e+001, 1.7303560266566973e+002,
             7.2062809528937848e+001, 2.2137373114631487e+002,
             2.8441153467152525e+001, 2.1644352293668113e+001,
             1.5989505108648268e+000, 2.3823386328045978e-002,
             8.3353658283078988e-003, 2.0772426902264444e-006,
             1.0763809430303782e-003, 2.6097817851101823e-008,
             6.6195233882053600e+001, 2.1760989117037461e+001,
             3.2169289924849245e+001, 5.5681630409718579e+001,
             2.3939098640803042e+001, 6.9397204694847417e+001,
             9.5953162160454823e+000, 6.8829750135042103e+000,
             4.6878876178020623e-001, 6.9789959316161748e-003,
             2.3442923205539349e-003, 5.6412432976980671e-007,
             2.9655948775336911e-004, 6.8698819428885414e-009,
             9.9062530573926153e+001, 3.2169289924849245e+001,
             4.7688757207336778e+001, 8.2680473526885351e+001,
             3.5329893567440614e+001, 1.0356826873294156e+002,
             1.4127268364149465e+001, 1.0243652062408504e+001,
             7.0852049730392752e-001, 1.0560356523281487e-002,
             3.5732865432115831e-003, 8.6439225739162124e-007,
             4.5370725451682615e-004, 1.0693120248778471e-008,
             1.7303560266566973e+002, 5.5681630409718579e+001,
             8.2680473526885351e+001, 1.4517469144947444e+002,
             6.1055037264742573e+001, 1.8062120465923917e+002,
             2.3803673814909246e+001, 1.7830572707631386e+001,
             1.2453277641464282e+000, 1.9732994963180078e-002,
             6.6990511654402406e-003, 1.6499192821340179e-006,
             8.5127759050100628e-004, 2.2734806877645117e-008,
             7.2062809528937848e+001, 2.3939098640803042e+001,
             3.5329893567440614e+001, 6.1055037264742573e+001,
             2.6393012897145599e+001, 7.5741438096772555e+001,
             1.0609574605421219e+001, 7.5311095931107754e+000,
             5.0467560034805181e-001, 7.4980375845360037e-003,
             2.4896279696469919e-003, 5.9315295247814745e-007,
             3.1284638125516934e-004, 7.1687531556715360e-009,
             2.2137373114631487e+002, 6.9397204694847417e+001,
             1.0356826873294156e+002, 1.8062120465923917e+002,
             7.5741438096772555e+001, 2.2953606706706466e+002,
             2.9986614309602817e+001, 2.2518372440306962e+001,
             1.6337875577061798e+000, 2.4626091544433574e-002,
             8.5618193894203224e-003, 2.1294737320424831e-006,
             1.1031561380320976e-003, 2.8575500302855558e-008,
             2.8441153467152525e+001, 9.5953162160454823e+000,
             1.4127268364149465e+001, 2.3803673814909246e+001,
             1.0609574605421219e+001, 2.9986614309602817e+001,
             4.4848179465584010e+000, 2.9908553562803015e+000,
             1.9658803204248604e-001, 2.5734647857534806e-003,
             8.4286204851794833e-004, 1.9317357350475664e-007,
             1.0523689222970805e-004, 1.8841795826886929e-009,
             2.1644352293668113e+001, 6.8829750135042103e+000,
             1.0243652062408504e+001, 1.7830572707631386e+001,
             7.5311095931107754e+000, 2.2518372440306962e+001,
             2.9908553562803015e+000, 2.2165542956420863e+000,
             1.5785770063238447e-001, 2.3748369025820551e-003,
             8.1709408442917175e-004, 2.0125786253528281e-007,
             1.0472163611443382e-004, 2.6108790260273233e-009,
             1.5989505108648268e+000, 4.6878876178020623e-001,
             7.0852049730392752e-001, 1.2453277641464282e+000,
             5.0467560034805181e-001, 1.6337875577061798e+000,
             1.9658803204248604e-001, 1.5785770063238447e-001,
             1.2650644551682886e-002, 1.8762819356154105e-004,
             6.9058899282307978e-005, 1.7896941747392772e-008,
             9.1987382816797236e-006, 2.4554265891241018e-010,
             2.3823386328045978e-002, 6.9789959316161748e-003,
             1.0560356523281487e-002, 1.9732994963180078e-002,
             7.4980375845360037e-003, 2.4626091544433574e-002,
             2.5734647857534806e-003, 2.3748369025820551e-003,
             1.8762819356154105e-004, 4.5789445774336306e-006,
             1.5659275691381746e-006, 4.8519380435089912e-010,
             2.0304332756665122e-007, 1.5103139941748211e-011,
             8.3353658283078988e-003, 2.3442923205539349e-003,
             3.5732865432115831e-003, 6.6990511654402406e-003,
             2.4896279696469919e-003, 8.5618193894203224e-003,
             8.4286204851794833e-004, 8.1709408442917175e-004,
             6.9058899282307978e-005, 1.5659275691381746e-006,
             5.7348776536855576e-007, 1.7615490493223575e-010,
             7.6681557202648430e-008, 4.3153784965936804e-012,
             2.0772426902264444e-006, 5.6412432976980671e-007,
             8.6439225739162124e-007, 1.6499192821340179e-006,
             5.9315295247814745e-007, 2.1294737320424831e-006,
             1.9317357350475664e-007, 2.0125786253528281e-007,
             1.7896941747392772e-008, 4.8519380435089912e-010,
             1.7615490493223575e-010, 6.3324163276293411e-014,
             2.3793033332785581e-011, 2.5124720603971631e-015,
             1.0763809430303782e-003, 2.9655948775336911e-004,
             4.5370725451682615e-004, 8.5127759050100628e-004,
             3.1284638125516934e-004, 1.1031561380320976e-003,
             1.0523689222970805e-004, 1.0472163611443382e-004,
             9.1987382816797236e-006, 2.0304332756665122e-007,
             7.6681557202648430e-008, 2.3793033332785581e-011,
             1.0423902215473498e-008, 5.4567106448442835e-013,
             2.6097817851101823e-008, 6.8698819428885414e-009,
             1.0693120248778471e-008, 2.2734806877645117e-008,
             7.1687531556715360e-009, 2.8575500302855558e-008,
             1.8841795826886929e-009, 2.6108790260273233e-009,
             2.4554265891241018e-010, 1.5103139941748211e-011,
             4.3153784965936804e-012, 2.5124720603971631e-015,
             5.4567106448442835e-013, 4.2168177626887927e-016 ]
      - !!opencv-matrix
         rows: 14
         cols: 14
         dt: d
         data: [ 3.7639847972032459e+002, 1.0242796114475374e+002,
             1.4743167119285653e+002, 1.7067685649679734e+002,
             1.0334292722291474e+002, 3.5678825666330061e+002,
             8.1684892175917113e+001, 3.3690249438886987e+001,
             3.7553836002010650e+000, 1.0588995982156259e-002,
             2.9773284121315390e-003, 2.2347486104223609e-007,
             4.1785261875491316e-004, -6.1341801282891551e-009,
             1.0242796114475374e+002, 2.8206682710214661e+001,
             4.0529161314643972e+001, 4.6822416855225207e+001,
             2.8617353076460077e+001, 9.7213701512215593e+001,
             2.2676327342106532e+001, 9.2031269789908539e+000,
             1.0077321858919972e+000, 2.9023913827629345e-003,
             8.0564353419266383e-004, 5.9932312245869025e-008,
             1.1206133077705697e-004, -1.5698526680195727e-009,
             1.4743167119285653e+002, 4.0529161314643972e+001,
             5.8275013722749236e+001, 6.7306244851910492e+001,
             4.1102517269108844e+001, 1.3991096512045294e+002,
             3.2579305189108986e+001, 1.3242111175891193e+001,
             1.4526674989781925e+000, 4.2056864792988664e-003,
             1.1693650304175106e-003, 8.7526143128987449e-008,
             1.6281404926096518e-004, -2.3222462529454718e-009,
             1.7067685649679734e+002, 4.6822416855225207e+001,
             6.7306244851910492e+001, 7.8772301087250383e+001,
             4.7421739906089442e+001, 1.6193495443250984e+002,
             3.6998095925270604e+001, 1.5318634008091706e+001,
             1.6876303695629731e+000, 4.7661061477357308e-003,
             1.3218994875689176e-003, 9.8771110424987975e-008,
             1.8374797730248861e-004, -2.5245682358185827e-009,
             1.0334292722291474e+002, 2.8617353076460077e+001,
             4.1102517269108844e+001, 4.7421739906089442e+001,
             2.9120568842999656e+001, 9.8141760055744527e+001,
             2.3111727742566430e+001, 9.3035432188724023e+000,
             1.0092487334715827e+000, 2.9533332093641604e-003,
             8.1442643128516908e-004, 6.0511653426587701e-008,
             1.1274145156078563e-004, -1.5536887828259068e-009,
             3.5678825666330061e+002, 9.7213701512215593e+001,
             1.3991096512045294e+002, 1.6193495443250984e+002,
             9.8141760055744527e+001, 3.3830720829285303e+002,
             7.7589586854080977e+001, 3.1953501866276699e+001,
             3.5561911005796847e+000, 1.0100340003970623e-002,
             2.8359215837793533e-003, 2.1344703473015075e-007,
             3.9762825133149015e-004, -5.7882783373780400e-009,
             8.1684892175917113e+001, 2.2676327342106532e+001,
             3.2579305189108986e+001, 3.6998095925270604e+001,
             2.3111727742566430e+001, 7.7589586854080977e+001,
             1.8692822880773758e+001, 7.3599772499726708e+000,
             7.9413702591391144e-001, 2.3854077392698489e-003,
             6.6077475994965077e-004, 4.9103221538122289e-008,
             9.1757312476421754e-005, -1.3378436158746224e-009,
             3.3690249438886987e+001, 9.2031269789908539e+000,
             1.3242111175891193e+001, 1.5318634008091706e+001,
             9.3035432188724023e+000, 3.1953501866276699e+001,
             7.3599772499726708e+000, 3.0198992516603544e+000,
             3.3470827614266874e-001, 9.5712101201420963e-004,
             2.6794827021309013e-004, 2.0146422917138701e-008,
             3.7491222901125357e-005, -5.4775425858522600e-010,
             3.7553836002010650e+000, 1.0077321858919972e+000,
             1.4526674989781925e+000, 1.6876303695629731e+000,
             1.0092487334715827e+000, 3.5561911005796847e+000,
             7.9413702591391144e-001, 3.3470827614266874e-001,
             3.8183950915834888e-002, 1.0499758142283663e-004,
             2.9972353277317926e-005, 2.2748852203992908e-009,
             4.2521647729502315e-006, -6.7744758551900847e-011,
             1.0588995982156259e-002, 2.9023913827629345e-003,
             4.2056864792988664e-003, 4.7661061477357308e-003,
             2.9533332093641604e-003, 1.0100340003970623e-002,
             2.3854077392698489e-003, 9.5712101201420963e-004,
             1.0499758142283663e-004, 5.6314858782800003e-007,
             1.6314733290678253e-007, 1.6256090333553152e-011,
             2.3321113732485850e-008, -2.1460630067194924e-013,
             2.9773284121315390e-003, 8.0564353419266383e-004,
             1.1693650304175106e-003, 1.3218994875689176e-003,
             8.1442643128516908e-004, 2.8359215837793533e-003,
             6.6077475994965077e-004, 2.6794827021309013e-004,
             2.9972353277317926e-005, 1.6314733290678253e-007,
             5.1680274176727665e-008, 5.5165940502015040e-012,
             7.7921195388542843e-009, -2.7239467793399191e-014,
             2.2347486104223609e-007, 5.9932312245869025e-008,
             8.7526143128987449e-008, 9.8771110424987975e-008,
             6.0511653426587701e-008, 2.1344703473015075e-007,
             4.9103221538122289e-008, 2.0146422917138701e-008,
             2.2748852203992908e-009, 1.6256090333553152e-011,
             5.5165940502015040e-012, 7.1291653443552879e-016,
             8.6301053969688859e-013, 4.4335408499679646e-018,
             4.1785261875491316e-004, 1.1206133077705697e-004,
             1.6281404926096518e-004, 1.8374797730248861e-004,
             1.1274145156078563e-004, 3.9762825133149015e-004,
             9.1757312476421754e-005, 3.7491222901125357e-005,
             4.2521647729502315e-006, 2.3321113732485850e-008,
             7.7921195388542843e-009, 8.6301053969688859e-013,
             1.2099887518191981e-009, -1.8841813866814664e-015,
             -6.1341801282891551e-009, -1.5698526680195727e-009,
             -2.3222462529454718e-009, -2.5245682358185827e-009,
             -1.5536887828259068e-009, -5.7882783373780400e-009,
             -1.3378436158746224e-009, -5.4775425858522600e-010,
             -6.7744758551900847e-011, -2.1460630067194924e-013,
             -2.7239467793399191e-014, 4.4335408499679646e-018,
             -1.8841813866814664e-015, 7.6873168214502536e-018 ]
      - !!opencv-matrix
         rows: 14
         cols: 14
         dt: d
         data: [ 3.0179952835407300e+002, 8.8595414982725501e+001,
             1.2518274407054595e+002, 1.6385524278235533e+002,
             9.2105964786683586e+001, 2.8757399604187731e+002,
             6.1667079272460704e+001, 2.7570413527108059e+001,
             2.5204743393800300e+000, 9.3897503962663380e-003,
             1.4554652264288895e-003, 6.1526226842474987e-008,
             9.8909492700844395e-005, -8.3675838457958642e-009,
             8.8595414982725501e+001, 2.6175065917455868e+001,
             3.6924911658829942e+001, 4.8249679471576457e+001,
             2.7254104912867891e+001, 8.4486905874990498e+001,
             1.8279175325132169e+001, 8.1106392210641616e+000,
             7.3649082736303628e-001, 2.7660385198591698e-003,
             4.2619342556567575e-004, 1.7839017060622231e-008,
             2.8893995005655610e-005, -2.4587953251566701e-009,
             1.2518274407054595e+002, 3.6924911658829942e+001,
             5.2159687415413131e+001, 6.8202833654704676e+001,
             3.8464971948478805e+001, 1.1934792682331197e+002,
             2.5782009775946388e+001, 1.1457335737629368e+001,
             1.0390016226260079e+000, 3.9097616030918580e-003,
             6.0405891650161070e-004, 2.5472638132066005e-008,
             4.1158297777051485e-005, -3.6778381590112916e-009,
             1.6385524278235533e+002, 4.8249679471576457e+001,
             6.8202833654704676e+001, 9.1849015022750550e+001,
             5.0306185823947388e+001, 1.5610931963873253e+002,
             3.2300399555864601e+001, 1.4985997434174360e+001,
             1.3583969836460767e+000, 4.9024884115460281e-003,
             7.5504137298184324e-004, 3.1417111881395547e-008,
             5.1639149358723954e-005, -4.3978446954478109e-009,
             9.2105964786683586e+001, 2.7254104912867891e+001,
             3.8464971948478805e+001, 5.0306185823947388e+001,
             2.8415414617337060e+001, 8.7832118065186364e+001,
             1.9032180632297813e+001, 8.4375861987726921e+000,
             7.6253370093372241e-001, 2.8716858682022784e-003,
             4.4222900351904805e-004, 1.8515156922050117e-008,
             3.0093470591847467e-005, -2.5973062781763434e-009,
             2.8757399604187731e+002, 8.4486905874990498e+001,
             1.1934792682331197e+002, 1.5610931963873253e+002,
             8.7832118065186364e+001, 2.7415591010091816e+002,
             5.8858356253830721e+001, 2.6284898260524052e+001,
             2.4033418367081074e+000, 9.0023715555180954e-003,
             1.3932288686279821e-003, 5.9028871514077392e-008,
             9.4397054773682197e-005, -8.2419522533490913e-009,
             6.1667079272460704e+001, 1.8279175325132169e+001,
             2.5782009775946388e+001, 3.2300399555864601e+001,
             1.9032180632297813e+001, 5.8858356253830721e+001,
             1.3536201569514848e+001, 5.6537655026264302e+000,
             5.1105827002366055e-001, 2.0546690551897181e-003,
             3.1760997315600907e-004, 1.3596286080924616e-008,
             2.1442802953371130e-005, -1.9566219708925210e-009,
             2.7570413527108059e+001, 8.1106392210641616e+000,
             1.1457335737629368e+001, 1.4985997434174360e+001,
             8.4375861987726921e+000, 2.6284898260524052e+001,
             5.6537655026264302e+000, 2.5212138152699284e+000,
             2.2991222668407377e-001, 8.6386589309657468e-004,
             1.3364523937652492e-004, 5.6646708946409805e-009,
             9.0729410593632348e-006, -8.0243467479182711e-010,
             2.5204743393800300e+000, 7.3649082736303628e-001,
             1.0390016226260079e+000, 1.3583969836460767e+000,
             7.6253370093372241e-001, 2.4033418367081074e+000,
             5.1105827002366055e-001, 2.2991222668407377e-001,
             2.1389049073167167e-002, 7.8054824996230153e-005,
             1.2051707478414482e-005, 5.0305971099589058e-010,
             8.0142870662183051e-007, -6.4301733025890739e-011,
             9.3897503962663380e-003, 2.7660385198591698e-003,
             3.9097616030918580e-003, 4.9024884115460281e-003,
             2.8716858682022784e-003, 9.0023715555180954e-003,
             2.0546690551897181e-003, 8.6386589309657468e-004,
             7.8054824996230153e-005, 5.5765006415933144e-007,
             8.5327854827522041e-008, 4.7864052656806388e-012,
             5.3786531468593797e-009, -4.3355712404347581e-013,
             1.4554652264288895e-003, 4.2619342556567575e-004,
             6.0405891650161070e-004, 7.5504137298184324e-004,
             4.4222900351904805e-004, 1.3932288686279821e-003,
             3.1760997315600907e-004, 1.3364523937652492e-004,
             1.2051707478414482e-005, 8.5327854827522041e-008,
             1.5389852621809428e-008, 1.0119771875539666e-012,
             1.3057020656734461e-009, -1.8467591666657972e-013,
             6.1526226842474987e-008, 1.7839017060622231e-008,
             2.5472638132066005e-008, 3.1417111881395547e-008,
             1.8515156922050117e-008, 5.9028871514077392e-008,
             1.3596286080924616e-008, 5.6646708946409805e-009,
             5.0305971099589058e-010, 4.7864052656806388e-012,
             1.0119771875539666e-012, 8.4208712276380331e-017,
             1.0313200587850677e-013, -2.1069063610946763e-017,
             9.8909492700844395e-005, 2.8893995005655610e-005,
             4.1158297777051485e-005, 5.1639149358723954e-005,
             3.0093470591847467e-005, 9.4397054773682197e-005,
             2.1442802953371130e-005, 9.0729410593632348e-006,
             8.0142870662183051e-007, 5.3786531468593797e-009,
             1.3057020656734461e-009, 1.0313200587850677e-013,
             1.5396196764704638e-010, -2.8627529746128547e-014,
             -8.3675838457958642e-009, -2.4587953251566701e-009,
             -3.6778381590112916e-009, -4.3978446954478109e-009,
             -2.5973062781763434e-009, -8.2419522533490913e-009,
             -1.9566219708925210e-009, -8.0243467479182711e-010,
             -6.4301733025890739e-011, -4.3355712404347581e-013,
             -1.8467591666657972e-013, -2.1069063610946763e-017,
             -2.8627529746128547e-014, 2.6257645581185774e-017 ]
      - !!opencv-matrix
         rows: 14
         cols: 14
         dt: d
         data: [ 7.6510180855997623e+002, 1.4264214065115240e+002,
             1.9488086050332828e+002, 2.2934748544892483e+002,
             1.0352071500359322e+002, 7.4743205138773760e+002,
             7.8588701191910999e+001, 6.4167944165850486e+001,
             1.5994750088641345e+001, 1.0919385930221367e-001,
             2.2125689930543358e-002, 7.2923132207211907e-006,
             1.1069201071352221e-003, 9.0715892268738256e-006,
             1.4264214065115240e+002, 2.6982776205841272e+001,
             3.6923349337813420e+001, 4.3462685706188374e+001,
             1.9828788397053700e+001, 1.3903250426856658e+002,
             1.5012120874783212e+001, 1.1969291269890343e+001,
             2.9099264058299354e+000, 1.7744056057465821e-002,
             3.6614240035813019e-003, 1.1406917679366131e-006,
             2.2075556917727963e-004, 1.1160883632647402e-006,
             1.9488086050332828e+002, 3.6923349337813420e+001,
             5.0563079721132908e+001, 5.9519467030753795e+001,
             2.7186744438119753e+001, 1.8989104576449361e+002,
             2.0577016482972262e+001, 1.6353840195725180e+001,
             3.9615317448271190e+000, 2.3761074709543591e-002,
             4.9405243539093332e-003, 1.5547373471745510e-006,
             3.1373821627311463e-004, 1.4405241357294792e-006,
             2.2934748544892483e+002, 4.3462685706188374e+001,
             5.9519467030753795e+001, 7.0827504117138787e+001,
             3.2014331634178738e+001, 2.2366814408039014e+002,
             2.3893464882125262e+001, 1.9247619631833871e+001,
             4.6589288981878543e+000, 2.8167665592340640e-002,
             5.9178995372187269e-003, 1.8971633800705603e-006,
             3.9928784879773567e-004, 1.7852574853556775e-006,
             1.0352071500359322e+002, 1.9828788397053700e+001,
             2.7186744438119753e+001, 3.2014331634178738e+001,
             1.4740027951360666e+001, 1.0071267865532546e+002,
             1.1131668962700592e+001, 8.6921323421664702e+000,
             2.0663005912264394e+000, 1.1343104595658409e-002,
             2.3898834891241095e-003, 7.1823224973721391e-007,
             1.6818246669185341e-004, 5.5397512430385262e-007,
             7.4743205138773760e+002, 1.3903250426856658e+002,
             1.8989104576449361e+002, 2.2366814408039014e+002,
             1.0071267865532546e+002, 7.3085814895111821e+002,
             7.6427801901838507e+001, 6.2708351866723795e+001,
             1.5704715404158993e+001, 1.1063714672746124e-001,
             2.2363025010630332e-002, 7.5529289407847359e-006,
             1.0750247427138825e-003, 9.8980100287486961e-006,
             7.8588701191910999e+001, 1.5012120874783212e+001,
             2.0577016482972262e+001, 2.3893464882125262e+001,
             1.1131668962700592e+001, 7.6427801901838507e+001,
             8.5764796599495732e+000, 6.5980798231055129e+000,
             1.5773991275714661e+000, 8.9080198513531769e-003,
             1.8442523487435304e-003, 5.5448226313256646e-007,
             1.1572410815042708e-004, 4.6256320493887261e-007,
             6.4167944165850486e+001, 1.1969291269890343e+001,
             1.6353840195725180e+001, 1.9247619631833871e+001,
             8.6921323421664702e+000, 6.2708351866723795e+001,
             6.5980798231055129e+000, 5.3844603556699608e+000,
             1.3422510685585907e+000, 9.2797858067183749e-003,
             1.8790732800213782e-003, 6.2734655275418723e-007,
             9.2367761238638875e-005, 8.0438342553499998e-007,
             1.5994750088641345e+001, 2.9099264058299354e+000,
             3.9615317448271190e+000, 4.6589288981878543e+000,
             2.0663005912264394e+000, 1.5704715404158993e+001,
             1.5773991275714661e+000, 1.3422510685585907e+000,
             3.4970974963004348e-001, 2.8988969305341226e-003,
             5.6973022715904674e-004, 2.0501654034888182e-007,
             1.8074260986912318e-005, 3.4774429828648093e-007,
             1.0919385930221367e-001, 1.7744056057465821e-002,
             2.3761074709543591e-002, 2.8167665592340640e-002,
             1.1343104595658409e-002, 1.1063714672746124e-001,
             8.9080198513531769e-003, 9.2797858067183749e-003,
             2.8988969305341226e-003, 5.3263935079086774e-005,
             9.3508386431557211e-006, 4.0220410794816801e-009,
             -2.6269469495194148e-007, 9.9241607025530648e-009,
             2.2125689930543358e-002, 3.6614240035813019e-003,
             4.9405243539093332e-003, 5.9178995372187269e-003,
             2.3898834891241095e-003, 2.2363025010630332e-002,
             1.8442523487435304e-003, 1.8790732800213782e-003,
             5.6973022715904674e-004, 9.3508386431557211e-006,
             1.9209734043038587e-006, 1.0751885584207859e-009,
             7.6997193449788097e-008, 1.5145388697669228e-009,
             7.2923132207211907e-006, 1.1406917679366131e-006,
             1.5547373471745510e-006, 1.8971633800705603e-006,
             7.1823224973721391e-007, 7.5529289407847359e-006,
             5.5448226313256646e-007, 6.2734655275418723e-007,
             2.0501654034888182e-007, 4.0220410794816801e-009,
             1.0751885584207859e-009, 9.6901960001348149e-013,
             1.3927512899162687e-010, 5.5772551482264483e-013,
             1.1069201071352221e-003, 2.2075556917727963e-004,
             3.1373821627311463e-004, 3.9928784879773567e-004,
             1.6818246669185341e-004, 1.0750247427138825e-003,
             1.1572410815042708e-004, 9.2367761238638875e-005,
             1.8074260986912318e-005, -2.6269469495194148e-007,
             7.6997193449788097e-008, 1.3927512899162687e-010,
             5.7700177872244923e-008, -2.0941554186278103e-010,
             9.0715892268738256e-006, 1.1160883632647402e-006,
             1.4405241357294792e-006, 1.7852574853556775e-006,
             5.5397512430385262e-007, 9.8980100287486961e-006,
             4.6256320493887261e-007, 8.0438342553499998e-007,
             3.4774429828648093e-007, 9.9241607025530648e-009,
             1.5145388697669228e-009, 5.5772551482264483e-013,
             -2.0941554186278103e-010, 3.9176145933877901e-012 ]
      - !!opencv-matrix
         rows: 14
         cols: 14
         dt: d
         data: [ 3.4027663338938879e+002, 1.2715595047356840e+002,
             1.5613050713776673e+002, 1.6883596057683576e+002,
             1.2650397473526444e+002, 3.3991891484698522e+002,
             1.0949117906946111e+002, 3.2781099986766080e+001,
             2.8404168752621075e+000, 9.3382891816716860e-003,
             1.7098602471610060e-003, 1.2462390857226748e-007,
             2.1059954907473439e-004, 1.1780192968328121e-009,
             1.2715595047356840e+002, 4.7784327063448089e+001,
             5.8690874683944870e+001, 6.3467461751228043e+001,
             4.7686390552864204e+001, 1.2704189718397814e+002,
             4.1270858056201369e+001, 1.2278897818411139e+001,
             1.0498284561828282e+000, 3.4836606754821034e-003,
             6.2862834326239409e-004, 4.4764426413718281e-008,
             7.6740513871687797e-005, 4.1486316249550523e-010,
             1.5613050713776673e+002, 5.8690874683944870e+001,
             7.2157370972879647e+001, 7.8028176538685315e+001,
             5.8647460938245153e+001, 1.5597568159247271e+002,
             5.0758324131146310e+001, 1.5084554243736823e+001,
             1.2858290982100360e+000, 4.4114525990543120e-003,
             7.9722507255940492e-004, 5.8612845315890062e-008,
             9.7191158686090023e-005, 4.7168213035439121e-010,
             1.6883596057683576e+002, 6.3467461751228043e+001,
             7.8028176538685315e+001, 8.4388470116125518e+001,
             6.3418986961222274e+001, 1.6866865066319531e+002,
             5.4873642237267504e+001, 1.6312110964289580e+001,
             1.3905111741365292e+000, 4.7694939222955070e-003,
             8.6207490356387682e-004, 6.3477876442376146e-008,
             1.0510970871291760e-004, 5.2007691630319611e-010,
             1.2650397473526444e+002, 4.7686390552864204e+001,
             5.8647460938245153e+001, 6.3418986961222274e+001,
             4.7735887763930805e+001, 1.2637759353302201e+002,
             4.1313491410374212e+001, 1.2236904851448189e+001,
             1.0355657352936460e+000, 3.5750496743585966e-003,
             6.4122380519291539e-004, 4.6668143664988554e-008,
             7.7779970184704386e-005, 3.5739486179874858e-010,
             3.3991891484698522e+002, 1.2704189718397814e+002,
             1.5597568159247271e+002, 1.6866865066319531e+002,
             1.2637759353302201e+002, 3.3961631874261275e+002,
             1.0938207850178755e+002, 3.2750797398434365e+001,
             2.8384840083134826e+000, 9.3459580197001145e-003,
             1.7128078084521102e-003, 1.2490418731554382e-007,
             2.1116418045721239e-004, 1.2654937370861649e-009,
             1.0949117906946111e+002, 4.1270858056201369e+001,
             5.0758324131146310e+001, 5.4873642237267504e+001,
             4.1313491410374212e+001, 1.0938207850178755e+002,
             3.5772710487763717e+001, 1.0590961136508328e+001,
