%YAML:1.0
my_nn: !!opencv-ml-ann-mlp
   layer_sizes: !!opencv-matrix
      rows: 1
      cols: 4
      dt: i
      data: [ 14, 100, 100, 32 ]
   activation_function: SIGMOID_SYM
   f_param1: 6.6666666666666663e-001
   f_param2: 1.7159000000000000e+000
   min_val: -9.4999999999999996e-001
   max_val: 9.4999999999999996e-001
   min_val1: -9.7999999999999998e-001
   max_val1: 9.7999999999999998e-001
   training_params:
      train_method: BACKPROP
      dw_scale: 1.0000000000000000e-003
      moment_scale: 0.
      term_criteria: { epsilon:1.1920928955078125e-007, iterations:1000 }
   input_scale: [ 2.0704244825516119e-001, -7.2606844869287379e-001,
       1.2336986661335805e+001, -8.2638573310883547e+000,
       9.1808555233398241e+000, -8.4623860588534612e+000,
       6.3167674523852453e+000, -7.3836087955886054e+000,
       5.0035496331018106e+000, -3.1514841986235709e+000,
       1.5967610341010771e-001, -6.0463908600792104e-001,
       5.5920832334996531e+000, -2.6809829621973296e+000,
       1.8857385953386780e+000, -6.7665850315267539e-001,
       6.0128487440783773e-001, -2.2964969997424048e-001,
       1.9754870573755721e+001, -1.7003653234523491e-001,
       2.4460327073313625e+001, -1.5462801038780138e-001,
       4.9291393939557878e+001, -9.0681758958773048e-002,
       8.5708458327687929e+000, -1.3935888952213024e-001,
       9.8724249968682693e+002, -1.2773691649633455e-002 ]
   output_scale: [ 5.2631578947368418e-001, 4.9999999999999994e-001,
       5.2631578947368418e-001, 4.9999999999999994e-001,
       5.2631578947368418e-001, 4.9999999999999994e-001,
       5.2631578947368418e-001, 4.9999999999999994e-001,
       5.2631578947368418e-001, 4.9999999999999994e-001,
       5.2631578947368418e-001, 4.9999999999999994e-001,
       5.2631578947368418e-001, 4.9999999999999994e-001,
       5.2631578947368418e-001, 4.9999999999999994e-001,
       5.2631578947368418e-001, 4.9999999999999994e-001,
       5.2631578947368418e-001, 4.9999999999999994e-001,
       5.2631578947368418e-001, 4.9999999999999994e-001,
       5.2631578947368418e-001, 4.9999999999999994e-001,
       5.2631578947368418e-001, 4.9999999999999994e-001,
       5.2631578947368418e-001, 4.9999999999999994e-001,
       5.2631578947368418e-001, 4.9999999999999994e-001,
       5.2631578947368418e-001, 4.9999999999999994e-001,
       5.2631578947368418e-001, 4.9999999999999994e-001,
       5.2631578947368418e-001, 4.9999999999999994e-001,
       5.2631578947368418e-001, 4.9999999999999994e-001,
       5.2631578947368418e-001, 4.9999999999999994e-001,
       5.2631578947368418e-001, 4.9999999999999994e-001,
       5.2631578947368418e-001, 4.9999999999999994e-001,
       5.2631578947368418e-001, 4.9999999999999994e-001,
       5.2631578947368418e-001, 4.9999999999999994e-001,
       5.2631578947368418e-001, 4.9999999999999994e-001,
       5.2631578947368418e-001, 4.9999999999999994e-001,
       5.2631578947368418e-001, 4.9999999999999994e-001,
       5.2631578947368418e-001, 4.9999999999999994e-001,
       5.2631578947368418e-001, 4.9999999999999994e-001,
       5.2631578947368418e-001, 4.9999999999999994e-001,
       5.2631578947368418e-001, 4.9999999999999994e-001,
       5.2631578947368418e-001, 4.9999999999999994e-001 ]
   inv_output_scale: [ 1.8999999999999999e+000, -9.4999999999999996e-001,
       1.8999999999999999e+000, -9.4999999999999996e-001,
       1.8999999999999999e+000, -9.4999999999999996e-001,
       1.8999999999999999e+000, -9.4999999999999996e-001,
       1.8999999999999999e+000, -9.4999999999999996e-001,
       1.8999999999999999e+000, -9.4999999999999996e-001,
       1.8999999999999999e+000, -9.4999999999999996e-001,
       1.8999999999999999e+000, -9.4999999999999996e-001,
       1.8999999999999999e+000, -9.4999999999999996e-001,
       1.8999999999999999e+000, -9.4999999999999996e-001,
       1.8999999999999999e+000, -9.4999999999999996e-001,
       1.8999999999999999e+000, -9.4999999999999996e-001,
       1.8999999999999999e+000, -9.4999999999999996e-001,
       1.8999999999999999e+000, -9.4999999999999996e-001,
       1.8999999999999999e+000, -9.4999999999999996e-001,
       1.8999999999999999e+000, -9.4999999999999996e-001,
       1.8999999999999999e+000, -9.4999999999999996e-001,
       1.8999999999999999e+000, -9.4999999999999996e-001,
       1.8999999999999999e+000, -9.4999999999999996e-001,
       1.8999999999999999e+000, -9.4999999999999996e-001,
       1.8999999999999999e+000, -9.4999999999999996e-001,
       1.8999999999999999e+000, -9.4999999999999996e-001,
       1.8999999999999999e+000, -9.4999999999999996e-001,
       1.8999999999999999e+000, -9.4999999999999996e-001,
       1.8999999999999999e+000, -9.4999999999999996e-001,
       1.8999999999999999e+000, -9.4999999999999996e-001,
       1.8999999999999999e+000, -9.4999999999999996e-001,
       1.8999999999999999e+000, -9.4999999999999996e-001,
       1.8999999999999999e+000, -9.4999999999999996e-001,
       1.8999999999999999e+000, -9.4999999999999996e-001,
       1.8999999999999999e+000, -9.4999999999999996e-001,
       1.8999999999999999e+000, -9.4999999999999996e-001 ]
   weights:
      - [ -3.9768688107569744e-001, -8.3240143065846345e-002,
          4.7068788051337718e-001, 5.9306083937779897e-001,
          7.2142085908153700e-002, -4.4703207486818115e-002,
          -1.1680872327990492e+000, 6.5620034024787355e-001,
          -1.3724252937008985e-001, 8.4021712767975842e-001,
          3.0636768128315173e-001, 5.7599738259039401e-001,
          -3.1643684614948503e-001, -5.0349666566510731e-001,
          -3.1184844295212016e-001, 5.8295360610635455e-003,
          2.9588994519157563e-001, -5.0140947050443085e-001,
          1.6745344188873681e-001, 1.2746623423302014e-001,
          2.6173237023883289e-001, -4.3477967432311831e-001,
          -6.4663294930428816e-001, 4.0446112072250162e-001,
          5.7439363357289286e-001, -1.2871753411685618e+000,
          1.1521727478272049e-001, 6.5567045690775572e-001,
          5.6134889547687951e-002, -5.7747177052841769e-001,
          7.5557407607765625e-001, -1.1325789848749919e+000,
          2.4373893843922281e-001, 1.0353975351470974e+000,
          1.4390046295160172e-001, -6.3342405622026066e-001,
          -3.3132609427999643e-002, 7.7958390406073197e-001,
          -6.2534382795054577e-001, -2.2963404079652799e-001,
          -5.2972523151431217e-001, 8.3087992399973087e-001,
          5.0101408077914758e-002, -3.8353639527367267e-001,
          -1.2335349774769111e+000, -3.4522228273296129e-001,
          -3.7328215888197719e-001, 1.9910375833470276e-001,
          -1.5639655415353271e-001, 6.6138886233548067e-001,
          -8.7142506616003701e-001, -1.0740172863652850e-001,
          -8.1491811357194063e-002, -1.4851447258809006e-001,
          -3.9588706098322995e-001, -1.2105129230129154e-003,
          -1.7453806105270802e+000, -2.4542387876521474e-001,
          5.0243741253293291e-002, -1.7030527903453677e-001,
          1.4578751478604912e-001, 4.0730305175145542e-001,
          -4.4919207493860519e-001, -3.1878544117592500e-001,
          7.4500495413080448e-001, 6.2319298396310763e-001,
          -6.3705497594483046e-002, -6.1723655135740696e-001,
          -8.9088285970741657e-002, 9.2423240410227106e-002,
          -2.1059394896814849e+000, 3.9142809452226529e-001,
          2.3225225741153691e-001, 4.9331452511635987e-001,
          -1.1908275842668757e-001, -1.1326060669565989e-001,
          2.8343424518453897e-001, -3.8651508916654492e-001,
          2.9599961797969560e-001, 5.7926974127709230e-001,
          2.5440205754321144e-001, -7.4670137435894901e-001,
          -4.5198570386622033e-001, -7.7018431941730442e-002,
          2.7682654005483959e-001, 3.5831113629553123e-002,
          -2.6200786546775828e-001, -1.3495600740307367e-001,
          5.7309267472572090e-001, -3.9610389659513651e-001,
          1.7446918129563219e-001, -4.0393239265759912e-001,
          4.9119379510654523e-002, -6.3314756377796566e-001,
          -6.1862018526052753e-001, -3.3706112607550642e-001,
          6.5631407309983214e-001, 5.5706263427900926e-001,
          -2.4115514229136889e-001, -9.0060942598068472e-001,
          4.8997714469006537e-001, 2.1454947214674838e-001,
          1.4997582377698399e-001, 3.1783851006240221e-001,
          -3.1518060207299908e-001, -8.7860158456327664e-002,
          2.6043960081688588e-002, -5.1463200078441063e-001,
          1.8617805820760025e-001, -3.8891536545567634e-001,
          -4.1159215132062787e-001, -2.1082049858612997e-001,
          7.0868437434574466e-002, -3.6463623911421800e-001,
          8.7395314990960371e-002, 6.0417658744554170e-001,
          -1.9411785583043323e-001, 5.0383050347788472e-001,
          -1.9466563301140138e+000, 1.5057275461706363e+000,
          6.2872867217034034e-001, 8.9212062845731865e-001,
          -1.2423373504712062e-002, -3.7068767297081896e-002,
          2.2755763243721952e-001, -1.5499682842998125e-001,
          -2.7778302930554089e-001, -6.4287763627999983e-001,
          7.6212723600506238e-001, 2.0364573550172196e-001,
          4.3988952354589217e-001, -1.6655272752927364e+000,
          -2.1728931679420638e-001, -7.7318995333647056e-001,
          5.7267385555650241e-001, 9.4330616143887727e-002,
          -3.7959022431736883e-001, 5.1626459447748752e-001,
          -9.4578804891635431e-003, -1.1741928844728242e+000,
          -4.0422671967515672e-001, 1.0092199936525867e+000,
          -5.6713852576731505e-001, 1.1452824287492296e-001,
          1.2713504303174755e-001, 1.4751957185921455e-001,
          -8.3279021169552447e-001, 1.2009517355351347e-001,
          -1.9002347322986443e-001, 1.0220044963087195e-001,
          1.6202904812069488e-001, 4.8611349830587036e-001,
          -8.0362960402736927e-001, 4.0223924569116704e-001,
          -4.3849329955282518e-001, -3.9150131403926286e-001,
          -2.9923551781545208e+000, 7.5655452585494998e-001,
          -5.3195250783520776e-001, 2.5137832371213936e-001,
          8.4745866036369133e-002, 9.8124444996294621e-002,
          4.4258561102658217e-001, -1.9581573637607860e-001,
          -3.9821600172184146e-001, -1.1911053741322460e-001,
          -8.4339599715227087e-001, -4.6802874402181566e-001,
          8.8507823145396380e-001, -5.8847231252998747e-002,
          -1.0926167637393613e+000, 6.6364614189043769e-001,
          3.4025706916992549e-001, 2.8023152638149047e-002,
          -1.0304950280118788e+000, 4.6335394079823233e-001,
          -2.8929732037940570e-001, -8.6753877656512202e-001,
          -7.2962798851574151e-001, 1.5678156995757547e-001,
          -7.4511933389531881e-002, 3.6525423585222740e-002,
          -5.2793342006593269e-001, 3.1194549048922676e-001,
          4.4281200740810311e-001, -3.1818043171432103e-001,
          4.3655727960704943e-001, 4.7447991364927294e-001,
          -2.6174323119168680e-001, -2.7069623479458277e-001,
          -1.8739807395422706e-001, 5.9378254203446446e-001,
          -1.2791720519704561e+000, 2.8926499918219606e-001,
          3.1418037120896414e-001, -9.6329005246960353e-001,
          1.5477885115729537e+000, -1.8488502879578325e-001,
          -5.8105527783857669e-001, 7.1244551132311221e-002,
          1.0315134029993356e+000, 7.6946051794637582e-001,
          2.8024213940740350e-001, -2.1557472768667058e-001,
          5.0224423668489115e-001, -5.5682062871169502e-001,
          5.4566969313115199e-001, 1.6526835429473108e-001,
          -1.8718771959469524e-001, -4.7518287710182161e-001,
          6.4467595245491094e-001, 3.4041553928081314e-001,
          4.3052798675026005e-001, -5.2270399467848216e-001,
          3.8869327928673936e-001, -2.3418155123988277e-001,
          -4.6853208348685293e-001, -8.5137814000929263e-002,
          2.1824024741973702e-001, 3.4471212470252455e-001,
          -7.2661760444521073e-001, 2.9876258618971914e+000,
          4.9924869278825856e-001, -1.1732066118336661e+000,
          -1.7010184229820055e-001, 3.2000359179298871e-001,
          1.8225656620498676e-001, -1.7019778838008806e-001,
          -9.6309025995129260e-001, 6.6110651078732552e-001,
          -4.0837171756283563e-001, 7.0621223201502958e-001,
          2.4539495723563248e-001, -1.4106273294323022e+000,
          1.5494800277471665e-001, -2.8248220918017253e-001,
          -5.6998001245113172e-001, 1.1925804982320336e+000,
          2.5862952556095836e-001, -3.4180606802293334e-001,
          -2.6467650295840622e-001, -7.2929872599456991e-001,
          -4.6571432140173508e-001, 5.4265437865340271e-001,
          -3.1294596117399083e+000, -2.5966770841735232e-001,
          4.4316373075357585e-001, 1.6509159145315253e-001,
          -3.9146323651668602e-001, -4.2910706710566776e-001,
          1.6717114954761561e-001, -6.7181571015441062e-003,
          -1.7318854126984048e-001, -1.7744704700043065e-001,
          -2.6692761360408518e-001, -8.4614006304054246e-002,
          -1.3800140756445465e+000, -2.7871081237398937e-001,
          -6.6144825080256053e-001, -3.0804136746256516e-001,
          -4.1221614590785549e-001, 8.1692000536072340e-002,
          -3.9195295531820723e-001, -7.1575191912674374e-001,
          4.9416211470231897e-001, -9.3262800674751989e-001,
          2.7066025347229124e-002, -9.3052111437366206e-003,
          1.1022659616293227e-001, 1.0054102320288466e-001,
          -4.0281034826722228e+000, 2.8762594663605501e-001,
          5.3181002932612365e-001, 1.5912487289551866e-001,
          -3.9911824174162874e-001, -1.9296768746312529e+000,
          7.2753549965381881e-001, -3.2540203895524755e-002,
          3.2258674764314182e-001, -1.6757305651335753e-002,
          7.8275124766873216e-001, 5.5933197434591242e-001,
          -4.5703485927378201e-001, -9.5391741613830780e-002,
          -5.0648409819778295e-001, -8.6137220494144340e-001,
          -8.1090765553581204e-002, -3.5596955285728038e-001,
          -7.9193318102314847e-001, 1.0261079437597675e+000,
          4.0611708320123320e-002, 7.0073477443794066e-002,
          -7.0579824359340138e-001, 9.1906048065994277e-003,
          5.0476653693652551e-001, 9.3004891528415914e-002,
          1.1988970713896399e-001, -8.3751766588970911e-001,
          -3.4451442254050078e-002, 6.3851312103021673e-001,
          -5.2692985555006444e-001, -8.5497752181117603e-001,
          -2.3541501232887288e-001, -6.3839938370133199e-004,
          -1.0368561206021215e-001, -2.3578769669843829e-002,
          -6.3912457742364015e-001, -4.1858038909572015e-001,
          -2.2372415214166425e-001, 2.2829681233059318e-001,
          -3.4874420145827023e-001, 3.6676854346344392e-002,
          -4.0074094692931822e-001, -6.5729638883591068e-002,
          -2.1532380237610621e-001, 7.0347492541869627e-001,
          1.2667232895154698e-001, -5.4851010416064029e-002,
          1.3440737294031002e+000, 1.8468386441074724e-001,
          2.8784888262123426e-001, -7.5817543999725812e-001,
          2.0236706771394042e-001, 2.7676859598718645e-001,
          -3.2991655823003524e-001, -1.4140781479880617e-003,
          8.0022033011082447e-002, 1.0386717093251456e-003,
          1.2405134979749264e+000, -4.8321963260781403e-001,
          1.8889843556459024e-001, -4.3020978888354011e-001,
          2.0073873324940079e+000, 1.5356056568802462e-002,
          -3.2941700777307131e-001, 2.3455477132991284e-001,
          3.5781447592081611e-001, 1.6542977165468373e-001,
          2.5770960515294167e-002, 1.9205919498192833e-001,
          4.8661495108371450e-001, 2.0629971042969668e+000,
          -3.8799023089012091e-001, 3.0296261633503765e-002,
          1.4440056119178770e+000, -2.5167646024017033e-002,
          6.0390769406148748e-001, 1.3010876647816816e-001,
          3.1978243271488227e-001, 1.7279075544254976e-001,
          2.0448703307181609e-001, -3.2117771442899106e-003,
          3.4329756399555139e-001, -2.7501375179698279e-001,
          -1.7109033685321326e-001, 2.3319751270148029e-001,
          6.6323993064930464e-001, 3.8420866514343216e-001,
          -2.1685248456150916e-001, -9.2177397799395017e-002,
          -1.0362793362739771e+000, 1.6954670987689216e-001,
          -2.9837022033510535e-001, 4.5194443309713905e-001,
          -3.1200794109544594e-001, 5.1787277130593734e-001,
          4.3988643110846809e-001, 2.6645700771084146e-001,
          -6.9910727240539039e-001, -8.2654157999354916e-001,
          2.0998311577524014e+000, -4.5848797926780066e-001,
          -6.1319881501841078e-001, -4.5227662313513918e-002,
          3.4365231461724416e-001, 1.1210149508075520e+000,
          -3.2914148415866262e-001, 3.4890400729636933e-001,
          8.6572422273569039e-001, -1.2216920373271944e-001,
          -4.4786334970037334e-001, 2.9096798197764989e-001,
          -1.7184844656589551e+000, -3.8643106363321539e-001,
          2.4981140171388583e-001, 2.2065684430874692e+000,
          3.6380032681286151e-001, 9.5444650728869138e-002,
          5.7795066012937713e-001, -4.5578320320296295e-001,
          9.8479936930087920e-003, -4.2818646198472649e-001,
          8.5995770068350830e-001, 2.8428716343390209e-001,
          -4.0133007914022384e-001, -7.9747434687497995e-002,
          4.0108246926709845e-001, -2.0248609619826452e-001,
          3.5573739380987029e-001, 7.0952239727046451e-002,
          2.2702529592894027e-001, -6.7862235088784650e-001,
          -6.8399037019409148e-001, 1.0547242139346673e+000,
          -2.0036412497815406e-001, -5.1943779893555198e-001,
          -3.8069100177025935e-003, -2.7543556734484400e+000,
          3.7737348321839470e-001, -4.6776154934158160e-001,
          2.5200826770905582e-001, 2.2928147876585570e-001,
          1.0812240876448395e-001, -2.8205342293593344e-001,
          3.1401750497571529e-001, 2.6042981961514183e-001,
          -7.8573914621733043e-001, -4.8374443251459681e-001,
          -1.4570646780352847e+000, 1.2212105989172777e+000,
          -6.6840531888337607e-001, 9.6901300739903851e-001,
          8.0714061648414859e-001, -5.0732048537741381e-001,
          3.3919810088076618e-001, 2.7960780293572141e-001,
          -4.2477970677362048e-001, 2.3904349892519960e-001,
          -3.4087664050344541e-001, -4.0778115845506807e-001,
          -1.2126859338993554e+000, 1.2568419848091597e+000,
          1.8282057577593975e+000, -2.0208633576048567e+000,
          -4.3980513120971287e-001, 1.1448413583146161e-001,
          1.6069998188248802e-001, -2.6263450605725169e-001,
          1.1098096889333309e+000, 6.3987570446466402e-001,
          1.0076153033249807e-002, -8.7457581760340519e-002,
          -2.0082309438026441e-001, 9.9010077932817142e-001,
          2.9463865650058367e+000, -2.6476609257455458e-001,
          9.2523034310953789e-001, 4.2984454616668238e-001,
          4.8150218350513596e-001, -4.9832968412020562e-001,
          -4.6797691939248870e-001, 8.3704024633241714e-001,
          -5.3585067672671205e-001, 5.7339035133198291e-001,
          -3.7975503483095197e-001, 2.3901186262409896e-001,
          2.7752363061279461e-001, -3.5105606661931861e-002,
          7.8425828558918206e-002, 4.9727104989247300e-001,
          2.0570655400541404e-001, 2.4625182520998001e-001,
          1.0216195434507134e+000, 2.6921299730686837e-002,
          -3.9158836901852645e-001, -1.5489597142233080e-001,
          8.3360246196056031e-001, 2.3982353333996331e-001,
          -6.6014897197996067e-002, 9.5433171003064299e-001,
          1.6277315133743964e+000, 9.5027678901206980e-001,
          4.9768008298670374e-001, -2.0563818625351740e-001,
          -1.4759419510390498e-001, -1.1519934985650004e+000,
          -3.9740646106223340e-002, -4.2838331176959421e-001,
          1.3390956413658519e+000, -3.1879321636667479e-001,
          5.4883655878951487e-001, 9.0986923516172458e-001,
          1.0294832674855948e-001, 6.0885991704889375e-001,
          7.4186935420685185e-001, 3.1438903742068935e-001,
          -2.4506939554603224e-001, -1.0577260742146757e+000,
          -6.1837810309987640e-001, -7.6757933895906372e-001,
          -6.0680589920412087e-001, 1.9402569366482528e-001,
          1.3112513547406321e-001, 3.9734984373303783e-001,
          3.4512403931117186e-001, -5.9964158714305182e-001,
          -1.7706487101723916e+000, -7.7847061949071183e-001,
          1.4862454424898733e-001, 1.1600695711111122e+000,
          -2.4465020745361665e-001, 1.5732873753568195e+000,
          -1.9166141243263002e-001, -8.8215534464810863e-001,
          1.8069593276481502e-001, 5.3610726956611054e-001,
          -2.1795178494222398e+000, 5.4127415908655212e-002,
          1.9302161733104495e-001, 8.3028844700619095e-002,
          3.3766923855569020e-001, -3.6161797236573073e-001,
          1.5441952837837528e-001, 1.1199299542415411e-001,
          5.7654684009706780e-001, -4.0049688526864202e-001,
          1.2880648188089047e-001, -1.8337151265458227e-003,
          -1.4059160676561721e-002, -2.6193733947080905e-001,
          6.7765429791334253e-001, -6.5191423015165206e-001,
          -1.6061847306606508e-001, 1.1167608290047848e+000,
          -4.6210910372540165e-001, -1.1987715657657545e+000,
          1.0867456046930803e-001, 9.2015555412552386e-001,
          6.4793426112585140e-001, -1.4585100250606201e-001,
          7.4433143606150234e-002, -1.0927232257630657e+000,
          -2.9092597809286252e-001, 6.7248334197024817e-001,
          -2.3345350514683244e-001, 8.4464930074359970e-002,
          -1.2225442908568504e-001, 1.4459661766932566e+000,
          4.5946808657355585e-002, 4.4385202733338985e-001,
          -1.6629353071153344e-001, 1.4238118781611466e+000,
          -2.9507567470802193e-001, -4.8253588657594404e-001,
          -7.8807531054132696e-001, 3.1785089606788081e-001,
          -3.4569346897700616e-002, -2.0884756470043322e-001,
          -9.7557819151826874e-002, 1.5848875286120717e-001,
          -5.6926277738806996e-001, -3.1837256359244998e-001,
          5.2704157572069077e-001, -2.1890943360138765e-001,
          3.2555366849226325e-001, 3.7371976208435120e-001,
          -1.7271909286764382e+000, 2.1355069247850172e-001,
          5.0823558844890859e-001, 3.8017734235084338e-001,
          -4.8494483677093614e-001, 1.1965156912260146e-001,
          1.3744508143343012e-002, 1.0140022091343283e-001,
          -1.0946015643855692e-001, -2.2865890816823875e-001,
          2.2074485262886318e-001, -5.4131091770065620e-001,
          8.9952714696990399e-002, -1.8996053823541825e-001,
          -1.6278196012020585e+000, 1.0172993656447253e-001,
          1.7944294327652652e-001, 1.1912529013873947e+000,
          7.4648417108536827e-002, 2.0622601155736239e-001,
          6.5878931429079501e-001, -3.1542141703522936e-001,
          -1.1735719805670017e+000, -4.6050104773901479e-001,
          1.1195775929252588e-002, 1.0555515847263426e-001,
          -1.3541560880843775e-001, -5.2320311655752527e-001,
          -1.1810577844157226e+000, 2.9419624061964984e-002,
          -8.3898880115153496e-001, 3.6447343545023048e-001,
          3.1495630546709746e-001, 8.2567331021656268e-002,
          4.5038489914254731e-001, -7.9487524727375991e-001,
          -4.6442284887436297e-001, -3.9505934692952799e-001,
          -1.9562621031589587e-002, -3.4787254997285177e-001,
          1.2229512913634755e+000, -7.4331488884136349e-002,
          8.4671048104217633e-002, -1.3138866500561928e+000,
          1.6720378850275968e+000, 1.2917674055744710e-001,
          -5.1280061298488389e-001, 5.2719687284605610e-001,
          6.3284287914055404e-001, -4.1497278255196263e-001,
          -3.0335958379534606e-001, -2.3808978695928409e+000,
          2.5586756971020591e-001, -1.2004236357805502e+000,
          -7.2241299469599660e-002, -3.9737739466748356e-001,
          8.2659291746017527e-001, -7.9503645068391068e-002,
          8.3432271782561851e-001, -3.0640806903614648e-001,
          -6.8919628405474653e-001, -5.9879257706041977e-001,
          -2.5795948454631890e+000, 1.0188379128567806e+000,
          -2.9392046104097819e-001, 1.7548873279501849e+000,
          -1.9716605518645985e-001, -6.9271960575923874e-001,
          3.6623383894407467e-002, 1.7324085172831505e-001,
          -5.8538010838663157e-001, -3.4409264133290718e-001,
          -2.8971590927614432e-001, -3.9679917361640693e-001,
          -1.0346389454545610e+000, 1.4761733682410891e+000,
          -1.7223438259501450e-001, -8.6503285220158488e-001,
          -6.7298316068875319e-001, 3.6314660544380994e-001,
          -5.6574216789855469e-001, 4.9472985040118223e-001,
          2.3559597108993713e-001, 7.5426475418766636e-001,
          -1.0553124647033559e-001, -1.5644104470634499e+000,
          -1.1388645007560101e-001, 5.9863925549923880e-001,
          1.3315053642810442e+000, -1.0213611896136104e-002,
          5.7357942171955989e-001, -5.7932814342298256e-001,
          8.5432808867008780e-001, 1.1860918238519665e-001,
          -4.8479577269219992e-001, 6.5329469939441154e-001,
          -3.4316752406336290e-002, 2.6182966915971922e-001,
          1.2109561219212971e-001, -7.6726008987477290e-001,
          3.1356903873940550e-002, 1.7985084964961773e-001,
          -7.0776248444675394e-001, 5.2006003701431558e-001,
          8.6381905942542103e-001, -1.5056707407404302e-001,
          1.0988156237952602e+000, -5.3591449730385243e-001,
          -4.9168836113201109e-001, -5.1105971756452662e-001,
          3.2234856093496528e-001, 7.7103546777708265e-001,
          1.3426611460828564e+000, 5.6877399888267433e-001,
          -1.1553989370146693e+000, 2.4080730166125821e-003,
          -4.1793020170815195e-002, -5.6155323807692718e-002,
          -3.6561636949809889e-001, -1.7127455225942947e+000,
          6.3770436220161364e-001, -1.8676746728736657e-001,
          2.6145633324364659e-001, -7.5278254188068638e-001,
          -2.2945497809898155e-001, -3.0975965996381444e-001,
          6.8831532650597593e-001, 5.3168168001747695e-001,
          -1.4281020720566587e-001, -1.2332202979538729e+000,
          -2.2659577804124881e-002, -9.0001168019639921e-001,
          -9.2523199405381484e-001, -6.1074621972864007e-001,
          -5.3181559768033604e-001, 8.5624380036084735e-001,
          -3.7562066878773481e-001, -4.4423135811961106e-001,
          9.3775343185686824e-002, -5.2643198155258197e-001,
          -9.0644540635826132e-001, -2.8044407880343025e-001,
          3.8045138455995497e-001, 4.2153382332583261e-001,
          2.6070387119415117e-001, 1.4379872066907609e-001,
          1.0265864573243741e+000, 3.5790923211524572e-001,
          9.7184467214806586e-002, -4.7601507613706801e-001,
          -8.4573031990001690e-001, -3.1266760323184478e-001,
          -3.2564109001647790e-001, 1.6223428733387590e-001,
          -1.7014373583556558e-001, 3.7997093585248987e-001,
          -5.9728347468745779e-001, -3.7543866251062802e-001,
          -9.6307462764280571e-001, 4.5318065076059955e-001,
          -2.7039538809294994e-001, 3.5910801637667639e-001,
          5.6277179460350546e-002, -1.6303594602389887e-001,
          -7.2199727047706974e-001, 2.9405344813660200e-001,
          -3.0541336483752168e-001, -3.0802927071011021e-001,
          6.7617618250834821e-001, -9.7076553024278811e-001,
          -4.0978948740745430e-001, -2.6822162502783026e-001,
          2.6445543685392364e-001, -1.8532549818912636e-001,
          -2.8610382401211134e-002, -1.3636885516193165e+000,
          -4.0657296466058146e-001, 1.2393954907534528e+000,
          -3.7409897344642679e-001, -9.3318667444821701e-002,
          -4.7119695646326631e-001, 2.4306782455184539e-001,
          1.7971106560321698e-001, -8.7044575041436562e-003,
          -1.0697142465568976e+000, 1.1604765808911675e+000,
          1.4880905185040587e+000, -9.8334732546233160e-003,
          -5.8542517947504047e-001, 4.5593139000765898e-001,
          -4.1488417134629785e-001, 4.8137040131099035e-001,
          -8.2715778704904341e-001, -2.6010305166361430e-001,
          1.4534645033242241e-001, -3.3038193489220902e-001,
          4.4519716966503220e-001, -9.9398489175945466e-003,
          2.4747371172673219e-001, 7.6811955830846365e-002,
          -8.6084758616351154e-001, 8.5986311063924248e-001,
          -6.0112091604216440e-002, -1.5665406125010151e+000,
          5.7377631172570942e-002, 6.3754341287363159e-001,
          -4.4740627367918950e-001, 1.5429488157722857e-001,
          8.3435014504140870e-001, 7.2716676323309171e-001,
          -3.8111605928868447e-001, 1.2280928913774046e-001,
          -3.8116923534903308e-001, -5.4801253092141955e-001,
          -1.5241947319481504e+000, -1.2988033824662268e+000,
          -1.0324763448376171e+000, -5.0892090824577285e-001,
          -6.4721761781061660e-001, -5.1646164005786444e-001,
          3.6052092778441758e-001, -3.6790924063800795e-001,
          4.0127148609897850e-001, 2.9477171972459770e-001,
          -9.1581943464465432e-001, -8.4835854369870767e-001,
          -3.6780860351100682e-002, -3.3339735497062073e-001,
          4.5721159569528179e-002, 6.0942011745194868e-001,
          2.0062320779676623e-001, 1.6677868833131335e-001,
          -6.8284124668263291e-001, 2.5061796254181712e-001,
          -3.1855498436539770e-001, 7.1237647313646102e-001,
          -6.3883863096567606e-001, -1.7311521591649121e-001,
          -4.1043127814465681e-002, -5.1150804988105858e-001,
          4.2798758022751582e-001, 8.5439143208822643e-001,
          -4.9034448660168192e-002, -2.3345790020941079e-001,
          3.5029529382597491e-001, 1.8382216340803129e-001,
          4.9397255110393223e-001, -2.3019571539791134e-001,
          -2.4093972080205958e-002, 2.6185003469142759e-001,
          -1.0118906371667606e-001, -2.8641551996737946e-001,
          -2.4196722750176241e-002, 2.8032521821609391e-001,
          -1.3622552109737941e-002, 3.5158735563711246e-001,
          -3.4663778584027566e-001, 2.8193085597455467e-002,
          -1.6815635468479098e-001, 2.2455360974778535e-001,
          -1.5169999744724964e-002, 3.9017120870354455e-001,
          -2.1279199069434078e-003, -4.2416317331535275e-001,
          1.5011683343038973e-001, 2.9155790602990755e-001,
          1.6704722155348747e-001, 3.1198511967778653e-001,
          2.1646826528499027e-001, -5.2444772597436073e-001,
          5.0714727994625189e-002, 4.6304989663538521e-001,
          2.6393999531710588e-001, -1.9179102426172123e-001,
          1.4782177382674197e-001, -4.0950797609236522e-001,
          -2.3642753833489413e-001, 1.5663574100731636e-001,
          5.1281917317385894e-001, -1.4602136500961774e-001,
          1.7815518093277607e-001, 3.7705849656237522e-001,
          -6.8273896949426219e-002, -2.8685529182272174e-001,
          -2.6520233657285153e-001, 1.1028985259473280e-001,
          8.0861633489988938e-001, -1.4976403669297408e-001,
          1.4911111285085188e-001, 2.1603395404695286e-001,
          -1.5994130953121444e-001, 1.2246337458763397e-001,
          -2.1689260243206321e-001, 2.8836228163806316e-001,
          -3.2649027446126150e-001, -4.5803798125126680e-002,
          4.5824402001687942e-001, 1.1462742176950769e-001,
          9.7831748360959925e-002, -2.4116233742489646e-003,
          -6.8928036499663237e-001, 1.9746295250349638e-001,
          -8.5898022857993986e-002, -5.5303603825809389e-001,
          -2.2586208649618414e-001, 5.9253139235499752e-001,
          -2.1908694826333761e-001, -1.3992400425206086e-001,
          2.0135451191677911e-001, -7.8120249060478306e-002,
          -2.5604593415418941e-001, -3.5571485201674991e-001,
          1.3028787005114933e-001, -3.1338968686067026e-001,
          -7.9597786323962305e-001, -4.7320010750433311e-001,
          -1.2338358059641351e-001, 2.8075550866693083e-001,
          -3.6104674155710240e-002, 3.6919686760487083e-002,
          1.3711304438402183e-001, -6.0445411055085670e-002,
          -1.1187892950888460e-001, 4.3033051428365132e-001,
          -3.1509163611211466e-001, 1.0852516906470808e-001,
          -1.5003069086528006e-001, -6.4875311509882250e-001,
          -7.8194267907462436e-002, 9.5694686888138883e-002,
          -4.6786191614408068e-001, 4.1866357916987416e-002,
          1.3702745131957289e-001, 5.0723772894984004e-002,
          3.6641826353463286e-001, -4.1867668298755367e-001,
          -4.6399675242139232e-001, 1.1021427401127906e-001,
          -6.9328130799985330e-002, -3.9424398073395578e-001,
          -1.4465878931453807e-001, 5.8867532342401307e-001,
          -2.4116309976742417e-001, -5.1044835782174980e-001,
          6.3884821434249964e-002, 4.5223109312868298e-001,
          1.2103440280949651e-001, -2.8343683052487439e-001,
          3.0347713245924685e-001, -4.5367805393597103e-002,
          -1.0153126993398230e-001, -5.9977098898265202e-001,
          -1.7853818880077016e-001, -1.8848395918470462e-001,
          1.5144973101191672e-001, -2.4255963356613272e-002,
          -2.8643871329526804e-001, -6.7918197447767170e-002,
          -5.3969384159310430e-001, 2.2628524482752899e-001,
          8.4421850911828467e-002, 4.7860095455674506e-001,
          2.7566890395951488e-001, -3.2400235370466152e-001,
          4.5527034981232611e-001, 4.3136123726369974e-001,
          1.1928183082834937e-001, 6.9942605514683076e-001,
          2.3189633574997040e-001, 4.1975936608796616e-001,
          -1.5004458775146542e-001, -5.1262811517369244e-001,
          4.7875876823337452e-002, -9.7968095970635036e-002,
          -4.4021651734167089e-001, -3.6949701299980549e-002,
          -9.6493373267245275e-001, -3.9589389603930286e-001,
          -9.7434477017215623e-002, -7.2918664511103418e-002,
          3.6130930058878720e-002, -2.7724455254490368e-003,
          2.3356365521621614e-001, 1.5069953542294570e-001,
          1.1557126239876607e-001, 1.6649441198329840e-001,
          4.0296803724026337e-001, -4.1328169213608335e-001,
          -2.3112935419719702e-001, 2.5548657574824429e-001,
          2.8457638276906772e-001, -1.9648940578765881e-001,
          -2.9032998798702164e-002, 7.7648362795236223e-002,
          -2.9914144228743181e-002, -2.8249560584473538e-001,
          3.4190508204547873e-002, 4.2568564788769178e-002,
          2.9394273870207949e-001, -1.1142979484892815e-001,
          3.4648427740468096e-001, 3.4682647895830682e-001,
          1.8812317435735384e-002, -4.8772272757378793e-001,
          -3.3870549908487041e-001, -1.3601380878960678e-001,
          -2.2215122985850150e-001, 1.4471237755697652e-001,
          -9.6962039643059911e-002, 2.5906057862838094e-001,
          -4.3780023378957478e-001, -3.1368592818144614e-001,
          3.6887909269000685e-001, -1.2975049772446043e-001,
          -1.0699853965476649e-001, -7.0648054478565692e-001,
          -6.9513612546313774e-001, 2.7285437121523842e-001,
          -4.6476114752688175e-001, 1.5011240770177883e-001,
          2.5599502246464623e-001, -3.1533481495460586e-001,
          -5.2762478807286306e-001, 2.4450593028511389e-001,
          -5.6441165398622228e-001, 1.6886875696517456e-001,
          -3.6593570332415859e-001, -5.8453554565113409e-003,
          -6.0221731499669799e-002, 1.2356869098633291e-001,
          1.5840360178297291e-001, 5.3449475082670894e-001,
          1.9719270313408949e-001, 3.1964631095263851e-001,
          -1.5623701648836483e-001, 1.5871783416714433e-001,
          -4.6066710361960805e-001, 2.9144786633543412e-001,
          -1.2011956268579574e-001, 3.1899628931708675e-002,
          2.3212369842784292e-001, -1.7131913507628946e-001,
          -2.9676868757549174e-001, -1.1801865993944467e+000,
          -2.8161431505774326e-001, 1.9496004591065408e-001,
          1.1374320820344143e-001, 4.1203138283250715e-002,
          1.1004310470055061e-002, 2.9477366963333657e-001,
          -3.1426376819625107e-001, -2.9405522900076791e-001,
          -2.4279953717261486e-002, 1.9236717717055268e-001,
          -1.3209358495784443e-001, -1.3428510009373518e-001,
          1.0301198410461240e-001, -1.3333362362185525e-001,
          1.0087081592880370e-001, -1.7366787892474098e-001,
          8.2020139866854663e-002, -5.3049944181522042e-002,
          1.3970251958650123e-001, -5.1390897283211168e-001,
          4.9650054922007725e-001, 2.3716471694485066e-002,
          -2.0215965062309699e-001, 1.1472060113673919e+000,
          1.3353173765137805e-001, 3.2972625959782442e-001,
          -7.9960482517747372e-002, 5.6579417895148176e-001,
          3.7713497777175287e-001, -1.1051613341189369e-001,
          -2.2665317153501693e-001, -9.3106614510715599e-002,
          -3.2210462895665293e-001, -3.8586598040144471e-001,
          1.9282345235164614e-001, -8.8346163356298774e-002,
          4.0383735308051960e-001, 2.3674488794988802e-001,
          2.3240128429288937e-001, 6.2802146328182609e-002,
          2.8448555220180644e-001, -8.3624005965709500e-002,
          -1.6604107796848883e-001, -3.2295630837337308e-001,
          5.6211459668459335e-002, -1.8150572964741382e-001,
          2.5226139693300040e-002, 2.3174859017773952e-001,
          8.0345212291745585e-002, 9.4363186995897907e-002,
          -5.6945563767405161e-001, -3.8640786764558499e-001,
          1.0007406119964377e-001, 1.8842263869515985e-001,
          -4.8826217873553839e-002, -1.3658737152080266e-002,
          -1.0050114991203264e-001, -3.0682536451996489e-001,
          1.9259478302139019e-001, 5.2308549209872601e-001,
          -2.8268286198606721e-002, 6.1534033867969816e-002,
          2.1051941936296029e-001, 1.1361602917900988e-001,
          -1.2220134820618800e-001, 3.6773680022230026e-001,
          -1.2812654577459495e-001, -4.3101646799738008e-001,
          -2.7337075583829147e-004, 7.5007093299922917e-002,
          -3.8785137039444589e-001, 4.2775106115998512e-001,
          -1.6348612688008628e-002, 6.9003166095387647e-001,
          -1.8039298966504808e-001, -1.4597904684732280e-001,
          2.5384808665099606e-001, 1.3497452286149519e-001,
          -3.2256615108460468e-001, -1.3919619716403229e-004,
          9.0129629422760399e-002, 1.2649268967188590e-001,
          -2.9051395158919857e-001, -1.5142244206795805e-001,
          -2.3560246528341078e-001, -1.4337201305473496e-001,
          -3.8393258703127270e-001, 5.0022310019902194e-001,
          4.9425567167183321e-001, -1.7805858245520675e-001,
          2.5891615671392326e-001, -3.1462058801910248e-001,
          4.6610424961169038e-002, -1.4177540224632934e-001,
          6.3538466427774720e-002, 1.3580264004958154e-002,
          1.4220968133163677e-002, -3.8936599160629389e-003,
          -1.7012072058997599e-001, -9.6161355318999409e-001,
          -1.5695064796986022e-001, -1.5614608474764397e-001,
          1.1108632445392583e-001, 1.0805963313817936e-001,
          1.8028116698672453e-001, 1.6722561710607384e-001,
          7.6807637573640579e-003, 7.5842444096764508e-002,
          2.2676502424064701e-001, 1.0663771427831908e-001,
          -3.5202243926893390e-002, 5.0204217635862421e-002,
          -2.1151834420851737e-001, -2.8508640977351576e-002,
          -2.3634975907548708e-001, 1.4407244502363292e-001,
          -1.0927458791731600e-002, 2.8596923535615184e-002,
          2.4028855193082600e-002, -6.4462763556393826e-002,
          5.6666910935635112e-002, 8.0333077398994826e-002,
          2.3928696158915661e-002, 6.7057931592105005e-002,
          4.2107328957572202e-002, -1.8315250043925101e-002,
          -1.4478842191719973e-001, 4.2498860832018800e-002,
          2.4630798443411425e-002, -8.9051223830591386e-002,
          2.1567049624634022e-001, 9.1646552807916754e-003,
          -2.8002013756843060e-002, 1.4897761560153924e-001,
          5.3977535172457208e-002, -5.0658085482076898e-002,
          8.6323045705219550e-002, -3.9083839048256915e-002,
          -1.9606811740154792e-001, 5.4292140092121514e-002,
          -2.5202547562757888e-001, 2.4597126644295444e-002,
          1.4904400278581476e-001, -1.3540177187538768e-001,
          1.0374956338793695e-001, -9.7060836046913471e-002,
          1.8158281224368456e-002, 1.8036258388882512e-001,
          -1.7158367334255284e-001, 1.3553986110596150e-001,
          1.1151355043093472e-001, 2.8517177890210250e-002,
          -5.2264288396264937e-002, -1.9976911498521216e-001,
          -7.7870722837293785e-003, 6.6719513131445138e-004,
          -2.3523610823702551e-001, 6.7514189248873068e-003,
          1.5339364188007065e-001, -2.1957714795912628e-001,
          1.3391475488563103e-002, 1.9007978511279186e-001,
          1.0757637164437213e-001, 1.0512305639163266e-001,
          2.6029607603290639e-002, 1.2433874070406387e-001,
          1.5237387896555573e-002, -5.4831673451308904e-002,
          -7.7805312990333150e-002, 2.6632049726421973e-002,
          -2.6959243650000009e-001, -4.7697081954000256e-002,
          -9.8595859358680857e-002, 9.3560494607059577e-002,
          -7.3076026176639192e-002, -6.3093503179435573e-002,
          -1.0724532299784140e-002, -5.5023266889886707e-002,
          5.7320809679606670e-002, 1.0965836444188347e-001,
          -1.0804643492742169e-001, -1.5781648364248835e-001,
          -2.1933889229768270e-003, -2.7993321363315182e-001,
          -1.7217060766645562e-002, 8.9979169374994616e-002,
          1.1443412537881904e-001, 1.2042639982888176e-001,
          -8.6917682973902313e-003, 1.4582188042074859e-001,
          7.9915233322989360e-002, -1.0938306046509340e-002,
          -3.8473628190744805e-002, 9.2424324878999625e-002,
          8.2873672921751115e-002, -2.1946204219355378e-001,
          -2.3886555238354643e-001, 2.0440471376898400e-001,
          -6.6878685226445050e-002, -3.7017467210825189e-002,
          -2.2711262305914276e-001, -7.1942940828622390e-002,
          2.4316583559230252e-002, -2.9580254370703156e-002,
          2.2304083824181062e-001, 1.4652908401101999e-001,
          7.0883781800506959e-002, 2.2016324318665063e-002,
          2.3308904721089166e-001, 3.0670012910966424e-002,
          1.0773693684113022e-002, 9.9527080945938096e-002,
          -1.5188845647471130e-001, 7.4896177737848013e-002,
          1.0563087421432393e-002, 2.6794727390957185e-001,
          8.6350950382181935e-002, -5.3632246684649096e-002,
          -4.4554100901504655e-002, -2.4185085619973862e-001,
          -8.5076178507442465e-002, 2.0070459359631265e-001,
          -1.0042220052648219e-001, 4.3042930258703582e-001,
          3.9715610619011749e-001, 3.0369332611549026e-002,
          -2.0258746044484346e-001, 2.8982490569225433e-001,
          2.0267824531312456e-001, 1.0460730543454104e-002,
          1.1438189807617453e-001, -6.3020490386608646e-002,
          6.0600493731257643e-002, 3.1964999523909660e-002,
          6.7965491416211608e-003, 1.1787925334692670e-001,
          -6.5884690278592228e-002, 1.5628202530646332e-001,
          1.1453929667661530e-001, -1.7944601107136113e-001,
          -1.2187413740564401e-001, -1.6844947987132391e-001,
          6.5771322226719262e-002, 1.4727822608569842e-002,
          -6.5354407422455480e-003, -2.0783591704002780e-001,
          -8.1195957843186853e-002, 3.0102903455293267e-001,
          -1.2442631513982676e-001, 9.1617943398682160e-003,
          1.4501265143427788e-001, -1.3662994679526888e-001,
          1.7869596948882724e-001, -1.0470351588398921e-001,
          1.2002354368078234e-001, -1.0009147806290290e-001,
          -2.1873734280800003e-001, -2.6429258225624110e-002,
          1.9943339744355379e-001, -1.1696503027493610e-001,
          1.0873215232730107e-001, 2.9012929593394243e-001,
          -1.0965958397470693e-001, -1.0883525261373490e-001,
          1.6934593821409408e-001, 2.0570659358985943e-001,
          -1.8669607248310335e-001, -2.1177530232128491e-001,
          -1.4130078789568809e-001, -1.2830743738953015e-001,
          -2.4124563490919798e-001, -1.0224449624146603e-001,
          5.4605416650509657e-002, 1.2863351580430088e-001,
          -1.6426610915955425e-001, 3.2000663731322369e-002,
          1.3886443241388288e-001, 1.7904846196634152e-003,
          -2.6652715052895053e-002, 1.7489676083976610e-001,
          -7.1822746520409670e-003, -1.6626791866833365e-001,
          6.8008654620415054e-002, -1.7948663385033395e-001,
          9.3422611626962221e-002, 1.7248171980495361e-001,
          1.5120122329153086e-002, 1.5092445740456539e-001,
          1.1516361161700880e-001, -1.6651877532624401e-001,
          1.3403121641470342e-001, -1.1019366549994314e-001,
          1.3748372586844895e-001, 6.4784325532968867e-002,
          -2.2755795081503460e-001, -3.5354709420749864e-001,
          -1.3342179296684484e-001, 2.0013360670504537e-001,
          -2.1278027816233833e-001, -3.7792302877925865e-001,
          5.4850945279946384e-002, 1.1471200746136245e-001,
          -5.4120883952249281e-002, -5.4163624351917142e-002,
          -6.2793457881600873e-002, 3.8734435234711456e-003,
          -8.3900073858345123e-002, -8.1736563476283983e-002,
          -1.8489696539911771e-001, -8.5924925880812533e-002,
          -7.1226769704012344e-002, -1.3316784948857016e-001,
          -2.4291990161984665e-002, -5.8456607616010092e-004,
          -1.3896794038182529e-002, -1.5319987479593044e-002,
          9.1712820566771644e-002, -9.4137117801659190e-002,
          1.0074795299796431e-001, 6.2258926238421747e-002,
          1.2174175901954663e-002, 4.1147633784285188e-002,
          -3.6508959244087584e-002, -4.7965155504576017e-003,
          5.8987184903090066e-002, -3.4726764455195812e-002,
          -8.8534323336637716e-002, 6.8302636574256198e-002,
          2.6624391548533358e-002, -3.3033558076758104e-002,
          2.6903009604788385e-002, 9.1939441658177731e-002,
          -2.2507916132890646e-001, -1.3226121714067646e-002,
          7.6856886833010729e-002, 1.1144074561889607e-001,
          1.3853987925166091e-002, 7.3532040760528522e-002,
          -2.8408877363203768e-002, 1.0517040123688609e-001,
          -6.8794016297152134e-003, 1.5564687091027853e-002,
          -1.0366532175249228e-001, -5.9441736242537513e-002,
          -1.2769954497541768e-002, -3.4952170579329067e-001,
          -3.9672485968796481e-002, 1.2655989510978871e-001,
          1.0940771270093224e-002, 1.0123447968967320e-001,
          -4.9963211497915883e-002, -1.1630866541814149e-001,
          -5.8957840929396627e-002, 3.2281986958483840e-002,
          -3.4939618395109827e-003, 4.7537808016292565e-002,
          -1.4613306830768366e-001, 2.1356941509327587e-001,
          -4.5373855974286115e-002, 5.4302776626965837e-002,
          1.6927222217232157e-001, -2.2722938260130197e-002,
          7.2619417026601307e-003, -4.2677996205385177e-002,
          1.6658525841297858e-002, -2.9928766663838077e-002,
          -3.5303019857967965e-002, -1.5322056692809641e-001,
          3.1708229591254446e-002, -1.4010992136603653e-001,
          6.6513446339769522e-002, -4.3833554563105379e-002,
          -2.8745773150768533e-001, -1.2413245287328796e-001,
          5.4906793658414006e-002, -5.4188635472601741e-002,
          2.9239698245635829e-002, -1.6520984701990188e-001,
          5.7101326932583456e-002, -1.0537531697879358e-001,
          8.9892967012329156e-002, -7.3373035952310817e-002,
          -5.4544601898323379e-002, -1.0819770915142624e-001,
          -5.5986131070355452e-002, 7.3204005754070912e-003,
          -1.0165144625449253e-001, -8.6963020807943631e-002,
          5.1425714912360511e-002, 4.8067104319519410e-002,
          5.2378082818309690e-002, -2.5600296441706943e-002,
          1.2303751565145367e-001, 1.5306088963303480e-001,
          3.2616422226358091e-002, 5.8184459418432317e-002,
          -2.6574221908037363e-002, -6.2204263444894121e-003,
          -5.3823703761016077e-002, -1.0855436106990949e-002,
          -2.1173547646588462e+000, 9.1232827094919278e-001,
          -8.8799478833318701e-001, -4.7370695368895654e-001,
          -2.1874157832079416e-001, -1.1428716763358384e+000,
          -6.8186276421873804e-001, 2.0366696995473941e+000,
          -4.3349221250594361e-001, -4.7480572338212790e-001,
          1.7894626257835364e-001, 7.2043350638461956e-001,
          4.7792262168553618e-001, -1.1091213980617898e+000,
          3.0410234146482612e-001, 8.7139827384692448e-002,
          1.8614828110260412e-001, 3.6854806731212392e-001,
          -9.7474364106826153e-002, 1.1379963186696458e+000,
          -2.3255064437211453e-002, -1.7793464218975366e+000,
          -3.1683414527422454e-001, -1.0182341322719854e+000,
          4.0162916887512984e-001, 6.7493903891257012e-001,
          2.2018055299333041e-003, -1.0320577627955445e+000,
          -8.6428710444503454e-001, -1.2616790473467737e-001,
          -2.4856023513053985e-001, 8.0393001987600610e-001,
          6.8489683209604113e-001, -9.3365376249714291e-002,
          1.4412171735745319e-001, 1.9170776875736531e-001,
          1.3049738213202258e-001, -4.1613030678170099e-001,
          -3.4728364343987012e-001, 6.6554468511463127e-002,
          1.5575003395468370e-001, 3.1819110435852377e-001,
          -1.0816105032399599e-001, 7.3011502825081520e-001,
          -1.1145864429172883e+000, -9.4934128955601133e-002,
          7.7327614198064012e-002, -1.3607327145711928e-001,
          6.4463425968888333e-001, -4.0439479767444836e-001,
          -3.8499060287189281e-002, 4.3817629281280540e-001,
          -3.4231580923381527e-001, 1.7515899945484023e-001,
          -3.2420430106226439e-001, 1.8503638370663519e-001,
          -2.2371424258119843e-001, -7.1674600106920960e-001,
          -7.5819879117194885e-002, 8.5805838403727297e-001,
          4.7600449875782574e-001, -6.1476826483713876e-001,
          5.4290500362780569e-001, 4.0896023319679274e-003,
          -4.4939761778428422e-001, 1.3918083367154273e-002,
          2.9593368168174111e-001, 7.4527772545632509e-001,
          -1.1168770273095805e+000, 5.3698459296573486e-001,
          1.8650775065835350e+000, 3.3547782447353813e-001,
          -1.0764598280827554e-001, -6.9211834294149255e-001,
          -6.2453525116063924e-001, -3.9004318834965612e-001,
          -8.2839527139369196e-001, 3.5817124548895202e-001,
          -6.1120896608208963e-001, -4.3427878575458539e-001,
          -1.2248096067981547e-001, -5.4828151935695513e-001,
          1.0789583197383833e-001, 1.3839156826100534e+000,
          -4.2913644082110264e-001, 2.0237599578944576e-001,
          3.0652106538269619e-001, -1.0362541207697351e+000,
          -1.0875470734041166e+000, 7.0699789719357087e-001,
          -5.9108977371301208e-001, 8.2251526678505860e-001,
          -5.0345654615932811e-001, -2.1177171097231759e-002,
          1.0172176307062850e+000, 4.1505584473954055e-001,
          1.6178150381627894e+000, -1.0116183476906659e+000,
          1.2457939698809817e+000, 2.0178245577321485e+000 ]
      - [ 1.5380564090589785e-002, -1.5526479453913994e-002,
          4.1087575990641313e-002, -1.9422151152132930e-001,
          -1.3956927274501463e-001, 2.7407746012797985e-002,
          -2.8852901514423090e-001, -1.1470486337627830e-001,
          7.4589334616933678e-002, 2.3910630244906111e-002,
          1.3265447002790203e-002, 6.3691937942597740e-002,
          -6.1238349696074230e-002, 3.3068771490276661e-001,
          -6.0622844741455191e-002, -3.0855105614454109e-001,
          2.7000548640549286e-002, -6.8493455055832667e-002,
          9.3085092751079568e-002, -1.1952078980473002e-001,
          4.3249749543135674e-001, 1.9289895664900331e-001,
          1.3265831185744523e-001, 7.5136083817565771e-002,
          -1.9010362880068574e-001, 3.2010672109355509e-001,
          3.6013782459620079e-002, -1.4142422417489681e-001,
          2.0064341550486978e-002, 3.4601034935015712e-001,
          5.3687236916194918e-002, 1.0525590678129672e-002,
          1.2630060642895002e-001, 2.4463566285929489e-001,
          -6.1621246236510302e-002, -2.4355557686552501e-001,
          -5.8618125406143778e-002, -6.0082458992100532e-002,
          -1.6456212399102066e-001, -3.0360668471591985e-002,
          -2.1826286687036175e-001, -4.4346266386691341e-002,
          -4.4034605145111198e-002, -9.9441491544006846e-002,
          -1.3393855914216762e-001, 3.3058598459031674e-001,
          6.8934201298360517e-002, -2.8729680642117783e-001,
          7.8954069089261447e-002, 2.2405601155843302e-001,
          -1.7360901631791742e-001, 1.6515517638939511e-001,
          -3.8950673020933274e-001, 8.6501927216059385e-002,
          4.0569673903048442e-002, 9.5717362402015824e-002,
          -2.0192728429331879e-002, -4.0293803333924089e-001,
          -1.5792046136254723e-002, -1.0309788792051498e-001,
          -3.8681723725850291e-002, -3.4398934794530579e-002,
          -9.6950475852169135e-002, -3.7200616906017663e-002,
          4.4089815607578034e-002, -2.1108311048518548e-002,
          5.1848752581820257e-002, -2.5241908795506366e-005,
          -1.2094469559806290e-001, 1.7347050857473556e-001,
          -7.3140698312960162e-002, -1.8642168405336612e-001,
          2.1415053812914675e-001, -1.5016956751280966e-001,
          -2.3081322303827340e-002, 1.3859719681412416e-001,
          3.8566814212183179e-002, 1.8353742927769806e-001,
          -3.0684792346999230e-002, -2.0015084947929876e-001,
          9.6435951459799218e-002, -1.7350182226886590e-001,
          -1.4450616330717792e-001, -9.8158910069670313e-003,
          -1.6660547954023791e-001, 2.6047001126686531e-001,
          -6.9643509289629951e-002, 9.7547574049962390e-003,
          -3.5670345757123739e-001, 1.1637040562640721e-001,
          2.5229231472752720e-002, 4.7612331127894050e-002,
          2.4675197132536386e-001, 2.3701898068925292e-001,
          -3.0638052607117161e-001, -1.7121010769570660e-001,
          2.4677500094484092e-002, 2.8880701591611154e-002,
          2.1497832519467669e-001, 3.3167199299951416e-001,
          1.1142996767023430e-001, -3.9267138102688365e-002,
          -4.9123993832353378e-002, -5.9489691191341967e-002,
          -6.9770204630314414e-002, 1.0623833103056257e-001,
          -2.6161587540337639e-002, 2.7936054585266579e-001,
          7.5196875922975215e-003, -2.3719759449728212e-001,
          2.6111156545612069e-001, -3.5750082329443783e-001,
          3.3974727428922236e-001, -2.0385687882406703e-001,
          -2.4446589379152048e-001, -6.0529456634463175e-001,
          -3.2405359889926627e-001, -5.7989193703547791e-002,
          -1.1124587743020442e-001, -1.9337793501034126e-001,
          2.2501933095663292e-002, 1.4867859059722613e-001,
          -3.1626093729515303e-002, 5.0244486133589908e-002,
          -4.3508731167531456e-002, 1.9947094598604245e-001,
          -1.0637492286070355e-001, -1.1570619280427323e-002,
          -1.9554007187742159e-001, 2.1487508948465170e-001,
          2.1879417004005169e-001, 1.6989645141062343e-001,
          5.2749528505300167e-002, 4.3101898705565515e-002,
          5.4723900066113253e-002, -1.5460135886234289e-001,
          -1.3640765751874137e-001, 1.3517941965012215e-001,
          3.3826660502633346e-002, 5.2922205682538262e-002,
          2.2494745791460272e-001, -1.1192104799857595e-001,
          1.0518648327679346e-001, -4.6393264586549882e-002,
          -9.6959242440600904e-002, 1.6630812222015803e-001,
          3.6234636592823455e-001, 7.3030272401477747e-002,
          -1.1886125465507134e-001, 3.8315911523589652e-001,
          -1.5677116015087922e-001, -6.0290531701136005e-002,
          -1.4245844614387662e-001, 6.3224483876884077e-002,
          2.6482022982649384e-001, 3.5135631775355891e-001,
          -4.0813895104575275e-002, 9.3037158861810132e-002,
          8.1540936810163112e-002, -2.0981945075365785e-001,
          3.2784382994424122e-001, 1.1052842331261803e-001,
          -8.7484545257830462e-002, 7.5667708936109968e-002,
          -7.1400713080269379e-002, 3.8140904841204063e-004,
          -4.4409912376142738e-002, -3.4095582686579884e-001,
          2.8600737608035581e-002, -6.0354339887896194e-002,
          -3.0737413327944502e-001, -1.1487151423192099e-001,
          -1.8858476749963010e-001, 3.4674960454373724e-002,
          -2.8288510521390199e-003, -1.1881391815501392e-001,
          -1.7202810377645381e-001, 2.4103263697502386e-001,
          4.5107359269268982e-001, 5.9806384123336997e-002,
          -4.7788596407844336e-001, -5.1631854360956818e-002,
          2.2752761433610852e-001, -9.1587959897064572e-002,
          2.8429348319973513e-001, 1.3501226147974149e-001,
          -7.3571976505662301e-002, 8.0056346049553015e-002,
          -1.4684678388592906e-001, -1.5801122854323715e-001,
          -1.0157803315508906e-001, 1.4261745885340430e-002,
          -9.8911439794902536e-002, 1.5803581273942106e-002,
          -5.2990702834335428e-002, 2.0285870082212945e-001,
          -1.9814199254641358e-002, 3.4623298880738382e-002,
          4.2170741982117947e-002, 7.1160567650955533e-002,
          -6.7733315966416630e-002, 6.1253948456138442e-002,
          3.3210138357915329e-002, 1.4351393454999833e-001,
          -1.1053057311123528e-001, 8.2408307014745965e-003,
          1.1423909342990470e-001, 6.7039430721987911e-002,
          -4.6486254632953479e-002, -4.4407013058521275e-003,
          4.1404247556865406e-002, 2.1976534374583065e-001,
          3.1508509734040471e-002, 2.2788453910731724e-001,
          -2.7849126898687369e-002, 1.6260818300515512e-001,
          7.2623610579537742e-002, 1.1162155630417130e-001,
          -3.7408007863346415e-002, -8.6866043248542940e-002,
          2.1683569504176503e-001, -1.2038464383024436e-001,
          8.2856728894631124e-002, -1.9123782726666530e-001,
          8.9204671631030102e-002, 6.1280730650048285e-002,
          1.5599285966923798e-001, -6.7657314021462814e-002,
          1.1716966513848126e-001, -2.1785544735303846e-002,
          -2.3138594942714370e-002, -7.5398567031306651e-002,
          4.0613466689165281e-002, -2.0027549831975217e-002,
          1.6405403292507295e-001, 2.4737434461523038e-002,
          2.4480474298505538e-002, -6.0390651416965646e-002,
          -2.1680367118542209e-003, -2.9767141685455054e-002,
          -2.3034455575446525e-001, 1.8890892625914224e-001,
          -6.8632432945683358e-002, -1.6977237073502011e-001,
          -4.0770977954743007e-002, -1.6847790710147001e-001,
          -6.6533761406007308e-002, -3.6720733413699531e-002,
          -6.4481453192939381e-002, -3.3513419602029179e-002,
          2.0396385237494011e-001, 8.0413204407124989e-002,
          1.1319092113663594e-001, -9.4668409004284304e-002,
          2.5823913626400217e-002, 4.7411933085429105e-002,
          4.5477205940631468e-002, -1.4443105954688046e-001,
          -9.7299967175400306e-002, -8.6453183507505901e-002,
          -2.2083585690341564e-001, 1.7695621392785141e-001,
          2.1172581888133565e-001, -1.9639346591570783e-001,
          -1.1358035783643231e-001, -1.2700204332355865e-002,
          3.3001876785281812e-004, 2.4080722367616089e-001,
          -2.7573303433400607e-002, -7.2090077757364507e-002,
          1.6252260344178104e-001, 3.8487714204003119e-002,
          1.0459197825909887e-001, -5.0997417253810108e-002,
          5.7248197479234347e-002, 2.7113003184940832e-001,
          9.0122437062521696e-002, 3.4885691499902654e-003,
          -7.7106885478893716e-002, 1.6315617012362929e-001,
          1.3605105026929232e-001, 4.8436590498800954e-002,
          1.2638106254786993e-002, -4.2976871308969627e-002,
          3.5074785430527840e-002, 1.6674318648404760e-001,
          5.0541477707252584e-002, 2.4055538252913414e-002,
          -4.5228342709664804e-002, 1.0439262251358374e-001,
          6.8186485937715591e-002, 2.5881019209136720e-002,
          1.0657011886701694e-001, -5.5227295501892745e-002,
          -2.9225800344605918e-001, -9.8917616014170567e-002,
          -1.4524739520571839e-001, 6.4903268454032478e-002,
          -2.8300377722853261e-002, -1.0747429366091733e-001,
          -3.2258967236353048e-001, -1.2385052193820921e-001,
          -2.5181389207541072e-001, 2.5595956127517767e-002,
          -6.6437773535539632e-002, -4.6325265837343747e-002,
          -5.8735416297184415e-002, -2.7750326150949989e-001,
          -1.4058227876050333e-001, 1.3953183502533295e-001,
          -3.2569316648487134e-001, 3.1800634793607968e-001,
          1.4574876669982629e-002, -7.3883010509980180e-004,
          1.7712378130152467e-001, 1.9307922890320128e-001,
          8.8419619139416802e-002, 9.9870886151371560e-002,
          2.0551756439822355e-001, 7.7249057540410379e-002,
          -6.9387005239728169e-002, -6.1734713192057387e-002,
          1.0454207859373577e-001, -6.4472470297697121e-002,
          -3.6093620312705840e-002, -3.6618656386940049e-002,
          1.6378778251161080e-001, -4.1180211759982710e-002,
          1.2686312038790387e-001, -6.4298015480033041e-002,
          -1.0677060013005946e-001, -3.3314831183711049e-002,
          -1.6797029248327919e-001, 3.0103114995606056e-001,
          -8.1290393883064038e-003, 8.1513773195474541e-003,
          1.2652576983762609e-001, -2.1587719624607035e-001,
          -6.1901644420220295e-002, 3.4306105818037280e-002,
          -1.8638318667558973e-001, 5.5688292514157030e-002,
          -1.1373160258372424e-001, -1.2700011282132453e-001,
          -3.5036850750213511e-002, -1.1380742243519122e-001,
          -1.8941776444273012e-001, -1.8481200057464936e-001,
          2.0041506665406239e-001, -1.5797371654182124e-001,
          1.7815562514628364e-001, 2.4506796329331691e-002,
          -9.6807135719017612e-002, -8.8277602577487665e-002,
          -3.3434102056204962e-001, -8.0451762180399386e-002,
          1.2296375247846517e-001, -8.3898537881963581e-002,
          -1.0281437091712299e-001, 3.8506857943327907e-002,
          -2.1352587651767183e-001, -2.6148949950729417e-002,
          1.3422140383061124e-001, 4.7842171876673993e-002,
          9.8406732951390588e-002, -2.0519631381504708e-001,
          1.7541307176773019e-003, 3.8584108640322573e-001,
          -1.6884930386982594e-001, 4.5210804230276860e-002,
          1.8607544166236695e-001, 4.6130019887298285e-002,
          6.0864595075269680e-002, -1.6317581636578068e-001,
          -1.5387925673010139e-001, 1.1737577924770546e-002,
          1.5431794274119806e-001, -9.5307990474531479e-002,
          -2.0326699094119757e-001, 3.2450272248279517e-002,
          1.5425054727000712e-001, 9.7389109136302152e-002,
          -2.1468911646177977e-001, 2.3042016326471187e-001,
          -1.5233899159567282e-001, -1.2022200703469932e-001,
          -6.1734811153934456e-002, -1.1632200015193807e-002,
          -1.0648595083815059e-001, -5.8419893249403380e-002,
          -6.2159277583571731e-002, 2.0238114596766713e-001,
          -1.3048016023371287e-001, 2.6658013030651012e-001,
          8.5825306639601792e-002, -2.2712174790131662e-001,
          -2.3038817835002487e-001, 3.6711069478683085e-002,
          -7.5161705878577498e-002, -1.2410913726173393e-001,
          -9.7007076546239648e-002, -3.5220789623920550e-002,
          -4.4695582546775303e-002, 1.1515305956096731e-002,
          -1.1221155829614861e-001, 4.6243464857777639e-002,
          -1.2754635298676015e-001, 9.6040891394020569e-002,
          -4.3984757772661455e-002, -4.1377328521423049e-002,
          4.7572631015466264e-002, -5.2090246078897777e-002,
          1.2371636011663741e-001, -3.7817086593182392e-002,
          -5.7744018713319446e-002, -1.4180793022609461e-001,
          -2.2036157229614044e-002, -1.2107688004532084e-001,
          5.0722265202562539e-002, 2.0053546666602305e-003,
          1.3654406245629103e-001, -1.0387557980141073e-001,
          -1.4999358412390645e-002, 6.3928912232664323e-002,
          -1.8343206190814104e-001, 2.6559052153164623e-002,
          7.0173344316618078e-002, -5.7121803182935291e-002,
          7.5964765760019703e-002, 1.7917720704279524e-001,
          3.7904042827905569e-003, -1.9692117354050173e-002,
          1.4255911379634650e-002, 1.2738150657472119e-001,
          -4.3081725877192015e-002, -3.4893194068961103e-002,
          5.2952027700786962e-002, -1.0197498701860824e-002,
          -1.0740868377532498e-001, -2.0504948390348433e-002,
          -4.6371185264869670e-002, -1.1774989470895238e-001,
          -2.8272262244606133e-002, 5.8432335567307724e-002,
          -8.1765361034623285e-002, 1.5272812061703281e-001,
          4.4777271901953859e-002, -4.8488184057484292e-002,
          7.4601853073033908e-002, 2.5171204538945330e-001,
          -1.8174697548988965e-002, 8.7187404975840710e-002,
          -1.4147543041830604e-001, -1.5068866155287906e-002,
          1.0940538638728171e-001, 2.0421483584650180e-001,
          -9.2702594095199015e-002, -9.1920697587998437e-002,
          1.0329981551178143e-001, -8.6187739344174966e-002,
          -2.2114918312987251e-002, 1.0828831077732673e-001,
          -6.7098244126719622e-002, 4.1135119663275772e-002,
          4.0343526992884333e-003, 1.5521243966270246e-001,
          -6.0639634379740626e-002, -1.8591132568900559e-001,
          -2.3563783588562572e-002, 1.1172111723555674e-001,
          -4.4307263439975972e-002, -2.9304494172045049e-002,
          4.1288125143595346e-002, -7.0149006042529100e-004,
          3.9058975871698334e-002, -2.2114638272603430e-003,
          -1.7306203775226143e-002, 1.0418928154407216e-001,
          1.1065449438596091e-001, -8.1492563175593932e-002,
          -8.6254205373979195e-002, -2.6317138655621228e-002,
          -3.0443277238926753e-003, -4.2666517303774597e-002,
          7.2687749625091155e-002, -8.6674800887857201e-003,
          -1.3467092281125208e-002, 5.4189092758875998e-002,
          -1.1416390962735630e-001, -3.5829018632996992e-002,
          1.4212149463540389e-002, 1.1952691950185440e-002,
          -5.3264459789163734e-002, 6.1186124523721262e-002,
          -1.6435921075929261e-001, -2.3653743368227394e-002,
          1.3403993390021735e-001, 6.5097095598649540e-002,
          7.0060351903720910e-002, 3.5109901559107058e-002,
          -1.4631326329393827e-002, 6.9709707100318791e-002,
          2.6953803701617096e-001, -1.5690851369618428e-001,
          1.8235651032547755e-002, -5.0199739137543206e-002,
          -4.9225428489302635e-002, -8.2489573198737925e-002,
          1.4569850554420202e-001, 1.6869131186327238e-003,
          7.7801816687032132e-003, -1.8689014636615742e-001,
          8.4901454990883637e-003, -1.1713917833672863e-003,
          -2.8023747291142407e-002, -1.7749248569704992e-001,
          -8.9995233355955481e-002, -1.9153796133366893e-001,
          -1.5345196771327985e-001, 2.4830302759043254e-002,
          -6.5079584070231178e-002, 1.0483651135161566e-001,
          -2.8474043520002480e-002, 3.1547936893461172e-002,
          -8.6853559273786046e-002, -2.7370337362339039e-002,
          -1.6892130775975378e-001, -5.5390330383540777e-002,
          -1.1467213574594935e-001, -7.8365087409203144e-002,
          -2.0323073650417459e-001, 2.7243666838266634e-001,
          2.4013562099596258e-001, -2.2354906081235032e-001,
          -8.3005859323020594e-003, -2.5822896682139423e-003,
          -1.9002186455898705e-002, -5.6088504165025489e-003,
          1.6650130513416622e-001, 1.9109065218260925e-002,
          1.2149842252244750e-001, 6.4266075712597098e-002,
          -3.0794254727021984e-002, 2.1461348957665516e-001,
          2.0214612903211299e-001, 1.1930429593858077e-001,
          -6.1420613066491027e-003, 2.6379896973672795e-001,
          -1.5270703690361595e-001, 6.6085000451300294e-002,
          -2.6544046608737071e-001, -9.7094706790120222e-002,
          -4.4250148651306567e-002, 2.3524292006892246e-002,
          1.2253999555155388e-001, -8.1425873372618487e-002,
          1.0195193372736118e-002, 3.8982760312681872e-002,
          1.0159297587861195e-001, 1.6912944747453790e-001,
          3.4304845854357648e-002, -8.5498205521803497e-002,
          -8.6791943626630036e-002, -3.7509145746569467e-002,
          -4.7893772508055113e-002, 5.6821334849293283e-002,
          -1.5126061430580620e-001, -1.9927013985720443e-001,
          1.4791546674925535e-001, 1.5849934380948529e-002,
          -9.0048182949876265e-002, -1.5255714643700112e-002,
          1.1291151868187291e-001, -1.6520446382171039e-002,
          9.8704150608972269e-003, -3.5286317693260891e-002,
          -1.4794390337816959e-002, 4.3114141723951928e-002,
          8.9420422937298988e-002, -9.6140404649168747e-004,
          -7.9904599525507353e-002, -1.3108757862317992e-002,
          -4.5168968028186866e-002, -1.2082210666060995e-001,
          -1.2879829971705550e-001, -1.0926883285429867e-002,
          1.6067981899607045e-001, 1.1181883052660908e-001,
          3.0396531007757664e-002, 1.2455584730436359e-001,
          1.6168979281241105e-001, -2.2751233002161020e-001,
          1.2606835588276194e-001, -5.8682795703266101e-002,
          -4.5100509776963185e-002, 1.1438233931921796e-001,
          1.8320909019070833e-001, 1.6324684968045619e-001,
          1.7222648749202119e-001, 1.0925945511922509e-001,
          -3.2786876688845701e-001, 1.5583600448277812e-001,
          1.4550622654873141e-001, -4.8114747847011730e-001,
          2.6452358688636518e-001, -2.4261751927637826e-001,
          5.3352551569939254e-002, -1.4167332835703270e-001,
          2.3805679442912508e-001, -3.6656556010325497e-002,
          1.3773738305760319e-001, 3.8307272156540662e-001,
          -5.3266179719766271e-001, 5.3250393628716475e-002,
          -5.0846173923634462e-002, 1.5192761341276054e-001,
          3.5381471068638326e-001, 3.8591354738499561e-002,
          7.8303530181570644e-002, -1.0529231594853219e-001,
          1.8505107878263824e-001, 3.3518055846745620e-001,
          -4.4818395327962411e-002, 9.4460504443270518e-002,
          2.1898850938596509e-001, 3.3658811238083525e-001,
          -1.1100254238304841e-001, -2.2794104740010843e-002,
          2.5178916733002249e-001, -6.7898902883593626e-001,
          -3.7607283986424556e-001, -3.0626580038986206e-001,
          -2.0672103547727605e-001, -9.6354266655358317e-002,
          -4.3193424092307232e-002, 1.9062167361326560e-001,
          -3.8088247044661197e-002, 3.2259356283093366e-001,
          -2.7864093073641238e-001, -4.1633037884946872e-001,
          -3.2893800072791007e-001, 1.4456841285488634e-001,
          -1.3513103156187939e-001, -3.1996919419978165e-001,
          2.6223592452721822e-001, 4.5458247981992606e-003,
          3.6798947408371037e-002, 1.1158688333200548e-001,
          -3.2077599192481876e-001, -3.6309058208165695e-001,
          -1.0129042923889485e-001, -3.3366026494994439e-001,
          1.1474059675066846e-001, 2.3891776319463262e-001,
          -2.8982596625410723e-001, -8.3733104902919034e-002,
          7.2081120151073708e-002, -4.4691984478266805e-001,
          -1.6781234158986064e-001, 2.3679836079357139e-001,
          6.0120958742746006e-002, -1.6123924818127053e-001,
          -7.4630924209510272e-002, -1.0231411879953392e-001,
          2.3010125800555481e-001, -9.8186841940330713e-002,
          2.6467880481808381e-001, 2.7902730712345147e-001,
          -3.5209160263699196e-001, 9.4497972650910270e-002,
          1.7079999653504838e-001, 6.5753860995298202e-002,
          2.4807172671771105e-001, -2.6863655436567456e-002,
          -2.2767711275353403e-001, 3.4776678013435497e-001,
          -1.2539031968544262e-001, -4.6121533354483490e-001,
          1.1907016519036169e-001, 2.2973672749951629e-002,
          8.0003340724385152e-001, -4.9267200887935420e-001,
          -5.3807206957789767e-002, 2.6119763268262514e-002,
          -5.1956610776649415e-001, 1.0993908079429378e-001,
          -4.8634203227133249e-001, -6.8706226578773419e-003,
          -2.1611970249204970e-002, -5.1928188237806358e-003,
          -8.8522725665345497e-002, 1.0220170954619978e-001,
          2.7362777501443292e-001, -8.5091891700257205e-001,
          -2.3257882978123166e-002, -2.3011466890105864e-001,
          1.4405003602103622e-001, 1.7529055546864902e-001,
          1.6109198913296827e-001, 3.5100766655170135e-001,
          6.0134653724458165e-001, 3.2027759397291744e-001,
          3.9247420912746389e-001, -8.6320171120274333e-002,
          6.8206021589643881e-002, 2.3022447491257889e-001,
          -4.0977180936480465e-002, 1.3072927078385499e-001,
          6.0844298188699808e-001, 4.8860716674268395e-001,
          3.0734990828833997e-001, -8.9122169972018453e-002,
          1.7309413735371265e-001, -2.6939297308944443e-001,
          -6.4190057173156373e-002, 9.3279312454589786e-002,
          -1.6304400010415293e-001, 2.7510427292101131e-001,
          1.2872993827202525e-001, 7.9624947887817565e-001,
          -4.2609892883995359e-001, 2.4583669250272686e-001,
          -1.6608426351670588e-003, -4.5191125771018181e-001,
          4.3135142464797166e-001, 2.8965343663095261e-001,
          1.2624777657840796e-002, 2.6999320082239159e-001,
          -1.3746091142795294e-001, -6.0489050732463946e-002,
          2.7195743560587626e-001, 4.9789960155842478e-001,
          -5.5148905318260810e-001, -2.8311996675842499e-001,
          9.1906362809916778e-002, 4.3281136609130766e-001,
          -6.9875744612426086e-002, 5.5921968177556991e-001,
          2.6480728811803717e-001, -3.5606160051639962e-001,
          -2.7832390808678792e-001, 2.7212056764910286e-001,
          -1.8338456800250019e-001, 3.9152449693464203e-001,
          6.6313577468986229e-001, -2.4035010604342594e-001,
          -1.0023344378456715e-001, -1.0003722444946450e-001,
          -8.1182695074518821e-002, 2.3551886634165947e-001,
          -3.4958796485469656e-001, -3.5631824029044246e-001,
          4.2071631470198900e-001, 2.1982671105822177e-001,
          -4.1772521795752399e-001, 3.8242564854538907e-001,
          3.5283946285417832e-002, -4.0529957005977357e-001,
          4.0792189508683341e-001, -3.2330674842034618e-001,
          -4.4042756142452538e-001, 3.9432452951124394e-002,
          -1.5409364511237039e-001, -1.8647800498004569e-001,
          6.3933651116567985e-002, 1.9210971543733721e-001,
          -1.8996357864175992e-001, -6.6377787644306119e-001,
          2.4480704660713548e-001, 1.1707166027778854e-001,
          2.9107186716443328e-001, -4.4121566499377325e-002,
          7.0211141888073137e-003, 1.6742525281451434e-001,
          1.2570353857744981e-001, 1.8955786062326962e-003,
          7.4643066769506911e-002, -6.9014287583397602e-002,
          -4.8989109033104043e-002, 3.2686428077431123e-001,
          4.6954632309873325e-002, 5.0720348356979150e-001,
          -1.2097836167642069e-001, 9.7851536482590172e-003,
          -1.7029819814604344e-001, 2.6760084259490963e-001,
          6.5780084776993064e-001, -1.3173366987072269e-001,
          -9.8790037295931096e-002, 1.2147115044279359e-001,
          2.7681699184298886e-001, -9.4351404683642545e-002,
          -7.0294395011799973e-002, 3.1252367902312367e-002,
          -1.1676096407006119e-001, 3.4403610330214424e-001,
          -5.2675524207550617e-001, 1.0210858827073770e-001,
          2.4111576588927899e-001, 5.5555883926435200e-002,
          -2.1785374388338035e-002, 5.4165207843083110e-002,
          7.1854287730607203e-002, -1.1795526659748791e-001,
          3.9032005876839609e-002, -5.7581073896047844e-002,
          -6.8692733405481252e-002, -7.6707520757074016e-002,
          5.4116292058491694e-002, 1.0052937794881783e-001,
          -9.4476465988289571e-002, -2.0861604693952977e-002,
          6.6792224059016511e-002, 8.9442639697152271e-002,
          5.1245762366816772e-002, -8.9222516009176724e-003,
          -9.9928756358324163e-003, -4.5385801952945462e-002,
          -6.2142736939976996e-002, 9.1522207593679170e-002,
          -3.2875978602490030e-002, 3.5456569457425591e-002,
          2.0877973126486937e-002, 6.5616074560308532e-002,
          -8.2471182756259989e-002, -5.8490345336307877e-002,
          1.7934219399110957e-002, 3.4110805446775617e-002,
          -1.5830352653403441e-002, -9.3765101434159157e-002,
          1.3510615189525045e-002, 1.3906967313515983e-001,
          1.4482912261794647e-002, -8.4101490810764602e-003,
          -2.9362910964567463e-002, -6.2967670149191406e-003,
          5.9380923631233859e-002, -9.3224245435749267e-002,
          8.7291685087288906e-002, 1.2293306050628706e-002,
          7.5710751637352386e-002, 4.7627632846816738e-002,
          -8.8275037602450358e-003, 3.4884149585557182e-002,
          3.3323764719100132e-002, 1.7256309746782508e-001,
          -9.0933316274445369e-002, -1.6749641318004931e-002,
          3.4822427424299800e-002, 3.9602704673267493e-002,
          -1.2160293206231504e-001, -8.6133119678370521e-002,
          -1.0883242005919343e-001, 6.9643386512716302e-002,
          -4.6077904317437385e-002, 4.0796369546754752e-002,
          9.2276481970519006e-002, -4.4139507418765045e-002,
          1.3275346863753043e-001, 1.4093902399643754e-001,
          -7.5972840946926218e-002, -2.3949024881298284e-002,
          -4.0032872962824713e-002, 6.3628956189303879e-002,
          4.8701036855275583e-002, -7.8252012159308146e-002,
          -5.4731801764782165e-002, 3.1504815046509205e-002,
          2.7384189358471124e-002, 1.4031161453922844e-001,
          -4.9628513080562601e-003, 3.5076490420317699e-002,
          2.2524002040414347e-002, -9.9213098434719885e-002,
          -8.6068052141606260e-002, -2.1205444364092843e-002,
          1.1223105631673302e-001, 7.2107966984081423e-002,
          1.0565608752167872e-001, -9.5099658379692430e-003,
          -5.1021015330403548e-002, -6.4612784144192928e-002,
          -5.6367067673659003e-002, 1.2429039504802067e-001,
          -2.0501790655629837e-001, -2.7762147156116523e-002,
          3.2988388277651035e-002, 2.2971105873625351e-002,
          1.1687565952802395e-001, 2.4269888907493774e-002,
          -2.6328826972575894e-002, -4.2161214813664520e-002,
          4.9531621253783208e-002, 1.1853876976019508e-001,
          5.7732500752523438e-002, 2.1228724165915798e-003,
          -6.0467004537550710e-002, 3.3077003476004070e-002,
          7.0366721694746101e-002, 6.0954133290186006e-004,
          -4.7427844365530697e-001, 4.8614742275400441e-002,
          6.7067299715398024e-003, 1.4580109283819870e-001,
          -6.8558854615123843e-002, 5.4808968132062458e-002,
          4.9517568131256171e-002, -2.4011353480031868e-002,
          5.6406793311131728e-002, 1.1109237594999807e-001,
          -2.7687764188149871e-002, 3.3475188153515002e-002,
          1.1444184360673292e-001, -4.0548479716348796e-003,
          -4.5160779216493023e-002, 1.6143782267709759e-002,
          -8.4599698512192387e-002, 1.0785621695278165e-001,
          8.3643168945590790e-002, 2.1276504862270923e-001,
          -1.2428950650043112e-001, -1.1789651450850579e-001,
          -1.4646122401319862e-003, -1.3790153778883985e-001,
          4.0385129696010574e-002, -6.6536515767209245e-003,
          1.2761686376905990e-002, 1.0095433415163500e-001,
          -3.2540158137110663e-002, 6.1769317364054742e-002,
          -6.9465794728073404e-002, 4.4760573454292713e-002,
          1.3963040673654574e-002, -2.3651309084703694e-002,
          8.9437924852674034e-003, 1.2873241430221172e-001,
          6.9622059858608781e-002, -2.4160881257949750e-002,
          1.4906584769511944e-001, -6.5927449705199773e-002,
          -2.0145439800974742e-002, 9.8036704964279867e-002,
          4.2226167835593180e-002, 1.0555964294848350e-002,
          1.9625927867627116e-001, -1.2385733933675279e-001,
          -1.2833162105135595e-001, 5.8871587815172433e-002,
          4.8035869803776408e-002, -1.0386103471138478e-001,
          7.4564447127606320e-002, 5.2391109834742751e-003,
          1.1630653619510530e-001, -1.9224861235838089e-001,
          -1.7984127130514932e-001, -1.3937219314655586e-001,
          -4.8194533730349185e-003, 8.9342421302140443e-002,
          8.3934619989152179e-002, 4.1266050319512578e-003,
          -2.1245737998058048e-001, -1.1074376467024817e-001,
          1.1517650216707154e-001, -1.2104318628411408e-001,
          -1.2286565601980142e-002, 3.3643862095683735e-002,
          -9.6765773520257198e-002, 4.0054538618091891e-002,
          9.2809949870017991e-002, -5.3451825340305126e-002,
          1.4358273292027302e-001, -1.7460328075781295e-001,
          3.5326077553036933e-002, 3.7873032759859738e-003,
          3.9373999980546553e-002, 1.0831215343442580e-001,
          -5.7116093319524976e-002, -1.4080574684729702e-001,
          -7.2640512680352751e-002, 1.0896000844627364e-001,
          4.2295702785262360e-002, 1.8016241813578587e-001,
          1.3517966292631536e-001, 2.8681411009007885e-002,
          1.7259251961714389e-001, -2.1463606477306862e-001,
          1.1357991184205495e-001, 1.3156752685952960e-002,
          -2.3066458842467632e-002, -5.6514774022911593e-002,
          8.1011181973064297e-002, -5.6570665255293397e-002,
          -7.1868886760463824e-002, -1.7423702259954615e-001,
          -3.0868143200225014e-002, -4.6255825698312360e-002,
          -2.5821917488467412e-002, 4.8890313748965152e-002,
          -3.3613123181769643e-002, -7.3687705654953695e-002,
          -1.4099255571905214e-001, -3.5488228270032153e-002,
          -2.9139175663835622e-002, -9.0149569089747247e-003,
          -1.1549471499485285e-002, 3.5602231975218196e-002,
          -3.6291771007297198e-002, 1.3330792338883018e-003,
          3.6295781802172238e-002, -4.4182532324378340e-002,
          -3.7038475000121035e-003, -9.4199412722439216e-002,
          2.2419557207157206e-001, -1.3702130672844179e-001,
          -4.6038902102080712e-002, -2.0021900326679590e-001,
          -1.1823597379860289e-001, -1.1426546471008728e-001,
          1.5146315699758009e-001, 8.0312622345592569e-002,
          7.9346037461760204e-003, -1.1981350819759942e-002,
          -1.2534606097706305e-001, 9.6189738388611029e-002,
          -9.4031094501360019e-002, -9.9213624746436122e-003,
          -5.5193795702314058e-002, -5.4197260837045562e-002,
          -6.5492398729913470e-002, 5.1050488751853404e-002,
          -7.3547846442554535e-002, 4.1319485676563933e-002,
          1.5848397261115205e-003, 2.9472730019499627e-002,
          1.0355342263653357e-001, 2.7778469564309086e-002,
          1.3384764318496831e-001, -6.8085733427135267e-002,
          -3.6609841783769048e-003, -2.5793726694347027e-002,
          4.7437988827200780e-002, -4.4657372165109177e-002,
          6.0645208795799703e-002, 6.6869869517640540e-002,
          1.9843478466833871e-002, 4.9720654944509023e-002,
          7.3978838526119833e-002, 1.0661882885264956e-001,
          1.1606366001497921e-001, 9.5089743139295992e-003,
          5.2938207237133633e-002, -1.4516559490884012e-001,
          4.1474616855229116e-002, -3.8474998713113745e-002,
          -3.0868489957548588e-002, 9.5416557234362750e-002,
          -1.1063869794097592e-001, -5.5547357512755129e-002,
          7.0737630776714451e-003, -3.1337453806288815e-002,
          5.1849759902913066e-002, -3.5786108322696408e-002,
          -1.3951989013040081e-001, 1.5073702145113060e-002,
          2.8515309825696136e-002, 8.1396254792291456e-002,
          -2.5338552154675936e-003, 1.3400315104864374e-001,
          -9.5963530811545086e-003, 1.3914850509783701e-002,
          -3.7027222983205571e-002, -1.2985663502150280e-001,
          3.4673559816853029e-002, -8.1645769564911722e-002,
          -1.5472385011764681e-002, 6.5557016300525295e-002,
          -6.1396567141144283e-002, -2.8967478149393454e-002,
          1.8579105059855128e-001, -1.2277558440192947e-002,
          -9.0346669535610991e-002, 6.9575714565272617e-002,
          1.4668192522424664e-001, 6.6801570432998267e-002,
          1.6817951198480749e-001, -8.5552449632969277e-002,
          -9.7163747548268294e-003, -4.6199358990930833e-002,
          1.8863675061731321e-002, 2.6580133996803187e-002,
          -7.6267429296259834e-002, 8.7675690263490490e-003,
          -6.5531350885839362e-002, -4.4572192397407867e-002,
          -5.9096463411180952e-002, -1.6002338185482703e-002,
          1.3654725189728756e-001, 2.1649275415486449e-001,
          9.8600931829326000e-002, 3.3759063397869153e-002,
          -3.1060540312943091e-001, -8.2761223844964635e-002,
          -1.7030379540845203e-001, 1.4207861414863440e-001,
          -1.0771293062829361e-002, 1.8821102664763306e-002,
          5.7038267962528914e-002, -3.2680758653964685e-002,
          3.6509006482515975e-002, -4.2832584643857294e-002,
          -6.0287285451454072e-002, 3.2906313295834010e-002,
          5.4153213495211322e-002, -3.3483115473847656e-002,
          -9.2831248924002574e-002, 3.5583400448118419e-002,
          2.4512488192177658e-002, 9.2212443359630844e-002,
          1.8609625323855836e-001, 5.8984242106523095e-002,
          -4.4009404784883049e-002, -7.0321245090776849e-002,
          -1.4931012669645563e-001, -8.9276792344618008e-002,
          4.7892534635191782e-002, 6.1810383458795665e-002,
          -4.5205068395897975e-002, 4.5774593324529995e-002,
          -3.7047470379545214e-002, 4.7823550089582841e-002,
          -8.6928783058829937e-002, -1.9590452223103183e-001,
          -8.8061766485557219e-002, 7.4644144310063262e-002,
          6.9276459242423941e-002, 1.5137077613086139e-001,
          2.8868251564163460e-002, 1.3967684568819916e-001,
          -5.0863925431143674e-002, -1.0531861727037016e-001,
          -1.1878385038371915e-001, 2.5390842528105594e-002,
          1.0562245470254494e-001, -1.3354486797488024e-001,
          6.0482343903518775e-002, -1.6232433837553970e-001,
          1.1451280715850236e-001, 2.1916736213603911e-002,
          -8.9052749179489785e-003, -9.7371660234328736e-002,
          2.0073635353852876e-001, -2.9647016015828632e-002,
          2.5617841493218046e-001, -1.1723584367783954e-001,
          -1.3043975747962733e-001, -1.3392200223389006e-001,
          -9.5578425551562554e-002, -6.5322742457782745e-002,
          -1.8177216063220211e-001, -1.8374459466588475e-001,
          -8.1970428366210435e-002, -4.1371994483418308e-002,
          4.7616809663311770e-002, -5.2014062479530103e-002,
          -1.3759855643375393e-002, 1.7343523102624197e-002,
          4.6660205356843662e-002, 2.7955375088833867e-001,
          -6.6884981403401711e-002, -9.5368064405321556e-002,
          5.9964168403634568e-002, -1.0945340170195059e-001,
          2.4633972697487145e-002, -7.4108032227857895e-003,
          -2.4367985759559289e-002, 1.0030176365125572e-001,
          -1.1761431533151175e-001, -1.4653569146083267e-001,
          -1.4639908836652027e-001, 5.6402976754011520e-002,
          1.5494996636790317e-001, 1.2459293500436767e-001,
          7.6231032976758914e-002, 2.7185564195333866e-002,
          2.3669774176832573e-001, -1.1434026569571158e-001,
          -1.2958393238383164e-002, -6.3565944032679664e-002,
          -5.9449055532913429e-002, -9.2200243208852298e-002,
          -4.6318841983165590e-002, 1.1998369611639742e-001,
          -1.2227928102102348e-001, -2.8135384628482152e-001,
          -7.1867845295095802e-003, -8.7067434322032553e-002,
          -7.8131853972232927e-003, -2.0750021970767793e-002,
          -9.4499232449885603e-002, -5.1023816043082967e-002,
          1.4929729542363443e-001, -4.1931451258456105e-002,
          1.6763286903610928e-002, -1.3300095616863042e-001,
          7.1526492567776989e-002, -3.5468600689390659e-002,
          -1.8424730582718069e-001, 3.6813512623260783e-002,
          -6.8278245351084760e-002, 1.1691383481573239e-002,
          -2.6602951260338514e-002, -1.3981048066023036e-001,
          1.8789014481934443e-003, -1.7406815283125690e-001,
          6.3200282045286993e-002, -1.7567213553148245e-001,
          -1.4402827273666505e-001, -1.1033563228313559e-001,
          -7.2035093052281438e-002, -2.9207784704221050e-002,
          -1.2512886098884417e-002, 9.3136799338657136e-002,
          2.4999717167809722e-002, 1.2535895488943458e-001,
          -1.1746968610637533e-001, 4.3846172920419126e-002,
          -1.4209112625492192e-002, 1.5752128361534643e-002,
          -3.0958069116416007e-002, 1.3422603082580883e-002,
          -5.8600590942693459e-002, -6.6520043526163961e-002,
          -3.8495706752896602e-003, 3.8409922608384557e-002,
          -7.8898212991910049e-002, -1.0719146549602207e-001,
          -4.6552519716286704e-002, 6.9485883564292708e-002,
          -8.2905826233909602e-002, 3.7643534369285372e-002,
          1.0255400017517628e-001, -1.3324634324985016e-001,
          3.0734838591128692e-002, 1.5300134867938545e-001,
          -7.1864037384866589e-002, 1.9294153998811026e-001,
          8.6017484045755710e-002, -5.0827258709090488e-002,
          -4.9819957888589055e-002, 4.3888824987695772e-002,
          -1.5193015403790336e-001, -7.3289599856357773e-002,
          -2.5312359370610865e-001, 4.1838865290508835e-002,
          -2.0501062378266838e-002, 7.8093830620421745e-002,
          -2.8992081765915056e-002, -6.0696019961082925e-002,
          7.3652021007449997e-002, -1.3799747839900935e-003,
          1.8304020953097619e-002, 6.9683174451111354e-004,
          -2.1985741752363788e-001, 1.4601144587132886e-001,
          5.0211891997586376e-002, -8.2774829205900062e-003,
          -2.6956680949907812e-002, -1.6852569025702085e-001,
          3.0759790884036405e-002, 1.7801691574072842e-001,
          -1.4318994196110951e-001, 7.2571030710221168e-004,
          1.9633082288792836e-002, -9.5350009726469315e-002,
          -2.7314473255922261e-002, -2.0011141738152058e-001,
          4.0557560355763425e-002, 5.9302176724004806e-002,
          6.3884313755050229e-002, -1.3251239074235924e-001,
          -1.1007625979521370e-001, -5.6587425529262408e-002,
          -4.6127031058929298e-002, 3.6359766688794481e-002,
          -9.9916946167551111e-003, -2.1002218637250616e-002,
          -9.6386483091293246e-002, -8.3438835893571664e-002,
          5.1154947008800043e-002, -2.4159534562278647e-003,
          -3.6255904343465567e-003, -2.2637447489185621e-002,
          -4.6517432825504178e-003, 6.7902673327647600e-002,
          4.6226698384401445e-002, -1.1230775354270249e-002,
          -4.5141223535540634e-003, 4.8817288798636956e-002,
          8.4974729917237923e-002, 7.0656566406142568e-002,
          5.2007677876423353e-002, 4.4496932961208109e-002,
          2.9228775379717709e-001, -1.6158461715982683e-001,
          -4.2964359723940505e-002, 6.8348599339346453e-003,
          -3.7014211117165153e-003, -8.2395281753116917e-002,
          2.1350825101974208e-001, 4.3912319137069639e-002,
          -3.2668300734713544e-002, -2.8813408979384371e-002,
          -1.3564514750075116e-001, 1.9904580224091511e-002,
          -5.4337536090536279e-002, -4.2206193366397013e-002,
          1.1400556474368526e-002, -2.3222359082653088e-001,
          -1.1348800007860446e-001, -7.7907555406630399e-002,
          7.0498753868466407e-002, 5.9280677203379260e-003,
          6.9261940298777733e-002, 4.6790502524466517e-002,
          -3.8225929414915372e-002, -1.1460615070392983e-001,
          2.8949675156692670e-002, -1.9018739154722827e-001,
          4.0573895526143891e-002, -3.9432966490071095e-002,
          -5.3464714665789878e-002, 1.4013372184425457e-001,
          2.1109302420828047e-001, -1.9360240982941512e-001,
          -8.5422286285498250e-002, -5.7082924783481689e-002,
          6.3889837009235787e-003, -6.4827840158034569e-002,
          4.4154268435454724e-002, 7.5215200538293336e-002,
          9.6048662796914777e-002, -3.2809744902139074e-002,
          -1.4895598039300084e-001, 9.8350780728567608e-002,
          9.3689452980239341e-002, 1.4603504304696291e-001,
          -1.2566430838567064e-001, 1.0148666084680291e-001,
          -7.0988677841695200e-002, 7.9169185443530979e-002,
          -9.9517134841007479e-002, -3.8428611805736743e-002,
          -6.8784253850869614e-002, 1.2835765662945225e-001,
          1.6889006102645340e-001, 1.1803478033593898e-001,
          1.5431027320390162e-002, -7.4760859378746672e-002,
          2.3313002233396143e-001, 1.8030260862743172e-001,
          6.5555751506928231e-002, 5.4500342939228744e-002,
          -3.8427380552311763e-002, -6.0624687464605276e-003,
          -2.2949032886844096e-002, 3.8760423637990531e-002,
          -6.3394965615110557e-002, -1.2829893459298503e-001,
          1.0769399979026824e-001, 1.1280252531680880e-001,
          4.0473428091739587e-002, 2.2318668119091487e-002,
          9.1028151490071818e-002, 4.1554937689753692e-002,
          6.4574042032806589e-002, -3.2021862896363835e-002,
          9.5670867801630449e-002, 1.2707944319456635e-001,
          2.1030499942570141e-001, -1.8547059101907151e-002,
          -1.0726444724598461e-001, -1.4208219968304689e-001,
          -6.3444407017927557e-002, -8.1546761700376058e-002,
          -1.4095161578324045e-001, 7.1396155332137584e-002,
          1.1390224132589097e-001, 1.2335447935580182e-001,
          7.8510447505880487e-002, 2.3066628373300244e-001,
          9.7366142202851336e-002, -9.8964854543994757e-002,
          1.6061624180822043e-001, 1.2295964506052651e-001,
          -2.7601120602104848e-002, 5.6662032162994209e-002,
          1.7174256271609029e-001, 9.5917022377411551e-002,
          9.7304049106263418e-002, 1.7244279640864252e-002,
          1.4529419434974042e-001, 2.6561064860659137e-002,
          -6.4731866118644581e-003, -1.3251013996788613e-001,
          1.4153948926742360e-001, -3.1269733056624250e-003,
          -2.3339579895271154e-001, -9.3770098069815636e-003,
          9.4137792670228704e-002, 4.8069812084971450e-002,
          -1.7043932336940584e-002, -2.9319824795150806e-001,
          5.4495674379104353e-002, -1.3018702202188134e-001,
          4.4270066115005238e-002, -2.9736770220429765e-001,
          -2.0675990131187619e-001, -1.5640850226197434e-001,
          -7.8620615880598318e-003, 8.6803245624430495e-002,
          -7.8181248826505984e-002, 1.2953909263404570e-001,
          -4.1790364456625956e-002, 1.9266777324136827e-001,
          -2.4899492625559916e-001, 2.0854025389269861e-002,
          -1.6578841418866896e-001, 8.5067224304574238e-002,
          -1.4750851190702760e-001, 1.6500098494461060e-002,
          -3.6557101214106942e-002, 3.4086026002864221e-002,
          4.5758998114768447e-002, 5.1861874850038001e-002,
          -1.0557352452646196e-001, -5.0476333394121026e-002,
          -6.5131053156631535e-002, 1.2782646359481342e-001,
          4.7145891789027436e-002, 7.8677341710308032e-002,
          2.6411309870678723e-001, -1.3932466172439006e-001,
          3.9831009009973412e-002, 1.4648820546243166e-001,
          -1.5884079205128229e-002, 3.1105014008437204e-001,
          1.5884367592277709e-001, -4.2392905611992639e-002,
          6.6518934053822597e-003, 1.0308493678976777e-001,
          -2.5233391242344194e-001, -9.7911724236457845e-002,
          -3.0434219866034701e-001, 4.0712241574643322e-002,
          -8.1641935442390401e-002, -1.3189758367541039e-003,
          -1.2973955642116236e-003, -9.3179293430864701e-002,
          1.0428986329235872e-001, 1.2500843467151886e-002,
          1.0541534966910872e-001, -5.3413253644340263e-002,
          -2.2363621683306401e-001, 1.9470944983451710e-001,
          1.1699965700250051e-001, -7.4688569167490240e-002,
          -1.4276679693760874e-002, -2.3372070455195312e-001,
          1.3930485198772899e-001, 2.5327128636005242e-001,
          -1.7896437344187871e-001, -3.0383817501351048e-002,
          1.1095388869839838e-001, -8.9349367257855139e-002,
          -1.3752242733462511e-001, -2.1449782266064787e-001,
          -6.2105246908100979e-002, 9.2086070876270160e-002,
          1.7837958590006681e-001, -1.8812063694248463e-001,
          -1.7538310750752276e-001, -4.9184748311620806e-002,
          7.1722703991964343e-002, 1.2050183212944525e-001,
          -3.5070493681612622e-002, -7.3177426530509571e-002,
          -3.1045341556792148e-002, -4.5390208171409485e-002,
          1.2943075805765530e-001, -2.2834535081808535e-002,
          -4.8628607556789126e-002, -9.9565265980433720e-002,
          8.5943776603263244e-002, 7.7247668416221507e-002,
          1.3534331647612963e-001, 6.5707059209613838e-002,
          -3.4777128147728792e-002, 9.1053557802589363e-002,
          1.1173392306989724e-001, 1.8568288808825681e-001,
          2.7517501421706466e-003, -5.6783931697587213e-002,
          -3.5126408759731186e-002, 6.8823481536770981e-002,
          -7.7037960841706735e-002, 1.8352612451227768e-002,
          7.6029847788593771e-002, -8.5569271011688736e-002,
          -3.1874348400087911e-002, -7.1334328212040599e-004,
          -1.4309632621584262e-002, 9.1028145417044792e-002,
          -1.1229306390469564e-001, 1.1269667341031778e-001,
          -1.1713199842551732e-001, 2.9517121657291140e-001,
          2.3814482966412548e-001, 6.8026801782206395e-002,
          -1.6129393662838214e-002, -1.9609780389779011e-002,
          1.7385492486676923e-002, -1.0692743175491292e-003,
          6.3818833112950793e-002, -3.6679553472976523e-002,
          1.0020671165348224e-001, 4.1619991875684874e-002,
          -9.4601117237316824e-003, 4.5206082421939110e-002,
          2.9232351488098100e-002, 6.4783679385078223e-003,
          1.2773757937939956e-001, 6.7036827477111913e-002,
          -5.1293178542773668e-002, 8.7599541081784194e-002,
          -2.0068231827796518e-002, 9.1205243897856308e-002,
          -1.0774462874097444e-002, 5.3694357631361024e-002,
          4.4927305692579370e-002, 2.0767225052641797e-002,
          -1.4634860447431805e-001, 7.8247093776173088e-002,
          -9.5010101250064625e-003, -1.8353688399809523e-001,
          1.2345385724022473e-002, -1.0659223718294324e-001,
          -5.9122576824495419e-002, -7.8383138700841834e-002,
          -1.0636842473749229e-001, 2.8980950749378166e-002,
          7.3315046920908400e-002, 3.5503142663379027e-002,
          2.8617156063739985e-001, 3.1821959549575077e-002,
          5.5410674849061051e-002, -1.6379113958281186e-001,
          7.2630098936491611e-002, -9.5521115735596497e-003,
          -1.5727637354392171e-001, 2.1458720686749665e-002,
          -3.0404015577072414e-002, 4.6607842600965815e-002,
          1.0825568171152511e-001, -4.7293885539969348e-002,
          -1.7910163397552883e-002, -1.2704138637918444e-001,
          4.3240871644986113e-002, 1.9677759043132398e-001,
          -7.7512839036924672e-002, -2.1320738457129626e-001,
          1.6250391498879316e-001, 2.2180125907161195e-002,
          -1.3031397416995724e-001, 5.9379108362527820e-002,
          -2.5380666545031592e-002, 1.1831585321544325e-001,
          -6.6494810092253371e-003, 3.0039253542516096e-002,
          -2.8377537078196358e-001, 1.3393329965840930e-001,
          5.4810176376681792e-002, 2.0482370786253451e-002,
          -1.1154233759575345e-001, -7.2364901675681881e-002,
          -1.1794610550169587e-002, 8.7880737090645811e-002,
          -1.4402639253797445e-002, 1.2977100549738049e-001,
          -1.6572860512491711e-001, 5.2551041277796402e-003,
          -7.9715359238498387e-003, 1.4587526564708025e-001,
          -4.9895452318751296e-002, -1.0672278589347339e-001,
          -5.0189237231845672e-002, 8.1670820674778100e-002,
          -9.9164942412096280e-002, -1.8412991133359385e-001,
          1.0120853890899090e-003, -1.0984733488474951e-001,
          -8.6432184775593779e-002, 5.2078919611286294e-002,
          1.7655822336196342e-001, 3.4059616546616711e-002,
          3.0363897364764511e-002, 3.3188445822412455e-002,
          7.9382898715877240e-002, 5.6827201826447564e-002,
