%YAML:1.0
my_nb: !!opencv-ml-bayesian
   var_count: 14
   var_all: 14
   cls_labels: !!opencv-matrix
      rows: 1
      cols: 32
      dt: i
      data: [ 1, 2, 3, 4, 5, 6, 7, 8, 9, 10, 11, 12, 13, 14, 15, 16, 17,
          18, 19, 20, 21, 22, 23, 24, 25, 26, 27, 28, 29, 30, 31, 32 ]
   count:
      - !!opencv-matrix
         rows: 1
         cols: 14
         dt: i
         data: [ 63, 63, 63, 63, 63, 63, 63, 63, 63, 63, 63, 63, 63, 63 ]
      - !!opencv-matrix
         rows: 1
         cols: 14
         dt: i
         data: [ 53, 53, 53, 53, 53, 53, 53, 53, 53, 53, 53, 53, 53, 53 ]
      - !!opencv-matrix
         rows: 1
         cols: 14
         dt: i
         data: [ 52, 52, 52, 52, 52, 52, 52, 52, 52, 52, 52, 52, 52, 52 ]
      - !!opencv-matrix
         rows: 1
         cols: 14
         dt: i
         data: [ 64, 64, 64, 64, 64, 64, 64, 64, 64, 64, 64, 64, 64, 64 ]
      - !!opencv-matrix
         rows: 1
         cols: 14
         dt: i
         data: [ 50, 50, 50, 50, 50, 50, 50, 50, 50, 50, 50, 50, 50, 50 ]
      - !!opencv-matrix
         rows: 1
         cols: 14
         dt: i
         data: [ 55, 55, 55, 55, 55, 55, 55, 55, 55, 55, 55, 55, 55, 55 ]
      - !!opencv-matrix
         rows: 1
         cols: 14
         dt: i
         data: [ 55, 55, 55, 55, 55, 55, 55, 55, 55, 55, 55, 55, 55, 55 ]
      - !!opencv-matrix
         rows: 1
         cols: 14
         dt: i
         data: [ 65, 65, 65, 65, 65, 65, 65, 65, 65, 65, 65, 65, 65, 65 ]
      - !!opencv-matrix
         rows: 1
         cols: 14
         dt: i
         data: [ 55, 55, 55, 55, 55, 55, 55, 55, 55, 55, 55, 55, 55, 55 ]
      - !!opencv-matrix
         rows: 1
         cols: 14
         dt: i
         data: [ 60, 60, 60, 60, 60, 60, 60, 60, 60, 60, 60, 60, 60, 60 ]
      - !!opencv-matrix
         rows: 1
         cols: 14
         dt: i
         data: [ 56, 56, 56, 56, 56, 56, 56, 56, 56, 56, 56, 56, 56, 56 ]
      - !!opencv-matrix
         rows: 1
         cols: 14
         dt: i
         data: [ 52, 52, 52, 52, 52, 52, 52, 52, 52, 52, 52, 52, 52, 52 ]
      - !!opencv-matrix
         rows: 1
         cols: 14
         dt: i
         data: [ 73, 73, 73, 73, 73, 73, 73, 73, 73, 73, 73, 73, 73, 73 ]
      - !!opencv-matrix
         rows: 1
         cols: 14
         dt: i
         data: [ 56, 56, 56, 56, 56, 56, 56, 56, 56, 56, 56, 56, 56, 56 ]
      - !!opencv-matrix
         rows: 1
         cols: 14
         dt: i
         data: [ 59, 59, 59, 59, 59, 59, 59, 59, 59, 59, 59, 59, 59, 59 ]
      - !!opencv-matrix
         rows: 1
         cols: 14
         dt: i
         data: [ 54, 54, 54, 54, 54, 54, 54, 54, 54, 54, 54, 54, 54, 54 ]
      - !!opencv-matrix
         rows: 1
         cols: 14
         dt: i
         data: [ 65, 65, 65, 65, 65, 65, 65, 65, 65, 65, 65, 65, 65, 65 ]
      - !!opencv-matrix
         rows: 1
         cols: 14
         dt: i
         data: [ 66, 66, 66, 66, 66, 66, 66, 66, 66, 66, 66, 66, 66, 66 ]
      - !!opencv-matrix
         rows: 1
         cols: 14
         dt: i
         data: [ 59, 59, 59, 59, 59, 59, 59, 59, 59, 59, 59, 59, 59, 59 ]
      - !!opencv-matrix
         rows: 1
         cols: 14
         dt: i
         data: [ 63, 63, 63, 63, 63, 63, 63, 63, 63, 63, 63, 63, 63, 63 ]
      - !!opencv-matrix
         rows: 1
         cols: 14
         dt: i
         data: [ 62, 62, 62, 62, 62, 62, 62, 62, 62, 62, 62, 62, 62, 62 ]
      - !!opencv-matrix
         rows: 1
         cols: 14
         dt: i
         data: [ 72, 72, 72, 72, 72, 72, 72, 72, 72, 72, 72, 72, 72, 72 ]
      - !!opencv-matrix
         rows: 1
         cols: 14
         dt: i
         data: [ 61, 61, 61, 61, 61, 61, 61, 61, 61, 61, 61, 61, 61, 61 ]
      - !!opencv-matrix
         rows: 1
         cols: 14
         dt: i
         data: [ 60, 60, 60, 60, 60, 60, 60, 60, 60, 60, 60, 60, 60, 60 ]
      - !!opencv-matrix
         rows: 1
         cols: 14
         dt: i
         data: [ 57, 57, 57, 57, 57, 57, 57, 57, 57, 57, 57, 57, 57, 57 ]
      - !!opencv-matrix
         rows: 1
         cols: 14
         dt: i
         data: [ 52, 52, 52, 52, 52, 52, 52, 52, 52, 52, 52, 52, 52, 52 ]
      - !!opencv-matrix
         rows: 1
         cols: 14
         dt: i
         data: [ 62, 62, 62, 62, 62, 62, 62, 62, 62, 62, 62, 62, 62, 62 ]
      - !!opencv-matrix
         rows: 1
         cols: 14
         dt: i
         data: [ 55, 55, 55, 55, 55, 55, 55, 55, 55, 55, 55, 55, 55, 55 ]
      - !!opencv-matrix
         rows: 1
         cols: 14
         dt: i
         data: [ 77, 77, 77, 77, 77, 77, 77, 77, 77, 77, 77, 77, 77, 77 ]
      - !!opencv-matrix
         rows: 1
         cols: 14
         dt: i
         data: [ 65, 65, 65, 65, 65, 65, 65, 65, 65, 65, 65, 65, 65, 65 ]
      - !!opencv-matrix
         rows: 1
         cols: 14
         dt: i
         data: [ 56, 56, 56, 56, 56, 56, 56, 56, 56, 56, 56, 56, 56, 56 ]
      - !!opencv-matrix
         rows: 1
         cols: 14
         dt: i
         data: [ 53, 53, 53, 53, 53, 53, 53, 53, 53, 53, 53, 53, 53, 53 ]
   sum:
      - !!opencv-matrix
         rows: 1
         cols: 14
         dt: d
         data: [ 1.6850276064872742e+002, 4.2108572244644165e+001,
             6.0986317038536072e+001, 7.0172109603881836e+001,
             4.0682794988155365e+001, 1.5917572069168091e+002,
             3.2792710959911346e+001, 1.4636079996824265e+001,
             1.7773184031248093e+000, 6.2458644408707187e-003,
             2.1028000514320411e-003, 2.6108382867240029e-007,
             3.4403378170821952e-004, 3.4785572274631627e-009 ]
      - !!opencv-matrix
         rows: 1
         cols: 14
         dt: d
         data: [ 5.6240899682044983e+001, 2.9175713211297989e+001,
             3.5561748147010803e+001, 6.9636509776115417e+001,
             3.1160281062126160e+001, 5.7865229487419128e+001,
             1.8239080041646957e+001, 1.0485068961977959e+001,
             3.4956961697389488e-002, 8.9617713305074176e-002,
             6.4903823968052166e-003, 3.4310791101749283e-006,
             -8.4051217154268443e-005, 3.8090883985875124e-007 ]
      - !!opencv-matrix
         rows: 1
         cols: 14
         dt: d
         data: [ 6.0447549819946289e+001, 2.8469725042581558e+001,
             3.7130697131156921e+001, 7.3650450110435486e+001,
             3.3838869929313660e+001, 6.0848560214042664e+001,
             1.6965081900358200e+001, 9.3629309833049774e+000,
             6.5942001885559876e-002, 1.2621468853467377e-002,
             2.9963510186803433e-004, 8.1164546924440847e-009,
             -6.8844321459149427e-006, -4.0659326562076173e-010 ]
      - !!opencv-matrix
         rows: 1
         cols: 14
         dt: d
         data: [ 6.8641570329666138e+001, 4.4508277118206024e+001,
             6.0532055854797363e+001, 7.4458859443664551e+001,
             5.3540286004543304e+001, 6.9083209872245789e+001,
             3.9673655092716217e+001, 1.0709968060255051e+001,
             1.3259498299362349e-002, 4.4377062935382128e-002,
             7.0409041626362523e-005, 1.3071996104310822e-010,
             2.7023751735270538e-007, -4.5621664173993123e-010 ]
      - !!opencv-matrix
         rows: 1
         cols: 14
         dt: d
         data: [ 6.6237520337104797e+001, 3.6804907917976379e+001,
             4.9064279854297638e+001, 5.5764660239219666e+001,
             4.3222184002399445e+001, 7.7142850041389465e+001,
             3.4769561886787415e+001, 8.7372759580612183e+000,
             2.4480664054863155e-001, 2.7748836548653344e-003,
             3.1079801823707953e-004, 1.6433167220908412e-008,
             2.3400749621593775e-005, -1.1467086199166298e-009 ]
      - !!opencv-matrix
         rows: 1
         cols: 14
         dt: d
         data: [ 1.6613723981380463e+002, 3.6790570974349976e+001,
             5.3639226913452148e+001, 5.9733879566192627e+001,
             3.2720452249050140e+001, 1.5765986061096191e+002,
             2.7734759122133255e+001, 1.4056042969226837e+001,
             2.1931791054084897e+000, 1.9953037591221801e-002,
             7.9517058561577869e-003, 3.2076747223607448e-006,
             1.4730056664307156e-003, -5.6262176735630970e-008 ]
      - !!opencv-matrix
         rows: 1
         cols: 14
         dt: d
         data: [ 1.1032686054706573e+002, 3.8269107043743134e+001,
             5.4354387164115906e+001, 5.9922609925270081e+001,
             4.2749641001224518e+001, 1.1039252972602844e+002,
             3.6033480346202850e+001, 1.1117017030715942e+001,
             8.3645164035260677e-001, 2.0445821531467345e-003,
             3.4906133336232159e-004, 1.4557833030862971e-008,
             3.4237709902785324e-005, 2.4538677310561611e-009 ]
      - !!opencv-matrix
         rows: 1
         cols: 14
         dt: d
         data: [ 2.2500508999824524e+002, 4.4272883117198944e+001,
             6.1857081890106201e+001, 7.9835150480270386e+001,
             3.5471786826848984e+001, 2.2221257972717285e+002,
             2.4608469948172569e+001, 1.9438908919692039e+001,
             4.3020969964563847e+000, 2.2194224095983373e-002,
             1.0453470634104178e-002, 7.0599206508142258e-006,
             2.8829684626501262e-003, -1.2578951714389873e-007 ]
      - !!opencv-matrix
         rows: 1
         cols: 14
         dt: d
         data: [ 1.0723402023315430e+002, 3.4868152856826782e+001,
             5.1807256162166595e+001, 6.6846650123596191e+001,
             3.8225962042808533e+001, 1.1178854990005493e+002,
             2.5919694036245346e+001, 1.1005744010210037e+001,
             7.6169012603349984e-001, 1.1600142305724148e-002,
             3.9181893334045981e-003, 9.6183608086752295e-007,
             4.9679789219858606e-004, 1.0354686172510212e-008 ]
      - !!opencv-matrix
         rows: 1
         cols: 14
         dt: d
         data: [ 1.4948837041854858e+002, 4.1228729128837585e+001,
             5.9149097919464111e+001, 6.6356810092926025e+001,
             4.1811295092105865e+001, 1.4205157053470612e+002,
             3.4232418119907379e+001, 1.3456790953874588e+001,
             1.4832323063164949e+000, 4.5020545475153995e-003,
             1.2684339575486092e-003, 1.0477784115642900e-007,
             1.7880109660950438e-004, -9.0443224873487589e-010 ]
      - !!opencv-matrix
         rows: 1
         cols: 14
         dt: d
         data: [ 1.2952591919898987e+002, 3.8322448015213013e+001,
             5.4157464861869812e+001, 6.3465450048446655e+001,
             3.9959530711174011e+001, 1.2359892034530640e+002,
             3.1213309198617935e+001, 1.1863522008061409e+001,
             1.0728147001937032e+000, 4.0504519306523434e-003,
             6.1889013066718235e-004, 2.5920141910372528e-008,
             4.1886924210920995e-005, -3.1420073787935987e-009 ]
      - !!opencv-matrix
         rows: 1
         cols: 14
         dt: d
         data: [ 1.9581696081161499e+002, 3.7399069786071777e+001,
             5.1181325018405914e+001, 5.7839130043983459e+001,
             2.7741153299808502e+001, 1.9175803852081299e+002,
             2.2476479083299637e+001, 1.6504990011453629e+001,
             3.9670131728053093e+000, 2.3486460603294290e-002,
             4.8362273238780062e-003, 1.4893678655527765e-006,
             2.8721456353730801e-004, 1.5460143602495906e-006 ]
      - !!opencv-matrix
         rows: 1
         cols: 14
         dt: d
         data: [ 1.5713722968101501e+002, 5.9144722998142242e+001,
             7.2554759681224823e+001, 7.8148040413856506e+001,
             5.8937004029750824e+001, 1.5722363066673279e+002,
             5.1430808961391449e+001, 1.5188803046941757e+001,
             1.3002414074726403e+000, 4.4448370687746319e-003,
             8.0430224084437896e-004, 5.8849315863001667e-008,
             9.8172488067760355e-005, 4.0630624842272835e-010 ]
      - !!opencv-matrix
         rows: 1
         cols: 14
         dt: d
         data: [ 1.4597659957408905e+002, 3.4223069131374359e+001,
             5.2256458163261414e+001, 6.4807950019836426e+001,
             3.3491087168455124e+001, 1.4367438924312592e+002,
             2.5109646111726761e+001, 1.3969822973012924e+001,
             1.9277220973744988e+000, 5.8761843829415739e-002,
             2.9472244081262033e-002, 2.6205120675193427e-005,
             5.5165575795399491e-003, 4.7425708422921264e-008 ]
      - !!opencv-matrix
         rows: 1
         cols: 14
         dt: d
         data: [ 1.2292163991928101e+002, 3.7912092864513397e+001,
             5.5062418937683105e+001, 7.5510319828987122e+001,
             4.0349652886390686e+001, 1.2707125973701477e+002,
             2.4697873085737228e+001, 1.2239598959684372e+001,
             9.5322903804481030e-001, 3.7348713987739757e-002,
             1.0346787908929400e-002, 4.6710877235067727e-006,
             1.3454801510306424e-003, -2.7099782676578976e-008 ]
      - !!opencv-matrix
         rows: 1
         cols: 14
         dt: d
         data: [ 1.8680585026741028e+002, 3.5848645925521851e+001,
             5.2560072124004364e+001, 5.9918380141258240e+001,
             2.8765200048685074e+001, 1.8032436966896057e+002,
             2.3392237931489944e+001, 1.5636393994092941e+001,
             3.1487605031579733e+000, 3.7747275150650239e-002,
             2.1326250326183072e-002, 2.0928689732096009e-005,
             5.3578796817532748e-003, -3.7140405445557079e-008 ]
      - !!opencv-matrix
         rows: 1
         cols: 14
         dt: d
         data: [ 1.1954160964488983e+002, 4.2104081988334656e+001,
             6.2577963173389435e+001, 7.2457120060920715e+001,
             4.7084713995456696e+001, 1.2521565020084381e+002,
             3.7920132160186768e+001, 1.2567005991935730e+001,
             7.3778768023476005e-001, 6.7468963343344512e-003,
             1.5288102304253925e-003, 1.1280043160580768e-007,
             1.5894489092360686e-004, -4.2979835843088383e-009 ]
      - !!opencv-matrix
         rows: 1
         cols: 14
         dt: d
         data: [ 3.6357464075088501e+002, 4.6511431872844696e+001,
             6.4957733154296875e+001, 7.2365949988365173e+001,
             2.4918754994869232e+001, 3.5637939262390137e+002,
             2.0732388973236084e+001, 2.9905572086572647e+001,
             1.1935124032199383e+001, 8.4678056238772115e-002,
             5.0202390421873133e-002, 7.7096672681770118e-005,
             1.9546931513900745e-002, -2.6197004376060651e-006 ]
      - !!opencv-matrix
         rows: 1
         cols: 14
         dt: d
         data: [ 4.0402117156982422e+002, 4.0743369996547699e+001,
             5.5782084167003632e+001, 6.5822860002517700e+001,
             1.8348140031099319e+001, 4.2409210109710693e+002,
             1.4801315948367119e+001, 3.3040854007005692e+001,
             1.8085488148033619e+001, 2.7765540312975645e-001,
             2.2626334670349024e-001, 1.3742373373890615e-003,
             1.1945189347352425e-001, -1.4579038679768397e-007 ]
      - !!opencv-matrix
         rows: 1
         cols: 14
         dt: d
         data: [ 1.3712809956073761e+002, 4.1128018975257874e+001,
             6.1388985812664032e+001, 6.8323680281639099e+001,
             4.3169438004493713e+001, 1.4161903965473175e+002,
             3.6731854110956192e+001, 1.3757951021194458e+001,
             1.2820120337419212e+000, 8.6471184156835079e-002,
             3.0523063607688528e-002, 3.4218463910384855e-005,
             4.7324287124865805e-003, -6.7188942962786991e-007 ]
      - !!opencv-matrix
         rows: 1
         cols: 14
         dt: d
         data: [ 1.9399585080146790e+002, 3.9523033022880554e+001,
             5.9935396015644073e+001, 6.7771619796752930e+001,
             3.4200265794992447e+001, 1.8547728967666626e+002,
             2.8640443921089172e+001, 1.6797472923994064e+001,
             2.9040002878755331e+000, 5.4011917745810933e-002,
             2.6156142848776653e-002, 2.2539945829125330e-005,
             5.4949835543993686e-003, -3.4989068503979426e-007 ]
      - !!opencv-matrix
         rows: 1
         cols: 14
         dt: d
         data: [ 7.4658929824829102e+001, 5.5083323955535889e+001,
             6.9712020039558411e+001, 8.0756360054016113e+001,
             6.5946722149848938e+001, 7.7859949946403503e+001,
             5.2479243934154510e+001, 1.1752479970455170e+001,
             1.4353614496883438e-002, 1.4599454341805540e-002,
             8.8412607955001832e-005, -1.1670122369644719e-009,
             -5.7399614425768047e-007, -1.9472117987535072e-010 ]
      - !!opencv-matrix
         rows: 1
         cols: 14
         dt: d
         data: [ 7.9209749698638916e+001, 4.6497375011444092e+001,
             6.0636221885681152e+001, 6.6469180464744568e+001,
             5.6180281758308411e+001, 8.9249389648437500e+001,
             4.7336619079113007e+001, 1.0476734012365341e+001,
             2.4572217266540974e-001, 1.7241945115529234e-003,
             7.8938711173037746e-005, 8.3493966282857073e-010,
             3.0831799591179987e-006, 1.9770359207057154e-010 ]
      - !!opencv-matrix
         rows: 1
         cols: 14
         dt: d
         data: [ 4.8810316896438599e+002, 4.5141533255577087e+001,
             5.7532581090927124e+001, 6.6632730126380920e+001,
             1.6714114934206009e+001, 5.0319951057434082e+002,
             1.3594290971755981e+001, 4.0914917051792145e+001,
             2.6775982946157455e+001, 2.1038098698772956e-001,
             5.8562286825690535e-002, 2.0468245021743048e-004,
             1.6206170047553314e-002, 6.4777390143879246e-005 ]
      - !!opencv-matrix
         rows: 1
         cols: 14
         dt: d
         data: [ 1.4147660994529724e+002, 4.0000462949275970e+001,
             5.6533679962158203e+001, 6.2925519704818726e+001,
             3.9920323014259338e+001, 1.3813827013969421e+002,
             3.2815082848072052e+001, 1.2990193992853165e+001,
             1.4974695006385446e+000, 1.4277270169259282e-002,
             4.8562513593424228e-003, 9.8260969310509649e-007,
             7.7791011611338945e-004, 1.0391127904961148e-008 ]
      - !!opencv-matrix
         rows: 1
         cols: 14
         dt: d
         data: [ 9.4318189978599548e+001, 3.4764238059520721e+001,
             5.0813488125801086e+001, 5.6958509802818298e+001,
             3.9556540966033936e+001, 9.8089399933815002e+001,
             3.3009248077869415e+001, 9.9837710559368134e+000,
             5.5763505119830370e-001, 1.3649352053107577e-002,
             3.0985097282609786e-003, 5.7049933106442796e-007,
             3.3620552740387666e-004, 2.4859460395429151e-009 ]
      - !!opencv-matrix
         rows: 1
         cols: 14
         dt: d
         data: [ 1.0169667017459869e+002, 4.2945273995399475e+001,
             5.7009847044944763e+001, 7.0852750062942505e+001,
             4.7267570972442627e+001, 1.1079650020599365e+002,
             3.6363890171051025e+001, 1.2216626971960068e+001,
             6.8170434888452291e-001, 3.7190222893286773e-002,
             2.0766110080856492e-003, -4.9623276884130094e-007,
             -2.1352938177265912e-004, 3.6646767631367902e-008 ]
      - !!opencv-matrix
         rows: 1
         cols: 14
         dt: d
         data: [ 7.5469719648361206e+001, 3.5882986068725586e+001,
             4.7187001049518585e+001, 6.6264850020408630e+001,
             4.1370887994766235e+001, 8.6130669832229614e+001,
             2.8586037904024124e+001, 9.8434930145740509e+000,
             3.1324156955815852e-001, 6.5490864999446785e-003,
             3.5709433161201787e-004, 9.4987809312194400e-009,
             1.7678206802873575e-005, -1.3775912789993380e-010 ]
      - !!opencv-matrix
         rows: 1
         cols: 14
         dt: d
         data: [ 1.9447470951080322e+003, 5.1229260176420212e+001,
             6.0470806658267975e+001, 8.7592140674591064e+001,
             6.2830152139067650e+000, 2.4351269969940186e+003,
             4.8539582006633282e+000, 2.1996010088920593e+002,
             6.3458169794082642e+002, 1.4853011842351407e+001,
             1.1388448017911287e+001, 3.5058251819981976e+000,
             3.0787034609471448e+001, 2.4647460864575699e-002 ]
      - !!opencv-matrix
         rows: 1
         cols: 14
         dt: d
         data: [ 2.3008524918556213e+002, 4.0141208946704865e+001,
             5.8611689031124115e+001, 7.3974000096321106e+001,
             3.0023348957300186e+001, 2.3978465938568115e+002,
             2.3189233988523483e+001, 2.0494809016585350e+001,
             4.5937446895986795e+000, 3.2678368913184386e-001,
             1.4888665200123796e-001, 7.1196528643824308e-004,
             3.5615544595202664e-002, -3.5510071758060313e-005 ]
      - !!opencv-matrix
         rows: 1
         cols: 14
         dt: d
         data: [ 6.1928300023078918e+001, 2.1793917000293732e+001,
             2.8426170945167542e+001, 1.0765029001235962e+002,
             2.6065412998199463e+001, 6.0916889905929565e+001,
             7.0970289632678032e+000, 1.1753622993826866e+001,
             3.6751898479565170e-002, 1.8154281613533385e-002,
             1.3012058366257406e-002, 3.0918778033406369e-006,
             -1.7473682092372655e-005, -5.1456496087676218e-007 ]
      - !!opencv-matrix
         rows: 1
         cols: 14
         dt: d
         data: [ 6.1176910400390625e+001, 3.4556434869766235e+001,
             4.4332910120487213e+001, 6.6189460158348083e+001,
             4.1406650781631470e+001, 5.7213310003280640e+001,
             2.6822914063930511e+001, 9.4231570065021515e+000,
             1.8149194898796850e-002, 2.6508623384870589e-002,
             5.0236752715449029e-004, 2.3152684779244835e-008,
             3.7497438774847236e-006, 1.1007596473319899e-009 ]
   productsum:
      - !!opencv-matrix
         rows: 14
         cols: 14
         dt: d
         data: [ 4.5215343932120464e+002, 1.1267275698379719e+002,
             1.6309563068457788e+002, 1.8764939157062534e+002,
             1.0859955239457875e+002, 4.2707025477052798e+002,
             8.7571651678088315e+001, 3.9222519485303096e+001,
             4.7893191828722017e+000, 1.6708409303922544e-002,
             5.7113688332706847e-003, 7.2559474310180804e-007,
             9.4017839438615780e-004, 7.0536565133696412e-009,
             1.1267275698379719e+002, 2.8167437737564924e+001,
             4.0764420181227464e+001, 4.6901925578333753e+001,
             2.7199196462539430e+001, 1.0643950672338364e+002,
             2.1924612689094410e+001, 9.7852198434875017e+000,
             1.1893129868974581e+000, 4.1306454308718179e-003,
             1.3918601270173038e-003, 1.7226686047306423e-007,
             2.2786072292572024e-004, 2.2115690519878980e-009,
             1.6309563068457788e+002, 4.0764420181227464e+001,
             5.9038980223698033e+001, 6.7929220880379006e+001,
             3.9388130679832322e+001, 1.5406645334682966e+002,
             3.1749109958851388e+001, 1.4167303278387170e+001,
             1.7200756552089986e+000, 6.0452610266487558e-003,
             2.0334662038791825e-003, 2.5187877279181576e-007,
             3.3261297964875646e-004, 3.3972148537221639e-009,
             1.8764939157062534e+002, 4.6901925578333753e+001,
             6.7929220880379006e+001, 7.8168998105892285e+001,
             4.5320661404644426e+001, 1.7726410828000510e+002,
             3.6523421003480109e+001, 1.6300697558475477e+001,
             1.9789156069450227e+000, 6.9601269417235529e-003,
             2.3405649647385497e-003, 2.9035265395797647e-007,
             3.8283224888634041e-004, 3.8746297264456766e-009,
             1.0859955239457875e+002, 2.7199196462539430e+001,
             3.9388130679832322e+001, 4.5320661404644426e+001,
             2.6313330663151302e+001, 1.0259250030991940e+002,
             2.1204119109533838e+001, 9.4402473011416745e+000,
             1.1426241109508142e+000, 4.0019447909629430e-003,
             1.3334578484927384e-003, 1.6213253242073679e-007,
             2.1733491056092114e-004, 2.5164938229285030e-009,
             4.2707025477052798e+002, 1.0643950672338364e+002,
             1.5406645334682966e+002, 1.7726410828000510e+002,
             1.0259250030991940e+002, 4.0345069031745800e+002,
             8.2726178629692299e+001, 3.7052831399298277e+001,
             4.5248673458739326e+000, 1.5818824201244804e-002,
             5.4121446532086493e-003, 6.9037408820209890e-007,
             8.9117968849094175e-004, 6.6316882593896284e-009,
             8.7571651678088315e+001, 2.1924612689094410e+001,
             3.1749109958851388e+001, 3.6523421003480109e+001,
             2.1204119109533838e+001, 8.2726178629692299e+001,
             1.7094083452627508e+001, 7.6108908290231261e+000,
             9.2171478383428707e-001, 3.2225937052797211e-003,
             1.0762385905210578e-003, 1.3109233424299730e-007,
             1.7550616412186386e-004, 2.0280659222569168e-009,
             3.9222519485303096e+001, 9.7852198434875017e+000,
             1.4167303278387170e+001, 1.6300697558475477e+001,
             9.4402473011416745e+000, 3.7052831399298277e+001,
             7.6108908290231261e+000, 3.4046405508815285e+000,
             4.1495650309099208e-001, 1.4572559774195910e-003,
             4.9538118003151837e-004, 6.2521508419664377e-008,
             8.1373000949081507e-005, 6.9175308735602856e-010,
             4.7893191828722017e+000, 1.1893129868974581e+000,
             1.7200756552089986e+000, 1.9789156069450227e+000,
             1.1426241109508142e+000, 4.5248673458739326e+000,
             9.2171478383428707e-001, 4.1495650309099208e-001,
             5.1098695762951910e-002, 1.7846184937919885e-004,
             6.2304828031199574e-005, 8.1985223146587632e-009,
             1.0346251488079187e-005, 4.2138118083836547e-011,
             1.6708409303922544e-002, 4.1306454308718179e-003,
             6.0452610266487558e-003, 6.9601269417235529e-003,
             4.0019447909629430e-003, 1.5818824201244804e-002,
             3.2225937052797211e-003, 1.4572559774195910e-003,
             1.7846184937919885e-004, 1.1547533479668693e-006,
             4.2095179015082825e-007, 7.2170477596555916e-011,
             7.1043261331790062e-008, 5.9261293300000612e-013,
             5.7113688332706847e-003, 1.3918601270173038e-003,
             2.0334662038791825e-003, 2.3405649647385497e-003,
             1.3334578484927384e-003, 5.4121446532086493e-003,
             1.0762385905210578e-003, 4.9538118003151837e-004,
             6.2304828031199574e-005, 4.2095179015082825e-007,
             1.6703906209598416e-007, 3.1466959147284896e-011,
             2.9035560931278545e-008, -1.7214055997934079e-013,
             7.2559474310180804e-007, 1.7226686047306423e-007,
             2.5187877279181576e-007, 2.9035265395797647e-007,
             1.6213253242073679e-007, 6.9037408820209890e-007,
             1.3109233424299730e-007, 6.2521508419664377e-008,
             8.1985223146587632e-009, 7.2170477596555916e-011,
             3.1466959147284896e-011, 7.1649691041492438e-015,
             5.6499962255671727e-012, -1.1319037950862961e-016,
             9.4017839438615780e-004, 2.2786072292572024e-004,
             3.3261297964875646e-004, 3.8283224888634041e-004,
             2.1733491056092114e-004, 8.9117968849094175e-004,
             1.7550616412186386e-004, 8.1373000949081507e-005,
             1.0346251488079187e-005, 7.1043261331790062e-008,
             2.9035560931278545e-008, 5.6499962255671727e-012,
             5.1037117564353135e-009, -5.8596169158454463e-014,
             7.0536565133696412e-009, 2.2115690519878980e-009,
             3.3972148537221639e-009, 3.8746297264456766e-009,
             2.5164938229285030e-009, 6.6316882593896284e-009,
             2.0280659222569168e-009, 6.9175308735602856e-010,
             4.2138118083836547e-011, 5.9261293300000612e-013,
             -1.7214055997934079e-013, -1.1319037950862961e-016,
             -5.8596169158454463e-014, 2.6139977091818810e-017 ]
      - !!opencv-matrix
         rows: 14
         cols: 14
         dt: d
         data: [ 5.9795277164943471e+001, 3.0954153818148157e+001,
             3.7763372022743631e+001, 7.3870644292432218e+001,
             3.3095486270920766e+001, 6.1460446593768111e+001,
             1.9385871571911167e+001, 1.1119726752122894e+001,
             3.7652520769619002e-002, 9.4340174381320335e-002,
             6.8616765761989277e-003, 3.6243256079387162e-006,
             -8.8866549332838440e-005, 3.8132157435920277e-007,
             3.0954153818148157e+001, 1.6133083932538590e+001,
             1.9668934320904903e+001, 3.8271155290623369e+001,
             1.7253883789178580e+001, 3.1862628828787280e+001,
             1.0137774893753431e+001, 5.7528775951859812e+000,
             1.8837277906984175e-002, 4.8394305879087607e-002,
             3.4732208742164102e-003, 1.8041241993116806e-006,
             -4.5231692297293718e-005, 2.1042153561448575e-007,
             3.7763372022743631e+001, 1.9668934320904903e+001,
             2.4027841834695430e+001, 4.6615876802457379e+001,
             2.1095825021987437e+001, 3.8872133729926610e+001,
             1.2414449492882451e+001, 6.9981677924758676e+000,
             2.3180384265748980e-002, 5.7924102563332455e-002,
             4.1789835298178301e-003, 2.1534944150189502e-006,
             -5.4728227643015300e-005, 2.4626874491071065e-007,
             7.3870644292432218e+001, 3.8271155290623369e+001,
             4.6615876802457379e+001, 9.1623957604488666e+001,
             4.0820215371499252e+001, 7.5992432498843982e+001,
             2.3821888819310857e+001, 1.3800794703066980e+001,
             4.5829425197051132e-002, 1.1931737255214103e-001,
             8.6562259731808831e-003, 4.6259742353613282e-006,
             -1.1016726218227790e-004, 5.1128170925232975e-007,
             3.3095486270920766e+001, 1.7253883789178580e+001,
             2.1095825021987437e+001, 4.0820215371499252e+001,
             1.8537751697422067e+001, 3.4068073664802199e+001,
             1.0925763479540917e+001, 6.1214991287222373e+000,
             2.0283037166387085e-002, 4.9945618186710852e-002,
             3.6260054303659381e-003, 1.8563959585846968e-006,
             -4.7752304333762976e-005, 2.1095615959995438e-007,
             6.1460446593768111e+001, 3.1862628828787280e+001,
             3.8872133729926610e+001, 7.5992432498843982e+001,
             3.4068073664802199e+001, 6.3264556894518947e+001,
             1.9960085595999978e+001, 1.1437664221945392e+001,
             3.8825544987811537e-002, 9.6943883766987246e-002,
             7.0085277690295090e-003, 3.6708542778012440e-006,
             -9.1891538176378819e-005, 4.1176403477674001e-007,
             1.9385871571911167e+001, 1.0137774893753431e+001,
             1.2414449492882451e+001, 2.3821888819310857e+001,
             1.0925763479540917e+001, 1.9960085595999978e+001,
             6.4807765417103562e+000, 3.5682785320052912e+000,
             1.1883100424155304e-002, 2.8311032073783125e-002,
             2.0515599579998206e-003, 1.0256375751997410e-006,
             -2.7872449893115529e-005, 1.1819862457413293e-007,
             1.1119726752122894e+001, 5.7528775951859812e+000,
             6.9981677924758676e+000, 1.3800794703066980e+001,
             6.1214991287222373e+000, 1.1437664221945392e+001,
             3.5682785320052912e+000, 2.0836110938954304e+000,
             6.9706164574622718e-003, 1.8351752133866802e-002,
             1.3266872369990415e-003, 7.1722446717050701e-007,
             -1.6916018115844035e-005, 7.8511031431340557e-008,
             3.7652520769619002e-002, 1.8837277906984175e-002,
             2.3180384265748980e-002, 4.5829425197051132e-002,
             2.0283037166387085e-002, 3.8825544987811537e-002,
             1.1883100424155304e-002, 6.9706164574622718e-003,
             4.4229447281428989e-005, 4.8990171038766155e-005,
             3.6312864869963744e-006, 1.2651072425711523e-009,
             -1.0165187517079715e-007, -2.1860462094929895e-012,
             9.4340174381320335e-002, 4.8394305879087607e-002,
             5.7924102563332455e-002, 1.1931737255214103e-001,
             4.9945618186710852e-002, 9.6943883766987246e-002,
             2.8311032073783125e-002, 1.8351752133866802e-002,
             4.8990171038766155e-005, 2.1316822581377893e-004,
             1.4132491559125238e-005, 9.3485126325023598e-009,
             -1.0355785958411923e-007, 1.1155197966127767e-009,
             6.8616765761989277e-003, 3.4732208742164102e-003,
             4.1789835298178301e-003, 8.6562259731808831e-003,
             3.6260054303659381e-003, 7.0085277690295090e-003,
             2.0515599579998206e-003, 1.3266872369990415e-003,
             3.6312864869963744e-006, 1.4132491559125238e-005,
             1.1645147798501388e-006, 7.9794282609034513e-010,
             -7.6857438737703968e-009, 5.2924204061698439e-011,
             3.6243256079387162e-006, 1.8041241993116806e-006,
             2.1534944150189502e-006, 4.6259742353613282e-006,
             1.8563959585846968e-006, 3.6708542778012440e-006,
             1.0256375751997410e-006, 7.1722446717050701e-007,
             1.2651072425711523e-009, 9.3485126325023598e-009,
             7.9794282609034513e-010, 6.7875513152967989e-013,
             7.9480585380503158e-013, 2.8220067667450434e-014,
             -8.8866549332838440e-005, -4.5231692297293718e-005,
             -5.4728227643015300e-005, -1.1016726218227790e-004,
             -4.7752304333762976e-005, -9.1891538176378819e-005,
             -2.7872449893115529e-005, -1.6916018115844035e-005,
             -1.0165187517079715e-007, -1.0355785958411923e-007,
             -7.6857438737703968e-009, 7.9480585380503158e-013,
             4.6095134804518580e-010, -5.6089072477854154e-013,
             3.8132157435920277e-007, 2.1042153561448575e-007,
             2.4626874491071065e-007, 5.1128170925232975e-007,
             2.1095615959995438e-007, 4.1176403477674001e-007,
             1.1819862457413293e-007, 7.8511031431340557e-008,
             -2.1860462094929895e-012, 1.1155197966127767e-009,
             5.2924204061698439e-011, 2.8220067667450434e-014,
             -5.6089072477854154e-013, 6.6716104554342945e-014 ]
      - !!opencv-matrix
         rows: 14
         cols: 14
         dt: d
         data: [ 7.0671261999129456e+001, 3.3081227362645066e+001,
             4.3164973133653653e+001, 8.5658574046261407e+001,
             3.9329360890741235e+001, 7.0994154658995214e+001,
             1.9695943582395756e+001, 1.0889112576065253e+001,
             7.9110204957088329e-002, 1.4629844188399473e-002,
             3.4114613384521840e-004, 8.9705878258719421e-009,
             -7.8716025494800440e-006, -4.9253045714006091e-010,
             3.3081227362645066e+001, 1.5615747175474976e+001,
             2.0358669014208374e+001, 4.0288808447783012e+001,
             1.8554843176237526e+001, 3.3304025189979200e+001,
             9.3187294918222889e+000, 5.1239677045582281e+000,
             3.5953770310057198e-002, 6.8905799119890867e-003,
             1.6281188523396310e-004, 4.4098062607957366e-009,
             -3.7068574069718508e-006, -2.0876621020063123e-010,
             4.3164973133653653e+001, 2.0358669014208374e+001,
             2.6552032074964011e+001, 5.2552692919273838e+001,
             2.4197635457776673e+001, 4.3457190687814773e+001,
             1.2149202158642993e+001, 6.6834544680096952e+000,
             4.7106780099919227e-002, 9.0327474491642586e-003,
             2.1152891270755425e-004, 5.7249707782010849e-009,
             -4.8206761769080594e-006, -2.9932937693503493e-010,
             8.5658574046261407e+001, 4.0288808447783012e+001,
             5.2552692919273838e+001, 1.0448181541582314e+002,
             4.7901890474697453e+001, 8.6222562201800685e+001,
             2.3941745045343353e+001, 1.3263313110483194e+001,
             9.3778122229663696e-002, 1.7799070789721816e-002,
             4.2582352304136210e-004, 1.1478952009840552e-008,
             -9.8483918512504742e-006, -5.4039008844836067e-010,
             3.9329360890741235e+001, 1.8554843176237526e+001,
             2.4197635457776673e+001, 4.7901890474697453e+001,
             2.2055139290295394e+001, 3.9588250736593281e+001,
             1.1069716277394088e+001, 6.0903145364974982e+000,
             4.2773623491902828e-002, 8.2070842196237358e-003,
             1.9369761354387727e-004, 5.2608344805335683e-009,
             -4.4121431668983561e-006, -2.5920674752972289e-010,
             7.0994154658995214e+001, 3.3304025189979200e+001,
             4.3457190687814773e+001, 8.6222562201800685e+001,
             3.9588250736593281e+001, 7.1500260952005746e+001,
             1.9831130768836815e+001, 1.0962256329204948e+001,
             7.9939615793685581e-002, 1.4742688374520333e-002,
             3.3915851598095772e-004, 8.8517254426350698e-009,
             -7.9006294807271181e-006, -5.0546202105465056e-010,
             1.9695943582395756e+001, 9.3187294918222889e+000,
             1.2149202158642993e+001, 2.3941745045343353e+001,
             1.1069716277394088e+001, 1.9831130768836815e+001,
             5.5890534009993091e+000, 3.0524223095631506e+000,
             2.1291711852519886e-002, 4.1483462204401356e-003,
             9.6319424983353126e-005, 2.6389620013698185e-009,
             -2.1662996185305526e-006, -1.4219310480810884e-010,
             1.0889112576065253e+001, 5.1239677045582281e+000,
             6.6834544680096952e+000, 1.3263313110483194e+001,
             6.0903145364974982e+000, 1.0962256329204948e+001,
             3.0524223095631506e+000, 1.6862187953675756e+000,
             1.1942216552600004e-002, 2.2754005266162878e-003,
             5.3866040923363008e-005, 1.4519110298653255e-009,
             -1.2419233298145905e-006, -7.2316708778553057e-011,
             7.9110204957088329e-002, 3.5953770310057198e-002,
             4.7106780099919227e-002, 9.3778122229663696e-002,
             4.2773623491902828e-002, 7.9939615793685581e-002,
             2.1291711852519886e-002, 1.1942216552600004e-002,
             1.1232175663919634e-004, 1.5736294744691259e-005,
             2.8676357620738475e-007, 4.9099782605965660e-012,
             -7.4955945060635842e-009, -3.3523448300978832e-013,
             1.4629844188399473e-002, 6.8905799119890867e-003,
             9.0327474491642586e-003, 1.7799070789721816e-002,
             8.2070842196237358e-003, 1.4742688374520333e-002,
             4.1483462204401356e-003, 2.2754005266162878e-003,
             1.5736294744691259e-005, 3.8611306633251549e-006,
             6.3576252115270147e-008, 1.8057323092269418e-012,
             -1.3698165377414435e-009, -2.7208536725677239e-013,
             3.4114613384521840e-004, 1.6281188523396310e-004,
             2.1152891270755425e-004, 4.2582352304136210e-004,
             1.9369761354387727e-004, 3.3915851598095772e-004,
             9.6319424983353126e-005, 5.3866040923363008e-005,
             2.8676357620738475e-007, 6.3576252115270147e-008,
             2.7367818278359431e-009, 8.9467840352464523e-014,
             -5.9396015275343058e-011, 1.3742213125983302e-015,
             8.9705878258719421e-009, 4.4098062607957366e-009,
             5.7249707782010849e-009, 1.1478952009840552e-008,
             5.2608344805335683e-009, 8.8517254426350698e-009,
             2.6389620013698185e-009, 1.4519110298653255e-009,
             4.9099782605965660e-012, 1.8057323092269418e-012,
             8.9467840352464523e-014, 3.6947127586788077e-018,
             -1.7354136017609650e-015, -2.4925997438591725e-019,
             -7.8716025494800440e-006, -3.7068574069718508e-006,
             -4.8206761769080594e-006, -9.8483918512504742e-006,
             -4.4121431668983561e-006, -7.9006294807271181e-006,
             -2.1662996185305526e-006, -1.2419233298145905e-006,
             -7.4955945060635842e-009, -1.3698165377414435e-009,
             -5.9396015275343058e-011, -1.7354136017609650e-015,
             1.5591477811283515e-012, -3.9609165341083765e-017,
             -4.9253045714006091e-010, -2.0876621020063123e-010,
             -2.9932937693503493e-010, -5.4039008844836067e-010,
             -2.5920674752972289e-010, -5.0546202105465056e-010,
             -1.4219310480810884e-010, -7.2316708778553057e-011,
             -3.3523448300978832e-013, -2.7208536725677239e-013,
             1.3742213125983302e-015, -2.4925997438591725e-019,
             -3.9609165341083765e-017, 1.8090362429908366e-018 ]
      - !!opencv-matrix
         rows: 14
         cols: 14
         dt: d
         data: [ 7.3927859201650932e+001, 4.7710548601795416e+001,
             6.4936115818097903e+001, 7.9829444657229104e+001,
             5.7408456411468535e+001, 7.4325979903008715e+001,
             4.2570025651641060e+001, 1.1488901946599492e+001,
             1.4932968680914240e-002, 4.7641662765207773e-002,
             7.9118231361782648e-005, 4.4259998181997666e-010,
             4.3332653467016527e-007, -6.2509771731279627e-010,
             4.7710548601795416e+001, 3.1012469953323080e+001,
             4.2129397026591107e+001, 5.1759357960393523e+001,
             3.7300298685929846e+001, 4.8046339404425083e+001,
             2.7664886074827450e+001, 7.4451146414658931e+000,
             9.2439310391426999e-003, 3.0573314418337782e-002,
             4.8937034076042609e-005, 8.9745640385672357e-011,
             1.8809382552910751e-007, -3.0804188837259840e-010,
             6.4936115818097903e+001, 4.2129397026591107e+001,
             5.7280895951846105e+001, 7.0398448917686537e+001,
             5.0683424357865306e+001, 6.5372056060500029e+001,
             3.7584327711635630e+001, 1.0127460729191842e+001,
             1.2577428156992820e-002, 4.1785608135634131e-002,
             6.6577041342627546e-005, 1.7608169357843990e-010,
             2.7821034615286572e-007, -4.3483121442679467e-010,
             7.9829444657229104e+001, 5.1759357960393523e+001,
             7.0398448917686537e+001, 8.6682457493833908e+001,
             6.2255998952786079e+001, 8.0339738614248887e+001,
             4.6073959339626683e+001, 1.2461818360162091e+001,
             1.5391546276284151e-002, 5.1762650697052930e-002,
             8.2088654375438104e-005, 9.1482460861896609e-011,
             2.9152508980740889e-007, -5.2110656215090188e-010,
             5.7408456411468535e+001, 3.7300298685929846e+001,
             5.0683424357865306e+001, 6.2255998952786079e+001,
             4.4873282509254551e+001, 5.7817266066263080e+001,
             3.3288671795046660e+001, 8.9556358549166895e+000,
             1.1107642945898276e-002, 3.6764915443703257e-002,
             5.8719443038500443e-005, 1.3821866811479765e-010,
             2.3901235825657432e-007, -3.6930262446719308e-010,
             7.4325979903008715e+001, 4.8046339404425083e+001,
             6.5372056060500029e+001, 8.0339738614248887e+001,
             5.7817266066263080e+001, 7.4830417871105638e+001,
             4.2876717504321881e+001, 1.1560545652853099e+001,
             1.5081278042958913e-002, 4.7727642934387159e-002,
             7.9921778573306679e-005, 4.5281603314804312e-010,
             4.4602081409419844e-007, -6.0005494926618113e-010,
             4.2570025651641060e+001, 2.7664886074827450e+001,
             3.7584327711635630e+001, 4.6073959339626683e+001,
             3.3288671795046660e+001, 4.2876717504321881e+001,
             2.4755905125537051e+001, 6.6343893883659701e+000,
             8.2646283683304751e-003, 2.7096108682814864e-002,
             4.3329116760343593e-005, 1.6268136210019530e-010,
             1.9972708020894140e-007, -2.8313672580730445e-010,
             1.1488901946599492e+001, 7.4451146414658931e+000,
             1.0127460729191842e+001, 1.2461818360162091e+001,
             8.9556358549166895e+000, 1.1560545652853099e+001,
             6.6343893883659701e+000, 1.7924956528447082e+000,
             2.2270219978101132e-003, 7.4465686437027610e-003,
             1.1850178937114222e-005, 2.0847867127777223e-011,
             4.5115245587762408e-008, -7.7902498782224217e-011,
             1.4932968680914240e-002, 9.2439310391426999e-003,
             1.2577428156992820e-002, 1.5391546276284151e-002,
             1.1107642945898276e-002, 1.5081278042958913e-002,
             8.2646283683304751e-003, 2.2270219978101132e-003,
             6.9231005146402728e-006, 8.7864529436390200e-006,
             3.7943619277783667e-008, 1.0390346428801373e-012,
             6.0707534343896737e-010, -6.6034928656931185e-013,
             4.7641662765207773e-002, 3.0573314418337782e-002,
             4.1785608135634131e-002, 5.1762650697052930e-002,
             3.6764915443703257e-002, 4.7727642934387159e-002,
             2.7096108682814864e-002, 7.4465686437027610e-003,
             8.7864529436390200e-006, 3.2776538063833993e-005,
             4.7790211522640634e-008, -1.7492773723077588e-013,
             6.7596887030903026e-011, -3.1255563087924950e-013,
             7.9118231361782648e-005, 4.8937034076042609e-005,
             6.6577041342627546e-005, 8.2088654375438104e-005,
             5.8719443038500443e-005, 7.9921778573306679e-005,
             4.3329116760343593e-005, 1.1850178937114222e-005,
             3.7943619277783667e-008, 4.7790211522640634e-008,
             2.5300498210004827e-010, 4.6779833090232866e-015,
             3.1255689116145825e-012, -3.9242399759062111e-015,
             4.4259998181997666e-010, 8.9745640385672357e-011,
             1.7608169357843990e-010, 9.1482460861896609e-011,
             1.3821866811479765e-010, 4.5281603314804312e-010,
             1.6268136210019530e-010, 2.0847867127777223e-011,
             1.0390346428801373e-012, -1.7492773723077588e-013,
             4.6779833090232866e-015, 6.8525352246859582e-019,
             3.1204694651376419e-016, -2.2076873491812595e-019,
             4.3332653467016527e-007, 1.8809382552910751e-007,
             2.7821034615286572e-007, 2.9152508980740889e-007,
             2.3901235825657432e-007, 4.4602081409419844e-007,
             1.9972708020894140e-007, 4.5115245587762408e-008,
             6.0707534343896737e-010, 6.7596887030903026e-011,
             3.1255689116145825e-012, 3.1204694651376419e-016,
             1.4964316714085968e-013, -1.1316622770030304e-016,
             -6.2509771731279627e-010, -3.0804188837259840e-010,
             -4.3483121442679467e-010, -5.2110656215090188e-010,
             -3.6930262446719308e-010, -6.0005494926618113e-010,
             -2.8313672580730445e-010, -7.7902498782224217e-011,
             -6.6034928656931185e-013, -3.1255563087924950e-013,
             -3.9242399759062111e-015, -2.2076873491812595e-019,
             -1.1316622770030304e-016, 1.8553993471919590e-019 ]
      - !!opencv-matrix
         rows: 14
         cols: 14
         dt: d
         data: [ 9.2094230482719311e+001, 4.8445199224959609e+001,
             6.4979233642508831e+001, 7.3851361513732698e+001,
             5.6834357831513366e+001, 1.0403592072324443e+002,
             4.5747856669255320e+001, 1.1657372073270926e+001,
             3.5210035380304094e-001, 4.2079984746149933e-003,
             4.8823581438377174e-004, 2.7305121420508158e-008,
             3.7486692350485638e-005, -2.1446454182890223e-009,
             4.8445199224959609e+001, 2.7147378675849708e+001,
             3.6120382385966501e+001, 4.1048275814649486e+001,
             3.1871753255992335e+001, 5.6578719345024794e+001,
             2.5638605320287116e+001, 6.4229674638579910e+000,
             1.7738250049400489e-001, 1.9945648145399623e-003,
             2.2057494391594656e-004, 1.1545487121315880e-008,
             1.6516706011531090e-005, -8.1637101615058602e-010,
             6.4979233642508831e+001, 3.6120382385966501e+001,
             4.8147239534598228e+001, 5.4720244372244160e+001,
             4.2419684147805476e+001, 7.5681549521495967e+001,
             3.4125019391004834e+001, 8.5730484775266280e+000,
             2.3998771738268343e-001, 2.7217465518121417e-003,
             3.0457656777238150e-004, 1.6099633107627680e-008,
             2.2928679150685154e-005, -1.1240920988652462e-009,
             7.3851361513732698e+001, 4.1048275814649486e+001,
             5.4720244372244160e+001, 6.2208414745732327e+001,
             4.8206782628861284e+001, 8.6024846522676256e+001,
             3.8761787693540974e+001, 9.7439453856743654e+000,
             2.7282515524619477e-001, 3.0793534558913567e-003,
             3.4517567653793009e-004, 1.8195655629149354e-008,
             2.5990304263654595e-005, -1.2647633672076465e-009,
             5.6834357831513366e+001, 3.1871753255992335e+001,
             4.2419684147805476e+001, 4.8206782628861284e+001,
             3.7437338735816610e+001, 6.6418330168413632e+001,
             3.0114367444083701e+001, 7.5413324396485120e+000,
             2.0778876745808850e-001, 2.3369484201641679e-003,
             2.5825031251577846e-004, 1.3431768848393877e-008,
             1.9334164412079540e-005, -9.1875756131527676e-010,
             1.0403592072324443e+002, 5.6578719345024794e+001,
             7.5681549521495967e+001, 8.6024846522676256e+001,
             6.6418330168413632e+001, 1.2012538855446563e+002,
             5.3444114206876222e+001, 1.3528650389799143e+001,
             3.9399779681846903e-001, 4.4968046482660425e-003,
             5.1543386876931065e-004, 2.8046190250072451e-008,
             3.9196499323166875e-005, -2.0629577425518749e-009,
             4.5747856669255320e+001, 2.5638605320287116e+001,
             3.4125019391004834e+001, 3.8761787693540974e+001,
             3.0114367444083701e+001, 5.3444114206876222e+001,
             2.4245195583669521e+001, 6.0673544287496171e+000,
             1.6740275150326756e-001, 1.8983500199236400e-003,
             2.0946105580486730e-004, 1.0959488188077901e-008,
             1.5680428637778238e-005, -7.5534846607192544e-010,
             1.1657372073270926e+001, 6.4229674638579910e+000,
             8.5730484775266280e+000, 9.7439453856743654e+000,
             7.5413324396485120e+000, 1.3528650389799143e+001,
             6.0673544287496171e+000, 1.5289456382789854e+000,
             4.3503948072851933e-002, 4.9472539664180447e-004,
             5.5917916728775017e-005, 2.9957293999025753e-009,
             4.2273125144321982e-006, -2.1440780961175391e-010,
             3.5210035380304094e-001, 1.7738250049400489e-001,
             2.3998771738268343e-001, 2.7282515524619477e-001,
             2.0778876745808850e-001, 3.9399779681846903e-001,
             1.6740275150326756e-001, 4.3503948072851933e-002,
             1.4448878491465024e-003, 1.6489997192904406e-005,
             2.0155557284297893e-006, 1.1819794661151861e-010,
             1.5726034838229952e-007, -9.9284429778782058e-012,
             4.2079984746149933e-003, 1.9945648145399623e-003,
             2.7217465518121417e-003, 3.0793534558913567e-003,
             2.3369484201641679e-003, 4.4968046482660425e-003,
             1.8983500199236400e-003, 4.9472539664180447e-004,
             1.6489997192904406e-005, 4.0245863795108152e-007,
             4.7314194523492419e-008, 3.5995633686448202e-012,
             3.7969509388299889e-009, -4.3817564951372571e-013,
             4.8823581438377174e-004, 2.2057494391594656e-004,
             3.0457656777238150e-004, 3.4517567653793009e-004,
             2.5825031251577846e-004, 5.1543386876931065e-004,
             2.0946105580486730e-004, 5.5917916728775017e-005,
             2.0155557284297893e-006, 4.7314194523492419e-008,
             5.9962018868525533e-009, 4.5559951106996993e-013,
             4.9085918260747581e-010, -5.0050838913470339e-014,
             2.7305121420508158e-008, 1.1545487121315880e-008,
             1.6099633107627680e-008, 1.8195655629149354e-008,
             1.3431768848393877e-008, 2.8046190250072451e-008,
             1.0959488188077901e-008, 2.9957293999025753e-009,
             1.1819794661151861e-010, 3.5995633686448202e-012,
             4.5559951106996993e-013, 3.9816606670733966e-017,
             3.8003809979722764e-014, -5.7244775116432442e-018,
             3.7486692350485638e-005, 1.6516706011531090e-005,
             2.2928679150685154e-005, 2.5990304263654595e-005,
             1.9334164412079540e-005, 3.9196499323166875e-005,
             1.5680428637778238e-005, 4.2273125144321982e-006,
             1.5726034838229952e-007, 3.7969509388299889e-009,
             4.9085918260747581e-010, 3.8003809979722764e-014,
             4.0592541260496312e-011, -4.3193419632426815e-015,
             -2.1446454182890223e-009, -8.1637101615058602e-010,
             -1.1240920988652462e-009, -1.2647633672076465e-009,
             -9.1875756131527676e-010, -2.0629577425518749e-009,
             -7.5534846607192544e-010, -2.1440780961175391e-010,
             -9.9284429778782058e-012, -4.3817564951372571e-013,
             -5.0050838913470339e-014, -5.7244775116432442e-018,
             -4.3193419632426815e-015, 1.6387621378157512e-018 ]
      - !!opencv-matrix
         rows: 14
         cols: 14
         dt: d
         data: [ 5.1090550079745594e+002, 1.1101114000929253e+002,
             1.6190150061578899e+002, 1.8038837830561951e+002,
             9.7401351053669117e+001, 4.8502369052236429e+002,
             8.2613002020322611e+001, 4.3041721196860038e+001,
             6.9208264187021378e+000, 6.5208969296985483e-002,
             2.6027780444988789e-002, 1.0983711452673196e-005,
             4.8589421487176803e-003, -3.2012062540777953e-007,
             1.1101114000929253e+002, 2.4626610560518237e+001,
             3.5884627045013119e+001, 3.9959676383883298e+001,
             2.1916771640738308e+001, 1.0536304903937561e+002,
             1.8574452820890400e+001, 9.3963487287838063e+000,
             1.4642508257958171e+000, 1.3311562770014341e-002,
             5.2885301487958451e-003, 2.1344779618221739e-006,
             9.7824805036549468e-004, -3.6152965367664019e-008,
             1.6190150061578899e+002, 3.5884627045013119e+001,
             5.2318349391075898e+001, 5.8256480168517683e+001,
             3.1934584474082520e+001, 1.5363149068936698e+002,
             2.7068056963989850e+001, 1.3700543838165142e+001,
             2.1351139357605460e+000, 1.9333121363353460e-002,
             7.7099483254094939e-003, 3.0955892797311752e-006,
             1.4287189725624419e-003, -6.2835604461967469e-008,
             1.8038837830561951e+002, 3.9959676383883298e+001,
             5.8256480168517683e+001, 6.4882040882611363e+001,
             3.5545477667304880e+001, 1.7119469137326104e+002,
             3.0123078537578223e+001, 1.5263182076698488e+001,
             2.3806828319586839e+000, 2.1666162644799418e-002,
             8.6421814922718054e-003, 3.4901160649680863e-006,
             1.6020427344824836e-003, -6.5514989934524252e-008,
             9.7401351053669117e+001, 2.1916771640738308e+001,
             3.1934584474082520e+001, 3.5545477667304880e+001,
             1.9703323684309183e+001, 9.2403730233231528e+001,
             1.6691481105218916e+001, 8.2707572213463543e+000,
             1.2587298978670174e+000, 1.1043292796892951e-002,
             4.3927562837829514e-003, 1.6962603197713469e-006,
             8.0867971617557563e-004, -2.0201032546944864e-008,
             4.8502369052236429e+002, 1.0536304903937561e+002,
             1.5363149068936698e+002, 1.7119469137326104e+002,
             9.2403730233231528e+001, 4.6065262355177708e+002,
             7.8364099062594619e+001, 4.0869040383697019e+001,
             6.5799935531866947e+000, 6.2821279620908554e-002,
             2.4987559236058214e-002, 1.0664649961806940e-005,
             4.6579734412456530e-003, -2.7812065347661421e-007,
             8.2613002020322611e+001, 1.8574452820890400e+001,
             2.7068056963989850e+001, 3.0123078537578223e+001,
             1.6691481105218916e+001, 7.8364099062594619e+001,
             1.4145835917783689e+001, 7.0134206140707578e+000,
             1.0683138433371524e+000, 9.3706131897079211e-003,
             3.7209118826251769e-003, 1.4341753406221015e-006,
             6.8408464750008041e-004, -1.3594460765947287e-008,
             4.3041721196860038e+001, 9.3963487287838063e+000,
             1.3700543838165142e+001, 1.5263182076698488e+001,
             8.2707572213463543e+000, 4.0869040383697019e+001,
             7.0134206140707578e+000, 3.6308815384229201e+000,
             5.8021008528189988e-001, 5.4531538402473444e-003,
             2.1718081455325659e-003, 9.1288290764229165e-007,
             4.0459587876135372e-004, -2.3780290305618922e-008,
             6.9208264187021378e+000, 1.4642508257958171e+000,
             2.1351139357605460e+000, 2.3806828319586839e+000,
             1.2587298978670174e+000, 6.5799935531866947e+000,
             1.0683138433371524e+000, 5.8021008528189988e-001,
             9.7542550481744913e-002, 9.7371152701205318e-004,
             3.8776185301299756e-004, 1.7562744382486740e-007,
             7.3133199406302037e-005, -7.9494936117526739e-009,
             6.5208969296985483e-002, 1.3311562770014341e-002,
             1.9333121363353460e-002, 2.1666162644799418e-002,
             1.1043292796892951e-002, 6.2821279620908554e-002,
             9.3706131897079211e-003, 5.4531538402473444e-003,
             9.7371152701205318e-004, 1.5465113573786764e-005,
             5.4759086964698404e-006, 3.1126509303279509e-009,
             9.5907522690026767e-007, 9.8287252105875416e-011,
             2.6027780444988789e-002, 5.2885301487958451e-003,
             7.7099483254094939e-003, 8.6421814922718054e-003,
             4.3927562837829514e-003, 2.4987559236058214e-002,
             3.7209118826251769e-003, 2.1718081455325659e-003,
             3.8776185301299756e-004, 5.4759086964698404e-006,
             2.1327729576458815e-006, 1.1620456945586386e-009,
             4.0009054735140962e-007, -1.0997157865465524e-011,
             1.0983711452673196e-005, 2.1344779618221739e-006,
             3.0955892797311752e-006, 3.4901160649680863e-006,
             1.6962603197713469e-006, 1.0664649961806940e-005,
             1.4341753406221015e-006, 9.1288290764229165e-007,
             1.7562744382486740e-007, 3.1126509303279509e-009,
             1.1620456945586386e-009, 7.4617313221976126e-013,
             2.1630538461753698e-010, 1.2956447321894975e-015,
             4.8589421487176803e-003, 9.7824805036549468e-004,
             1.4287189725624419e-003, 1.6020427344824836e-003,
             8.0867971617557563e-004, 4.6579734412456530e-003,
             6.8408464750008041e-004, 4.0459587876135372e-004,
             7.3133199406302037e-005, 9.5907522690026767e-007,
             4.0009054735140962e-007, 2.1630538461753698e-010,
             7.8813523804343556e-008, -1.0625626176820766e-011,
             -3.2012062540777953e-007, -3.6152965367664019e-008,
             -6.2835604461967469e-008, -6.5514989934524252e-008,
             -2.0201032546944864e-008, -2.7812065347661421e-007,
             -1.3594460765947287e-008, -2.3780290305618922e-008,
             -7.9494936117526739e-009, 9.8287252105875416e-011,
             -1.0997157865465524e-011, 1.2956447321894975e-015,
             -1.0625626176820766e-011, 1.0919262442732805e-013 ]
      - !!opencv-matrix
         rows: 14
         cols: 14
         dt: d
         data: [ 2.2614975477441641e+002, 7.6645117300123985e+001,
             1.0902684405015302e+002, 1.2017031232570410e+002,
             8.5217523293451478e+001, 2.2389069926541197e+002,
             7.1873135376574282e+001, 2.2445703080974397e+001,
             1.7350816765682797e+000, 4.2218062352641604e-003,
             7.3820279903561803e-004, 3.1847919818236056e-008,
             7.3052815180664864e-005, 5.4395479876727946e-009,
             7.6645117300123985e+001, 2.6644402174409539e+001,
             3.7821233414790257e+001, 4.1697263345415493e+001,
             2.9771244734296680e+001, 7.6738103329901790e+001,
             2.5089933677278118e+001, 7.7305894046809627e+000,
             5.8032271769993871e-001, 1.4113856329050058e-003,
             2.4014853804934938e-004, 9.9194417500203093e-009,
             2.3508918843798945e-005, 1.6608310256329001e-009,
             1.0902684405015302e+002, 3.7821233414790257e+001,
             5.3716877331302214e+001, 5.9218455774413101e+001,
             4.2250074389778618e+001, 1.0909303113471326e+002,
             3.5613249338201641e+001, 1.0986267399297805e+001,
             8.2655389384631461e-001, 2.0204648114726925e-003,
             3.4504102790239879e-004, 1.4389056542374473e-008,
             3.3851785623466426e-005, 2.4231567088599707e-009,
             1.2017031232570410e+002, 4.1697263345415493e+001,
             5.9218455774413101e+001, 6.5299742016716820e+001,
             4.6578281107828019e+001, 1.2026996181864956e+002,
             3.9244061596847821e+001, 1.2111932948932896e+001,
             9.1134639984874311e-001, 2.2245871856494165e-003,
             3.7992828830817608e-004, 1.5856984131164361e-008,
             3.7289620320853537e-005, 2.6591128619061850e-009,
             8.5217523293451478e+001, 2.9771244734296680e+001,
             4.2250074389778618e+001, 4.6578281107828019e+001,
             3.3312211754768029e+001, 8.5467321144788272e+001,
             2.8074448190347209e+001, 8.6204502989786249e+000,
             6.4222123388452523e-001, 1.5639351007214360e-003,
             2.6469710807563453e-004, 1.0853196593731345e-008,
             2.5884324869473789e-005, 1.8081532560972881e-009,
             2.2389069926541197e+002, 7.6738103329901790e+001,
             1.0909303113471326e+002, 1.2026996181864956e+002,
             8.5467321144788272e+001, 2.2308962317342935e+002,
             7.2048119611093654e+001, 2.2404427667984024e+001,
             1.7147979834454115e+000, 4.1977128119498131e-003,
             7.2831354303992137e-004, 3.1146884085723914e-008,
             7.1933188918108009e-005, 5.2939238831142822e-009,
             7.1873135376574282e+001, 2.5089933677278118e+001,
             3.5613249338201641e+001, 3.9244061596847821e+001,
             2.8074448190347209e+001, 7.2048119611093654e+001,
             2.3679984605022799e+001, 7.2665134931287447e+000,
             5.4139406577264371e-001, 1.3218045765040572e-003,
             2.2360291952259575e-004, 9.1547130048867972e-009,
             2.1839962497291489e-005, 1.5401659479703850e-009,
             2.2445703080974397e+001, 7.7305894046809627e+000,
             1.0986267399297805e+001, 1.2111932948932896e+001,
             8.6204502989786249e+000, 2.2404427667984024e+001,
             7.2665134931287447e+000, 2.2525574602179725e+000,
             1.7123793725127689e-001, 4.1985146139695732e-004,
             7.2444072507722767e-005, 3.0757502718129992e-009,
             7.1421077967572895e-006, 5.2078742062941362e-010,
             1.7350816765682797e+000, 5.8032271769993871e-001,
             8.2655389384631461e-001, 9.1134639984874311e-001,
             6.4222123388452523e-001, 1.7147979834454115e+000,
             5.4139406577264371e-001, 1.7123793725127689e-001,
             1.3577937338478775e-002, 3.3563994546221098e-005,
             6.0352348267720758e-006, 2.7272752434423156e-010,
             6.0675075345157490e-007, 4.6737842187528094e-011,
             4.2218062352641604e-003, 1.4113856329050058e-003,
             2.0204648114726925e-003, 2.2245871856494165e-003,
             1.5639351007214360e-003, 4.1977128119498131e-003,
             1.3218045765040572e-003, 4.1985146139695732e-004,
             3.3563994546221098e-005, 1.7524338747051741e-007,
             3.3838119432072218e-008, 2.0567580815878121e-012,
             3.5517166285225197e-009, 4.4086885370692167e-013,
             7.3820279903561803e-004, 2.4014853804934938e-004,
             3.4504102790239879e-004, 3.7992828830817608e-004,
             2.6469710807563453e-004, 7.2831354303992137e-004,
             2.2360291952259575e-004, 7.2444072507722767e-005,
             6.0352348267720758e-006, 3.3838119432072218e-008,
             7.4849342093381340e-009, 4.9931288113718311e-013,
             8.6717424471542258e-010, 9.2851604368261631e-014,
             3.1847919818236056e-008, 9.9194417500203093e-009,
             1.4389056542374473e-008, 1.5856984131164361e-008,
             1.0853196593731345e-008, 3.1146884085723914e-008,
             9.1547130048867972e-009, 3.0757502718129992e-009,
             2.7272752434423156e-010, 2.0567580815878121e-012,
             4.9931288113718311e-013, 3.9884461294856713e-017,
             6.0814413427037635e-014, 8.1100435285006081e-018,
             7.3052815180664864e-005, 2.3508918843798945e-005,
             3.3851785623466426e-005, 3.7289620320853537e-005,
             2.5884324869473789e-005, 7.1933188918108009e-005,
             2.1839962497291489e-005, 7.1421077967572895e-006,
             6.0675075345157490e-007, 3.5517166285225197e-009,
             8.6717424471542258e-010, 6.0814413427037635e-014,
             1.0713781816261369e-010, 1.0089886881524318e-014,
             5.4395479876727946e-009, 1.6608310256329001e-009,
             2.4231567088599707e-009, 2.6591128619061850e-009,
             1.8081532560972881e-009, 5.2939238831142822e-009,
             1.5401659479703850e-009, 5.2078742062941362e-010,
             4.6737842187528094e-011, 4.4086885370692167e-013,
             9.2851604368261631e-014, 8.1100435285006081e-018,
             1.0089886881524318e-014, 2.5386054130350348e-018 ]
      - !!opencv-matrix
         rows: 14
         cols: 14
         dt: d
         data: [ 8.0778171464898037e+002, 1.5320012678379345e+002,
             2.1415411738804755e+002, 2.7304547611345146e+002,
             1.1952950199057111e+002, 7.9849025171001892e+002,
             8.4154990574082774e+001, 6.9492317487541584e+001,
             1.6270564813009329e+001, 8.9108612027482145e-002,
             4.3345355961650164e-002, 3.0879517712096344e-005,
             1.2300867659846256e-002, -5.2435602241654279e-007,
             1.5320012678379345e+002, 3.0190749646695675e+001,
             4.2148698012620912e+001, 5.4321777258702639e+001,
             2.4189095282513115e+001, 1.5124464059907237e+002,
             1.6816679119866798e+001, 1.3229079626044932e+001,
             2.9231209754423877e+000, 1.5064708134667412e-002,
             7.0967710197043813e-003, 4.7908835210783116e-006,
             1.9590054228096170e-003, -8.5917946470297049e-008,
             2.1415411738804755e+002, 4.2148698012620912e+001,
             5.8896109962713425e+001, 7.5728915545733855e+001,
             3.3773212338489742e+001, 2.1143145913743609e+002,
             2.3524374686461311e+001, 1.8493755463172604e+001,
             4.0906352358586187e+000, 2.1090906952050653e-002,
             9.9416333740390082e-003, 6.7208798067505170e-006,
             2.7438860255080970e-003, -1.2280703451067308e-007,
             2.7304547611345146e+002, 5.4321777258702639e+001,
             7.5728915545733855e+001, 1.0105507548745732e+002,
             4.3809601847993569e+001, 2.7005421143417954e+002,
             2.9338444153504000e+001, 2.3677712685830077e+001,
             5.1643200190413907e+000, 2.6324474836612884e-002,
             1.2258972201638562e-002, 8.1338586837741317e-006,
             3.3524549220049454e-003, -1.3695203674845583e-007,
             1.1952950199057111e+002, 2.4189095282513115e+001,
             3.3773212338489742e+001, 4.3809601847993569e+001,
             1.9746444177730872e+001, 1.1791022462975343e+002,
             1.3615440423112659e+001, 1.0353625689309071e+001,
             2.1890398300028338e+000, 1.0678887232383284e-002,
             4.8897473068972349e-003, 3.1322498127386196e-006,
             1.3145295070568297e-003, -5.7946009716284506e-008,
             7.9849025171001892e+002, 1.5124464059907237e+002,
             2.1143145913743609e+002, 2.7005421143417954e+002,
             1.1791022462975343e+002, 7.8977822139092518e+002,
             8.2847397100961871e+001, 6.8729096399833807e+001,
             1.6132405110063466e+001, 8.8804528308076836e-002,
             4.3195945456211728e-002, 3.0845154648415662e-005,
             1.2261206622753198e-002, -5.3220207117347887e-007,
             8.4154990574082774e+001, 1.6816679119866798e+001,
             2.3524374686461311e+001, 2.9338444153504000e+001,
             1.3615440423112659e+001, 8.2847397100961871e+001,
             9.7980371809449807e+000, 7.2535783245737262e+000,
             1.5617557331878302e+000, 7.7387994363019418e-003,
             3.6071580452743386e-003, 2.3795140832055137e-006,
             9.8393024029237979e-004, -4.8468756783119835e-008,
             6.9492317487541584e+001, 1.3229079626044932e+001,
             1.8493755463172604e+001, 2.3677712685830077e+001,
             1.0353625689309071e+001, 6.8729096399833807e+001,
             7.2535783245737262e+000, 5.9857782517640956e+000,
             1.3947215162213138e+000, 7.6211401173271126e-003,
             3.6973283752496514e-003, 2.6271319866889482e-006,
             1.0467451889890696e-003, -4.5871204687545312e-008,
             1.6270564813009329e+001, 2.9231209754423877e+000,
             4.0906352358586187e+000, 5.1643200190413907e+000,
             2.1890398300028338e+000, 1.6132405110063466e+001,
             1.5617557331878302e+000, 1.3947215162213138e+000,
             3.5285574250560225e-001, 2.0857182489007540e-003,
             1.0544638608571359e-003, 7.9852215441121825e-007,
             3.0913179734699857e-004, -1.3579583228908592e-008,
             8.9108612027482145e-002, 1.5064708134667412e-002,
             2.1090906952050653e-002, 2.6324474836612884e-002,
             1.0678887232383284e-002, 8.8804528308076836e-002,
             7.7387994363019418e-003, 7.6211401173271126e-003,
             2.0857182489007540e-003, 1.8163038114091160e-005,
             9.5354017867031692e-006, 8.5138781919560592e-009,
             2.8560904478034567e-006, -1.8399736784830543e-010,
             4.3345355961650164e-002, 7.0967710197043813e-003,
             9.9416333740390082e-003, 1.2258972201638562e-002,
             4.8897473068972349e-003, 4.3195945456211728e-002,
             3.6071580452743386e-003, 3.6973283752496514e-003,
             1.0544638608571359e-003, 9.5354017867031692e-006,
             5.4858093231274811e-006, 5.2050360819918298e-009,
             1.7249245507935832e-006, -1.0517724018607288e-010,
             3.0879517712096344e-005, 4.7908835210783116e-006,
             6.7208798067505170e-006, 8.1338586837741317e-006,
             3.1322498127386196e-006, 3.0845154648415662e-005,
             2.3795140832055137e-006, 2.6271319866889482e-006,
             7.9852215441121825e-007, 8.5138781919560592e-009,
             5.2050360819918298e-009, 5.5851820645474730e-012,
             1.7005401127888840e-009, -1.2348389531036926e-013,
             1.2300867659846256e-002, 1.9590054228096170e-003,
             2.7438860255080970e-003, 3.3524549220049454e-003,
             1.3145295070568297e-003, 1.2261206622753198e-002,
             9.8393024029237979e-004, 1.0467451889890696e-003,
             3.0913179734699857e-004, 2.8560904478034567e-006,
             1.7249245507935832e-006, 1.7005401127888840e-009,
             5.5794453984588128e-007, -3.2410213311501402e-011,
             -5.2435602241654279e-007, -8.5917946470297049e-008,
             -1.2280703451067308e-007, -1.3695203674845583e-007,
             -5.7946009716284506e-008, -5.3220207117347887e-007,
             -4.8468756783119835e-008, -4.5871204687545312e-008,
             -1.3579583228908592e-008, -1.8399736784830543e-010,
             -1.0517724018607288e-010, -1.2348389531036926e-013,
             -3.2410213311501402e-011, 4.3546056398333438e-014 ]
      - !!opencv-matrix
         rows: 14
         cols: 14
         dt: d
         data: [ 2.1805117794376270e+002, 6.7319831382778233e+001,
             1.0091786562690302e+002, 1.3014199196315860e+002,
             7.3163564793237953e+001, 2.2379313550673777e+002,
             4.9761295702036463e+001, 2.1790234384206681e+001,
             1.6105870427293294e+000, 2.4443665849276493e-002,
             8.5415051977869999e-003, 2.1571906758515299e-006,
             1.1027475046136743e-003, 2.3477906942293363e-008,
             6.7319831382778233e+001, 2.2188337976915136e+001,
             3.2867674220327416e+001, 4.2399922507587505e+001,
             2.4371661006239510e+001, 7.0400516217853919e+001,
             1.6508058672315379e+001, 6.9526448705721524e+000,
             4.7401380765714962e-001, 7.1557091996023673e-003,
             2.4009828228764318e-003, 5.8489630482232292e-007,
             3.0361282141213935e-004, 6.0970743688518793e-009,
             1.0091786562690302e+002, 3.2867674220327416e+001,
             4.8818629653215567e+001, 6.2966216711895520e+001,
             3.6040413746969428e+001, 1.0525399918573785e+002,
             2.4437806689156961e+001, 1.0366120417645066e+001,
             7.1748889887933687e-001, 1.0854758052369972e-002,
             3.6693179711321383e-003, 8.9964543552448513e-007,
             4.6578858808592866e-004, 9.5620850415667477e-009,
             1.3014199196315860e+002, 4.2399922507587505e+001,
             6.2966216711895520e+001, 8.1337780490330005e+001,
             4.6502495986272955e+001, 1.3569914073333103e+002,
             3.1458964868737983e+001, 1.3367885037795736e+001,
             9.2245147878764511e-001, 1.4158367443447275e-002,
             4.7680056060271795e-003, 1.1748220438889359e-006,
             6.0369231064299805e-004, 1.3079128824269405e-008,
             7.3163564793237953e+001, 2.4371661006239510e+001,
             3.6040413746969428e+001, 4.6502495986272955e+001,
             2.6829802782281853e+001, 7.6712170792303468e+001,
             1.8158359740077035e+001, 7.5952782283151006e+000,
             5.0940564740915173e-001, 7.6684351728804681e-003,
             2.5437947754162536e-003, 6.1348342973258901e-007,
             3.1954875003236641e-004, 6.3326359803960330e-009,
             2.2379313550673777e+002, 7.0400516217853919e+001,
             1.0525399918573785e+002, 1.3569914073333103e+002,
             7.6712170792303468e+001, 2.3146992006167994e+002,
             5.2149120099810766e+001, 2.2614140708950963e+001,
             1.6408629233528786e+000, 2.5025420642788680e-002,
             8.6930070103817016e-003, 2.1877113616415274e-006,
             1.1199521985747862e-003, 2.4781222213593314e-008,
             4.9761295702036463e+001, 1.6508058672315379e+001,
             2.4437806689156961e+001, 3.1458964868737983e+001,
             1.8158359740077035e+001, 5.2149120099810766e+001,
             1.2347212676432395e+001, 5.1567166101807658e+000,
             3.4798098440323388e-001, 5.1525484764026576e-003,
             1.7193303893733407e-003, 4.1156702631968245e-007,
             2.1656739537317959e-004, 3.9627934012940620e-009,
             2.1790234384206681e+001, 6.9526448705721524e+000,
             1.0366120417645066e+001, 1.3367885037795736e+001,
             7.5952782283151006e+000, 2.2614140708950963e+001,
             5.1567166101807658e+000, 2.2167360540682424e+000,
             1.5791714896666895e-001, 2.4056862596963779e-003,
             8.2681363925946668e-004, 2.0627633314339654e-007,
             1.0594752657657826e-004, 2.2995912626274939e-009,
             1.6105870427293294e+000, 4.7401380765714962e-001,
             7.1748889887933687e-001, 9.2245147878764511e-001,
             5.0940564740915173e-001, 1.6408629233528786e+000,
             3.4798098440323388e-001, 1.5791714896666895e-001,
             1.2655621711617767e-002, 1.9000196668137690e-004,
             6.9843973761156766e-005, 1.8335907071650533e-008,
             9.3034876950954800e-006, 2.1655719802270510e-010,
             2.4443665849276493e-002, 7.1557091996023673e-003,
             1.0854758052369972e-002, 1.4158367443447275e-002,
             7.6684351728804681e-003, 2.5025420642788680e-002,
             5.1525484764026576e-003, 2.4056862596963779e-003,
             1.9000196668137690e-004, 4.6981409103274243e-006,
             1.6059818533385515e-006, 5.0325083423265214e-010,
             2.0826563344994283e-007, 1.4594347603857890e-011,
             8.5415051977869999e-003, 2.4009828228764318e-003,
             3.6693179711321383e-003, 4.7680056060271795e-003,
             2.5437947754162536e-003, 8.6930070103817016e-003,
             1.7193303893733407e-003, 8.2681363925946668e-004,
             6.9843973761156766e-005, 1.6059818533385515e-006,
             5.8752210505787810e-007, 1.8276758702869432e-010,
             7.8568315963739050e-008, 4.1086397782478682e-012,
             2.1571906758515299e-006, 5.8489630482232292e-007,
             8.9964543552448513e-007, 1.1748220438889359e-006,
             6.1348342973258901e-007, 2.1877113616415274e-006,
             4.1156702631968245e-007, 2.0627633314339654e-007,
             1.8335907071650533e-008, 5.0325083423265214e-010,
             1.8276758702869432e-010, 6.6432150539087378e-014,
             2.4698185507236705e-011, 2.4835387138190689e-015,
             1.1027475046136743e-003, 3.0361282141213935e-004,
             4.6578858808592866e-004, 6.0369231064299805e-004,
             3.1954875003236641e-004, 1.1199521985747862e-003,
             2.1656739537317959e-004, 1.0594752657657826e-004,
             9.3034876950954800e-006, 2.0826563344994283e-007,
             7.8568315963739050e-008, 2.4698185507236705e-011,
             1.0682821701244857e-008, 5.1764783726825693e-013,
             2.3477906942293363e-008, 6.0970743688518793e-009,
             9.5620850415667477e-009, 1.3079128824269405e-008,
             6.3326359803960330e-009, 2.4781222213593314e-008,
             3.9627934012940620e-009, 2.2995912626274939e-009,
             2.1655719802270510e-010, 1.4594347603857890e-011,
             4.1086397782478682e-012, 2.4835387138190689e-015,
             5.1764783726825693e-013, 4.3484083231461998e-016 ]
      - !!opencv-matrix
         rows: 14
         cols: 14
         dt: d
         data: [ 3.7553983909660019e+002, 1.0260025530392734e+002,
             1.4734022258706426e+002, 1.6538842321522355e+002,
             1.0353984238844241e+002, 3.5657560932781985e+002,
             8.4707141505702495e+001, 3.3701873932219648e+001,
             3.7726886039648728e+000, 1.1180404913425998e-002,
             3.1848619652473666e-003, 2.6478824005252975e-007,
             4.5259554844123456e-004, -2.4526557804518117e-009,
             1.0260025530392734e+002, 2.8352645983201661e+001,
             4.0647020910195238e+001, 4.5594269139783528e+001,
             2.8767822697412964e+001, 9.7505995996940172e+001,
             2.3555718167962489e+001, 9.2396148079940978e+000,
             1.0161574861159703e+000, 3.0719317512154449e-003,
             8.6428194901414445e-004, 7.1017466665574683e-008,
             1.2172832380222358e-004, -6.0943610832883611e-010,
             1.4734022258706426e+002, 4.0647020910195238e+001,
             5.8311229845383465e+001, 6.5414464788778631e+001,
             4.1225614309467275e+001, 1.4001314441738677e+002,
             3.3754144328453648e+001, 1.3264434216647210e+001,
             1.4615388815179351e+000, 4.4351607515474472e-003,
             1.2494244971896756e-003, 1.0319455543064201e-007,
             1.7610442455328758e-004, -9.0935792321253323e-010,
             1.6538842321522355e+002, 4.5594269139783528e+001,
             6.5414464788778631e+001, 7.3407440625944389e+001,
             4.6227599786147955e+001, 1.5716548803471471e+002,
             3.7827352402171691e+001, 1.4886932349458052e+001,
             1.6423188169532501e+000, 4.9941026854642334e-003,
             1.4053433135074120e-003, 1.1624461294959374e-007,
             1.9797209738163548e-004, -1.0150466461925829e-009,
             1.0353984238844241e+002, 2.8767822697412964e+001,
             4.1225614309467275e+001, 4.6227599786147955e+001,
             2.9275665381459564e+001, 9.8441817903695181e+001,
             2.3983052597060738e+001, 9.3411932657611771e+000,
             1.0176891655479519e+000, 3.1206519073911278e-003,
             8.7207550612910210e-004, 7.1355491867264250e-008,
             1.2220433380847297e-004, -6.0006281616806745e-010,
             3.5657560932781985e+002, 9.7505995996940172e+001,
             1.4001314441738677e+002, 1.5716548803471471e+002,
             9.8441817903695181e+001, 3.3864638659462850e+002,
             8.0531537446000272e+001, 3.2013622601905993e+001,
             3.5798335198016962e+000, 1.0680441066791677e-002,
             3.0391187755619371e-003, 2.5345174410502828e-007,
             4.3155225295033188e-004, -2.2601011010050207e-009,
             8.4707141505702495e+001, 2.3555718167962489e+001,
             3.3754144328453648e+001, 3.7827352402171691e+001,
             2.3983052597060738e+001, 8.0531537446000272e+001,
             1.9668784755216006e+001, 7.6433695223087437e+000,
             8.3121392429731222e-001, 2.5389069508031849e-003,
             7.1119770769068839e-004, 5.8016963184812114e-008,
             9.9785858566127882e-005, -4.7803751449961769e-010,
             3.3701873932219648e+001, 9.2396148079940978e+000,
             1.3264434216647210e+001, 1.4886932349458052e+001,
             9.3411932657611771e+000, 3.2013622601905993e+001,
             7.6433695223087437e+000, 3.0283441343870194e+000,
             3.3719284212542355e-001, 1.0132109835606902e-003,
             2.8748396859322369e-004, 2.3958152361079386e-008,
             4.0736815210972353e-005, -2.1568750110930993e-010,
             3.7726886039648728e+000, 1.0161574861159703e+000,
             1.4615388815179351e+000, 1.6423188169532501e+000,
             1.0176891655479519e+000, 3.5798335198016962e+000,
             8.3121392429731222e-001, 3.3719284212542355e-001,
             3.8673978289979691e-002, 1.1233587730393427e-004,
             3.2533636886696866e-005, 2.7721400370237356e-009,
             4.6796494329999459e-006, -2.8401080510640128e-011,
             1.1180404913425998e-002, 3.0719317512154449e-003,
             4.4351607515474472e-003, 4.9941026854642334e-003,
             3.1206519073911278e-003, 1.0680441066791677e-002,
             2.5389069508031849e-003, 1.0132109835606902e-003,
             1.1233587730393427e-004, 6.4344527093313443e-007,
             1.9014725159830365e-007, 2.1779499065807588e-011,
             2.7696579346666942e-008, 1.7835379904279286e-013,
             3.1848619652473666e-003, 8.6428194901414445e-004,
             1.2494244971896756e-003, 1.4053433135074120e-003,
             8.7207550612910210e-004, 3.0391187755619371e-003,
             7.1119770769068839e-004, 2.8748396859322369e-004,
             3.2533636886696866e-005, 1.9014725159830365e-007,
             6.1648467438946989e-008, 7.6484823607327172e-012,
             9.4913583477244026e-009, 1.2594185071995566e-013,
             2.6478824005252975e-007, 7.1017466665574683e-008,
             1.0319455543064201e-007, 1.1624461294959374e-007,
             7.1355491867264250e-008, 2.5345174410502828e-007,
             5.8016963184812114e-008, 2.3958152361079386e-008,
             2.7721400370237356e-009, 2.1779499065807588e-011,
             7.6484823607327172e-012, 1.1894757058924819e-015,
             1.2324260761795268e-012, 3.3974225917744233e-017,
             4.5259554844123456e-004, 1.2172832380222358e-004,
             1.7610442455328758e-004, 1.9797209738163548e-004,
             1.2220433380847297e-004, 4.3155225295033188e-004,
             9.9785858566127882e-005, 4.0736815210972353e-005,
             4.6796494329999459e-006, 2.7696579346666942e-008,
             9.4913583477244026e-009, 1.2324260761795268e-012,
             1.5067045966862456e-009, 2.4076977589052931e-014,
             -2.4526557804518117e-009, -6.0943610832883611e-010,
             -9.0935792321253323e-010, -1.0150466461925829e-009,
             -6.0006281616806745e-010, -2.2601011010050207e-009,
             -4.7803751449961769e-010, -2.1568750110930993e-010,
             -2.8401080510640128e-011, 1.7835379904279286e-013,
             1.2594185071995566e-013, 3.3974225917744233e-017,
             2.4076977589052931e-014, 9.7100189229503021e-018 ]
      - !!opencv-matrix
         rows: 14
         cols: 14
         dt: d
         data: [ 3.0075917525440940e+002, 8.8631436071279211e+001,
             1.2524011622801622e+002, 1.4680609762393726e+002,
             9.2235495519061288e+001, 2.8685732854499679e+002,
             7.2030202432048952e+001, 2.7499889665835276e+001,
             2.5069724694252695e+000, 9.3235473162317402e-003,
             1.4267133747418092e-003, 5.9439571097751183e-008,
             9.6126705072890217e-005, -6.5530977447240491e-009,
             8.8631436071279211e+001, 2.6281772768797609e+001,
             3.7079731911645759e+001, 4.3404267780988278e+001,
             2.7392312580689374e+001, 8.4596976005075462e+001,
             2.1424031962302013e+001, 8.1204710680137921e+000,
             7.3524360161630331e-001, 2.7574276396292656e-003,
             4.1967476283795489e-004, 1.7325942002073732e-008,
             2.8236357290713256e-005, -1.9484257105194436e-009,
             1.2524011622801622e+002, 3.7079731911645759e+001,
             5.2384925152410887e+001, 6.1366773797837212e+001,
             3.8665448446815503e+001, 1.1951464783970457e+002,
             3.0213009678561409e+001, 1.1472547869179706e+001,
             1.0373683310368378e+000, 3.8985722484240590e-003,
             5.9467139912994823e-004, 2.4723796779465938e-008,
             4.0170221822101110e-005, -2.9727841247036437e-009,
             1.4680609762393726e+002, 4.3404267780988278e+001,
             6.1366773797837212e+001, 7.1986498176521167e+001,
             4.5268421959681675e+001, 1.4007197203680539e+002,
             3.5302438698522707e+001, 1.3444843987546099e+001,
             1.2157096891816512e+000, 4.5776038083207224e-003,
             6.9993417429714273e-004, 2.9397693595698579e-008,
             4.7483062812597320e-005, -3.7551279744549072e-009,
             9.2235495519061288e+001, 2.7392312580689374e+001,
             3.8665448446815503e+001, 4.5268421959681675e+001,
             2.8588234334562685e+001, 8.8035005389170095e+001,
             2.2350521724763183e+001, 8.4564534632810577e+000,
             7.6200488373033715e-001, 2.8676991540150538e-003,
             4.3616857993860784e-004, 1.8014839691956634e-008,
             2.9440214484927651e-005, -2.0995069694962766e-009,
             2.8685732854499679e+002, 8.4596976005075462e+001,
             1.1951464783970457e+002, 1.4007197203680539e+002,
             8.8035005389170095e+001, 2.7373057993087070e+002,
             6.8766150091858563e+001, 2.6242236112914441e+001,
             2.3924872070300474e+000, 8.9460571760468736e-003,
             1.3671886892118042e-003, 5.7085811276589637e-008,
             9.1887708810026294e-005, -6.5043569818442098e-009,
             7.2030202432048952e+001, 2.1424031962302013e+001,
             3.0213009678561409e+001, 3.5302438698522707e+001,
             2.2350521724763183e+001, 6.8766150091858563e+001,
             1.7529423306349912e+001, 6.6055336576445391e+000,
             5.9525558104853493e-001, 2.2506786576637046e-003,
             3.4185447046835931e-004, 1.4043051127584363e-008,
             2.2971698463556958e-005, -1.4615169415888197e-009,
             2.7499889665835276e+001, 8.1204710680137921e+000,
             1.1472547869179706e+001, 1.3444843987546099e+001,
             8.4564534632810577e+000, 2.6242236112914441e+001,
             6.6055336576445391e+000, 2.5169453834818958e+000,
             2.2884224532890235e-001, 8.5865679853540334e-004,
             1.3116052360683550e-004, 5.4799027721452088e-009,
             8.8311572420504103e-006, -6.3793575099035012e-010,
             2.5069724694252695e+000, 7.3524360161630331e-001,
             1.0373683310368378e+000, 1.2157096891816512e+000,
             7.6200488373033715e-001, 2.3924872070300474e+000,
             5.9525558104853493e-001, 2.2884224532890235e-001,
             2.1224795792975551e-002, 7.7186205571317648e-005,
             1.1774430289198562e-005, 4.8406941682665513e-010,
             7.7825596764494631e-007, -4.7124237768792768e-011,
             9.3235473162317402e-003, 2.7574276396292656e-003,
             3.8985722484240590e-003, 4.5776038083207224e-003,
             2.8676991540150538e-003, 8.9460571760468736e-003,
             2.2506786576637046e-003, 8.5865679853540334e-004,
             7.7186205571317648e-005, 5.5210168438833120e-007,
             8.3430912947976431e-008, 4.6536556961493492e-012,
             5.2216050727019126e-009, -3.1044041395185937e-013,
             1.4267133747418092e-003, 4.1967476283795489e-004,
             5.9467139912994823e-004, 6.9993417429714273e-004,
             4.3616857993860784e-004, 1.3671886892118042e-003,
             3.4185447046835931e-004, 1.3116052360683550e-004,
             1.1774430289198562e-005, 8.3430912947976431e-008,
             1.4821331734272115e-008, 9.6054977169487208e-013,
             1.2470421546182543e-009, -1.4947451677605169e-013,
             5.9439571097751183e-008, 1.7325942002073732e-008,
             2.4723796779465938e-008, 2.9397693595698579e-008,
             1.8014839691956634e-008, 5.7085811276589637e-008,
             1.4043051127584363e-008, 5.4799027721452088e-009,
             4.8406941682665513e-010, 4.6536556961493492e-012,
             9.6054977169487208e-013, 7.7997998983765224e-017,
             9.6338655520157506e-014, -1.7206587258216448e-017,
             9.6126705072890217e-005, 2.8236357290713256e-005,
             4.0170221822101110e-005, 4.7483062812597320e-005,
             2.9440214484927651e-005, 9.1887708810026294e-005,
             2.2971698463556958e-005, 8.8311572420504103e-006,
             7.7825596764494631e-007, 5.2216050727019126e-009,
             1.2470421546182543e-009, 9.6338655520157506e-014,
             1.4618984858156122e-010, -2.4393543282843771e-014,
             -6.5530977447240491e-009, -1.9484257105194436e-009,
             -2.9727841247036437e-009, -3.7551279744549072e-009,
             -2.0995069694962766e-009, -6.5043569818442098e-009,
             -1.4615169415888197e-009, -6.3793575099035012e-010,
             -4.7124237768792768e-011, -3.1044041395185937e-013,
             -1.4947451677605169e-013, -1.7206587258216448e-017,
             -2.4393543282843771e-014, 2.5791471112551636e-017 ]
      - !!opencv-matrix
         rows: 14
         cols: 14
         dt: d
         data: [ 7.4892770137709726e+002, 1.4093389368421674e+002,
             1.9250570071098781e+002, 2.1783726745643858e+002,
             1.0319730813882600e+002, 7.3543322948237346e+002,
             8.3571606537800221e+001, 6.3099994456106025e+001,
             1.5565894348289888e+001, 1.0327939878405842e-001,
             2.0873933022640397e-002, 6.7580004102581561e-006,
             1.0232364686383010e-003, 8.7499619217807597e-006,
             1.4093389368421674e+002, 2.6910933905698798e+001,
             3.6811393862038329e+001, 4.1600715933703412e+001,
             1.9946427422810689e+001, 1.3801915525635519e+002,
             1.6159802614185999e+001, 1.1877600595083502e+001,
             2.8570802803905071e+000, 1.6857407152100823e-002,
             3.4696923751209863e-003, 1.0574689856798433e-006,
             2.0654045552130843e-004, 1.0745537710952679e-006,
             1.9250570071098781e+002, 3.6811393862038329e+001,
             5.0385730868739785e+001, 5.6924799244557725e+001,
             2.7330610916026103e+001, 1.8843862289230054e+002,
             2.2147280435509515e+001, 1.6223840666121205e+001,
             3.8896802897584095e+000, 2.2590595055435377e-002,
             4.6795208867244538e-003, 1.4368338111753819e-006,
             2.9165036364846541e-004, 1.3831273862806658e-006,
             2.1783726745643858e+002, 4.1600715933703412e+001,
             5.6924799244557725e+001, 6.4380212524617079e+001,
             3.0852034832532393e+001, 2.1333868236963110e+002,
             2.4961779401762389e+001, 1.8360448803526907e+001,
             4.4131407700471375e+000, 2.6020649687794370e-002,
             5.3467595301660417e-003, 1.6240773288136126e-006,
             3.1525766691751741e-004, 1.6667018904347136e-006,
             1.0319730813882600e+002, 1.9946427422810689e+001,
             2.7330610916026103e+001, 3.0852034832532393e+001,
             1.4944401675183062e+001, 1.0083079709054537e+002,
             1.2113426263685009e+001, 8.7006377917774298e+000,
             2.0476363040578001e+000, 1.0862026099733618e-002,
             2.2775188132379423e-003, 6.6422270337200937e-007,
             1.5716577348023710e-004, 5.2995140409514373e-007,
             7.3543322948237346e+002, 1.3801915525635519e+002,
             1.8843862289230054e+002, 2.1333868236963110e+002,
             1.0083079709054537e+002, 7.2296219124062532e+002,
             8.1639363208546428e+001, 6.1987716256818004e+001,
             1.5378552487490158e+001, 1.0581275827406489e-001,
             2.1218059035944994e-002, 6.9709001643733075e-006,
             9.5262671170359139e-004, 9.6128994097877362e-006,
             8.3571606537800221e+001, 1.6159802614185999e+001,
             2.2147280435509515e+001, 2.4961779401762389e+001,
             1.2113426263685009e+001, 8.1639363208546428e+001,
             9.8457618463325431e+000, 7.0463631054230431e+000,
             1.6574551972552407e+000, 8.8364133132918417e-003,
             1.8614960345566865e-003, 5.5787166897073440e-007,
             1.3048372329622787e-004, 4.5620749139843057e-007,
             6.3099994456106025e+001, 1.1877600595083502e+001,
             1.6223840666121205e+001, 1.8360448803526907e+001,
             8.7006377917774298e+000, 6.1987716256818004e+001,
             7.0463631054230431e+000, 5.3189910730515715e+000,
             1.3127390796075842e+000, 8.8222339844780569e-003,
             1.7787244164297951e-003, 5.8147288421089941e-007,
             8.4515547328905613e-005, 7.7572301662407174e-007,
             1.5565894348289888e+001, 2.8570802803905071e+000,
             3.8896802897584095e+000, 4.4131407700471375e+000,
             2.0476363040578001e+000, 1.5378552487490158e+001,
             1.6574551972552407e+000, 1.3127390796075842e+000,
             3.3879100713236432e-001, 2.7478246293636981e-003,
             5.3782177913988918e-004, 1.9063309312474498e-007,
             1.6024916810397295e-005, 3.3588861944181386e-007,
             1.0327939878405842e-001, 1.6857407152100823e-002,
             2.2590595055435377e-002, 2.6020649687794370e-002,
             1.0862026099733618e-002, 1.0581275827406489e-001,
             8.8364133132918417e-003, 8.8222339844780569e-003,
             2.7478246293636981e-003, 5.0580112203959056e-005,
             8.8403114380097333e-006, 3.7655854167361904e-009,
             -2.7101554876212991e-007, 9.6042140527157240e-009,
             2.0873933022640397e-002, 3.4696923751209863e-003,
             4.6795208867244538e-003, 5.3467595301660417e-003,
             2.2775188132379423e-003, 2.1218059035944994e-002,
             1.8614960345566865e-003, 1.7787244164297951e-003,
             5.3782177913988918e-004, 8.8403114380097333e-006,
             1.8022611338723125e-006, 9.9598455848473887e-010,
             6.5297533860026492e-008, 1.4587681589934176e-009,
             6.7580004102581561e-006, 1.0574689856798433e-006,
             1.4368338111753819e-006, 1.6240773288136126e-006,
             6.6422270337200937e-007, 6.9709001643733075e-006,
             5.5787166897073440e-007, 5.8147288421089941e-007,
             1.9063309312474498e-007, 3.7655854167361904e-009,
             9.9598455848473887e-010, 8.8452755909332670e-013,
             1.2453148913734500e-010, 5.2876244982972677e-013,
             1.0232364686383010e-003, 2.0654045552130843e-004,
             2.9165036364846541e-004, 3.1525766691751741e-004,
             1.5716577348023710e-004, 9.5262671170359139e-004,
             1.3048372329622787e-004, 8.4515547328905613e-005,
             1.6024916810397295e-005, -2.7101554876212991e-007,
             6.5297533860026492e-008, 1.2453148913734500e-010,
             5.2889529937647795e-008, -2.0499303658806635e-010,
             8.7499619217807597e-006, 1.0745537710952679e-006,
             1.3831273862806658e-006, 1.6667018904347136e-006,
             5.2995140409514373e-007, 9.6128994097877362e-006,
             4.5620749139843057e-007, 7.7572301662407174e-007,
             3.3588861944181386e-007, 9.6042140527157240e-009,
             1.4587681589934176e-009, 5.2876244982972677e-013,
             -2.0499303658806635e-010, 3.7411825779904832e-012 ]
      - !!opencv-matrix
         rows: 14
         cols: 14
         dt: d
         data: [ 3.4067016894038858e+002, 1.2747117559521769e+002,
             1.5617430629056727e+002, 1.6820058946774986e+002,
             1.2646864798043134e+002, 3.4084733167772475e+002,
             1.1038524922460209e+002, 3.2835764962114766e+001,
             2.8570347349618324e+000, 9.3620823395763955e-003,
             1.7161672413885448e-003, 1.2447637283275746e-007,
             2.1160478956023900e-004, 1.0621400803840647e-009,
             1.2747117559521769e+002, 4.7964174349109442e+001,
             5.8783504219527501e+001, 6.3311103593382434e+001,
             4.7734561638295659e+001, 1.2755358516999135e+002,
             4.1661112239104831e+001, 1.2315179928624534e+001,
             1.0573310180818658e+000, 3.4979091329658280e-003,
             6.3191678363047870e-004, 4.4773947140784930e-008,
             7.7221121031066935e-005, 3.6209663733388392e-010,
             1.5617430629056727e+002, 5.8783504219527501e+001,
             7.2112315278997841e+001, 7.7671279304656082e+001,
             5.8578424029907396e+001, 1.5625964835598671e+002,
             5.1118052716731427e+001, 1.5095864707190476e+001,
             1.2921899837831510e+000, 4.4175529465097074e-003,
             7.9928058401104935e-004, 5.8465315635702143e-008,
             9.7552328682373775e-005, 4.0308295292968795e-010,
             1.6820058946774986e+002, 6.3311103593382434e+001,
             7.7671279304656082e+001, 8.3662645979045820e+001,
             6.3095399992564602e+001, 1.6829032261279087e+002,
             5.5055008653616355e+001, 1.6258765907208609e+001,
             1.3914397759988697e+000, 4.7662756236669795e-003,
             8.6237741576788225e-004, 6.3236878296860676e-008,
             1.0523173923046571e-004, 4.2773051862712934e-010,
             1.2646864798043134e+002, 4.7734561638295659e+001,
             5.8578424029907396e+001, 6.3095399992564602e+001,
             4.7653535624756969e+001, 1.2653534859147706e+002,
             4.1581690794080927e+001, 1.2239130045694505e+001,
             1.0400706371317661e+000, 3.5793626123907353e-003,
             6.4280445286651715e-004, 4.6558523396676160e-008,
             7.8059804880851861e-005, 2.9816430700972110e-010,
             3.4084733167772475e+002, 1.2755358516999135e+002,
             1.5625964835598671e+002, 1.6829032261279087e+002,
             1.2653534859147706e+002, 3.4107492966535182e+002,
             1.1044703886889877e+002, 3.2856310554119005e+001,
             2.8596320100537440e+000, 9.3826627474949270e-003,
             1.7213938608225323e-003, 1.2489512461525798e-007,
             2.1244705505897471e-004, 1.1504824873142596e-009,
             1.1038524922460209e+002, 4.1661112239104831e+001,
             5.1118052716731427e+001, 5.5055008653616355e+001,
             4.1581690794080927e+001, 1.1044703886889877e+002,
             3.6289477102692956e+001, 1.0681877311779726e+001,
